{
    "items": [
        {
            "neurons": [
                {
                    "weights": [
                        0.18815648555755616,
                        -0.13791249692440034,
                        -0.15985552966594697,
                        -0.18680240213871003,
                        -0.10921481251716614,
                        -0.1733737587928772,
                        0.3794384002685547,
                        -0.19066251814365388,
                        0.14177386462688447,
                        -0.12009116262197495,
                        -0.38981154561042788,
                        0.1012175902724266,
                        0.17289143800735475,
                        -0.33655673265457156,
                        0.09114014357328415,
                        0.15855655074119569,
                        -0.0796544998884201,
                        0.23516522347927094,
                        -0.09522954374551773,
                        -0.1679932177066803,
                        0.0402580164372921
                    ],
                    "bias": -0.19791929423809052
                },
                {
                    "weights": [
                        -0.12189539521932602,
                        -0.05319208651781082,
                        0.2167573869228363,
                        0.16881121695041657,
                        -0.044754672795534137,
                        0.20581084489822389,
                        0.05465998873114586,
                        -0.13039766252040864,
                        0.09055379033088684,
                        -0.15072962641716004,
                        -0.02835618145763874,
                        0.2677430212497711,
                        -0.13768425583839417,
                        -0.009114556014537812,
                        0.0860154777765274,
                        0.014475900679826737,
                        0.04804987832903862,
                        0.21795739233493806,
                        0.19473759829998017,
                        0.1732609122991562,
                        -0.0580156072974205
                    ],
                    "bias": -0.07996165007352829
                },
                {
                    "weights": [
                        0.11990252137184143,
                        0.13001736998558045,
                        0.21762719750404359,
                        0.009046785533428193,
                        -0.19352582097053529,
                        0.1685210019350052,
                        0.33093589544296267,
                        -0.21759513020515443,
                        0.09620261192321778,
                        -0.1428561508655548,
                        0.08261187374591828,
                        0.20085136592388154,
                        0.12665246427059174,
                        -0.08777973800897598,
                        -0.20306818187236787,
                        0.004569021053612232,
                        0.06862243264913559,
                        0.20571476221084596,
                        0.21249368786811829,
                        -0.2216220200061798,
                        -0.3858279585838318
                    ],
                    "bias": -0.26677900552749636
                },
                {
                    "weights": [
                        -0.06005510315299034,
                        0.09360475093126297,
                        -0.06828948855400086,
                        -0.0043060630559921268,
                        0.052669547498226169,
                        0.41309723258018496,
                        -0.10015681385993958,
                        -0.2634647786617279,
                        -0.05645724758505821,
                        -0.021861078217625619,
                        0.23889708518981934,
                        -0.0604487843811512,
                        0.0009698810172267258,
                        0.006725356914103031,
                        0.1755973994731903,
                        0.09793812781572342,
                        0.047738511115312579,
                        0.3563741147518158,
                        0.029509415850043298,
                        0.11650945246219635,
                        0.0389668233692646
                    ],
                    "bias": -0.1600683033466339
                },
                {
                    "weights": [
                        0.20171543955802918,
                        0.43203791975975039,
                        -0.139132559299469,
                        -0.09134981036186218,
                        -0.041357193142175677,
                        0.24376021325588227,
                        0.08790411055088043,
                        0.04996950924396515,
                        0.0733039379119873,
                        -0.08802228420972824,
                        0.06062662973999977,
                        -0.21763236820697785,
                        0.001356956665404141,
                        0.13738714158535005,
                        -0.22386786341667176,
                        -0.20462800562381745,
                        -0.15595267713069917,
                        0.09704768657684326,
                        0.11316173523664475,
                        0.17698562145233155,
                        0.01178392581641674
                    ],
                    "bias": 0.294460266828537
                },
                {
                    "weights": [
                        -0.013992493972182274,
                        -0.1534411609172821,
                        0.004022034350782633,
                        0.036446891725063327,
                        0.1008295789361,
                        -0.20386266708374024,
                        -0.1393488049507141,
                        0.26627492904663088,
                        -0.1517888456583023,
                        -0.5,
                        0.24826233088970185,
                        -0.01094318088144064,
                        0.10840577632188797,
                        -0.1388556957244873,
                        -0.2905803620815277,
                        0.0043951841071248058,
                        0.07753396034240723,
                        -0.1274649202823639,
                        0.05068609118461609,
                        0.04334019869565964,
                        0.08805330842733383
                    ],
                    "bias": -0.15161721408367158
                },
                {
                    "weights": [
                        0.2599765956401825,
                        0.40727072954177859,
                        -0.18178214132785798,
                        0.08958817273378372,
                        -0.1874079704284668,
                        -0.2543973922729492,
                        -0.23785048723220826,
                        0.19459350407123567,
                        0.0053337858989834789,
                        -0.2917071580886841,
                        0.06379178166389466,
                        0.250348299741745,
                        -0.042375583201646808,
                        -0.04204783961176872,
                        0.015198839828372002,
                        0.1296619027853012,
                        -0.01389072835445404,
                        -0.14524200558662415,
                        -0.08403308689594269,
                        0.22533822059631349,
                        0.21630233526229859
                    ],
                    "bias": -0.3889220356941223
                },
                {
                    "weights": [
                        0.13086330890655518,
                        0.09495705366134644,
                        -0.06953679770231247,
                        0.018569694831967355,
                        -0.020164506509900094,
                        -0.23832368850708009,
                        -0.19429424405097962,
                        0.14101660251617433,
                        0.11436276137828827,
                        -0.24469724297523499,
                        -0.28260114789009097,
                        -0.19335037469863892,
                        0.20354539155960084,
                        -0.11219461262226105,
                        0.05665198713541031,
                        0.3005048930644989,
                        0.019211295992136,
                        -0.11412614583969116,
                        -0.08011972904205322,
                        -0.0805528312921524,
                        0.03704360872507095
                    ],
                    "bias": -0.3805679976940155
                },
                {
                    "weights": [
                        0.017855040729045869,
                        -0.009527457877993584,
                        0.31716394424438479,
                        0.09076768904924393,
                        -0.04733777046203613,
                        0.06896421313285828,
                        0.019032280892133714,
                        -0.1208057627081871,
                        0.19689689576625825,
                        -0.10062338411808014,
                        -0.13260360062122346,
                        -0.07827145606279373,
                        -0.4837985932826996,
                        -0.1942521184682846,
                        -0.02392839826643467,
                        -0.027351869270205499,
                        -0.10089632868766785,
                        -0.02329428866505623,
                        0.13711243867874146,
                        -0.01846679113805294,
                        -0.20687852799892426
                    ],
                    "bias": 0.31064337491989138
                },
                {
                    "weights": [
                        0.08036275953054428,
                        -0.08158644288778305,
                        0.015014014206826687,
                        -0.0500623881816864,
                        -0.21838898956775666,
                        -0.1375827044248581,
                        -0.20953795313835145,
                        -0.14992748200893403,
                        -0.21718618273735047,
                        0.07853738218545914,
                        -0.20763228833675385,
                        0.17899295687675477,
                        -0.036300066858530048,
                        0.21266037225723267,
                        0.08704032003879547,
                        0.1726878136396408,
                        0.11564821749925614,
                        -0.14390981197357179,
                        -0.0942310243844986,
                        0.22167092561721803,
                        0.40671199560165408
                    ],
                    "bias": 0.10150746256113053
                },
                {
                    "weights": [
                        0.2340686023235321,
                        0.03674758970737457,
                        -0.10878787934780121,
                        -0.24144773185253144,
                        -0.039948608726263049,
                        0.008669366128742695,
                        0.05648889020085335,
                        -0.24927036464214326,
                        0.34167319536209109,
                        -0.04453486204147339,
                        -0.20420648157596589,
                        -0.11236950010061264,
                        0.021648187190294267,
                        -0.06805971264839173,
                        -0.1532171070575714,
                        -0.158912792801857,
                        0.0069792489521205429,
                        -0.18297947943210603,
                        0.21151714026927949,
                        -0.31242993474006655,
                        -0.027219342067837716
                    ],
                    "bias": 0.09792828559875488
                },
                {
                    "weights": [
                        -0.0100785531103611,
                        -0.08922387659549713,
                        -0.053988974541425708,
                        0.050914667546749118,
                        -0.034386858344078067,
                        -0.14858795702457429,
                        0.0891275405883789,
                        0.0919235572218895,
                        -0.020618246868252755,
                        -0.04502344876527786,
                        -0.08880847692489624,
                        -0.10119429975748062,
                        -0.06982261687517166,
                        0.0594637393951416,
                        0.0006452195229940116,
                        0.253471702337265,
                        0.09696612507104874,
                        0.10206577926874161,
                        0.09678273648023606,
                        -0.1378127783536911,
                        -0.01066586747765541
                    ],
                    "bias": -0.0054930513724684719
                },
                {
                    "weights": [
                        0.25745856761932375,
                        -0.045872677117586139,
                        -0.2720029056072235,
                        0.05639031156897545,
                        -0.10589893907308579,
                        -0.20187467336654664,
                        0.0597289502620697,
                        0.2118665874004364,
                        -0.025663549080491067,
                        -0.05723421275615692,
                        0.14456471800804139,
                        -0.21105292439460755,
                        -0.029727859422564508,
                        -0.08430781960487366,
                        -0.2671339213848114,
                        -0.1446624994277954,
                        -0.4075934886932373,
                        -0.016036557033658029,
                        0.10553935915231705,
                        -0.11198025196790695,
                        -0.01930733025074005
                    ],
                    "bias": -0.19689181447029115
                },
                {
                    "weights": [
                        0.047036416828632358,
                        -0.2887363135814667,
                        0.28223028779029848,
                        -0.040651578456163409,
                        -0.08741859346628189,
                        0.04829191416501999,
                        -0.1173611730337143,
                        -0.28819796442985537,
                        0.015182044357061386,
                        -0.11583825200796128,
                        -0.17598499357700349,
                        0.020826568827033044,
                        -0.12778295576572419,
                        0.2009655386209488,
                        0.36169475317001345,
                        -0.08191558718681336,
                        0.01589670218527317,
                        -0.060502879321575168,
                        0.14799490571022035,
                        -0.31543436646461489,
                        -0.19919560849666596
                    ],
                    "bias": -0.14009632170200349
                },
                {
                    "weights": [
                        -0.16867715120315553,
                        -0.0027586589567363264,
                        -0.025377415120601655,
                        -0.14161762595176698,
                        0.28351637721061709,
                        -0.023353485390543939,
                        -0.3542275130748749,
                        0.059168048202991489,
                        -0.03460869565606117,
                        -0.00351019948720932,
                        -0.20654362440109254,
                        -0.3455362617969513,
                        -0.06282564252614975,
                        -0.24714337289333344,
                        -0.7748033404350281,
                        0.04276606813073158,
                        0.38042131066322329,
                        -0.1815503090620041,
                        0.06224382296204567,
                        -0.14076095819473267,
                        0.09397338330745697
                    ],
                    "bias": -0.05498534440994263
                },
                {
                    "weights": [
                        0.15247078239917756,
                        -0.13208013772964478,
                        -0.03641352429986,
                        0.2123877853155136,
                        0.15138289332389832,
                        -0.13553690910339356,
                        0.0239429771900177,
                        0.008829842321574688,
                        0.01773887686431408,
                        0.05000992491841316,
                        -0.08356247842311859,
                        -0.18640384078025819,
                        0.07433374226093292,
                        0.07235000282526016,
                        -0.19955825805664063,
                        0.05314256250858307,
                        -0.09366519004106522,
                        0.2292623072862625,
                        0.3018277585506439,
                        0.028989873826503755,
                        -0.0018085901392623783
                    ],
                    "bias": 0.2826908528804779
                },
                {
                    "weights": [
                        -0.024897202849388124,
                        0.07976749539375305,
                        -0.0327472947537899,
                        -0.15542492270469666,
                        -0.004596059676259756,
                        -0.07244923710823059,
                        0.11065627634525299,
                        0.0516752265393734,
                        -0.12465228140354157,
                        0.12415724247694016,
                        -0.012865066528320313,
                        -0.2807626724243164,
                        0.23324552178382874,
                        -0.2667531371116638,
                        -0.003764847991988063,
                        0.2336731106042862,
                        -0.17289836704730988,
                        0.1408422291278839,
                        -0.28683915734291079,
                        0.16086417436599732,
                        -0.03205845132470131
                    ],
                    "bias": -0.056901853531599048
                },
                {
                    "weights": [
                        -0.02297927625477314,
                        -0.1261247843503952,
                        -0.005180706735700369,
                        0.021071605384349824,
                        -0.17277780175209046,
                        0.23149703443050385,
                        -0.0255559254437685,
                        -0.06256792694330216,
                        0.021019477397203447,
                        0.02626959979534149,
                        -0.31040850281715395,
                        0.08129584789276123,
                        0.08479312807321549,
                        -0.11295710504055023,
                        -0.16123752295970918,
                        0.18286551535129548,
                        -0.03688662871718407,
                        0.10618237406015396,
                        0.155229389667511,
                        0.26676952838897707,
                        -0.1064109206199646
                    ],
                    "bias": 0.03804372623562813
                },
                {
                    "weights": [
                        -0.41008302569389346,
                        -0.04537511616945267,
                        -0.05268296226859093,
                        -0.17304767668247224,
                        0.19244599342346192,
                        0.004451453220099211,
                        0.09075135737657547,
                        -0.10246890038251877,
                        -0.1537376493215561,
                        -0.24090665578842164,
                        0.002206781879067421,
                        0.0179955642670393,
                        0.02511257864534855,
                        0.14454807341098786,
                        0.009179231710731984,
                        -0.22019916772842408,
                        -0.1579100340604782,
                        0.19501212239265443,
                        -0.20931680500507356,
                        -0.08943399041891098,
                        -0.3497088551521301
                    ],
                    "bias": -0.2020653337240219
                },
                {
                    "weights": [
                        0.09165768325328827,
                        -0.37914425134658816,
                        0.25860098004341128,
                        0.09163585305213928,
                        0.11758791655302048,
                        -0.06063637137413025,
                        -0.13611450791358949,
                        -0.0698794350028038,
                        0.18754373490810395,
                        -0.12588350474834443,
                        0.0098810363560915,
                        -0.22888530790805818,
                        -0.19823375344276429,
                        -0.1694970428943634,
                        -0.0008145824540406466,
                        -0.12916728854179383,
                        -0.17868512868881226,
                        0.015837877988815309,
                        0.03852657973766327,
                        0.05588603392243385,
                        0.05620680749416351
                    ],
                    "bias": -0.15631981194019319
                },
                {
                    "weights": [
                        -0.14178180694580079,
                        -0.05786782130599022,
                        -0.1743728071451187,
                        0.11723655462265015,
                        0.14728599786758424,
                        -0.13956499099731446,
                        -0.03932219743728638,
                        -0.024961737915873529,
                        0.08337502181529999,
                        -0.116556815803051,
                        -0.07462233304977417,
                        0.17249655723571778,
                        0.19005438685417176,
                        0.006079823710024357,
                        -0.23441344499588014,
                        0.12321919202804566,
                        -0.007885958068072796,
                        -0.007584842387586832,
                        0.14766375720500947,
                        0.24727189540863038,
                        0.13656416535377503
                    ],
                    "bias": -0.1353863626718521
                },
                {
                    "weights": [
                        0.23110663890838624,
                        -0.06333351880311966,
                        -0.049629416316747668,
                        0.1139119490981102,
                        -0.18385091423988343,
                        -0.14465266466140748,
                        -0.13149933516979218,
                        0.29647964239120486,
                        -0.24011804163455964,
                        -0.19352057576179505,
                        -0.2032085508108139,
                        -0.09587061405181885,
                        0.3888840079307556,
                        0.16259047389030457,
                        -0.18079254031181336,
                        -0.2330194115638733,
                        0.03862886130809784,
                        0.03679791837930679,
                        -0.24696741998195649,
                        -0.0999460220336914,
                        -0.09141016751527786
                    ],
                    "bias": -0.10268890857696533
                },
                {
                    "weights": [
                        0.06856634467840195,
                        0.023470429703593255,
                        0.03865106403827667,
                        -0.18450555205345155,
                        -0.134894460439682,
                        0.39948806166648867,
                        -0.26902514696121218,
                        0.01739519275724888,
                        0.0677991583943367,
                        0.07790982723236084,
                        0.04717697575688362,
                        -0.10334291309118271,
                        -0.025191105902194978,
                        0.06063688173890114,
                        -0.4080694019794464,
                        0.05938490107655525,
                        -0.18308421969413758,
                        0.3772742748260498,
                        0.1706550419330597,
                        0.08497346937656403,
                        0.40231630206108096
                    ],
                    "bias": -0.062016766518354419
                },
                {
                    "weights": [
                        -0.2561509609222412,
                        0.16758567094802857,
                        -0.08172278851270676,
                        -0.04322737455368042,
                        0.1769910454750061,
                        -0.1754036843776703,
                        -0.13256172835826875,
                        0.06386715173721314,
                        -0.05762886255979538,
                        -0.06325560063123703,
                        -0.08874820172786713,
                        0.15022878348827363,
                        -0.10208933800458908,
                        0.10984110832214356,
                        0.0480121448636055,
                        0.045606791973114017,
                        -0.04789256304502487,
                        0.1741553395986557,
                        0.10683609545230866,
                        -0.03825395554304123,
                        -0.14207768440246583
                    ],
                    "bias": 0.080999456346035
                },
                {
                    "weights": [
                        0.15407881140708924,
                        -0.2511400580406189,
                        0.08289190381765366,
                        0.25349587202072146,
                        -0.22825881838798524,
                        0.048154380172491077,
                        0.18452584743499757,
                        -0.12440018355846405,
                        0.3184560537338257,
                        0.021109191700816156,
                        0.0031268273014575245,
                        -0.048922013491392139,
                        0.031204083934426309,
                        0.2161821722984314,
                        0.07356520742177963,
                        -0.04757456108927727,
                        0.1481235921382904,
                        -0.17062228918075562,
                        0.061121366918087009,
                        -0.07557205855846405,
                        0.10142174363136292
                    ],
                    "bias": 0.03203282132744789
                },
                {
                    "weights": [
                        -0.3351289927959442,
                        -0.4550541639328003,
                        -0.07918594032526016,
                        0.040626462548971179,
                        -0.11852221935987473,
                        0.19273336231708527,
                        -0.05918284133076668,
                        0.1730085015296936,
                        0.174496591091156,
                        -0.09081889688968659,
                        0.10442475974559784,
                        0.08755756169557572,
                        -0.018641775473952295,
                        0.3916085362434387,
                        -0.2141650915145874,
                        -0.13732481002807618,
                        -0.3267683982849121,
                        -0.03336357697844505,
                        0.22148406505584718,
                        0.06518319249153137,
                        0.21833837032318116
                    ],
                    "bias": -0.1425592452287674
                },
                {
                    "weights": [
                        -0.09021838754415512,
                        0.15647049248218537,
                        0.2943965196609497,
                        0.19072555005550385,
                        0.14258024096488954,
                        0.19483928382396699,
                        -0.018557844683527948,
                        0.013986026868224144,
                        -0.15144392848014832,
                        0.03171687200665474,
                        -0.11265788972377777,
                        0.224585622549057,
                        0.042207181453704837,
                        -0.09549980610609055,
                        0.11831311136484146,
                        0.1533457487821579,
                        0.21098868548870088,
                        -0.019963877275586129,
                        -0.07478149980306626,
                        -0.06873297691345215,
                        0.0681266039609909
                    ],
                    "bias": 0.19900718331336976
                },
                {
                    "weights": [
                        -0.10887396335601807,
                        0.33783406019210818,
                        -0.08053447306156159,
                        0.08949797600507736,
                        -0.28485676646232607,
                        -0.06412091851234436,
                        -0.28942304849624636,
                        0.06524039804935456,
                        -0.025420980527997018,
                        -0.22583065927028657,
                        0.2569173574447632,
                        -0.16818152368068696,
                        -0.24209244549274445,
                        -0.04594573378562927,
                        0.056146666407585147,
                        0.1788860708475113,
                        0.04361362382769585,
                        0.01826014183461666,
                        -0.011970628052949906,
                        -0.10272082686424256,
                        -0.0678691640496254
                    ],
                    "bias": -0.16003426909446717
                },
                {
                    "weights": [
                        0.016964860260486604,
                        0.208235502243042,
                        -0.03454914316534996,
                        0.04617462679743767,
                        -0.06963609904050827,
                        0.30799999833106997,
                        -0.04356672987341881,
                        0.047281939536333087,
                        -0.06410345435142517,
                        -0.028058266267180444,
                        -0.021063806489109994,
                        0.21058255434036256,
                        -0.5,
                        0.08412687480449677,
                        0.17029611766338349,
                        0.12912671267986298,
                        -0.002087611937895417,
                        0.03417789563536644,
                        -0.04188278689980507,
                        -0.2072710394859314,
                        0.06467879563570023
                    ],
                    "bias": -0.021904656663537027
                },
                {
                    "weights": [
                        -0.12641476094722749,
                        -0.21518045663833619,
                        -0.03330421447753906,
                        -0.1636086106300354,
                        -0.23496468365192414,
                        0.024465689435601236,
                        -0.058524101972579959,
                        -0.04504264146089554,
                        0.22902081906795503,
                        -0.07107976078987122,
                        -0.2734115719795227,
                        -0.23716658353805543,
                        0.42688050866127016,
                        0.09451377391815186,
                        -0.17496711015701295,
                        0.1469014585018158,
                        -0.0712333396077156,
                        0.09083220362663269,
                        0.18649163842201234,
                        -0.0596955232322216,
                        0.20229266583919526
                    ],
                    "bias": -0.009608021005988121
                },
                {
                    "weights": [
                        -0.1442917436361313,
                        0.12436384707689285,
                        -0.05351417884230614,
                        -0.05662726238369942,
                        -0.13410407304763795,
                        -0.2709728479385376,
                        0.1139233335852623,
                        -0.2892613112926483,
                        0.16044698655605317,
                        0.12165052443742752,
                        0.18995113670825959,
                        0.18354511260986329,
                        -0.047059934586286548,
                        -0.29232150316238406,
                        0.2025633454322815,
                        -0.18966078758239747,
                        -0.10451805591583252,
                        -0.06021536514163017,
                        -0.015047972090542317,
                        -0.09529679268598557,
                        -0.043571487069129947
                    ],
                    "bias": -0.07737979292869568
                },
                {
                    "weights": [
                        -0.026690062135457994,
                        -0.1465357542037964,
                        0.07094517350196839,
                        0.09450934827327728,
                        0.12804746627807618,
                        0.032344039529561999,
                        -0.14814205467700959,
                        -0.07243777811527252,
                        -0.10646222531795502,
                        0.19867441058158875,
                        0.09440044313669205,
                        0.2121460735797882,
                        0.42026567459106448,
                        -0.03881453350186348,
                        -0.33446255326271059,
                        0.04870058596134186,
                        0.1450146734714508,
                        -0.2650715708732605,
                        -0.055359646677970889,
                        -0.347303181886673,
                        0.09428240358829498
                    ],
                    "bias": 0.12247762084007263
                },
                {
                    "weights": [
                        -0.1332901120185852,
                        0.15356887876987458,
                        -0.05466017499566078,
                        0.4172177314758301,
                        -0.2550690770149231,
                        0.10252043604850769,
                        0.21804207563400269,
                        0.16080211102962495,
                        0.3156421482563019,
                        -0.0445212721824646,
                        -0.02414153330028057,
                        0.3260597288608551,
                        -0.18391112983226777,
                        0.14663182199001313,
                        -0.11939183622598648,
                        0.09644929319620133,
                        0.19113175570964814,
                        0.04057532176375389,
                        0.2860262989997864,
                        0.04992164671421051,
                        0.1251382976770401
                    ],
                    "bias": 0.015592137351632119
                },
                {
                    "weights": [
                        -0.024004876613616945,
                        0.10051114857196808,
                        0.015519199892878533,
                        -0.16640157997608186,
                        -0.35986366868019106,
                        -0.10009070485830307,
                        0.0050348564982414249,
                        -0.17408956587314607,
                        0.10648036748170853,
                        -0.15363407135009767,
                        -0.442855566740036,
                        0.013881979510188103,
                        0.023330533877015115,
                        0.02139500342309475,
                        0.2560141384601593,
                        -0.018674002960324289,
                        -0.06749314069747925,
                        -0.01748739369213581,
                        0.11952537298202515,
                        -0.017553184181451799,
                        0.2477504163980484
                    ],
                    "bias": -0.2601163685321808
                },
                {
                    "weights": [
                        -0.052500102669000629,
                        -0.34240370988845827,
                        0.016568755730986596,
                        -0.41487425565719607,
                        0.03332367539405823,
                        0.23316998779773713,
                        0.11451780050992966,
                        -0.015412532724440098,
                        -0.1563006043434143,
                        0.10154575854539871,
                        0.12661920487880708,
                        0.09463102370500565,
                        -0.10626116394996643,
                        -0.004067522939294577,
                        0.23611153662204743,
                        0.19624540209770204,
                        0.27377834916114809,
                        -0.02705659158527851,
                        0.33981117606163027,
                        -0.010624518617987633,
                        0.1423884481191635
                    ],
                    "bias": -0.07814948260784149
                },
                {
                    "weights": [
                        0.02150581032037735,
                        -0.10991844534873963,
                        0.1271207332611084,
                        -0.29061833024024966,
                        0.1528215855360031,
                        -0.1545284241437912,
                        -0.4756838083267212,
                        0.09753130376338959,
                        -0.1932774931192398,
                        -0.09257479757070542,
                        0.1823788732290268,
                        0.05275864899158478,
                        0.028678199276328088,
                        -0.14007417857646943,
                        0.03040328435599804,
                        0.05168590322136879,
                        0.1349766105413437,
                        0.018969185650348665,
                        0.18504327535629273,
                        -0.1300525665283203,
                        -0.024030234664678575
                    ],
                    "bias": -0.03407991677522659
                },
                {
                    "weights": [
                        -0.06692870706319809,
                        -0.012024893425405026,
                        -0.14588499069213868,
                        -0.04131992161273956,
                        0.040631379932165149,
                        -0.21072587370872498,
                        -0.05782487243413925,
                        0.030721310526132585,
                        0.09312582015991211,
                        0.11257152259349823,
                        0.109706349670887,
                        0.2776782512664795,
                        -0.2021009773015976,
                        0.09600071609020233,
                        0.1994510293006897,
                        0.023875810205936433,
                        -0.0843145102262497,
                        -0.22309811413288117,
                        0.07971915602684021,
                        -0.052957408130168918,
                        0.05258588492870331
                    ],
                    "bias": -0.08167874813079834
                },
                {
                    "weights": [
                        0.1319725066423416,
                        0.14864420890808106,
                        -0.29999127984046938,
                        -0.1338830292224884,
                        -0.21135248243808747,
                        0.21839243173599244,
                        0.4167858064174652,
                        -0.11965695768594742,
                        -0.4565907418727875,
                        -0.3786678612232208,
                        -0.204140767455101,
                        0.28461378812789919,
                        -0.1023799479007721,
                        0.16504359245300294,
                        0.4978613555431366,
                        -0.29629918932914736,
                        -0.2144797444343567,
                        0.006847938522696495,
                        0.3177810311317444,
                        0.007081379648298025,
                        0.25267156958580019
                    ],
                    "bias": 0.3804660439491272
                },
                {
                    "weights": [
                        0.022523635998368264,
                        -0.1154545247554779,
                        0.3069996237754822,
                        -0.09356921166181565,
                        -0.24448858201503755,
                        -0.1329791247844696,
                        0.09050222486257553,
                        0.01829744316637516,
                        -0.11863808333873749,
                        -0.006123766768723726,
                        -0.20469243824481965,
                        -0.036595240235328677,
                        -0.09154119342565537,
                        0.1267474889755249,
                        0.03537372872233391,
                        -0.1436082124710083,
                        0.08381415158510208,
                        0.06708202511072159,
                        0.2478705793619156,
                        -0.05082140862941742,
                        -0.054464664310216907
                    ],
                    "bias": 0.005843539256602526
                },
                {
                    "weights": [
                        0.20980088412761689,
                        -0.11676070839166641,
                        0.06446536630392075,
                        -0.08696454763412476,
                        -0.045660484582185748,
                        0.09095584601163864,
                        -0.24122683703899384,
                        -0.07780183106660843,
                        -0.29019907116889956,
                        -0.19062182307243348,
                        -0.012356881983578205,
                        0.058992914855480197,
                        0.14902257919311524,
                        -0.3251328468322754,
                        0.1503022015094757,
                        -0.07438776642084122,
                        0.03908763453364372,
                        0.23488537967205048,
                        -0.039610277861356738,
                        0.0752357766032219,
                        0.4107445478439331
                    ],
                    "bias": 0.01368311233818531
                },
                {
                    "weights": [
                        0.05464811995625496,
                        -0.45451441407203677,
                        -0.012754233554005623,
                        0.009912017732858658,
                        -0.08241840451955795,
                        0.08441884815692902,
                        -0.1028958112001419,
                        -0.2721536159515381,
                        0.08709245175123215,
                        0.039279114454984668,
                        -0.04237231984734535,
                        -0.1234523355960846,
                        0.3837178647518158,
                        -0.04971824586391449,
                        -0.15885576605796815,
                        -0.014303980395197869,
                        -0.05031124874949455,
                        -0.16103386878967286,
                        -0.17565618455410005,
                        -0.05380003899335861,
                        0.12270188331604004
                    ],
                    "bias": -0.17797595262527467
                },
                {
                    "weights": [
                        0.07880549877882004,
                        0.013842550106346608,
                        0.016024857759475709,
                        -0.11564173549413681,
                        0.043329205363988879,
                        -0.14342503249645234,
                        -0.10992272943258286,
                        -0.11298000067472458,
                        0.15160362422466279,
                        0.06885304301977158,
                        0.10936328023672104,
                        -0.19526278972625733,
                        0.14635300636291505,
                        0.012183185666799546,
                        0.044191498309373859,
                        -0.19660785794258119,
                        0.2035549134016037,
                        0.05420872941613197,
                        0.26433372497558596,
                        0.10210896283388138,
                        0.22702232003211976
                    ],
                    "bias": -0.0034186472184956075
                },
                {
                    "weights": [
                        0.3302016854286194,
                        -0.12929286062717439,
                        0.07450664043426514,
                        0.005774224642664194,
                        0.0972471758723259,
                        -0.3290051817893982,
                        0.34448787569999697,
                        0.16718463599681855,
                        -0.11858971416950226,
                        0.42404603958129885,
                        0.023845620453357698,
                        0.2054135650396347,
                        0.09157969057559967,
                        -0.1973591446876526,
                        -0.1832079291343689,
                        -0.19367355108261109,
                        -0.142961785197258,
                        -0.16433513164520265,
                        0.009782135486602784,
                        0.12241347879171372,
                        -0.1554722785949707
                    ],
                    "bias": -0.026013486087322236
                },
                {
                    "weights": [
                        -0.08357398957014084,
                        -0.1222548559308052,
                        0.08644843101501465,
                        -0.032202839851379397,
                        -0.057900846004486087,
                        0.1266026645898819,
                        -0.13094614446163178,
                        -0.13906414806842805,
                        -0.03216506540775299,
                        0.200215682387352,
                        0.41265514492988589,
                        -0.16215521097183228,
                        0.006738377269357443,
                        -0.08645453304052353,
                        -0.09065611660480499,
                        0.1884845644235611,
                        0.18530917167663575,
                        0.017223697155714036,
                        -0.22324183583259583,
                        0.026262199506163598,
                        -0.29172953963279726
                    ],
                    "bias": -0.03380530700087547
                },
                {
                    "weights": [
                        -0.33290553092956545,
                        0.312208890914917,
                        -0.13515670597553254,
                        0.0022395052947103979,
                        -0.17499879002571107,
                        0.39751702547073367,
                        -0.21536965668201447,
                        -0.21411344408988954,
                        0.02702193707227707,
                        -0.020606467500329019,
                        -0.2416946291923523,
                        -0.10572175681591034,
                        -0.20154523849487306,
                        0.06274686008691788,
                        -0.09732220321893692,
                        0.10682018846273422,
                        0.06721439212560654,
                        0.19050829112529756,
                        0.21409785747528077,
                        0.019896123558282853,
                        0.1867101788520813
                    ],
                    "bias": 0.22546976804733277
                },
                {
                    "weights": [
                        -0.2764730453491211,
                        -0.04949247092008591,
                        0.3290477395057678,
                        -0.12520939111709596,
                        0.08479681611061096,
                        0.186972513794899,
                        0.39072558283805849,
                        -0.015375054441392422,
                        -0.014807378873229027,
                        0.10127612948417664,
                        -0.12795892357826234,
                        0.029249686747789384,
                        0.17716571688652039,
                        0.040423743426799777,
                        -0.023861033841967584,
                        0.037571243941783908,
                        -0.24943095445632935,
                        -0.07929594814777374,
                        0.14610862731933595,
                        -0.251463383436203,
                        0.1973922848701477
                    ],
                    "bias": -0.045765042304992679
                },
                {
                    "weights": [
                        0.10216698050498963,
                        0.021265536546707155,
                        -0.26349982619285586,
                        0.2047320157289505,
                        0.09050492942333222,
                        -0.129994198679924,
                        0.09529771655797959,
                        -0.1898457258939743,
                        -0.17629079520702363,
                        -0.12310778349637985,
                        0.05501692742109299,
                        -0.14106589555740357,
                        0.03490636870265007,
                        -0.24010272324085236,
                        -0.12684279680252076,
                        0.10999037325382233,
                        0.048193469643592837,
                        0.32278507947921755,
                        0.30619776248931887,
                        0.01238290872424841,
                        0.15775203704833985
                    ],
                    "bias": -0.10862008482217789
                },
                {
                    "weights": [
                        -0.20224149525165559,
                        -0.046741485595703128,
                        0.042523231357336047,
                        -0.017003225162625314,
                        0.13987791538238526,
                        -0.04993477091193199,
                        0.07567881047725678,
                        0.02514929696917534,
                        0.17226116359233857,
                        0.02976049669086933,
                        0.0063417530618608,
                        0.18301133811473847,
                        -0.11665572226047516,
                        -0.09379687905311585,
                        -0.177418053150177,
                        0.05225197970867157,
                        0.05452854186296463,
                        -0.053596921265125278,
                        0.07220698148012161,
                        0.04797406494617462,
                        0.36358892917633059
                    ],
                    "bias": 0.018730130046606065
                },
                {
                    "weights": [
                        0.0208376906812191,
                        -0.27938520908355715,
                        0.0531134158372879,
                        -0.1955893486738205,
                        -0.23425674438476563,
                        0.025490913540124894,
                        -0.07982674986124039,
                        0.2378081977367401,
                        -0.003705719718709588,
                        -0.07188480347394943,
                        0.08400319516658783,
                        0.20953573286533357,
                        -0.05578403174877167,
                        -0.007843717001378537,
                        -0.14942120015621186,
                        0.06940869987010956,
                        0.043105266988277438,
                        0.03523767739534378,
                        0.13752026855945588,
                        -0.05208669602870941,
                        -0.20438671112060548
                    ],
                    "bias": 0.1356395184993744
                },
                {
                    "weights": [
                        0.04615010321140289,
                        0.2072228044271469,
                        -0.23036877810955048,
                        0.00039786763954907656,
                        -0.26266762614250185,
                        -0.0064396923407912258,
                        -0.22394345700740815,
                        0.052763279527425769,
                        -0.14378172159194947,
                        -0.07123412936925888,
                        0.18058675527572633,
                        -0.1947411447763443,
                        0.0055658225901424889,
                        -0.20088283717632295,
                        0.10050018876791,
                        -0.14080557227134705,
                        -0.015302144922316075,
                        -0.11251760274171829,
                        0.2485419660806656,
                        0.09886741638183594,
                        -0.1343507468700409
                    ],
                    "bias": 0.18600702285766602
                },
                {
                    "weights": [
                        -0.07558290660381317,
                        -0.08983395248651505,
                        0.11319788545370102,
                        -0.11461969465017319,
                        0.04920441657304764,
                        -0.00840869639068842,
                        0.2896360456943512,
                        -0.12280652672052384,
                        -0.21496814489364625,
                        -0.33450525999069216,
                        -0.18573983013629914,
                        0.11064394563436508,
                        0.06572636216878891,
                        0.27359065413475039,
                        -0.08590037375688553,
                        -0.17909011244773866,
                        -0.30342918634414675,
                        -0.09323063492774964,
                        0.5,
                        0.28879299759864809,
                        -0.0625370517373085
                    ],
                    "bias": 0.08842690289020539
                },
                {
                    "weights": [
                        0.2913813889026642,
                        0.30852773785591128,
                        -0.027365345507860185,
                        0.11327707767486572,
                        -0.1120675802230835,
                        -0.11240015923976898,
                        0.36094930768013,
                        0.041899941861629489,
                        -0.28230446577072146,
                        0.15912093222141267,
                        0.18239255249500276,
                        -0.14507010579109193,
                        -0.2826201617717743,
                        -0.11192101985216141,
                        -0.10220606625080109,
                        -0.3368391990661621,
                        0.07371219992637634,
                        -0.005977818742394447,
                        -0.1962394416332245,
                        0.0583292655646801,
                        -0.1148841455578804
                    ],
                    "bias": 0.08107993006706238
                },
                {
                    "weights": [
                        -0.07500259578227997,
                        -0.18527747690677644,
                        0.04906850680708885,
                        0.07911121845245362,
                        0.12263364344835282,
                        -0.16252818703651429,
                        -0.0411163829267025,
                        0.03314440697431564,
                        0.0098270233720541,
                        -0.05870668590068817,
                        0.015369423665106297,
                        -0.29419344663619997,
                        0.01779271848499775,
                        0.22030267119407655,
                        0.023313045501708986,
                        0.0750168189406395,
                        0.08161156624555588,
                        0.07709957659244538,
                        -0.008193825371563435,
                        0.06002308055758476,
                        0.013878587633371354
                    ],
                    "bias": -0.4485856890678406
                },
                {
                    "weights": [
                        -0.21455609798431397,
                        0.16989880800247193,
                        -0.28474918007850649,
                        0.0776008665561676,
                        -0.5,
                        0.09318772703409195,
                        -0.1742865890264511,
                        -0.010066323913633824,
                        0.10671704262495041,
                        0.15596863627433778,
                        0.2168797254562378,
                        0.25975775718688967,
                        -0.4664323329925537,
                        0.11528652906417847,
                        -0.051481399685144427,
                        0.016102023422718049,
                        0.1437448114156723,
                        -0.28290119767189028,
                        0.021775024011731149,
                        0.0016446900554001332,
                        0.09101670235395432
                    ],
                    "bias": -0.028723230585455896
                },
                {
                    "weights": [
                        0.21170057356357575,
                        -0.011188567616045475,
                        -0.24713318049907685,
                        -0.0198710635304451,
                        -0.2297661304473877,
                        -0.03477533906698227,
                        -0.03932293504476547,
                        0.16174063086509705,
                        0.1739858239889145,
                        -0.06064339354634285,
                        -0.2309885174036026,
                        -0.294230580329895,
                        -0.34304678440093996,
                        -0.06626049429178238,
                        -0.21052531898021699,
                        0.073392353951931,
                        -0.10772596299648285,
                        -0.21818192303180695,
                        0.08306057751178742,
                        0.038064368069171908,
                        0.08395291864871979
                    ],
                    "bias": -0.09650321304798126
                },
                {
                    "weights": [
                        -0.04171304777264595,
                        -0.3169683516025543,
                        0.06548720598220825,
                        -0.1492881327867508,
                        0.17897839844226838,
                        0.15403972566127778,
                        0.16394668817520142,
                        0.25441059470176699,
                        -0.07391902059316635,
                        -0.11906445026397705,
                        0.03269960358738899,
                        0.19594188034534455,
                        0.21710486710071565,
                        0.01058444194495678,
                        0.08227153867483139,
                        0.015500678680837155,
                        -0.035420555621385577,
                        0.028941389173269273,
                        0.33128565549850466,
                        -0.06640636175870896,
                        0.08175353705883026
                    ],
                    "bias": 0.9077721834182739
                },
                {
                    "weights": [
                        -0.2066108137369156,
                        0.044542014598846439,
                        -0.02467409335076809,
                        -0.0116773946210742,
                        -0.1647896021604538,
                        0.08881515264511109,
                        0.10999628901481629,
                        0.042049966752529147,
                        -0.04425438866019249,
                        -0.32223552465438845,
                        -0.1064218208193779,
                        0.12484032660722733,
                        -0.014411919750273228,
                        0.1631118208169937,
                        0.09239082783460617,
                        -0.10834340006113053,
                        0.06346598267555237,
                        0.11312936246395111,
                        -0.11958047747612,
                        -0.23761092126369477,
                        0.06647765636444092
                    ],
                    "bias": -0.06379789859056473
                },
                {
                    "weights": [
                        -0.010547171346843243,
                        -0.3657313585281372,
                        -0.0592062883079052,
                        -0.18731199204921723,
                        -0.1325516402721405,
                        0.06415336579084397,
                        0.3557484447956085,
                        0.010735157877206803,
                        -0.04537034407258034,
                        -0.16861601173877717,
                        0.2677311599254608,
                        0.23490098118782044,
                        -0.09976654499769211,
                        0.11629735678434372,
                        0.258373886346817,
                        0.031317051500082019,
                        0.33540016412734988,
                        -0.34411972761154177,
                        -0.04369279369711876,
                        0.05810908228158951,
                        -0.34992483258247378
                    ],
                    "bias": 0.06095306575298309
                },
                {
                    "weights": [
                        -0.27609002590179446,
                        0.11212514340877533,
                        0.042272958904504779,
                        0.016765452921390535,
                        0.025274958461523057,
                        0.21465112268924714,
                        -0.2099926918745041,
                        0.05521553009748459,
                        -0.18777857720851899,
                        0.024255935102701188,
                        -0.047854240983724597,
                        0.13473741710186006,
                        -0.10940112173557282,
                        -0.12483195215463638,
                        0.1202610433101654,
                        -0.12039168179035187,
                        0.3855676054954529,
                        -0.03380100801587105,
                        -0.3028830885887146,
                        0.02169780433177948,
                        -0.011949923820793629
                    ],
                    "bias": -0.1680486798286438
                },
                {
                    "weights": [
                        -0.03425179794430733,
                        0.12514999508857728,
                        0.024976402521133424,
                        0.09160302579402924,
                        0.13371433317661286,
                        0.29635781049728396,
                        -0.19266308844089509,
                        -0.04416893422603607,
                        -0.009737705811858178,
                        -0.005608825944364071,
                        0.020517034456133844,
                        -0.24836602807044984,
                        -0.25550422072410586,
                        -0.1693733036518097,
                        -0.11819546669721604,
                        0.04042365401983261,
                        -0.05069829896092415,
                        0.12966729700565339,
                        0.008108635433018208,
                        0.2659253776073456,
                        0.1030249074101448
                    ],
                    "bias": -0.02230541594326496
                },
                {
                    "weights": [
                        -0.11800726503133774,
                        -0.01123686321079731,
                        0.14736035466194154,
                        0.035909559577703479,
                        -0.015643544495105745,
                        -0.0316263884305954,
                        0.017761563882231714,
                        -0.28409743309020998,
                        -0.2434619665145874,
                        0.2336195558309555,
                        -0.006222603842616081,
                        -0.08136141300201416,
                        -0.14939874410629273,
                        0.31335461139678957,
                        0.036742232739925387,
                        -0.025195438414812089,
                        -0.42498520016670229,
                        0.04742839187383652,
                        -0.053784918040037158,
                        0.015806715935468675,
                        -0.15369988977909089
                    ],
                    "bias": 0.08557065576314926
                },
                {
                    "weights": [
                        -0.14141133427619935,
                        0.07588706165552139,
                        0.34073665738105776,
                        -0.006179575342684984,
                        -0.2620951533317566,
                        -0.05779428780078888,
                        0.009125381708145142,
                        -0.09893377125263214,
                        -0.38300472497940066,
                        -0.020086165517568589,
                        0.22971241176128388,
                        -0.24364450573921204,
                        0.06430812925100327,
                        0.21071995794773103,
                        -0.11741840839385987,
                        -0.2631973922252655,
                        -0.0895363911986351,
                        0.050700843334198,
                        -0.1805446445941925,
                        -0.1227794736623764,
                        -0.03542890399694443
                    ],
                    "bias": -0.19373250007629395
                },
                {
                    "weights": [
                        -0.36756569147109988,
                        0.16747230291366578,
                        0.0601898618042469,
                        0.1855417788028717,
                        -0.11077415943145752,
                        0.13712751865386964,
                        -0.03341969475150108,
                        0.11567497253417969,
                        0.07889403402805329,
                        -0.0137234041467309,
                        -0.07428412139415741,
                        0.22723504900932313,
                        -0.16022989153862,
                        0.020966872572898866,
                        -0.11703414469957352,
                        -0.1404971331357956,
                        0.14180368185043336,
                        -0.022341907024383546,
                        -0.006591249722987413,
                        -0.07728386670351029,
                        -0.030046535655856134
                    ],
                    "bias": 0.15110699832439423
                },
                {
                    "weights": [
                        0.0907873883843422,
                        0.05322015658020973,
                        0.05886170640587807,
                        -0.02346171997487545,
                        -0.14414197206497193,
                        -0.05005163699388504,
                        -0.06986977159976959,
                        0.007722006179392338,
                        0.12201537936925888,
                        -0.04744179546833038,
                        -0.02658255770802498,
                        -0.05187409371137619,
                        0.32228878140449526,
                        0.2727617621421814,
                        -0.08328591287136078,
                        -0.1646733283996582,
                        0.07859157025814057,
                        -0.16736041009426118,
                        0.0048759374767541889,
                        0.10494250059127808,
                        -0.19967025518417359
                    ],
                    "bias": -0.14170736074447633
                }
            ]
        },
        {
            "neurons": [
                {
                    "weights": [
                        0.4392377734184265,
                        0.03530237078666687,
                        -0.14922580122947694,
                        -0.00823755469173193,
                        -0.14869137108325959,
                        0.21749518811702729,
                        -0.01641770265996456,
                        0.2563748061656952,
                        -0.00889572687447071,
                        -0.10384804755449295,
                        -0.15955297648906709,
                        -0.1938832402229309,
                        0.018319861963391305,
                        -0.07448390871286392,
                        0.00975680910050869,
                        0.20031610131263734,
                        -0.26433733105659487,
                        -0.21615804731845857,
                        -0.34292417764663699,
                        0.08583172410726547,
                        0.331121563911438,
                        -0.17736972868442536,
                        -0.15364190936088563,
                        0.056176021695137027,
                        0.2857605814933777,
                        -0.18687161803245545,
                        -0.14392143487930299,
                        0.03722655028104782,
                        -0.2728760242462158,
                        0.13114812970161439,
                        0.16256356239318849,
                        0.07611649483442307,
                        0.11809390038251877,
                        -0.5,
                        0.21465913951396943,
                        -0.09833129495382309,
                        0.06650112569332123,
                        -0.05012672394514084,
                        -0.09789914637804032,
                        0.3802805542945862,
                        -0.138534814119339,
                        -0.00164984876755625,
                        -0.0747145265340805,
                        0.1960020661354065,
                        -0.09105124324560166,
                        -0.006934617180377245,
                        0.021925995126366617,
                        0.20648662745952607,
                        0.1506214141845703,
                        -0.10386034101247788,
                        -0.013403440825641156,
                        -0.36407577991485598,
                        -0.34386348724365237,
                        -0.045563895255327228,
                        0.07853647321462631,
                        -0.051956549286842349,
                        0.010065123438835144,
                        0.06061100214719772,
                        -0.012426525354385376,
                        -0.2323867678642273,
                        -0.016810312867164613,
                        -0.18127918243408204,
                        0.1506737917661667,
                        0.14156125485897065
                    ],
                    "bias": 0.2063603550195694
                },
                {
                    "weights": [
                        -0.06953199952840805,
                        0.324043333530426,
                        -0.049790654331445697,
                        -0.09355313330888748,
                        -0.11253513395786286,
                        -0.10989124327898026,
                        0.2124117612838745,
                        -0.2268151193857193,
                        0.22771449387073518,
                        0.005929353181272745,
                        -0.22437649965286256,
                        0.11751338094472885,
                        0.04567011818289757,
                        0.21258872747421266,
                        -0.03611411899328232,
                        0.15056255459785462,
                        -0.09644404798746109,
                        -0.35224348306655886,
                        0.2559904456138611,
                        -0.041533444076776507,
                        -0.1205415353178978,
                        0.228714257478714,
                        -0.24216903746128083,
                        -0.14089828729629517,
                        0.04779477417469025,
                        0.17455826699733735,
                        -0.2731749415397644,
                        0.14967694878578187,
                        -0.2425067126750946,
                        0.09720603376626969,
                        0.2560350298881531,
                        -0.27857109904289248,
                        -0.04702720046043396,
                        0.04348939284682274,
                        -0.06551291048526764,
                        0.21128512918949128,
                        -0.1930578202009201,
                        -0.050182778388261798,
                        -0.15299943089485169,
                        0.34143298864364626,
                        0.07843577116727829,
                        0.1992093175649643,
                        -0.07800841331481934,
                        0.014900533482432366,
                        -0.0062438384629786018,
                        -0.01365808118134737,
                        -0.10545676946640015,
                        -0.10041588544845581,
                        -0.04574703052639961,
                        0.06563744693994522,
                        0.09544748812913895,
                        -0.14200466871261598,
                        0.03962092474102974,
                        0.22989419102668763,
                        -0.029261551797389985,
                        -0.233566552400589,
                        0.20568612217903138,
                        -0.2429812252521515,
                        0.0034439328592270614,
                        -0.3372781276702881,
                        0.15480364859104157,
                        -0.024088751524686815,
                        0.382136732339859,
                        0.07795002311468125
                    ],
                    "bias": -0.22213132679462434
                },
                {
                    "weights": [
                        0.06771061569452286,
                        -0.1039559617638588,
                        0.2109459787607193,
                        -0.13041599094867707,
                        -0.08724194020032883,
                        0.2583208680152893,
                        0.0267335195094347,
                        -0.15031884610652924,
                        0.16662484407424928,
                        -0.04801017791032791,
                        0.026706917211413385,
                        0.29631665349006655,
                        -0.15939541161060334,
                        0.04942719265818596,
                        -0.07537789642810822,
                        -0.06504140794277191,
                        0.07228256016969681,
                        0.05690712854266167,
                        0.05493193119764328,
                        -0.02874583937227726,
                        0.16074003279209138,
                        -0.1360929161310196,
                        0.06864456832408905,
                        -0.10713277757167816,
                        -0.12130240350961685,
                        -0.02067122608423233,
                        -0.22744543850421906,
                        -0.10947386175394058,
                        -0.05330716818571091,
                        0.19386672973632813,
                        -0.026188036426901819,
                        -0.22647731006145478,
                        -0.32440656423568728,
                        -0.3607215881347656,
                        -0.23242875933647157,
                        -0.08032266795635224,
                        0.14808683097362519,
                        -0.19146066904067994,
                        -0.04428994655609131,
                        0.10055699199438095,
                        -0.07348174601793289,
                        0.029979471117258073,
                        0.0890524834394455,
                        0.318055659532547,
                        -0.3366294503211975,
                        0.09705744683742523,
                        0.15818819403648377,
                        -0.11321920156478882,
                        0.03724144771695137,
                        0.12130317091941834,
                        -0.5,
                        0.053273141384124759,
                        -0.4567546248435974,
                        0.0699944794178009,
                        -0.2383405864238739,
                        0.017494887113571168,
                        -0.03324311599135399,
                        0.09915860742330551,
                        -0.13953986763954163,
                        0.1342923492193222,
                        -0.0876203328371048,
                        0.15433058142662049,
                        -0.0497971773147583,
                        0.3655444383621216
                    ],
                    "bias": -0.050919122993946078
                },
                {
                    "weights": [
                        0.2552820146083832,
                        0.366684228181839,
                        -0.10990266501903534,
                        0.006873792037367821,
                        -0.06232171878218651,
                        0.0394086092710495,
                        -0.01972198486328125,
                        0.19029760360717774,
                        -0.03306788206100464,
                        0.2909543514251709,
                        -0.04543374851346016,
                        0.3494910001754761,
                        -0.10954304784536362,
                        0.1908646523952484,
                        -0.21444040536880494,
                        -0.17497818171977998,
                        0.19152329862117768,
                        0.02954319678246975,
                        -0.1451575607061386,
                        0.127262681722641,
                        -0.02803649753332138,
                        -0.06591684371232987,
                        0.16860228776931764,
                        -0.14620746672153474,
                        -0.26694297790527346,
                        0.004862604197114706,
                        0.0005622674943879247,
                        0.1265227347612381,
                        -0.13796956837177277,
                        -0.4335184097290039,
                        0.055687520653009418,
                        -0.02788707986474037,
                        0.10957882553339005,
                        0.24474608898162843,
                        0.23843185603618623,
                        -0.2307390421628952,
                        0.1475813388824463,
                        0.1902482956647873,
                        0.07910843938589096,
                        -0.062419552356004718,
                        -0.24825994670391084,
                        0.050039976835250857,
                        0.08562742173671723,
                        0.11262096464633942,
                        0.05739550292491913,
                        -0.06256701052188873,
                        -0.008511080406606198,
                        -0.09823407232761383,
                        0.031719572842121127,
                        0.2673467993736267,
                        -0.07552465051412583,
                        -0.11162906140089035,
                        0.05111211538314819,
                        0.23978932201862336,
                        0.053971074521541598,
                        -0.28191253542900088,
                        0.12794552743434907,
                        -0.007552213966846466,
                        -0.021938631311058999,
                        -0.08025024831295014,
                        0.11685480177402497,
                        0.21363221108913423,
                        0.1608903855085373,
                        -0.10255293548107147
                    ],
                    "bias": 0.08657477051019669
                },
                {
                    "weights": [
                        0.031533382833004,
                        0.1348276287317276,
                        -0.05928907170891762,
                        0.3005622625350952,
                        0.16759753227233888,
                        -0.07912057638168335,
                        -0.01470903679728508,
                        0.12120979279279709,
                        -0.1682361513376236,
                        -0.16502073407173158,
                        -0.11111593246459961,
                        0.24582742154598237,
                        0.2764369249343872,
                        0.13955770432949067,
                        0.13788549602031709,
                        0.21225929260253907,
                        -0.3396943211555481,
                        0.09990016371011734,
                        0.13534127175807954,
                        0.0932164341211319,
                        -0.004997016862034798,
                        0.1276652216911316,
                        -0.020072204992175103,
                        0.15838578343391419,
                        0.14893312752246858,
                        -0.1374325454235077,
                        0.2214984893798828,
                        -0.08461018651723862,
                        -0.10768023133277893,
                        -0.05291261523962021,
                        -0.10481948405504227,
                        0.16408221423625947,
                        0.05601820722222328,
                        -0.16013555228710175,
                        -0.056978609412908557,
                        0.14307743310928346,
                        -0.15062449872493745,
                        0.06236950308084488,
                        0.01606297306716442,
                        -0.3753926455974579,
                        0.09854552894830704,
                        0.21343335509300233,
                        0.22377340495586396,
                        -0.01449556928128004,
                        -0.2644974887371063,
                        0.08167451620101929,
                        0.13981635868549348,
                        0.19134469330310822,
                        -0.24411657452583314,
                        -0.03277573361992836,
                        -0.11709818243980408,
                        -0.06541205197572708,
                        0.11956478655338288,
                        0.060022275894880298,
                        0.15204378962516786,
                        -0.008386443369090557,
                        0.03292582556605339,
                        -0.04705897346138954,
                        -0.058688051998615268,
                        0.28254497051239016,
                        0.05310610309243202,
                        -0.07121491432189942,
                        -0.02096053771674633,
                        -0.005620860494673252
                    ],
                    "bias": -0.07835251837968826
                },
                {
                    "weights": [
                        0.027666402980685235,
                        -0.08816085755825043,
                        0.3138766288757324,
                        -0.18711338937282563,
                        0.06275399774312973,
                        0.01169383991509676,
                        -0.1789429634809494,
                        0.005684272386133671,
                        0.04026302322745323,
                        0.0037230062298476698,
                        -0.13238738477230073,
                        0.21808487176895142,
                        -0.020879626274108888,
                        -0.08985085040330887,
                        0.15487098693847657,
                        0.024587292224168779,
                        0.10219348967075348,
                        0.03306087106466293,
                        -0.22407540678977967,
                        -0.04581732302904129,
                        0.10439740866422653,
                        -0.1571379005908966,
                        0.03577345609664917,
                        -0.2489665299654007,
                        -0.015086107887327671,
                        -0.2812725305557251,
                        -0.11380942910909653,
                        -0.02233847975730896,
                        0.21047061681747437,
                        -0.09296156466007233,
                        -0.01127336360514164,
                        -0.13273286819458009,
                        0.12675532698631288,
                        0.03679356351494789,
                        -0.10472948104143143,
                        -0.20872092247009278,
                        -0.0010160617530345917,
                        -0.03746480494737625,
                        -0.07729163765907288,
                        0.012329467572271824,
                        -0.09391367435455322,
                        -0.04494120925664902,
                        -0.1926557719707489,
                        0.1114419549703598,
                        -0.3146302103996277,
                        0.18538980185985566,
                        -0.2871294915676117,
                        0.27908432483673098,
                        -0.04176678881049156,
                        0.07483138144016266,
                        -0.26794475317001345,
                        -0.21557727456092835,
                        0.07127419859170914,
                        -0.07571828365325928,
                        0.2316884994506836,
                        -0.1656738668680191,
                        -0.0374070480465889,
                        -0.3432972729206085,
                        0.1992669403553009,
                        -0.15853768587112428,
                        -0.057784292846918109,
                        -0.012278677895665169,
                        -0.05377751216292381,
                        -0.15535016357898713
                    ],
                    "bias": -0.1533796787261963
                },
                {
                    "weights": [
                        -0.10885515809059143,
                        0.31040066480636599,
                        -0.13214676082134248,
                        0.310039222240448,
                        0.10090766847133637,
                        0.20304790139198304,
                        -0.07896903902292252,
                        0.119718998670578,
                        -0.06304720044136048,
                        -0.03447612375020981,
                        0.17548640072345735,
                        0.10166818648576737,
                        -0.02862720936536789,
                        0.3443880081176758,
                        -0.22257304191589356,
                        -0.31543922424316409,
                        0.2554693818092346,
                        0.023920813575387,
                        0.1664292812347412,
                        0.16152465343475343,
                        0.1403312087059021,
                        0.1618967205286026,
                        -0.148795023560524,
                        -0.055854104459285739,
                        0.0534113347530365,
                        -0.07631324231624603,
                        0.1278216689825058,
                        -0.1875455379486084,
                        0.09595505148172379,
                        0.46378400921821597,
                        0.018560605123639108,
                        0.13650396466255189,
                        -0.13492627441883088,
                        -0.05225623399019241,
                        0.15351641178131104,
                        0.18877440690994264,
                        -0.12670554220676423,
                        0.12752439081668855,
                        0.14775703847408296,
                        0.1087857335805893,
                        0.013929086737334729,
                        0.0510619580745697,
                        -0.07794459909200669,
                        0.02619590051472187,
                        0.1621466428041458,
                        0.18085509538650514,
                        -0.010539902374148369,
                        0.35595983266830447,
                        -0.0258858110755682,
                        0.005824564956128597,
                        0.3429117798805237,
                        -0.08147336542606354,
                        0.0899001955986023,
                        -0.03050232119858265,
                        -0.14236116409301759,
                        -0.014207043685019017,
                        0.11857368052005768,
                        -0.4177257716655731,
                        -0.025268377736210824,
                        -0.10479847341775894,
                        -0.07357710599899292,
                        -0.18731507658958436,
                        -0.2590774595737457,
                        0.10755094140768051
                    ],
                    "bias": 0.0921902060508728
                },
                {
                    "weights": [
                        0.4103783071041107,
                        -0.015096387825906277,
                        -0.022947732359170915,
                        -0.0802520290017128,
                        -0.197763592004776,
                        0.07323404401540756,
                        0.07955911755561829,
                        0.027386605739593507,
                        0.19432105123996736,
                        0.02706724777817726,
                        -0.042605508118867877,
                        0.1342601627111435,
                        0.13402730226516725,
                        -0.24569453299045564,
                        -0.21223235130310059,
                        -0.012878150679171086,
                        0.21488867700099946,
                        0.06858257204294205,
                        0.017702126875519754,
                        -0.12668326497077943,
                        -0.09496060758829117,
                        0.00020464450062718242,
                        -0.07801143825054169,
                        0.21260741353034974,
                        -0.07535560429096222,
                        -0.15652912855148316,
                        0.07234662771224976,
                        -0.10133927315473557,
                        0.026553897187113763,
                        0.15712277591228486,
                        0.14961907267570496,
                        0.01473967544734478,
                        0.16576577723026277,
                        -0.16984477639198304,
                        -0.1535942554473877,
                        0.09424428641796112,
                        -0.007672549225389957,
                        0.14568790793418885,
                        0.09123899042606354,
                        -0.24326258897781373,
                        -0.03186392784118652,
                        0.083626389503479,
                        -0.004202337469905615,
                        -0.1256265789270401,
                        0.0777495801448822,
                        -0.0019075985765084625,
                        -0.2075212448835373,
                        -0.07755360007286072,
                        -0.13324397802352906,
                        -0.38090980052948,
                        0.27673813700675967,
                        -0.1769552379846573,
                        -0.015458974055945874,
                        0.10386651009321213,
                        -0.11732500046491623,
                        0.3033001124858856,
                        0.30899104475975039,
                        -0.09101381152868271,
                        0.22531238198280335,
                        0.1975015252828598,
                        0.09352587163448334,
                        0.10284135490655899,
                        0.05951523780822754,
                        0.1346697062253952
                    ],
                    "bias": 0.08788488805294037
                },
                {
                    "weights": [
                        0.2690163254737854,
                        0.13265328109264375,
                        0.20567366480827332,
                        -0.00867396965622902,
                        -0.09969685226678848,
                        0.13807934522628785,
                        -0.03194174915552139,
                        -0.08745036274194718,
                        0.06256433576345444,
                        0.024394085630774499,
                        0.26445600390434267,
                        0.3141134977340698,
                        -0.08738410472869873,
                        0.08662211149930954,
                        -0.08672598749399185,
                        0.07419565320014954,
                        -0.0871591717004776,
                        0.047721799463033679,
                        0.12675149738788606,
                        0.20677071809768678,
                        0.14674249291419984,
                        -0.305206835269928,
                        -0.10596963763237,
                        -0.16970288753509522,
                        0.2724781036376953,
                        0.04200662672519684,
                        0.07691238820552826,
                        -0.10560833662748337,
                        -0.061816614121198657,
                        0.0835890918970108,
                        -0.01175771839916706,
                        0.21662507951259614,
                        0.03278086706995964,
                        -0.24732565879821778,
                        0.10373913496732712,
                        0.00015960536256898195,
                        0.12334883213043213,
                        0.09004393219947815,
                        -0.11613868176937103,
                        -0.21148252487182618,
                        -0.04834204167127609,
                        -0.2741739749908447,
                        -0.2651202380657196,
                        0.2250150442123413,
                        -0.1309896856546402,
                        0.08696785569190979,
                        -0.24268677830696107,
                        0.003891515079885721,
                        0.15436874330043794,
                        0.2537035644054413,
                        -0.06173788383603096,
                        -0.09872055053710938,
                        -0.12580367922782899,
                        0.052801866084337237,
                        -0.04706583544611931,
                        0.2620690166950226,
                        -0.009202171117067337,
                        -0.16429348289966584,
                        0.21008311212062837,
                        -0.04938938096165657,
                        0.3356632888317108,
                        0.28742310404777529,
                        0.14897000789642335,
                        0.06730303168296814
                    ],
                    "bias": 0.13331180810928346
                },
                {
                    "weights": [
                        -0.00844586081802845,
                        -0.05912748724222183,
                        0.11129941791296005,
                        0.21846561133861543,
                        -0.04147226735949516,
                        -0.03857088461518288,
                        0.13784059882164002,
                        -0.2865700423717499,
                        -0.021471302956342698,
                        -0.04490271955728531,
                        0.03143549710512161,
                        -0.12621819972991944,
                        -0.022604847326874734,
                        0.16513435542583466,
                        -0.056074995547533038,
                        -0.12425819039344788,
                        -0.39070063829421999,
                        0.22405967116355897,
                        -0.15648488700389863,
                        -0.09224207699298859,
                        0.0575735941529274,
                        -0.167806014418602,
                        0.07012694329023361,
                        -0.1706669181585312,
                        -0.01160711981356144,
                        -0.23200087249279023,
                        0.010675099678337574,
                        0.06009260192513466,
                        0.015322391875088215,
                        0.10999554395675659,
                        -0.3624972105026245,
                        0.168507918715477,
                        0.035979967564344409,
                        -0.05010686442255974,
                        0.1168690100312233,
                        -0.040607597678899768,
                        0.12071267515420914,
                        -0.29668208956718447,
                        -0.020277347415685655,
                        -0.27319034934043887,
                        -0.22493323683738709,
                        -0.009433121420443058,
                        -0.17064332962036134,
                        -0.17090609669685365,
                        -0.25676199793815615,
                        0.2542087435722351,
                        0.0014881377574056388,
                        0.05007768049836159,
                        -0.03197253495454788,
                        0.07121605426073075,
                        0.05336923152208328,
                        -0.06060190871357918,
                        -0.03571651875972748,
