{
    "items": [
        {
            "neurons": [
                {
                    "weights": [
                        -0.058566950261592868,
                        0.35896381735801699,
                        0.009733124636113644,
                        -0.12206514179706574,
                        -0.17556485533714295,
                        0.07787366956472397,
                        -0.0700899288058281,
                        0.20311897993087769,
                        0.19807322323322297,
                        0.026660611853003503,
                        0.16365326941013337,
                        0.21674752235412599,
                        0.12257790565490723,
                        -0.18907830119132996,
                        0.005724085029214621,
                        -0.1421532779932022,
                        0.0943051353096962,
                        0.1814277470111847,
                        -0.028287090361118318,
                        -0.15291990339756013,
                        0.03425566479563713
                    ],
                    "bias": 0.09961681813001633
                },
                {
                    "weights": [
                        -0.008981657214462757,
                        0.15612833201885224,
                        -0.24267812073230744,
                        0.3089669942855835,
                        0.09589646756649018,
                        0.2637039124965668,
                        0.19978100061416627,
                        -0.0796923115849495,
                        0.1146514043211937,
                        0.17851683497428895,
                        -0.1911487579345703,
                        0.3413810133934021,
                        -0.09610295295715332,
                        -0.1351126730442047,
                        0.05813915655016899,
                        0.21555191278457642,
                        -0.07825767993927002,
                        -0.11907605081796646,
                        0.1338488906621933,
                        0.09292571991682053,
                        0.03598588705062866
                    ],
                    "bias": -0.06496299803256989
                },
                {
                    "weights": [
                        0.3236273527145386,
                        0.11841642111539841,
                        -0.37711647152900698,
                        -0.21697767078876496,
                        0.26749277114868166,
                        0.005432089325040579,
                        -0.01938367635011673,
                        -0.10013829171657562,
                        0.023878328502178193,
                        0.02710137702524662,
                        0.1313009262084961,
                        -0.13360093533992768,
                        0.012895782478153706,
                        0.19502019882202149,
                        -0.16484254598617555,
                        -0.015758827328681947,
                        0.021449996158480645,
                        0.4325656294822693,
                        0.024630794301629068,
                        0.11267928034067154,
                        -0.07452922314405441
                    ],
                    "bias": -0.1839999407529831
                },
                {
                    "weights": [
                        0.15616552531719209,
                        -0.0844711884856224,
                        -0.13051189482212068,
                        -0.4219004213809967,
                        -0.3234848976135254,
                        -0.41773608326911929,
                        0.062084589153528216,
                        -0.1545567512512207,
                        -0.07761655002832413,
                        -0.07127907872200012,
                        0.25447988510131838,
                        0.33703312277793887,
                        -0.19611741602420808,
                        0.1080489307641983,
                        -0.06090804934501648,
                        0.10117140412330628,
                        0.15097741782665254,
                        0.04659057408571243,
                        -0.21521250903606416,
                        0.17229706048965455,
                        -0.011200194247066975
                    ],
                    "bias": -0.013655731454491616
                },
                {
                    "weights": [
                        0.19948816299438477,
                        0.0426783561706543,
                        0.13260775804519654,
                        -0.13681834936141969,
                        -0.11716417968273163,
                        -0.047741279006004336,
                        0.08916713297367096,
                        -0.04377260059118271,
                        -0.2953416109085083,
                        0.2525492012500763,
                        -0.021677231416106225,
                        -0.1523696482181549,
                        -0.12497805058956146,
                        -0.2800334095954895,
                        -0.15797559916973115,
                        0.06055450439453125,
                        0.22435542941093446,
                        -0.19241587817668916,
                        0.10115385800600052,
                        0.011740135960280896,
                        0.07153286784887314
                    ],
                    "bias": 0.119844950735569
                },
                {
                    "weights": [
                        0.07447554916143418,
                        -0.05944320186972618,
                        0.13657385110855103,
                        -0.017521779984235765,
                        0.03181185945868492,
                        0.18604271113872529,
                        -0.06152064725756645,
                        -0.15710505843162538,
                        -0.2103600651025772,
                        0.17834976315498353,
                        -0.01768380217254162,
                        -0.24099940061569215,
                        -0.02875063754618168,
                        0.0827101394534111,
                        -0.029240569099783899,
                        0.4448975622653961,
                        0.185765340924263,
                        -0.10600832849740982,
                        0.0753723606467247,
                        0.03878214582800865,
                        -0.06221385672688484
                    ],
                    "bias": -0.047530386596918109
                },
                {
                    "weights": [
                        0.14464247226715089,
                        0.0346556231379509,
                        -0.12426066398620606,
                        0.34906330704689028,
                        -0.13533319532871247,
                        0.12300879508256912,
                        0.09246905893087387,
                        -0.1401364654302597,
                        -0.011581776663661003,
                        0.3159152865409851,
                        0.04102030023932457,
                        -0.22990188002586366,
                        0.09727858006954193,
                        -0.0648743212223053,
                        0.3789483308792114,
                        -0.1833399534225464,
                        0.054772522300481799,
                        -0.4501045048236847,
                        -0.02301749587059021,
                        0.1787082850933075,
                        -0.3315969407558441
                    ],
                    "bias": -0.3513669967651367
                },
                {
                    "weights": [
                        0.28388112783432009,
                        -0.1258133500814438,
                        -0.11311900615692139,
                        0.0745115801692009,
                        -0.0014694350538775325,
                        -0.10722584277391434,
                        -0.1699194461107254,
                        0.2598411440849304,
                        0.2577323913574219,
                        -0.02649971842765808,
                        0.12148633599281311,
                        -0.25358524918556216,
                        0.31678879261016848,
                        -0.061843350529670718,
                        -0.11039731651544571,
                        -0.04619237408041954,
                        -0.1286153793334961,
                        0.1864478588104248,
                        0.043284617364406589,
                        -0.020434122532606126,
                        0.008331038989126683
                    ],
                    "bias": 0.04966558516025543
                },
                {
                    "weights": [
                        0.09562584012746811,
                        0.026879092678427697,
                        -0.08812898397445679,
                        -0.10993637889623642,
                        -0.035416293889284137,
                        0.06928213685750961,
                        0.05206618830561638,
                        -0.0006517366273328662,
                        -0.04582659527659416,
                        -0.10180371254682541,
                        -0.21216273307800294,
                        -0.19421665370464326,
                        0.2982426583766937,
                        -0.1944904327392578,
                        -0.14277392625808717,
                        -0.48581820726394656,
                        -0.015765298157930375,
                        -0.15718483924865724,
                        0.16009974479675294,
                        -0.22645173966884614,
                        -0.06284480541944504
                    ],
                    "bias": 0.08699343353509903
                },
                {
                    "weights": [
                        0.25713059306144717,
                        -0.2154984176158905,
                        0.023828377947211267,
                        -0.031150957569479944,
                        -0.02929907664656639,
                        -0.10646957159042359,
                        0.29761478304862978,
                        -0.24410408735275269,
                        -0.16120754182338715,
                        -0.10617762058973313,
                        -0.10013429075479508,
                        0.05613792687654495,
                        0.34136614203453066,
                        -0.2610747516155243,
                        0.29036426544189455,
                        0.05435923486948013,
                        -0.08545401692390442,
                        -0.2962067127227783,
                        -0.17257709801197053,
                        0.03204575553536415,
                        -0.013239419087767601
                    ],
                    "bias": 0.05152873322367668
                },
                {
                    "weights": [
                        0.0843680277466774,
                        -0.22464010119438172,
                        0.20575900375843049,
                        -0.08943232148885727,
                        -0.11820971965789795,
                        -0.02030698023736477,
                        -0.07615511864423752,
                        -0.014625685289502144,
                        0.21864432096481324,
                        -0.04849327355623245,
                        -0.1861904114484787,
                        0.15429770946502686,
                        0.16792775690555573,
                        0.05086106061935425,
                        -0.003259792923927307,
                        0.10740271955728531,
                        0.12117382138967514,
                        -0.22059252858161927,
                        0.27016356587409975,
                        0.3826267123222351,
                        0.1494615077972412
                    ],
                    "bias": -0.07596506923437119
                },
                {
                    "weights": [
                        0.19422981142997743,
                        0.27425098419189455,
                        -0.20382316410541535,
                        -0.1310492604970932,
                        0.20186689496040345,
                        -0.04368207976222038,
                        -0.01228693313896656,
                        -0.14397145807743073,
                        -0.16809330880641938,
                        0.11986437439918518,
                        0.07049929350614548,
                        0.19085238873958589,
                        -0.17933978140354157,
                        0.1950298696756363,
                        0.07678675651550293,
                        -0.40199729800224306,
                        -0.01397189125418663,
                        -0.0036877510137856008,
                        -0.24696841835975648,
                        0.20412474870681764,
                        -0.032220836728811267
                    ],
                    "bias": -0.08701691776514054
                },
                {
                    "weights": [
                        -0.15441268682479859,
                        -0.27242231369018557,
                        0.1504659652709961,
                        -0.0046859015710651878,
                        0.1644141525030136,
                        -0.12722913920879365,
                        0.09695817530155182,
                        -0.40185385942459109,
                        -0.23016004264354707,
                        -0.23456181585788728,
                        0.03766651824116707,
                        0.201642245054245,
                        -0.12348757684230805,
                        -0.17383679747581483,
                        -0.1461310237646103,
                        0.006964586675167084,
                        0.3650725483894348,
                        0.1956072896718979,
                        0.07727403193712235,
                        0.088565893471241,
                        0.12223202735185623
                    ],
                    "bias": -0.2152731716632843
                },
                {
                    "weights": [
                        -0.008515563793480397,
                        0.17022331058979035,
                        -0.14060045778751374,
                        -0.057914264500141147,
                        0.12479817122220993,
                        0.16957828402519227,
                        -0.04078766331076622,
                        0.2974563539028168,
                        0.046485770493745807,
                        0.15176881849765778,
                        0.01131903100758791,
                        -0.036601413041353229,
                        0.04117785766720772,
                        0.36456501483917239,
                        0.12853364646434785,
                        0.08801326900720597,
                        0.0870644822716713,
                        0.05348670482635498,
                        0.012091347016394139,
                        0.0360749214887619,
                        0.041591010987758639
                    ],
                    "bias": 0.003295744536444545
                },
                {
                    "weights": [
                        -0.18715882301330567,
                        -0.002067583380267024,
                        -0.07129371166229248,
                        0.06076044961810112,
                        0.07925792783498764,
                        -0.09339680522680283,
                        0.16782502830028535,
                        0.06642166525125504,
                        0.22289378941059113,
                        0.222735196352005,
                        0.1672629565000534,
                        0.11307933926582337,
                        -0.10816958546638489,
                        0.013178408145904541,
                        -0.03745860606431961,
                        -0.09825004637241364,
                        0.11080494523048401,
                        -0.016741687431931497,
                        -0.20616748929023744,
                        -0.06340821832418442,
                        -0.014660082757472992
                    ],
                    "bias": 0.1596447080373764
                },
                {
                    "weights": [
                        -0.04953914135694504,
                        0.0996723473072052,
                        0.11679187417030335,
                        0.2919352352619171,
                        -0.2712683379650116,
                        0.36375299096107485,
                        -0.03979618847370148,
                        -0.03318915143609047,
                        -0.1326460838317871,
                        0.09680835157632828,
                        -0.06895220279693604,
                        0.12185283750295639,
                        -0.0984041765332222,
                        0.18705470860004426,
                        0.19357827305793763,
                        -0.2652468979358673,
                        -0.0635177493095398,
                        0.1139027550816536,
                        0.19391341507434846,
                        -0.01670990139245987,
                        0.0880882516503334
                    ],
                    "bias": -0.02782728336751461
                },
                {
                    "weights": [
                        0.09057942032814026,
                        0.2664414644241333,
                        -0.21228908002376557,
                        -0.06248906999826431,
                        -0.1876714527606964,
                        -0.1898183375597,
                        0.015686362981796266,
                        0.10166539251804352,
                        -0.04862239584326744,
                        -0.0374293327331543,
                        -0.08782551437616348,
                        0.0068843481130898,
                        0.1878456026315689,
                        0.12560777366161347,
                        0.07763369381427765,
                        -0.048355959355831149,
                        -0.10509224981069565,
                        -0.0503702349960804,
                        0.0423312671482563,
                        -0.32805487513542178,
                        -0.08405674993991852
                    ],
                    "bias": -0.23956534266471864
                },
                {
                    "weights": [
                        0.44431984424591067,
                        -0.026252303272485734,
                        -0.027992364019155504,
                        0.06289906799793244,
                        -0.09123258292675019,
                        -0.17405614256858827,
                        0.06318147480487824,
                        0.24383756518363954,
                        -0.16481442749500276,
                        0.13720831274986268,
                        0.015271533280611039,
                        -0.19058601558208466,
                        -0.09661091864109039,
                        0.3082398474216461,
                        0.05585954710841179,
                        -0.011900242418050766,
                        0.14021597802639008,
                        0.21548159420490266,
                        0.1377018541097641,
                        -0.03990049660205841,
                        -0.05787265673279762
                    ],
                    "bias": 0.04829748347401619
                },
                {
                    "weights": [
                        0.16558803617954255,
                        -0.0591028593480587,
                        0.28787678480148318,
                        0.1349705010652542,
                        0.21773475408554078,
                        0.015952805057168008,
                        0.01815003901720047,
                        -0.13930121064186097,
                        0.07800395786762238,
                        -0.15782037377357484,
                        0.13965925574302674,
                        -0.060826294124126437,
                        0.08285526931285858,
                        0.03837716206908226,
                        -0.11974615603685379,
                        0.005264641717076302,
                        0.25229907035827639,
                        -0.23217685520648957,
                        -0.1929134577512741,
                        0.032599419355392459,
                        0.05593601614236832
                    ],
                    "bias": -0.14374078810214997
                },
                {
                    "weights": [
                        0.0940529927611351,
                        0.06439044326543808,
                        0.2286098301410675,
                        0.11006871610879898,
                        -0.07884576916694641,
                        0.09199808537960053,
                        0.055277980864048007,
                        -0.04253551363945007,
                        0.021329959854483606,
                        -0.05479970946907997,
                        0.16335231065750123,
                        -0.1460002362728119,
                        -0.14899888634681703,
                        -0.07189871370792389,
                        -0.169862762093544,
                        -0.4769488275051117,
                        0.20953316986560822,
                        0.1073620468378067,
                        0.017841383814811708,
                        -0.428843230009079,
                        -0.02174076996743679
                    ],
                    "bias": -0.028385812416672708
                },
                {
                    "weights": [
                        0.22526513040065766,
                        -0.2436467558145523,
                        0.016109377145767213,
                        0.2573396861553192,
                        -0.011536437086760998,
                        -0.05402163416147232,
                        -0.28506994247436526,
                        -0.195800319314003,
                        -0.058956339955329898,
                        -0.07066097110509873,
                        0.028284529224038125,
                        0.26002460718154909,
                        -0.10614035278558731,
                        -0.07886050641536713,
                        -0.0414041168987751,
                        0.29607829451560976,
                        -0.3951164782047272,
                        0.17579013109207154,
                        -0.024733252823352815,
                        -0.013804178684949875,
                        -0.23824624717235566
                    ],
                    "bias": -0.09938560426235199
                },
                {
                    "weights": [
                        0.0853244960308075,
                        0.13720276951789857,
                        -0.14372649788856507,
                        0.07107463479042053,
                        0.02449713833630085,
                        0.08543133735656738,
                        0.0677507072687149,
                        -0.24784573912620545,
                        -0.11437579244375229,
                        -0.3493684232234955,
                        0.1338881105184555,
                        0.19164162874221803,
                        -0.024776427075266839,
                        -0.39614206552505495,
                        -0.17606468498706819,
                        0.12637220323085786,
                        0.17019103467464448,
                        -0.0037917084991931917,
                        0.356564462184906,
                        0.12677335739135743,
                        0.09433970600366593
                    ],
                    "bias": -0.11348064988851547
                },
                {
                    "weights": [
                        0.1432037055492401,
                        -0.2785334289073944,
                        -0.026253899559378625,
                        0.02197791263461113,
                        -0.207688570022583,
                        0.04724142327904701,
                        -0.05969768017530441,
                        0.08998499810695648,
                        0.2568941116333008,
                        -0.05218544974923134,
                        -0.27996543049812319,
                        0.16028638184070588,
                        -0.028234951198101045,
                        0.02845711074769497,
                        -0.02606300078332424,
                        -0.15285687148571015,
                        0.11176906526088715,
                        0.19990931451320649,
                        -0.027236532419919969,
                        -0.28884097933769228,
                        -0.23124085366725923
                    ],
                    "bias": 0.14558647572994233
                },
                {
                    "weights": [
                        0.0348970852792263,
                        -0.08586869388818741,
                        0.05104457587003708,
                        -0.10916884243488312,
                        -0.5,
                        -0.16525183618068696,
                        0.034759871661663058,
                        0.16503959894180299,
                        0.05015898123383522,
                        -0.26504066586494448,
                        0.1661057472229004,
                        -0.06480486690998078,
                        -0.04488036036491394,
                        -0.013178616762161255,
                        -0.025995196774601938,
                        0.12764984369277955,
                        0.1347319781780243,
                        0.18826110661029817,
                        -0.09639836847782135,
                        -0.19144336879253388,
                        -0.10582239925861359
                    ],
                    "bias": -0.10021514445543289
                },
                {
                    "weights": [
                        -0.0974225178360939,
                        0.15808185935020448,
                        0.0579814612865448,
                        -0.027838880196213723,
                        -0.005402574315667152,
                        -0.11226490139961243,
                        -0.0557369701564312,
                        0.37107646465301516,
                        0.08970504254102707,
                        0.15867578983306886,
                        0.06462958455085755,
                        -0.012578599154949189,
                        -0.0753650814294815,
                        0.008838441222906113,
                        0.24024729430675507,
                        -0.11769171804189682,
                        -0.020483897998929025,
                        0.24834422767162324,
                        0.007895178161561489,
                        0.26969215273857119,
                        0.021056557074189187
                    ],
                    "bias": 0.006036852486431599
                },
                {
                    "weights": [
                        -0.004528786055743694,
                        0.41098281741142275,
                        0.04673268273472786,
                        0.06661336869001389,
                        -0.20097358524799348,
                        0.31138119101524355,
                        0.20759055018424989,
                        0.18196456134319306,
                        -0.03344940021634102,
                        -0.06142524629831314,
                        0.14030981063842774,
                        0.1630537360906601,
                        -0.055135320872068408,
                        -0.26581576466560366,
                        -0.22977407276630402,
                        0.007925068959593773,
                        -0.25290459394454958,
                        -0.021789852529764177,
                        0.3400016725063324,
                        0.17161233723163606,
                        -0.009699399583041668
                    ],
                    "bias": -0.08280757069587708
                },
                {
                    "weights": [
                        0.2852061986923218,
                        -0.1208275780081749,
                        0.055624570697546008,
                        0.014828124083578587,
                        0.07338317483663559,
                        -0.022785663604736329,
                        0.22803132236003877,
                        0.016698496416211129,
                        -0.08706039190292359,
                        -0.04103110358119011,
                        -0.05474326014518738,
                        -0.08764195442199707,
                        -0.2737411558628082,
                        0.22398275136947633,
                        0.1346331536769867,
                        -0.006223749369382858,
                        -0.25554925203323367,
                        -0.35046228766441347,
                        0.20754490792751313,
                        -0.04211423918604851,
                        0.1743622124195099
                    ],
                    "bias": -0.21910685300827027
                },
                {
                    "weights": [
                        -0.07568812370300293,
                        0.12772247195243836,
                        -0.33704274892807009,
                        0.11699394881725311,
                        -0.11877857148647309,
                        0.29867687821388247,
                        0.028012624010443689,
                        0.13227657973766328,
                        0.41930028796195986,
                        0.23446542024612428,
                        -0.10746698081493378,
                        0.3505450487136841,
                        0.04082556813955307,
                        -0.03313569724559784,
                        0.19568055868148805,
                        -0.1488080769777298,
                        0.1488427370786667,
                        0.2700340449810028,
                        -0.048436131328344348,
                        -0.06620612740516663,
                        -0.14766532182693482
                    ],
                    "bias": -0.017822621390223504
                },
                {
                    "weights": [
                        0.22030417621135713,
                        -0.02474624291062355,
                        0.10076673328876496,
                        0.1199159324169159,
                        -0.03616587445139885,
                        -0.009744523093104363,
                        0.1882714182138443,
                        -0.5,
                        0.09776263684034348,
                        0.12268407642841339,
                        -0.19647730886936189,
                        0.037189699709415439,
                        -0.1344156116247177,
                        -0.17284385859966279,
                        -0.05435583367943764,
                        0.1872607171535492,
                        -0.2855636477470398,
                        -0.020142683759331704,
                        -0.022960571572184564,
                        0.13456575572490693,
                        0.2206052541732788
                    ],
                    "bias": 0.07059129327535629
                },
                {
                    "weights": [
                        0.19220300018787385,
                        -0.3452366292476654,
                        -0.08745136857032776,
                        0.01357280183583498,
                        -0.264510840177536,
                        -0.24407696723937989,
                        -0.0322713740170002,
                        -0.2953857481479645,
                        -0.042090967297554019,
                        0.4267922043800354,
                        -0.059690263122320178,
                        -0.16242101788520814,
                        0.0856996402144432,
                        -0.1515251100063324,
                        -0.18461322784423829,
                        0.020053347572684289,
                        -0.22409385442733766,
                        -0.16094139218330384,
                        0.05455382168292999,
                        0.21627870202064515,
                        0.005205774679780006
                    ],
                    "bias": 0.07744012773036957
                },
                {
                    "weights": [
                        0.1247926875948906,
                        -0.03148312866687775,
                        -0.10393368452787399,
                        0.2947324216365814,
                        0.19488301873207093,
                        0.1270369589328766,
                        -0.0040948474779725079,
                        0.016621749848127366,
                        -0.2526467740535736,
                        0.010358654893934727,
                        -0.02428152598440647,
                        -0.1920929104089737,
                        0.3208879828453064,
                        0.0724259540438652,
                        -0.1752762347459793,
                        0.02818864770233631,
                        0.03258673846721649,
                        0.1769668608903885,
                        0.041429877281188968,
                        -0.1981072723865509,
                        -0.033560145646333697
                    ],
                    "bias": -0.04819101095199585
                },
                {
                    "weights": [
                        -0.050184112042188647,
                        -0.25684797763824465,
                        0.44021695852279665,
                        -0.053576815873384479,
                        0.17470887303352357,
                        0.1067228689789772,
                        0.1272272765636444,
                        0.10515008866786957,
                        -0.1112712174654007,
                        -0.012068728916347027,
                        0.21170252561569215,
                        -0.10969723761081696,
                        0.27240440249443056,
                        0.19335490465164185,
                        -0.14437498152256013,
                        -0.1399582326412201,
                        -0.1984085589647293,
                        0.08159906417131424,
                        0.11189907044172287,
                        -0.2624801993370056,
                        0.17329396307468415
                    ],
                    "bias": -0.10738639533519745
                },
                {
                    "weights": [
                        0.2802311182022095,
                        -0.08965672552585602,
                        0.017834819853305818,
                        -0.13048596680164338,
                        0.04194860905408859,
                        0.13844336569309236,
                        -0.0915563777089119,
                        0.05063498020172119,
                        -0.06740312278270722,
                        -0.04009932279586792,
                        0.09348573535680771,
                        -0.27985429763793948,
                        -0.05511920899152756,
                        0.06155126914381981,
                        -0.1608758121728897,
                        0.050692252814769748,
                        -0.10180571675300598,
                        0.19699737429618836,
                        -0.08133206516504288,
                        0.17668984830379487,
                        0.24205522239208222
                    ],
                    "bias": 0.06775689125061035
                },
                {
                    "weights": [
                        0.09270799160003662,
                        0.07497633993625641,
                        0.0493842214345932,
                        0.23577283322811128,
                        0.387251079082489,
                        -0.27126601338386538,
                        0.018863091245293618,
                        0.0325351320207119,
                        -0.23378761112689973,
                        0.030926071107387544,
                        -0.13692258298397065,
                        0.061773572117090228,
                        0.10556689649820328,
                        -0.011701340787112713,
                        0.09106677770614624,
                        0.05081580951809883,
                        -0.2844330072402954,
                        -0.06631285697221756,
                        0.01688261143863201,
                        0.05639583617448807,
                        -0.1998346596956253
                    ],
                    "bias": 0.007268825545907021
                },
                {
                    "weights": [
                        -0.00964525155723095,
                        -0.0939655750989914,
                        -0.08220097422599793,
                        -0.016401030123233796,
                        -0.10483408719301224,
                        -0.2923862338066101,
                        0.30720895528793337,
                        0.1117226779460907,
                        0.17572882771492005,
                        0.24310411512851716,
                        0.2705201208591461,
                        -0.33007240295410159,
                        0.04757467657327652,
                        0.198430135846138,
                        0.14634326100349427,
                        0.22604964673519135,
                        0.3489392399787903,
                        -0.08682776242494583,
                        -0.23457469046115876,
                        0.3255559504032135,
                        0.3330974578857422
                    ],
                    "bias": -0.05807052552700043
                },
                {
                    "weights": [
                        -0.06571955233812332,
                        -0.021375060081481935,
                        -0.3230692148208618,
                        -0.17619067430496217,
                        0.1615530550479889,
                        0.0234854556620121,
                        -0.024898609146475793,
                        -0.2529734969139099,
                        0.18615002930164338,
                        0.07156059890985489,
                        -0.27950823307037356,
                        0.12752552330493928,
                        0.10911864042282105,
                        -0.17533546686172486,
                        -0.17941981554031373,
                        0.057607293128967288,
                        0.18090738356113435,
                        0.15364809334278108,
                        0.030084550380706788,
                        -0.013230460695922375,
                        -0.12802496552467347
                    ],
                    "bias": 0.0220461618155241
                },
                {
                    "weights": [
                        -0.04860401898622513,
                        -0.033696651458740237,
                        -0.34371906518936159,
                        -0.15727181732654572,
                        -0.1274869292974472,
                        0.013773832470178604,
                        0.15915080904960633,
                        -0.12662099301815034,
                        0.11688802391290665,
                        0.22084367275238038,
                        -0.23446616530418397,
                        0.05418141186237335,
                        0.17423950135707856,
                        0.15401610732078553,
                        -0.012376029044389725,
                        -0.026413271203637124,
                        -0.1812618225812912,
                        0.09286244958639145,
                        0.1010683998465538,
                        -0.2496149241924286,
                        0.05452808737754822
                    ],
                    "bias": 0.0928855910897255
                },
                {
                    "weights": [
                        0.10445715487003327,
                        0.13714666664600373,
                        -0.15178999304771424,
                        -0.055692534893751147,
                        0.06993094831705094,
                        -0.12563654780387879,
                        0.22507457435131074,
                        -0.10325291752815247,
                        0.060108087956905368,
                        -0.01670807972550392,
                        0.017733750864863397,
                        0.17091171443462373,
                        0.15337499976158143,
                        0.0805477723479271,
                        -0.14241789281368257,
                        0.17333216965198518,
                        -0.34145277738571169,
                        0.12004045397043228,
                        -0.0277896486222744,
                        -0.24824802577495576,
                        -0.1452358365058899
                    ],
                    "bias": -0.013083325698971749
                },
                {
                    "weights": [
                        0.30645790696144106,
                        -0.16319264471530915,
                        -0.2309848666191101,
                        0.14416776597499848,
                        0.11671169847249985,
                        0.01719297282397747,
                        0.02540808543562889,
                        0.022790109738707544,
                        -0.04389907419681549,
                        -0.10519298911094666,
                        0.2367139756679535,
                        0.22045007348060609,
                        0.3042886555194855,
                        0.49823319911956789,
                        -0.042417991906404498,
                        0.29474201798439028,
                        -0.12228512763977051,
                        -0.03811715170741081,
                        -0.16461549699306489,
                        -0.005133050959557295,
                        -0.13681139051914216
                    ],
                    "bias": -0.060896895825862887
                },
                {
                    "weights": [
                        0.11214310675859451,
                        0.055886778980493548,
                        -0.020956218242645265,
                        0.08078771084547043,
                        -0.24357697367668153,
                        -0.14771749079227448,
                        -0.04100175201892853,
                        -0.035028256475925449,
                        0.2839778959751129,
                        0.12405961006879807,
                        -0.03445768356323242,
                        0.336857408285141,
                        -0.04034431278705597,
                        -0.17415285110473634,
                        -0.13843967020511628,
                        0.2209705263376236,
                        0.10407040268182755,
                        0.07122715562582016,
                        -0.1574830412864685,
                        -0.26578018069267275,
                        -0.1845528930425644
                    ],
                    "bias": 0.11665349453687668
                },
                {
                    "weights": [
                        -0.037811387330293658,
                        -0.0575995035469532,
                        0.21773092448711396,
                        0.13738217949867249,
                        0.006631881929934025,
                        -0.06995334476232529,
                        0.14156970381736756,
                        0.035759925842285159,
                        -0.030499078333377839,
                        0.40368542075157168,
                        -0.06626066565513611,
                        0.1129133403301239,
                        -0.08798764646053314,
                        -0.07407671213150025,
                        -0.020301848649978639,
                        -0.031832363456487659,
                        0.010617499239742756,
                        -0.018428025767207147,
                        0.31530195474624636,
                        -0.02142111212015152,
                        -0.1641303449869156
                    ],
                    "bias": 0.2154352366924286
                },
                {
                    "weights": [
                        -0.0665840283036232,
                        -0.12093429267406464,
                        0.003641741583123803,
                        -0.058726269751787189,
                        0.2587897479534149,
                        0.13475316762924195,
                        -0.12736347317695619,
                        -0.17311763763427735,
                        -0.24271836876869203,
                        0.19837971031665803,
                        0.1990666538476944,
                        -0.21280936896800996,
                        0.316320538520813,
                        0.007034000009298325,
                        0.03692788630723953,
                        0.04638190567493439,
                        -0.1832616627216339,
                        -0.06792905181646347,
                        -0.10316242277622223,
                        -0.13683722913265229,
                        -0.12926875054836274
                    ],
                    "bias": 0.06906840205192566
                },
                {
                    "weights": [
                        0.08395397663116455,
                        0.06385653465986252,
                        -0.07964131981134415,
                        -0.07444178313016892,
                        0.0042134299874305729,
                        0.22177311778068543,
                        0.16563984751701356,
                        0.38602790236473086,
                        0.1086437776684761,
                        -0.27120286226272585,
                        0.13718123733997346,
                        -0.05719837173819542,
                        0.006029976531863213,
                        0.033870063722133639,
                        -0.1909644603729248,
                        -0.05581515654921532,
                        0.19678354263305665,
                        0.08215446025133133,
                        0.09131155163049698,
                        -0.11799798905849457,
                        0.012957359664142132
                    ],
                    "bias": 0.16833175718784333
                },
                {
                    "weights": [
                        -0.26563212275505068,
                        -0.011789430864155293,
                        0.07921828329563141,
                        -0.04754279553890228,
                        0.17985522747039796,
                        -0.03893977403640747,
                        0.15627075731754304,
                        0.003969845362007618,
                        -0.17877067625522614,
                        0.25035011768341067,
                        0.078162781894207,
                        0.007905029691755772,
                        -0.14887486398220063,
                        0.00865202583372593,
                        -0.004636029247194529,
                        0.1858714371919632,
                        0.18121148645877839,
                        0.016216425225138665,
                        0.07678840309381485,
                        -0.1133325845003128,
                        0.23489870131015778
                    ],
                    "bias": 0.21272185444831849
                },
                {
                    "weights": [
                        -0.05568244680762291,
                        0.148386612534523,
                        0.005964072421193123,
                        -0.06600626558065415,
                        0.1486709713935852,
                        0.033659327775239947,
                        -0.2917792797088623,
                        -0.09050911664962769,
                        -0.07509414851665497,
                        -0.02887348085641861,
                        -0.22132819890975953,
                        -0.1817546933889389,
                        -0.13087274134159089,
                        -0.0690169483423233,
                        -0.029301423579454423,
                        0.19833379983901978,
                        -0.1574801355600357,
                        0.07771579921245575,
                        0.1758510023355484,
                        0.012170165777206421,
                        0.0942491963505745
                    ],
                    "bias": 0.37315359711647036
                },
                {
                    "weights": [
                        -0.17252664268016816,
                        0.15676550567150117,
                        0.10265518724918366,
                        0.4133278429508209,
                        0.1159093901515007,
                        -0.026184746995568277,
                        -0.08473799377679825,
                        0.17705251276493073,
                        -0.10869618505239487,
                        -0.12131612747907639,
                        -0.1956663876771927,
                        0.18026645481586457,
                        -0.009988362900912762,
                        -0.13705210387706757,
                        0.04869729280471802,
                        -0.3940122127532959,
                        0.17519576847553254,
                        0.09166619181632996,
                        -0.2863161563873291,
                        0.09500456601381302,
                        -0.08743844926357269
                    ],
                    "bias": 0.3790433704853058
                },
                {
                    "weights": [
                        -0.29979580640792849,
                        -0.00613984651863575,
                        -0.014410991221666336,
                        -0.04947680979967117,
                        -0.06567973643541336,
                        -0.056182269006967548,
                        -0.01800166815519333,
                        0.21731527149677277,
                        0.18566150963306428,
                        0.05122094973921776,
                        0.03832392767071724,
                        0.05273696780204773,
                        -0.0646098330616951,
                        -0.14283500611782075,
                        -0.08661241084337235,
                        0.1329682618379593,
                        -0.33265623450279238,
                        0.0539231151342392,
                        0.21338218450546266,
                        0.1885443478822708,
                        0.1952528953552246
                    ],
                    "bias": -0.11454803496599198
                },
                {
                    "weights": [
                        0.21925139427185059,
                        -0.07953439652919769,
                        0.08273380249738693,
                        -0.22813349962234498,
                        0.20816808938980103,
                        -0.28603771328926089,
                        0.02650042623281479,
                        -0.013490933924913407,
                        0.18697258830070496,
                        -0.01375638134777546,
                        -0.108199343085289,
                        -0.020477337762713434,
                        -0.2584793269634247,
                        0.1716701239347458,
                        -0.020801827311515809,
                        0.005425315350294113,
                        0.007711098063737154,
                        -0.31394821405410769,
                        -0.2103901505470276,
                        -0.11091632395982743,
                        -0.18248382210731507
                    ],
                    "bias": 0.0016119469655677677
                },
                {
                    "weights": [
                        0.1344064623117447,
                        -0.2872634530067444,
                        -0.011530891060829163,
                        0.031582336872816089,
                        0.03989916667342186,
                        0.02363768219947815,
                        -0.35291004180908205,
                        -0.17794038355350495,
                        -0.07971572130918503,
                        0.170193150639534,
                        0.07678312808275223,
                        0.160724937915802,
                        0.07384221255779267,
                        0.055921003222465518,
                        -0.04847823828458786,
                        0.06538383662700653,
                        0.22043052315711976,
                        0.043056026101112369,
                        0.11454638838768006,
                        -0.2982620596885681,
                        -0.24188052117824555
                    ],
                    "bias": 0.09191755950450897
                },
                {
                    "weights": [
                        -0.03068576566874981,
                        -0.3101617097854614,
                        0.3511612117290497,
                        -0.2986004054546356,
                        -0.35481834411621096,
                        0.33848339319229128,
                        0.18060652911663056,
                        -0.002038093749433756,
                        0.17808260023593903,
                        0.10569655150175095,
                        0.0178153645247221,
                        0.17633560299873353,
                        0.16287684440612794,
                        0.16129621863365174,
                        -0.4640723764896393,
                        0.011950908228754998,
                        -0.0011598675046116114,
                        -0.11458931863307953,
                        -0.3135281205177307,
                        -0.12508322298526765,
                        0.21878808736801148
                    ],
                    "bias": -0.1485615372657776
                },
                {
                    "weights": [
                        -0.14291828870773316,
                        -0.341344952583313,
                        0.09241867810487747,
                        0.21074990928173066,
                        0.044641342014074329,
                        0.1766749769449234,
                        -0.23467037081718446,
                        0.04753760248422623,
                        -0.10285401344299317,
                        0.04559212923049927,
                        -0.05132150650024414,
                        -0.2745296359062195,
                        0.16407553851604463,
                        0.12956072390079499,
                        -0.006741488818079233,
                        -0.11696097999811173,
                        -0.01641835644841194,
                        0.30294784903526308,
                        0.046080268919467929,
                        -0.2216128557920456,
                        0.018111595883965493
                    ],
                    "bias": -0.14243698120117188
                },
                {
                    "weights": [
                        -0.10194959491491318,
                        -0.07800302654504776,
                        0.058921098709106448,
                        -0.3595990538597107,
                        -0.030972713604569436,
                        0.21934615075588227,
                        -0.1656077355146408,
                        -0.2812395691871643,
                        -0.2836652398109436,
                        -0.0556582435965538,
                        0.026238372549414636,
                        0.11591888219118118,
                        0.29085612297058108,
                        0.07067663222551346,
                        -0.13480062782764436,
                        0.05296673998236656,
                        -0.011596749536693097,
                        -0.18051974475383759,
                        0.061136625707149509,
                        0.07801547646522522,
                        -0.42649853229522707
                    ],
                    "bias": 0.09302738308906555
                },
                {
                    "weights": [
                        -0.015223776921629906,
                        0.1672690510749817,
                        0.010349228046834469,
                        -0.13276095688343049,
                        0.5,
                        0.06936861574649811,
                        -0.1322718858718872,
                        -0.14107948541641236,
                        -0.024852661415934564,
                        -0.2627130448818207,
                        0.19318601489067079,
                        -0.07890867441892624,
                        0.16180427372455598,
                        0.14579002559185029,
                        -0.25746801495552065,
                        -0.21804915368556977,
                        -0.17228572070598603,
                        -0.08390076458454132,
                        -0.1018950417637825,
                        -0.20298844575881959,
                        0.30844104290008547
                    ],
                    "bias": -0.017443032935261728
                },
                {
                    "weights": [
                        0.12659265100955964,
                        -0.21232151985168458,
                        0.26018139719963076,
                        -0.399418443441391,
                        0.07351377606391907,
                        -0.08682981878519058,
                        -0.013172023929655552,
                        -0.024730728939175607,
                        -0.03734426945447922,
                        -0.13110829889774323,
                        0.00214734161272645,
                        -0.059360723942518237,
                        -0.07893895357847214,
                        -0.1611284464597702,
                        -0.07780062407255173,
                        0.1744949370622635,
                        0.08332827687263489,
                        -0.045571811497211459,
                        0.05361621826887131,
                        -0.13910378515720368,
                        -0.22552837431430818
                    ],
                    "bias": 0.04661601409316063
                },
                {
                    "weights": [
                        0.17121990025043488,
                        0.30283302068710329,
                        -0.060550179332494739,
                        0.02996220253407955,
                        -0.06434344500303269,
                        0.10044534504413605,
                        0.07302479445934296,
                        0.23246531188488007,
                        0.14833156764507295,
                        0.0604788176715374,
                        0.030429484322667123,
                        0.011194455437362194,
                        0.08909360319375992,
                        0.017467541620135309,
                        0.024042651057243348,
                        -0.37561696767807009,
                        0.12361249327659607,
                        -0.02631937712430954,
                        0.05289589241147041,
                        -0.026554886251688005,
                        0.25550228357315066
                    ],
                    "bias": 0.0026272183749824764
                },
                {
                    "weights": [
                        -0.09959058463573456,
                        0.08876273781061173,
                        -0.05602193623781204,
                        0.006655486766248941,
                        0.3876943588256836,
                        0.09701617807149887,
                        0.1350174993276596,
                        -0.13015668094158173,
                        0.16597944498062135,
                        0.18053299188613892,
                        -0.17293289303779603,
                        0.08800188452005387,
                        -0.11520882695913315,
                        -0.2769356667995453,
                        0.2666298449039459,
                        -0.32756003737449648,
                        0.08741674572229386,
                        0.20448850095272065,
                        -0.2537625730037689,
                        -0.22163711488246919,
                        0.19755414128303529
                    ],
                    "bias": 0.10562116652727127
                },
                {
                    "weights": [
                        0.1388537734746933,
                        -0.012939322739839554,
                        -0.11823767423629761,
                        -0.3790892958641052,
                        -0.025510787963867189,
                        -0.06598278135061264,
                        -0.0006273628096096218,
                        0.27728143334388735,
                        0.06197304651141167,
                        -0.1751767247915268,
                        0.3285450041294098,
                        0.016256058588624,
                        -0.14558559656143189,
                        -0.19424693286418916,
                        0.10537846386432648,
                        -0.05819649249315262,
                        0.16711664199829102,
                        -0.018520798534154893,
                        0.24423909187316895,
                        0.07045529037714005,
                        0.15832139551639558
                    ],
                    "bias": -0.16372184455394746
                },
                {
                    "weights": [
                        0.09688576310873032,
                        0.07209084928035736,
                        -0.2649812400341034,
                        -0.3813018798828125,
                        0.12667709589004517,
                        0.0775023028254509,
                        -0.0797543004155159,
                        0.26066920161247256,
                        0.24706515669822694,
                        0.09144055843353272,
                        0.17595013976097108,
                        0.14669376611709596,
                        0.19945310056209565,
                        0.010934135876595974,
                        -0.22001658380031587,
                        0.11418187618255615,
                        -0.10969369858503342,
                        0.2820092737674713,
                        0.05540892481803894,
                        -0.038596801459789279,
                        -0.07809453457593918
                    ],
                    "bias": -0.0794532299041748
                },
                {
                    "weights": [
                        0.024765929207205774,
                        0.008114181458950043,
                        -0.2186051458120346,
                        0.06593594700098038,
                        -0.1120375394821167,
                        0.10318627953529358,
                        -0.0990670770406723,
                        0.2186911702156067,
                        -0.10953914374113083,
                        0.14239998161792756,
                        0.26943689584732058,
                        -0.18031083047389985,
                        0.07192181050777435,
                        0.0458596870303154,
                        -0.11604160070419312,
                        -0.14786593616008759,
                        0.11399797350168228,
                        -0.08021728694438935,
                        0.21165916323661805,
                        0.09891027957201004,
                        -0.04821188747882843
                    ],
                    "bias": -0.12227065116167069
                },
                {
                    "weights": [
                        0.20359976589679719,
                        0.09268000721931458,
                        -0.10517852753400803,
                        0.09278285503387451,
                        -0.07723943889141083,
                        -0.08184131234884262,
                        0.2680140733718872,
                        -0.04242241755127907,
                        -0.3012721538543701,
                        0.06675361096858978,
                        0.012152749113738537,
                        0.020372239872813226,
                        0.25949645042419436,
                        0.14567263424396516,
                        0.13868777453899384,
                        -0.1798912137746811,
                        -0.1112724021077156,
                        0.09141596406698227,
                        0.08062523603439331,
                        0.20669010281562806,
                        0.05331718176603317
                    ],
                    "bias": -0.18595170974731446
                },
                {
                    "weights": [
                        0.2965051531791687,
                        0.03759355470538139,
                        -0.19324591755867005,
                        0.15490834414958955,
                        0.12088905274868012,
                        0.14004531502723695,
                        0.10706630349159241,
                        0.004420801531523466,
                        -0.12662194669246674,
                        0.2875978648662567,
                        -0.11669804155826569,
                        0.0518917553126812,
                        0.03141602501273155,
                        -0.05581054463982582,
                        0.11110159009695053,
                        0.23033620417118073,
                        -0.03940119966864586,
                        -0.10939213633537293,
                        -0.06512824445962906,
                        0.11691217124462128,
                        0.10623746365308762
                    ],
                    "bias": 0.3331829011440277
                },
                {
                    "weights": [
                        0.014112625271081925,
                        0.061775755137205127,
                        0.13393183052539826,
                        -0.16527554392814637,
                        0.10049350559711456,
                        0.035934530198574069,
                        -0.026585737243294717,
                        -0.2215329110622406,
                        0.1830882579088211,
                        0.16525863111019135,
                        0.15424859523773194,
                        -0.2992711365222931,
                        0.04507116600871086,
                        -0.04196197912096977,
                        -0.1257355660200119,
                        0.013794959522783757,
                        0.054725050926208499,
                        -0.05527910590171814,
                        -0.08844093978404999,
                        0.023452546447515489,
                        0.055519625544548038
                    ],
                    "bias": -0.01129908673465252
                },
                {
                    "weights": [
                        0.027578681707382203,
                        0.12767045199871064,
                        0.20290690660476685,
                        0.01444522850215435,
                        0.1520247608423233,
                        -0.21916909515857697,
                        0.34268641471862795,
                        0.01450990978628397,
                        -0.09631352871656418,
                        0.17110690474510194,
                        0.01407691091299057,
                        0.06629306077957154,
                        0.032149337232112887,
                        -0.2887193560600281,
                        -0.0008343688095919788,
                        0.15183496475219727,
                        0.009818016551434994,
                        0.03943870589137077,
                        -0.22439391911029817,
                        0.0673762634396553,
                        -0.05761364847421646
                    ],
                    "bias": -0.03332044929265976
                },
                {
                    "weights": [
                        0.06914924085140228,
                        0.1879574954509735,
                        -0.2923226058483124,
                        -0.049508221447467807,
                        0.3198899030685425,
                        -0.28947147727012637,
                        -0.11104267090559006,
                        -0.04827949404716492,
                        -0.04227287322282791,
                        -0.05520600080490112,
                        -0.04426014423370361,
                        -0.08517029881477356,
                        0.12295027822256088,
                        -0.3327587842941284,
                        0.03903448209166527,
                        0.034254346042871478,
                        0.0711459219455719,
                        -0.07345570623874664,
                        -0.09521283954381943,
                        0.08658003807067871,
                        0.2842322885990143
                    ],
                    "bias": 0.04447619989514351
                }
            ]
        },
        {
            "neurons": [
                {
                    "weights": [
                        0.10656704753637314,
                        -0.06910181045532227,
                        -0.0885629951953888,
                        0.11264625191688538,
                        -0.17809468507766725,
                        -0.11936250329017639,
                        -0.20726995170116425,
                        -0.1551308035850525,
                        0.04798007756471634,
                        0.08899405598640442,
                        0.042208556085824969,
                        -0.22498874366283418,
                        -0.11060953885316849,
                        -0.153951495885849,
                        -0.1845223754644394,
                        -0.13363929092884065,
                        -0.20441198348999024,
                        0.06143232062458992,
                        0.17609509825706483,
                        -0.16455970704555512,
                        -0.10338526219129563,
                        0.10961028188467026,
                        0.09079986065626145,
                        0.022554785013198854,
                        -0.16897530853748322,
                        0.1835833638906479,
                        0.15993861854076386,
                        0.14517013728618623,
                        0.03177758306264877,
                        -0.028367310762405397,
                        0.1565394252538681,
                        0.0959906205534935,
                        0.13661064207553864,
                        -0.25592392683029177,
                        0.053678110241889957,
                        0.07735341042280197,
                        -0.1095469668507576,
                        -0.19650697708129884,
                        -0.19748134911060334,
                        0.034545958042144778,
                        -0.15631909668445588,
                        0.1498330980539322,
                        0.24398425221443177,
                        0.1403050273656845,
                        0.001442239503376186,
                        -0.3155863285064697,
                        -0.18163932859897614,
                        -0.03390628844499588,
                        0.031656939536333087,
                        0.039224009960889819,
                        0.3600534498691559,
                        -0.03493142127990723,
                        -0.180604487657547,
                        -0.12920647859573365,
                        0.1276303082704544,
                        0.1251586526632309,
                        -0.21900694072246552,
                        -0.06152874976396561,
                        0.1403205841779709,
                        -0.19669051468372346,
                        0.17384332418441773,
                        0.2934988737106323,
                        0.4371657967567444,
                        0.04862651228904724
                    ],
                    "bias": 0.10971510410308838
                },
                {
                    "weights": [
                        0.08623044192790985,
                        0.4226878881454468,
                        0.05333535000681877,
                        0.13653014600276948,
                        -0.2156752347946167,
                        -0.15172052383422852,
                        -0.18947778642177583,
                        0.048173993825912479,
                        -0.17568795382976533,
                        -0.30503183603286745,
                        0.1725407987833023,
                        0.0008699764148332179,
                        -0.02261684089899063,
                        0.04221281781792641,
                        -0.05146441236138344,
                        -0.05424370989203453,
                        -0.03839297220110893,
                        -0.047336213290691379,
                        0.09662772715091706,
                        -0.32366088032722475,
                        -0.035727933049201968,
                        -0.08046780526638031,
                        0.18163371086120606,
                        0.1673559844493866,
                        0.026048829779028894,
                        -0.05472893640398979,
                        -0.01502545177936554,
                        0.22577589750289918,
                        0.13111703097820283,
                        0.016546955332159997,
                        0.023746371269226075,
                        0.07060543447732926,
                        0.029392672702670099,
                        -0.37528812885284426,
                        -0.13052833080291749,
                        0.1460620015859604,
                        -0.04163701832294464,
                        -0.05662724748253822,
                        0.2890714406967163,
                        -0.08788781613111496,
                        -0.031997695565223697,
                        0.07326396554708481,
                        -0.195936918258667,
                        -0.10160555690526962,
                        0.23934215307235719,
                        0.020142896100878717,
                        0.03604855388402939,
                        -0.11172278225421906,
                        0.057261884212493899,
                        -0.10426274687051773,
                        -0.11685855686664581,
                        0.26961851119995119,
                        -0.2047169953584671,
                        0.1320279836654663,
                        0.4482678771018982,
                        -0.16224351525306703,
                        -0.17786090075969697,
                        -0.1773897260427475,
                        0.06058109179139137,
                        -0.010523439384996891,
                        0.2954830229282379,
                        0.012624300085008145,
                        0.017818370833992959,
                        -0.00045867322478443384
                    ],
                    "bias": 0.16352348029613496
                },
                {
                    "weights": [
                        -0.21227088570594788,
                        -0.018740376457571985,
                        0.24335187673568726,
                        0.17813220620155335,
                        -0.15648122131824494,
                        0.05542035028338432,
                        0.31441277265548708,
                        -0.043804362416267398,
                        0.3434043526649475,
                        0.20288784801959992,
                        -0.325602263212204,
                        -0.27367284893989565,
                        0.1270941197872162,
                        0.05512690544128418,
                        0.08537759631872177,
                        -0.16496551036834718,
                        -0.23493480682373048,
                        0.07982488721609116,
                        -0.038669902831315997,
                        0.19430330395698548,
                        -0.09813667088747025,
                        0.0012587354285642505,
                        0.11269333958625794,
                        -0.07150352001190186,
                        0.11692304164171219,
                        -0.19780310988426209,
                        0.07916951179504395,
                        -0.10925012081861496,
                        0.26126861572265627,
                        -0.3259280025959015,
                        -0.1172221451997757,
                        0.13142180442810059,
                        0.3981018364429474,
                        0.08749709278345108,
                        0.012572520412504673,
                        0.03127022087574005,
                        0.40593111515045168,
                        -0.3414413332939148,
                        0.10574853420257569,
                        -0.06182673200964928,
                        -0.16946978867053986,
                        -0.5,
                        0.16993732750415803,
                        -0.3508998453617096,
                        0.16599561274051667,
                        0.09951084852218628,
                        -0.013334105722606182,
                        0.024613017216324807,
                        -0.16944284737110139,
                        -0.05465896055102348,
                        0.1790999174118042,
                        -0.028943635523319246,
                        -0.12665235996246339,
                        0.1183643490076065,
                        0.14485988020896913,
                        0.20705462992191316,
                        0.06047085300087929,
                        0.35450947284698489,
                        -0.2857741415500641,
                        -0.034780360758304599,
                        -0.04050898924469948,
                        0.35453659296035769,
                        -0.28233999013900759,
                        -0.24654483795166017
                    ],
                    "bias": -0.08501455932855606
                },
                {
                    "weights": [
                        0.042300887405872348,
                        0.0034247287549078466,
                        -0.20918355882167817,
                        -0.0173706766217947,
                        -0.40254950523376467,
                        -0.04097883775830269,
                        0.1404453068971634,
                        -0.23902402818202973,
                        -0.21076226234436036,
                        0.08674489706754685,
                        0.30993297696113589,
                        0.1908622533082962,
                        0.11807164549827576,
                        0.14503270387649537,
                        0.14652341604232789,
                        -0.3085915744304657,
                        0.28584185242652895,
                        0.015128065831959248,
                        -0.07747239619493485,
                        0.06318164616823197,
                        -0.17539246380329133,
                        -0.07816855609416962,
                        -0.14371740818023683,
                        -0.017882121726870538,
                        0.007430568803101778,
                        0.08499663323163986,
                        0.0550236776471138,
                        0.11329732835292816,
                        0.2091459482908249,
                        0.11179646104574204,
                        -0.1106988787651062,
                        -0.25558292865753176,
                        -0.15196141600608827,
                        0.1533685326576233,
                        0.056118182837963107,
                        0.24193955957889558,
                        0.10327669978141785,
                        -0.363259881734848,
                        -0.06038403511047363,
                        -0.24250756204128266,
                        0.0788472518324852,
                        -0.04822121560573578,
                        0.06965890526771546,
                        -0.021827764809131624,
                        -0.012774660252034665,
                        0.03911541774868965,
                        0.006364511791616678,
                        0.21472589671611787,
                        -0.2168203443288803,
                        -0.0026826297398656608,
                        -0.20052741467952729,
                        0.22492410242557527,
                        0.0952373743057251,
                        -0.007371751591563225,
                        0.07772954553365708,
                        -0.09956928342580795,
                        0.11620839685201645,
                        0.02364601008594036,
                        -0.09961102157831192,
                        0.016335129737854005,
                        -0.02126278169453144,
                        -0.007808253169059753,
                        0.2517385184764862,
                        0.16920621693134309
                    ],
                    "bias": 0.007029146421700716
                },
                {
                    "weights": [
                        -0.4212085008621216,
                        -0.42560839653015139,
                        -0.03645165637135506,
                        0.31895381212234499,
                        0.018267937004566194,
                        0.09718132019042969,
                        0.08795168995857239,
                        0.013363267295062542,
                        0.07408461719751358,
                        0.07286322116851807,
                        -0.1477365791797638,
                        -0.048724979162216189,
                        0.0009450059733353555,
                        0.13447894155979157,
                        0.015065314248204232,
                        -0.048938896507024768,
                        0.09030735492706299,
                        -0.05392185598611832,
                        -0.17796356976032258,
                        -0.19129006564617158,
                        0.15925617516040803,
                        -0.12461025267839432,
                        -0.20545436441898347,
                        0.09391932189464569,
                        -0.1459594964981079,
                        -0.16690826416015626,
                        0.035144928842782977,
                        -0.1991426944732666,
                        -0.19748538732528687,
                        0.014813176356256009,
                        -0.26049330830574038,
                        -0.1296873688697815,
                        0.07420659065246582,
                        0.19383859634399415,
                        0.1834678053855896,
                        0.08392246067523956,
                        0.06563100963830948,
                        0.09096132218837738,
                        -0.17450086772441865,
                        0.10604560375213623,
                        -0.1756836473941803,
                        0.032988760620355609,
                        0.4131605923175812,
                        0.10472454875707627,
                        -0.11652220785617829,
                        -0.025546113029122354,
                        -0.4201984703540802,
                        0.20161549746990205,
                        0.1267310231924057,
                        -0.017308447510004045,
                        -0.05999443307518959,
                        0.189679816365242,
                        -0.06597961485385895,
                        0.009270171634852887,
                        0.09428968280553818,
                        -0.12359229475259781,
                        -0.009494725614786148,
                        -0.06916054338216782,
                        0.1711936593055725,
                        0.2583560645580292,
                        -0.2698822617530823,
                        0.02764163911342621,
                        -0.09420006722211838,
                        -0.3341151475906372
                    ],
                    "bias": 0.04507383331656456
                },
                {
                    "weights": [
                        -0.2992350459098816,
                        -0.022937122732400895,
                        0.03248341381549835,
                        -0.2881474494934082,
                        -0.1541035771369934,
                        0.16620798408985139,
                        -0.059832699596881869,
                        -0.016081402078270913,
                        -0.02469704858958721,
                        0.1927468329668045,
                        0.05274805426597595,
                        -0.08391193300485611,
                        -0.05645045265555382,
                        0.04107903689146042,
                        -0.16582025587558747,
                        0.15851758420467378,
                        -0.08981896191835404,
                        -0.060062941163778308,
                        -0.21490605175495149,
                        0.10644978284835816,
                        0.22364911437034608,
                        0.11710301041603089,
                        -0.04759838804602623,
                        -0.023942602798342706,
                        -0.08484677225351334,
                        0.020040910691022874,
                        0.10939261317253113,
                        -0.04714725539088249,
                        -0.055797696113586429,
                        0.11546439677476883,
                        -0.30782556533813479,
                        -0.0901922807097435,
                        -0.16214816272258759,
                        -0.18560750782489777,
                        -0.11159312725067139,
                        -0.39481204748153689,
                        -0.2618958055973053,
                        -0.3121192753314972,
                        -0.02913973666727543,
                        -0.2531958818435669,
                        0.2115078568458557,
                        -0.06449787318706513,
                        0.13116367161273957,
                        0.009725389070808888,
                        0.15704239904880525,
                        0.2410563975572586,
                        0.12124375998973847,
                        -0.24458307027816773,
                        0.22722336649894715,
                        -0.04339518025517464,
                        -0.13532300293445588,
                        0.04167937487363815,
                        0.07324802875518799,
                        -0.16440346837043763,
                        0.05425522103905678,
                        0.12350234389305115,
                        -0.3265671133995056,
                        0.10756681114435196,
                        0.06967023760080338,
                        0.08013525605201721,
                        0.1416907161474228,
                        -0.17637501657009126,
                        0.3105160892009735,
                        0.22053422033786775
                    ],
                    "bias": -0.03937164694070816
                },
                {
                    "weights": [
                        0.14671730995178224,
                        -0.005737133324146271,
                        0.0575885996222496,
                        0.09315716475248337,
                        0.2002403736114502,
                        0.06716104596853256,
                        -0.16364741325378419,
                        0.3062465190887451,
                        0.14593465626239777,
                        0.03865012153983116,
                        -0.034701406955718997,
                        0.2426074743270874,
                        0.033251069486141208,
                        0.04151333123445511,
                        0.39601415395736697,
                        0.16673822700977326,
                        0.26538750529289248,
                        -0.08397702127695084,
                        0.007651861757040024,
                        -0.034761011600494388,
                        0.16265363991260529,
                        -0.03296460583806038,
                        -0.07879535853862763,
                        0.2001255750656128,
                        0.10420326143503189,
                        0.17819637060165406,
                        -0.20003226399421693,
                        0.17356936633586884,
                        0.1287573277950287,
                        -0.06848620623350144,
                        0.04742100462317467,
                        0.1894415020942688,
                        0.02823818102478981,
                        0.0163127314299345,
                        0.1384052187204361,
                        -0.039155274629592898,
                        0.24412672221660615,
                        -0.1340254843235016,
                        0.09204813838005066,
                        0.03060740791261196,
                        0.2463729828596115,
                        0.09308477491140366,
                        -0.12469670176506043,
                        0.11728835105895996,
                        0.25341030955314639,
                        0.022756202146410943,
                        -0.24556197226047517,
                        0.058556318283081058,
                        -0.2449016273021698,
                        0.07979363203048706,
                        0.15103717148303986,
                        0.17719613015651704,
                        -0.5,
                        0.12693145871162415,
                        -0.27260756492614748,
                        0.23946642875671388,
                        0.12376395612955094,
                        -0.0015313137555494905,
                        0.09322080761194229,
                        -0.20261695981025697,
                        -0.11671823263168335,
                        0.06481964141130448,
                        0.14369644224643708,
                        0.1038174256682396
                    ],
                    "bias": 0.3338659703731537
                },
                {
                    "weights": [
                        0.36489230394363406,
                        -0.12627950310707093,
                        -0.144484281539917,
                        0.058680202811956409,
                        0.18979689478874207,
                        -0.06077822670340538,
                        -0.03538605943322182,
                        -0.09050557762384415,
                        0.08748405426740647,
                        -0.0973644033074379,
                        0.320627897977829,
                        -0.17705075442790986,
                        -0.08166612684726715,
                        -0.09081868827342987,
                        -0.15624865889549256,
                        -0.11417893320322037,
                        0.09565757215023041,
                        0.23978298902511598,
                        0.1617998629808426,
                        -0.20998986065387727,
                        0.042015764862298968,
                        -0.2931143045425415,
                        -0.10503987967967987,
                        0.2846049666404724,
                        0.1413019448518753,
                        0.14191694557666779,
                        -0.004313395358622074,
                        0.16937310993671418,
                        -0.1961192637681961,
                        0.07990756630897522,
                        0.011151646263897419,
                        0.05381155386567116,
                        0.12247750163078308,
                        -0.09656882286071778,
                        0.1127416118979454,
                        -0.16394063830375672,
                        -0.02164500206708908,
                        0.2376580685377121,
                        -0.12856340408325196,
                        0.15506266057491303,
                        -0.14165429770946504,
                        0.09790512919425965,
                        0.2300732433795929,
                        -0.1497909277677536,
                        0.024188794195652009,
                        -0.08824648708105087,
                        -0.005778207443654537,
                        -0.03761235252022743,
                        -0.2566239833831787,
                        -0.3437570631504059,
                        -0.074332095682621,
                        0.09093442559242249,
                        -0.08039838820695877,
                        0.23848290741443635,
                        -0.03756021335721016,
                        -0.1570889949798584,
                        -0.09576498717069626,
                        0.010955951176583767,
                        -0.23379050195217133,
                        -0.3422413468360901,
                        0.001139009720645845,
                        -0.002409149892628193,
                        -0.09541301429271698,
                        -0.15797927975654603
                    ],
                    "bias": 0.14771880209445954
                },
                {
                    "weights": [
                        -0.01145184226334095,
                        0.051472730934619907,
                        0.24936044216156007,
                        0.15226194262504579,
                        -0.14750024676322938,
                        -0.09015873074531555,
                        0.16361993551254273,
                        0.10415295511484146,
                        -0.11998952925205231,
                        0.05821898207068443,
                        -0.30796700716018679,
                        0.3963436484336853,
                        0.017212918028235437,
                        -0.10230398923158646,
                        0.1314631700515747,
                        0.08138475567102432,
                        0.12427648156881333,
                        -0.1278153508901596,
                        0.05807051435112953,
                        -0.0029086486902087929,
                        0.1682165116071701,
                        0.46262937784194949,
                        0.10282030701637268,
                        -0.24239377677440644,
                        0.2129993438720703,
                        0.029997309669852258,
                        -0.1868884116411209,
                        0.09694666415452957,
                        0.03563692793250084,
                        -0.10515458136796951,
                        -0.06690662354230881,
                        0.09752968698740006,
                        -0.13583435118198396,
                        -0.16549643874168397,
                        0.10387285053730011,
                        -0.022084984928369523,
                        0.05786967650055885,
                        -0.05603676661849022,
                        -0.04228168725967407,
                        0.13963919878005982,
                        -0.10798550397157669,
                        0.1629273146390915,
                        -0.28571978211402895,
                        0.06548392027616501,
                        -0.03059227578341961,
                        -0.15713880956172944,
                        0.024143118411302568,
                        -0.0027186470106244089,
                        0.27102553844451907,
                        -0.15547026693820954,
                        0.05911033973097801,
                        -0.12019829452037811,
                        0.07995858788490296,
                        -0.23929181694984437,
                        0.05021560937166214,
                        0.25206291675567629,
                        0.29923030734062197,
                        -0.36776453256607058,
                        0.09950416535139084,
                        -0.037924233824014667,
                        -0.0011615612311288715,
                        -0.3132369816303253,
                        0.013146696612238884,
                        -0.0012027003103867174
                    ],
                    "bias": 0.03627902641892433
                },
                {
                    "weights": [
                        0.1279427856206894,
                        0.08149611949920654,
                        -0.03252324461936951,
                        -0.10055464506149292,
                        -0.02860291488468647,
                        -0.13382846117019654,
                        0.08134656399488449,
                        0.1617710441350937,
                        -0.049495600163936618,
                        -0.2903237044811249,
                        -0.13539990782737733,
                        -0.31194210052490237,
                        -0.11262966692447663,
                        -0.12988972663879395,
                        0.21085861325263978,
                        0.04010236635804176,
                        -0.27087435126304629,
                        -0.3077211081981659,
                        0.026250194758176805,
                        -0.14360901713371278,
                        0.09126357734203339,
                        0.10780853778123856,
                        0.08059456944465637,
                        0.28580570220947268,
                        -0.020782317966222764,
                        -0.017555372789502145,
                        -0.15559044480323792,
                        0.22108429670333863,
                        -0.012114179320633412,
                        -0.06157718971371651,
                        0.15471959114074708,
                        0.19690944254398347,
                        -0.0163729190826416,
                        -0.21974867582321168,
                        -0.3483818769454956,
                        0.13482756912708283,
                        0.06964283436536789,
                        0.017632583156228067,
                        -0.19795732200145722,
                        0.15351130068302155,
                        0.1003710925579071,
                        0.046327292919158939,
                        0.07683530449867249,
                        -0.0011126563185825945,
                        -0.310756653547287,
                        -0.2105228155851364,
                        -0.07336506992578507,
                        -0.19032025337219239,
                        0.19722646474838258,
                        -0.07376421242952347,
                        0.05067969113588333,
                        -0.25597265362739565,
                        -0.041884101927280429,
