{
    "_comment": "Optimizer_Adam(learning_rate=0.005, decay=1e-3), second dataset, trained on all of the data, epochs 20000",
    "items": [
        {
            "neurons": [
                {
                    "weights": [
                        -0.20201229884928412,
                        -0.16409538941912244,
                        0.04038631185881366,
                        0.13326651254920419,
                        -0.022779224719060156,
                        -0.02877216656776943,
                        0.026684059683649775,
                        -0.014691228959468429,
                        0.07107128976397363,
                        -0.0476345629749472,
                        0.07263026496714664,
                        0.03861678010126865,
                        0.03870249534849099,
                        0.07115745304549541,
                        0.00798315402584219,
                        0.22768298787904334,
                        0.22545489191470716,
                        0.0015840051030588807,
                        -0.9596501135763388,
                        0.4093560906795812,
                        -0.3593185123980797
                    ],
                    "bias": -0.02282727322422453
                },
                {
                    "weights": [
                        -0.037269718710273375,
                        0.09024714590578689,
                        -0.05563337331522423,
                        -0.06121519920664737,
                        -0.08204433996703128,
                        0.04534470185937548,
                        -0.036126118466075635,
                        -0.08189117288488434,
                        -0.001992958538976634,
                        -0.09291211054926216,
                        0.00044258332203966753,
                        -0.08605614287382445,
                        -0.06652513400625566,
                        0.2776555570488827,
                        -0.004167231816419881,
                        0.07440874857974128,
                        0.20355986971274587,
                        0.0035225591502456425,
                        -0.3179133933794827,
                        0.037526395987610484,
                        -0.1441002171932072
                    ],
                    "bias": -0.06935085275963021
                },
                {
                    "weights": [
                        -0.07118510149993909,
                        0.07631104345290288,
                        -0.023374984005740347,
                        0.0946718874043759,
                        0.0026122922099992814,
                        -0.008813019331293413,
                        0.005576925351732253,
                        -0.03855509261046891,
                        0.029914978936872044,
                        -0.021517657998222466,
                        0.042341296201427736,
                        -0.036203028962120985,
                        0.07489485646999904,
                        -0.12601384245971936,
                        0.003869146726693799,
                        0.22835403554925457,
                        -1.0995690094881152,
                        0.012239047030336422,
                        -0.13541747269073967,
                        0.1600342482161551,
                        0.04475175791442282
                    ],
                    "bias": 0.0019990732924353156
                },
                {
                    "weights": [
                        -0.019400720361940627,
                        0.04769675912422464,
                        -0.01718849757384983,
                        0.021169531522248188,
                        -0.053092282251607566,
                        0.008337812171786094,
                        -0.05789683128579294,
                        0.034706429298463105,
                        -0.030950748675333192,
                        1.353599912467595e-06,
                        -0.018825222714297606,
                        -0.01663643424179762,
                        -0.015525870026873563,
                        0.008168832389061857,
                        0.011602088741112602,
                        -0.17417496435151306,
                        -0.542994214481778,
                        -0.0033581515724925614,
                        -0.8178081409068161,
                        0.00017011417865456273,
                        -0.21036852809329076
                    ],
                    "bias": -0.013863716387782702
                },
                {
                    "weights": [
                        -0.059850448909099505,
                        -0.04845408640429563,
                        -0.17224985130254697,
                        0.1743722120959874,
                        -0.006260322019774974,
                        0.00811532797925355,
                        -0.017767533419862338,
                        -0.16626253346992803,
                        -0.017361053235102272,
                        0.04360575117124391,
                        -0.061383639566244624,
                        0.057165337101488044,
                        -0.17153406194653648,
                        -0.13867576351629785,
                        0.004972869086070024,
                        -0.2060835911084803,
                        -0.35636161364574187,
                        0.005460444533918811,
                        -0.4241054263777036,
                        -0.10286270727685069,
                        0.1110048075026917
                    ],
                    "bias": -0.07624410702749139
                },
                {
                    "weights": [
                        -0.02722204664200264,
                        0.06858376957541273,
                        -0.055411816469002846,
                        -0.02176178799131301,
                        0.037923007391227406,
                        -0.017931924312366385,
                        0.018985133572670412,
                        0.059878162429521556,
                        0.005744198475941553,
                        0.08058844052337118,
                        -0.0013694679409227716,
                        0.11280766584382806,
                        0.019233954465714263,
                        -0.039154565220609734,
                        -0.0038790308440029547,
                        -0.051964836586348304,
                        0.15805755109095032,
                        0.01801428088744735,
                        0.15748469372751872,
                        0.3422285550486581,
                        0.39806138711961286
                    ],
                    "bias": 0.02209185093762432
                },
                {
                    "weights": [
                        -0.0026596112633294204,
                        -0.01212547445408267,
                        -0.012173397321082118,
                        0.00419081012564048,
                        -0.024503466850785804,
                        -0.008501690885320155,
                        -0.01280149409940975,
                        -0.002378636668857591,
                        -0.007150477977968191,
                        -0.006648058859799196,
                        -0.0014243133679410934,
                        -0.008110217605589711,
                        -0.003518024755346841,
                        0.0031206704908857508,
                        0.0029665076165786707,
                        0.010440838688443584,
                        0.010097147675438718,
                        0.005720763242275625,
                        0.010126884626657083,
                        -0.010322736333158675,
                        -0.009555651013138681
                    ],
                    "bias": 0.0
                },
                {
                    "weights": [
                        -0.015792590003715846,
                        0.06522598038750096,
                        -0.004134613717865659,
                        -0.019319427958096963,
                        -0.012790655079601075,
                        -0.01140228541052825,
                        -0.027569088941694273,
                        0.020749441634935563,
                        -0.0027337220510981752,
                        -0.01984313318097082,
                        -0.012508873547290886,
                        -0.05673122943387387,
                        -0.0125045067228988,
                        -0.0337806434164916,
                        0.01458709240880826,
                        -0.16414976511543128,
                        -0.8436476918615492,
                        0.01165248746092331,
                        -0.10091589177156877,
                        0.00024015867758839942,
                        -0.22895801740299276
                    ],
                    "bias": -0.029746306423104323
                },
                {
                    "weights": [
                        -0.03839853839631201,
                        -0.01047246230789994,
                        -0.015302656116367075,
                        -0.018690403904988283,
                        -0.015854474054573204,
                        -0.03138529642999163,
                        -0.009909072984263871,
                        -0.013047746091657663,
                        -0.013290927600169745,
                        -0.013386908416961637,
                        -0.00467790039520528,
                        -0.026133306432666967,
                        -0.0260789927002173,
                        0.00326646334803456,
                        0.0078397595638315,
                        0.0007436731857966258,
                        -0.009196469630227383,
                        -0.006206273390805305,
                        -0.010783576499215226,
                        -0.0033794578531113513,
                        0.003846485906796169
                    ],
                    "bias": -0.0027265005241503353
                },
                {
                    "weights": [
                        -0.03707756972308856,
                        -0.030445887175069318,
                        -0.055932432931022444,
                        0.05922434164030302,
                        0.04499044033972376,
                        0.022807964105225877,
                        0.05363688486309076,
                        -0.0005464903713956453,
                        0.06153093703642049,
                        0.0022850768812108973,
                        0.025767963042441597,
                        0.054116933901753046,
                        0.04428496261135559,
                        -0.06754132049934632,
                        -0.01342462385621437,
                        0.3071072756435048,
                        -0.32863326271110105,
                        -0.007224410634586655,
                        0.3612088243004571,
                        0.3162957040645504,
                        -0.014552678964281683
                    ],
                    "bias": 0.004214633139817328
                },
                {
                    "weights": [
                        -0.007168308093933906,
                        -0.02409475757300289,
                        -0.004992222064282703,
                        -0.01113326846392629,
                        -0.008976612167407782,
                        -0.00806499688843901,
                        0.0130324275241401,
                        -0.012935482707821841,
                        -0.007585339932495308,
                        -0.015224033179494964,
                        -0.007410900902773269,
                        -0.0007609495352138506,
                        -0.01174850788961254,
                        -0.007281671107813531,
                        0.005866838144956958,
                        -0.005674146317843941,
                        -0.01510732563416579,
                        -0.0015937412837053085,
                        0.004201879422050219,
                        0.003843266837721585,
                        -0.0032110097209565465
                    ],
                    "bias": -0.0006095975106583883
                },
                {
                    "weights": [
                        -0.03972724539322331,
                        0.03356148712155965,
                        -0.005176338470141479,
                        0.014760262519378786,
                        0.026096861712931317,
                        -0.014480306424368462,
                        0.014827146351968162,
                        0.011064003226286522,
                        0.0247584568873665,
                        0.04546957818286831,
                        0.007797775595693593,
                        0.06577733894142916,
                        0.0038154148716769655,
                        0.2135257029276571,
                        0.0040889169801909524,
                        0.1040614882956563,
                        0.15262355007079417,
                        -0.0005382388938030611,
                        -0.5603951076994853,
                        0.17323826483077956,
                        0.4018701638758385
                    ],
                    "bias": 0.028330850365631644
                },
                {
                    "weights": [
                        -0.07598128423937044,
                        0.08904562155637386,
                        -0.059468972890238905,
                        -0.0022820570445775705,
                        -0.00017832126782907213,
                        0.0017769320529786427,
                        -0.008552421916543738,
                        -0.008857465250386245,
                        0.005186076005722673,
                        0.013966132375311385,
                        0.02654021457079954,
                        0.06499976571858418,
                        -0.02892729443523521,
                        -0.2532818373069443,
                        0.011112022149274857,
                        -0.22878637232776144,
                        -0.16063402459294904,
                        0.010701855033027358,
                        -0.631280172382757,
                        0.2588312330344201,
                        0.121565044300661
                    ],
                    "bias": -0.018456045911146395
                },
                {
                    "weights": [
                        -0.10144149470368298,
                        0.042988609510865604,
                        -0.07305777149837063,
                        0.056705409104481574,
                        -0.006465467510047211,
                        -0.015356752734604988,
                        0.02135099201702108,
                        -0.09359216210252544,
                        0.006337903032334731,
                        -0.23851849964219396,
                        0.06488157524518001,
                        -0.2277249628673221,
                        0.11029117631785403,
                        -0.058505497636293154,
                        6.889339312448048e-05,
                        -0.09239451391447835,
                        0.1148410249320158,
                        -0.007299943025341502,
                        0.6430492423412999,
                        0.21314409119525737,
                        0.1633850789173367
                    ],
                    "bias": -0.06537964565276316
                },
                {
                    "weights": [
                        -0.034873201996979714,
                        -0.032379196474327084,
                        -0.011585852966786374,
                        -0.019382526547254683,
                        -0.01129972411781435,
                        -0.012665440489730543,
                        -0.001198497329797012,
                        -0.03165906203764891,
                        -0.015530210094737979,
                        -0.015109078650165668,
                        -0.010071536914467105,
                        -0.023059540600458724,
                        0.0057902637721819385,
                        0.005419664903927963,
                        -0.0036930760535527993,
                        0.014784314015527855,
                        -0.011093841115111748,
                        -0.0008863009901319751,
                        -0.0362945060333252,
                        -0.00849489049926765,
                        -0.05478000275895309
                    ],
                    "bias": -0.018673750775229685
                },
                {
                    "weights": [
                        0.0030530364649366502,
                        -0.002163495195148012,
                        -0.0390117108048689,
                        0.00826368693886959,
                        -0.01881767667026086,
                        0.01734397839060057,
                        -0.02775653417231319,
                        -0.05006205487825771,
                        -0.016691458282198854,
                        -0.08379242586100329,
                        -0.01944158000990917,
                        -0.10647516210039855,
                        0.011220923898856731,
                        0.8207346605453282,
                        -0.014638772197017104,
                        -0.27777754197583554,
                        0.6834791704485147,
                        0.010751483091696074,
                        -0.0982629320917763,
                        0.011248055898964635,
                        -0.1965733923065979
                    ],
                    "bias": -0.0699263698618976
                },
                {
                    "weights": [
                        -0.013107864357046214,
                        -0.00761369397003731,
                        -0.005640538065375709,
                        -0.016109831164091697,
                        -0.005155451376147229,
                        -0.0023669757924436926,
                        -0.007378842051196854,
                        -0.0027818990095180096,
                        -0.0080176752570137,
                        0.0028096084036892803,
                        -0.021022906200000434,
                        -0.014985869140361846,
                        0.011675587364686962,
                        0.008059565275545317,
                        -0.0069459440900388435,
                        -0.009670316789471096,
                        0.009020030596375184,
                        0.002155435833927317,
                        0.0029733883234659246,
                        -0.001750308993192203,
                        0.0006144015665599588
                    ],
                    "bias": -0.0003029461552973203
                },
                {
                    "weights": [
                        -0.0209997912731059,
                        -0.010548516550930205,
                        -0.005632201604664789,
                        -0.017329638650031832,
                        -0.015186595631160135,
                        -0.011893828613827243,
                        0.00846894504829676,
                        -0.01642963291083119,
                        0.0015460233283488274,
                        -0.0020738234721664334,
                        -0.005906624478397623,
                        -0.011292153660972012,
                        0.011874404405956985,
                        0.010463327242524707,
                        0.012079455813208753,
                        -0.011133177684524325,
                        -0.0002109572876256078,
                        -0.0001081697018736631,
                        -0.006840433536762012,
                        -0.00025676304204213764,
                        0.0029864449478362405
                    ],
                    "bias": -0.000579328226053866
                },
                {
                    "weights": [
                        -0.05619049574952791,
                        -0.050101672209362506,
                        0.012479904399863791,
                        0.045178674528523165,
                        -0.008120891768918158,
                        0.022863592236436647,
                        0.004549520905617314,
                        0.010846558214076943,
                        0.0250007369084229,
                        -0.06552594152775788,
                        0.02139278588007102,
                        -0.07116376645415443,
                        0.03068043685919835,
                        0.22824793520378314,
                        0.007165837155162385,
                        0.691343919618548,
                        -0.08036603243181392,
                        0.0024603256887497913,
                        -0.30182615622691134,
                        -0.13054092215910168,
                        -0.37324640828115296
                    ],
                    "bias": -0.014219841283073572
                },
                {
                    "weights": [
                        0.094815894887132,
                        -0.014177740805098727,
                        -0.048244304994667635,
                        -0.10296437405059457,
                        -0.025908658443576,
                        -0.006025384868787778,
                        -0.025575026700057055,
                        0.012847965207147807,
                        -0.049642037805710575,
                        -0.08908700104580586,
                        -0.08400941298952769,
                        -0.07623586009909335,
                        -0.09661163070104661,
                        0.06775407281027003,
                        -0.004143071015645069,
                        0.015399352464143399,
                        0.22710092838929918,
                        -0.011310393041634151,
                        0.02725218581600942,
                        0.11211683957208177,
                        -0.12599156099875866
                    ],
                    "bias": -0.10938283920104462
                },
                {
                    "weights": [
                        -0.04995597235300234,
                        0.07406419615307465,
                        0.04282619326595643,
                        -0.03807410117915211,
                        0.15607987293035933,
                        -0.03849049958405714,
                        0.04457923752974396,
                        -0.06499787804186226,
                        -0.01964210924953196,
                        0.029373071088206637,
                        -0.0768554560594205,
                        0.08126806256653389,
                        -0.0860728135191775,
                        0.047248316791497554,
                        0.01411506711871573,
                        -0.09857736118496585,
                        -0.3819701032429833,
                        -0.011423445327522068,
                        0.6567162517911062,
                        0.15017617315398657,
                        0.023190214908276323
                    ],
                    "bias": 0.0025050892801118767
                },
                {
                    "weights": [
                        0.06691947837773032,
                        0.08895418001475948,
                        -0.05185841024833743,
                        -0.10645049423974051,
                        0.0228331649119163,
                        0.003402980780366795,
                        0.02758495563570875,
                        -0.01878850094468413,
                        0.029279909945817487,
                        -0.08663342070304164,
                        0.0035069550749997347,
                        -0.09281273360623703,
                        -0.021953665232590826,
                        0.026973813330034214,
                        0.0050036469659802876,
                        0.06444912441025485,
                        -0.30653932758511343,
                        -0.015952910481671075,
                        -0.2736540136206809,
                        0.12525962008030325,
                        -0.009148460650190964
                    ],
                    "bias": -0.0703136563246735
                },
                {
                    "weights": [
                        0.05270121423822058,
                        -0.03782360570265724,
                        0.07675685757345539,
                        -0.044223339899947214,
                        -0.044371870667205895,
                        -0.048354011258032695,
                        -0.08764486648258903,
                        0.015335119090425134,
                        -0.06123851453126803,
                        0.016167099998575653,
                        -0.01138892335596745,
                        -0.022746484515578307,
                        0.0312218565675135,
                        -0.13803834766094217,
                        -0.004055685873882806,
                        -0.3053905604352149,
                        0.10109566230866145,
                        0.0021022371129593223,
                        0.8409081630956783,
                        -0.33893915636933925,
                        -0.1274508383388143
                    ],
                    "bias": 0.040461375190312523
                },
                {
                    "weights": [
                        -0.06308250399748258,
                        -0.028263572175223493,
                        -0.03038052783613676,
                        0.002256550063020182,
                        0.058675880130840706,
                        -0.04153563677242176,
                        0.06153387364678371,
                        -0.05032569784465227,
                        0.007658787025049419,
                        0.036665650963193346,
                        -0.010839247044467742,
                        0.04152298251912084,
                        -0.005365762297697407,
                        0.17750480399919227,
                        0.01178392937520115,
                        0.35143598425837813,
                        -0.09857944524080842,
                        0.009189383485406884,
                        -0.49533970920349574,
                        0.15889457381435176,
                        0.0456967298170356
                    ],
                    "bias": 0.021494044896141366
                },
                {
                    "weights": [
                        -0.050256026108104736,
                        0.06609805243635176,
                        -0.03222598420803254,
                        0.03179056591038776,
                        0.06978541240101767,
                        -0.004877493463837135,
                        0.0396378678406411,
                        -0.023706946129655036,
                        0.011255176371829526,
                        0.03285999625308814,
                        0.016205786121765563,
                        0.045534999821648756,
                        0.0208990443843308,
                        0.12496082599004452,
                        -0.015857755675708997,
                        0.5528507012137449,
                        -0.3927610037396217,
                        0.007667380557607825,
                        -0.5721314251603189,
                        0.18748396873416934,
                        -0.23269640191375662
                    ],
                    "bias": 0.02032166496227083
                },
                {
                    "weights": [
                        -0.06493240040393909,
                        0.07712396002202447,
                        -0.032757795090774595,
                        -0.052819818741162504,
                        0.004203584741804149,
                        0.017343041255931658,
                        0.008522356444506168,
                        -0.03940798839006833,
                        0.022507658261064465,
                        -0.04594115890801592,
                        -0.002800176342338886,
                        -0.05433279476999041,
                        -0.0008386816508137641,
                        -0.21725884405037746,
                        0.005187683170055809,
                        0.2823389865172572,
                        -0.4712919956613218,
                        0.011442796947079711,
                        0.3692017073286569,
                        0.06162723641980582,
                        -0.07551510550335917
                    ],
                    "bias": -0.03459592131480717
                },
                {
                    "weights": [
                        0.001580604152912457,
                        -0.02947698901833103,
                        -0.011418067597581698,
                        0.0035002387111623813,
                        0.026695165962980924,
                        -0.007190384844299771,
                        -0.03352027137444869,
                        0.027555561483967803,
                        -0.0070287294340659065,
                        0.0014773458075905787,
                        -0.02080184787927612,
                        0.0031814535056124845,
                        -0.01143709237815136,
                        0.34578493764065266,
                        0.0016570157380700842,
                        0.09679225841546339,
                        0.5543772131648835,
                        0.014518683600559383,
                        0.7526046037269887,
                        0.21944929048917877,
                        -0.054531608453674524
                    ],
                    "bias": -0.021562671600920694
                },
                {
                    "weights": [
                        -0.03995847290028023,
                        -0.08862021672493975,
                        -0.1210992781205723,
                        0.09849923128828256,
                        -0.042119589395934666,
                        -0.03427051698015224,
                        0.02998942257140702,
                        -0.05790878152984588,
                        0.01752818072174412,
                        -0.06266943029732872,
                        0.01353448314198708,
                        -0.07561033549652321,
                        0.0003629581558779936,
                        0.2683790420686226,
                        0.011900173648567826,
                        0.21106998722065384,
                        0.09203671239464822,
                        0.0014519827267298732,
                        0.7106920950515146,
                        0.056786758556053876,
                        0.0074504140150376845
                    ],
                    "bias": -0.06445497196728668
                },
                {
                    "weights": [
                        -0.01985534666580798,
                        -0.018732491649195968,
                        -0.02648543386269332,
                        -0.020634001117749448,
                        -0.00844693067944575,
                        -0.0173743132061575,
                        -0.02015487194321787,
                        -0.02487961595081782,
                        -0.027641461643185473,
                        -0.020968153970376026,
                        -0.01860744253950177,
                        -0.011573029549493647,
                        -0.016132474743324167,
                        0.004780494278118548,
                        0.003810116983692531,
                        -0.004400497093959141,
                        -0.014170022806832687,
                        -0.0006460771751163151,
                        -0.00017649950569986015,
                        -0.0038089315937285184,
                        -0.001399185346427414
                    ],
                    "bias": -0.0033343694715566134
                },
                {
                    "weights": [
                        -0.06916215307525354,
                        0.0994214833066075,
                        -0.10678314024251381,
                        -0.020235275993068545,
                        0.008215787072251542,
                        -0.016312105072271613,
                        -0.016027971337307934,
                        -0.0032752275455216365,
                        0.0020468938823634208,
                        -0.029958504509899266,
                        -0.023984970343051082,
                        -0.02884493736988143,
                        0.004056215371342667,
                        -0.020541898489887307,
                        -0.0020564948347046976,
                        0.018821906207765332,
                        -0.8040554864939468,
                        0.014763031869840532,
                        -1.043460300939326,
                        0.11887665093567318,
                        -0.25542691873922535
                    ],
                    "bias": -0.007609509577777142
                },
                {
                    "weights": [
                        -0.13296009842709275,
                        -0.06280691443141939,
                        -0.05299674837998681,
                        0.030498456441859077,
                        0.034839508991995526,
                        0.043938622874784804,
                        0.06425607289671263,
                        0.015708011065907967,
                        0.06411905107149733,
                        0.021152262410121293,
                        0.07839237276520514,
                        0.05596243254917141,
                        0.05651608337064273,
                        -0.29546223213159895,
                        -0.0011515565124601479,
                        0.24712520032908003,
                        -0.577885462666301,
                        -0.0070112445821232106,
                        0.5598942678209934,
                        0.3035564310480696,
                        0.15055083059916344
                    ],
                    "bias": 0.0038736294938016835
                },
                {
                    "weights": [
                        -0.18053952977988966,
                        0.0352621728099075,
                        -0.09547772712604165,
                        -0.0005056819543528787,
                        0.061622387217873484,
                        0.016835397539918022,
                        0.08401886978456247,
                        0.05039849961821771,
                        0.027022536501056106,
                        -0.0782674762046932,
                        -0.005921697595386377,
                        -0.06487451238861514,
                        0.03302969797084477,
                        -0.05366938649043968,
                        0.023610927547212186,
                        0.17937198733486423,
                        -0.8819256443729748,
                        -0.011826948160358373,
                        0.7844853127502897,
                        0.4236089124737339,
                        -0.30813072007254305
                    ],
                    "bias": -0.08495703132474763
                },
                {
                    "weights": [
                        0.020606783206281686,
                        -0.06552502820817797,
                        -0.010758851045411993,
                        -0.0008884866973271164,
                        -0.035603032365657934,
                        0.02686666773992701,
                        -0.006557383599963679,
                        -0.0026510478774329996,
                        0.014487914787495696,
                        -0.06036828199491244,
                        0.020621783484725962,
                        -0.07403077709733445,
                        0.0245391934677883,
                        0.022132722625509686,
                        0.0021511118432992696,
                        0.06744992459762449,
                        -0.09447265669027756,
                        -0.0033658125217477883,
                        0.6541747182865436,
                        -0.26703779167218367,
                        -0.3133334447476073
                    ],
                    "bias": 0.005891092805210647
                },
                {
                    "weights": [
                        -0.17008086899434235,
                        0.07905164748820027,
                        -0.06017495139003293,
                        -0.05999491074760101,
                        0.05272091394610734,
                        -0.022345587594737905,
                        0.1276619934474145,
                        -0.03453001754319026,
                        0.10875573377960222,
                        -0.09720831204065358,
                        0.04176426672146401,
                        -0.07633441032055167,
                        -0.050625458963222396,
                        -0.24494102854442545,
                        0.005627477483730821,
                        -0.022640243773072236,
                        -0.8971590273952758,
                        -0.004564127803451507,
                        1.6374311809212145,
                        0.26622329423621804,
                        0.03891808582122099
                    ],
                    "bias": -0.09055854915846709
                },
                {
                    "weights": [
                        -0.018923193730942374,
                        -0.02558946371510933,
                        -0.01486190897492975,
                        -0.006940521208306529,
                        -0.014118988897441842,
                        -0.023075478838237545,
                        -0.012977060890741394,
                        -0.0223350182192922,
                        -0.015734951423100718,
                        0.004740035232334693,
                        -0.005649951185971401,
                        -0.02204939089333822,
                        -0.02109740119251794,
                        0.012217876421338425,
                        -0.020211617485996983,
                        -0.01505070104964775,
                        0.014426048396408464,
                        0.00048326746011278094,
                        0.012975391943068848,
                        0.008788583943049925,
                        0.01826504780618659
                    ],
                    "bias": -0.003984612071936077
                },
                {
                    "weights": [
                        -0.07646759859459945,
                        0.030107750145359918,
                        -0.039289233369112914,
                        0.02180302068230611,
                        -0.04905158807071716,
                        -0.032494269437151294,
                        -0.0073527327883253415,
                        -0.03268893546714195,
                        0.009037172246973677,
                        0.0036599439876810365,
                        -0.0059057693343114075,
                        -0.030415682379095445,
                        -0.009269264096344456,
                        0.23659011652510017,
                        -0.00738247195606661,
                        0.08235345429694454,
                        -0.05971675543151912,
                        -0.00848980733948014,
                        -0.17563463145492095,
                        0.06134370581671363,
                        -0.1580764251063206
                    ],
                    "bias": -0.013251789960215294
                },
                {
                    "weights": [
                        -0.10725641948458141,
                        -0.060733785003884634,
                        -0.0031268514464854584,
                        0.04134814423824393,
                        -0.051260746419838285,
                        -0.006493841307582835,
                        -0.04525566433552389,
                        -0.0038500794134998305,
                        -0.02375381481025916,
                        -0.03608404900229998,
                        0.002299810335547807,
                        -0.041682666768351986,
                        -0.009961254993193848,
                        0.1482588542736884,
                        0.005189611073778544,
                        0.38106824681230295,
                        0.5700671443243445,
                        0.0036928714831537114,
                        0.8203058299244491,
                        0.19737748895874224,
                        0.10484485605084683
                    ],
                    "bias": -0.07086218119467091
                },
                {
                    "weights": [
                        -0.13306566352241103,
                        0.011871876417611405,
                        -0.0038243859434767065,
                        0.06268317711267611,
                        0.00401382479603719,
                        0.04479254271411845,
                        0.030653052639789066,
                        -0.01321844657000872,
                        0.029675893414678363,
                        -0.025578256316103963,
                        0.04355817221317434,
                        0.00421030291704119,
                        0.04443701753965501,
                        0.15293254247198793,
                        -0.016535338731924275,
                        -0.1614380964926764,
                        0.07261262471289631,
                        -0.005702880339893134,
                        -0.028917026065951777,
                        0.29767623432728835,
                        0.052699256226216386
                    ],
                    "bias": -0.007204455414879856
                },
                {
                    "weights": [
                        -0.13085719237385962,
                        -0.07345144230507751,
                        0.03919473291871259,
                        -0.0260990440649994,
                        0.11911962296374068,
                        -0.015505107427178677,
                        0.2714551746410745,
                        -0.04013733528650701,
                        0.08224940413570292,
                        -0.1728976155423229,
                        -0.04336731589489116,
                        -0.18323068966268646,
                        0.10197349190816596,
                        0.07022201998296058,
                        0.005639000378918301,
                        -0.009461576083912595,
                        -0.11878982013886273,
                        0.012284435632506105,
                        1.6132256967178344,
                        0.11071808216216775,
                        -0.0523607874191528
                    ],
                    "bias": -0.10728104705932723
                },
                {
                    "weights": [
                        -0.27296956202653144,
                        -0.046700843289868704,
                        -0.07854013608732002,
                        -0.0034274261286767567,
                        0.17586152582193143,
                        0.05989350036014174,
                        0.2139768415149547,
                        -0.03779665604780503,
                        0.1015122302878993,
                        -0.13064619266181524,
                        0.035609881356131204,
                        -0.010413484315527036,
                        0.02406376124112082,
                        -0.09855604488298869,
                        -0.008171272793548534,
                        0.07706054410413991,
                        -0.7887201035337906,
                        -0.011951069015697353,
                        0.4135762316959514,
                        0.5001475392367377,
                        -0.4449936107150631
                    ],
                    "bias": -0.10798243304256266
                },
                {
                    "weights": [
                        -0.009053237486503276,
                        -0.018088804977320825,
                        -0.009925719798392466,
                        -0.010311186652620747,
                        -0.02129609167999363,
                        -0.012725986818091742,
                        0.007133237816422221,
                        -0.0027016880314973337,
                        -0.0019309592730831103,
                        -0.012213017520087313,
                        -0.017049560468847497,
                        0.006385577283126118,
                        0.0004714214198215225,
                        0.007900774443748045,
                        -0.01033851307076877,
                        0.0016480778222609193,
                        -0.006795603554875095,
                        -0.0013947281601569472,
                        0.0070330309852461,
                        -0.016073496535329933,
                        -0.001601745546623689
                    ],
                    "bias": -0.0005263154428122669
                },
                {
                    "weights": [
                        -0.053140143439044135,
                        0.0901645880975535,
                        -0.07337348097216047,
                        -0.03767486144898376,
                        0.011392771442340103,
                        -0.03468362429965725,
                        0.04660339384617586,
                        -0.08788425661559571,
                        0.05854637525445777,
                        -0.058143484965248814,
                        0.049055264905277,
                        -0.05528259647605536,
                        0.04107010125104016,
                        -0.1339901182274498,
                        -0.007778427024660718,
                        0.3011201072966769,
                        -0.24356362783206245,
                        -0.0033582886102081224,
                        -0.4692769582772454,
                        0.18304999849024411,
                        0.21831360341848438
                    ],
                    "bias": -0.020632536368949385
                },
                {
                    "weights": [
                        -0.09830685397369263,
                        0.007130816207172533,
                        -0.008964279565211227,
                        0.07799167827476057,
                        -0.022996762523909264,
                        0.046469235744918916,
                        0.07148554661326345,
                        0.02820777073594923,
                        0.09866611028650407,
                        0.013344685177110896,
                        0.0919416486928864,
                        0.031267057345851015,
                        0.0987807514576729,
                        0.0013285541727739456,
                        0.01571874926809606,
                        0.04984639843447662,
                        0.3221389384422607,
                        0.0023106157232290654,
                        0.23785810735754018,
                        0.22925650589069518,
                        0.16869042213686572
                    ],
                    "bias": 0.020534558613680563
                },
                {
                    "weights": [
                        0.0018271552626482176,
                        -0.017678921059615414,
                        0.008324661422588284,
                        -0.007811106645917562,
                        -0.017283099639364932,
                        -0.012286553247596402,
                        -0.005356313487682634,
                        0.004223839005831529,
                        -0.005130122089334181,
                        0.0016395389021146292,
                        -0.00934891526418984,
                        0.00339064981418829,
                        -0.011339356171360842,
                        -0.013696174651129163,
                        0.003334179214902787,
                        -0.002478218098239348,
                        0.003804819675179393,
                        0.009267044828267068,
                        0.0028514365010775893,
                        -0.0009842589937364926,
                        -0.0033284192922068655
                    ],
                    "bias": 0.0
                },
                {
                    "weights": [
                        -0.06902378714845445,
                        -0.019890802363596555,
                        -0.06702826316531592,
                        0.025406403925222813,
                        0.0008992608742200346,
                        0.06198513409145334,
                        0.032506620725641325,
                        -0.01786647525353357,
                        0.05706856773827033,
                        -0.07068841108258937,
                        0.030077481267805344,
                        -0.08053057852852961,
                        0.03738908663089938,
                        -0.2524471921457878,
                        -0.006936259165508821,
                        -0.6341339301715517,
                        -0.26812443644222717,
                        0.0026850339270594473,
                        0.01977510044397178,
                        0.030234881503693554,
                        -0.1845042073592654
                    ],
                    "bias": -0.029640108699329107
                },
                {
                    "weights": [
                        -0.17840561541050629,
                        -0.09925010371860282,
                        -0.06473147564760777,
                        0.11538069062780475,
                        0.04104727857636671,
                        -0.01549180355852095,
                        0.053467569699236314,
                        -0.00746233041255235,
                        0.0390340355696221,
                        0.03035845764956542,
                        0.045207986299690334,
                        0.0736080489956006,
                        0.01627178225533995,
                        0.11874923226647181,
                        0.006309723291826524,
                        -0.23540084820482166,
                        0.1475442064446121,
                        -0.001306712968606855,
                        -0.7683911222325492,
                        0.36262965287567434,
                        0.01833165972254942
                    ],
                    "bias": -0.008717158670325532
                },
                {
                    "weights": [
                        -0.03590589973757386,
                        -0.03640810763228768,
                        -0.0224927810712583,
                        -0.027266471500641844,
                        -0.014234087441516673,
                        -0.03205662193275049,
                        -0.00969392476867654,
                        -0.020319437418252772,
                        -0.013654250225899969,
                        -0.026226284062558135,
                        -0.01720808423989087,
                        -0.013525979387952376,
                        -0.03602075669848699,
                        -0.02107111121526432,
                        0.00829738136695392,
                        0.02486792037267486,
                        -0.003672682729446701,
                        0.006912550432735249,
                        0.014368870134176898,
                        -0.03520162274842568,
                        0.029375560965202187
                    ],
                    "bias": -0.022198719763803536
                },
                {
                    "weights": [
                        0.00011534834169811028,
                        0.08777124855753542,
                        -0.053034805478337194,
                        -0.056163753545847,
                        0.024394316645260556,
                        -0.020998246293783766,
                        0.0013699534407350825,
                        -0.06318941001509039,
                        -0.05867983532885839,
                        0.018826212872965962,
                        -0.09193953541535596,
                        0.036907475593522684,
                        -0.08024415455571686,
                        0.12037641075995326,
                        -0.004083277860812193,
                        0.20968242862201072,
                        -0.45101351938461987,
                        0.008426277499103931,
                        -0.28609415324551496,
                        0.06588068336866254,
                        0.002420345500233357
                    ],
                    "bias": -0.035529792678373584
                },
                {
                    "weights": [
                        -0.016296688349589313,
                        0.11278502650612018,
                        -0.10360274711663234,
                        -0.07738628873742226,
                        -0.06373222865826336,
                        -0.11876211307603708,
                        -0.014270254207398952,
                        -0.07540123259527459,
                        -0.04737183919300152,
                        -0.050951871820387365,
                        -0.08027032545899146,
                        -0.06829366225239607,
                        -0.10099908620466228,
                        0.20157947757923192,
                        0.009188167792244564,
                        -0.03780423689553195,
                        -0.07653896742628397,
                        0.0026870971446082883,
                        -0.049594898389891263,
                        0.015260140482721719,
                        0.01713716282102762
                    ],
                    "bias": -0.08738891418099387
                },
                {
                    "weights": [
                        -0.04167461183800062,
                        0.011904741290583578,
                        -0.06466111679427626,
                        0.04021477777924659,
                        -0.020165486505520986,
                        -0.014853010645530022,
                        0.005001575852003138,
                        -0.020849646860244507,
                        0.05074125846602005,
                        -0.06406049145439734,
                        0.03474051970456954,
                        -0.09193554106837751,
                        0.017988539007434464,
                        -0.2114641392362581,
                        0.012152195250114595,
                        -0.5429565258206712,
                        -0.46649044986777766,
                        0.00389668928981161,
                        0.0514841834740794,
                        -0.022426392325101026,
                        -0.05363017951332007
                    ],
                    "bias": -0.019745860154644714
                },
                {
                    "weights": [
                        -0.029603674971041376,
                        -0.022982970310756395,
                        -0.018639433322981836,
                        -0.023187050011352215,
                        -0.03349956020851674,
                        -0.023701745896271356,
                        -0.012820832255842051,
                        -0.021923615928127416,
                        -0.010425812262938684,
                        -0.010827125855618422,
                        -0.0054995241334946585,
                        -0.015930806876936012,
                        -0.009960105164369076,
                        -0.005815311586639526,
                        0.008513319949963493,
                        0.0030119374738665898,
                        -0.004986280507689836,
                        0.006466355465843274,
                        0.013892247153687509,
                        -0.003344348069190066,
                        0.008029243370403992
                    ],
                    "bias": -0.003597775890783363
                },
                {
                    "weights": [
                        0.13282038618241454,
                        -0.04797619639845636,
                        -0.03718200122840458,
                        -0.11690508129597445,
                        0.05751866883426813,
                        -0.0438406723773413,
                        0.03663396275802466,
                        -0.043405969787435564,
                        -0.040655265784740664,
                        -0.016440177222714746,
                        -0.12549035722745577,
                        0.019348563578407658,
                        -0.14445024194790768,
                        -0.09371525105101726,
                        -0.00759742913983464,
                        -0.05632840241242887,
                        -0.8415274039639933,
                        -0.016454907753737293,
                        0.34445407113415466,
                        0.22507420558785438,
                        -0.11004563352979836
                    ],
                    "bias": -0.07461348261997382
                },
                {
                    "weights": [
                        -0.04813503028676759,
                        -0.008226590098248157,
                        -0.07260067363381076,
                        0.08438073400517357,
                        -0.04014408079902001,
                        -0.009544412734080838,
                        -0.02471922303702574,
                        0.020931622704581623,
                        0.01555127224261388,
                        0.03627835330496613,
                        0.025601112432126302,
                        0.06957203298691347,
                        0.02725593483395119,
                        -0.07485312533219109,
                        -0.012224957903910852,
                        0.15491968317069843,
                        -0.9696648452651565,
                        -0.0035139552701073124,
                        0.5939803504389976,
                        0.24216642881591105,
                        -0.09570843772378829
                    ],
                    "bias": 0.0036535042195718105
                },
                {
                    "weights": [
                        -0.04693316220726226,
                        0.01934025735626712,
                        -0.045375180037484336,
                        -0.037871318263559474,
                        0.04797686864770664,
                        -0.1580633247756257,
                        0.1391579469607843,
                        -0.1799635944186687,
                        0.04097790915798141,
                        -0.11224260251677529,
                        0.023816469653787663,
                        -0.07807650454961035,
                        -0.0483362692362891,
                        0.029663601625681716,
                        -0.016837635546180046,
                        -0.1653882281482391,
                        -0.9389692749068707,
                        0.0037633254732705405,
                        -0.3388174541930042,
                        0.25026214527642043,
                        -0.011354726067181076
                    ],
                    "bias": -0.14108660209350946
                },
                {
                    "weights": [
                        -0.0013643415652987343,
                        0.041310972429036766,
                        -0.02649813214728145,
                        0.00021471203049188242,
                        -0.05546128292685742,
                        -0.03611876289204405,
                        -0.04359951654643703,
                        -0.03992447759782795,
                        -0.035011870465292444,
                        -0.10984791694665796,
                        -0.01998249703478193,
                        -0.14202130215202644,
                        0.012577788025957574,
                        -0.6665923579317486,
                        -0.002068080050856963,
                        0.25070796279782176,
                        -1.1116742806843796,
                        -0.0028646220411599355,
                        -0.2851193302670107,
                        -0.04427276158103713,
                        -0.04953217721669396
                    ],
                    "bias": -0.07356552360641884
                },
                {
                    "weights": [
                        -0.10474493301473244,
                        -0.018479822518704076,
                        -0.008641519147029687,
                        0.043039416426054175,
                        0.03993518222645976,
                        0.010897515338394758,
                        0.05731957400048986,
                        0.006935348018975059,
                        0.05603505372544554,
                        0.02126390706597206,
                        0.05662661663428151,
                        0.03599975452376043,
                        0.04206644789764237,
                        0.13613377305312122,
                        -0.004454248462610739,
                        -0.5272322817395073,
                        -0.06969241280608394,
                        -0.002892756920999949,
                        -1.1253113362186955,
                        0.3138076396895447,
                        -0.12306469202836638
                    ],
                    "bias": 0.005453180948488639
                },
                {
                    "weights": [
                        -0.07328903230231601,
                        0.05360877356566058,
                        -0.023853820339124625,
                        0.04189528510168865,
                        0.008424189428432545,
                        -0.004589162319847627,
                        0.08442113361811365,
                        -0.01717982344889288,
                        0.05050032945930994,
                        -0.02481587299799888,
                        0.022816035407055145,
                        0.01514862232169409,
                        0.056287566395422074,
                        0.03423963605762964,
                        -0.003989257196852863,
                        0.050408058667638804,
                        0.04327612524371422,
                        0.003734226489808554,
                        -0.43991153835583807,
                        0.2985413837517943,
                        0.2216305911386398
                    ],
                    "bias": -5.290444420217481e-05
                },
                {
                    "weights": [
                        -0.0200851792376992,
                        -0.012900780921097775,
                        -0.01973540909993849,
                        -0.014202132730195294,
                        -0.0038777538355139305,
                        0.004686188253559924,
                        0.006231200983196872,
                        0.01131165893697313,
                        -0.003361753552002796,
                        -0.02452827354687974,
                        -0.0014870890021863974,
                        -0.016660674850284406,
                        -0.02153745748134923,
                        0.00017206578314218316,
                        -0.0004720352075153966,
                        0.004344766511841711,
                        -0.005008128647598523,
                        0.003976449740154305,
                        -0.0011749493303840567,
                        -0.001319268896084457,
                        0.017259579717603675
                    ],
                    "bias": 0.0
                },
                {
                    "weights": [
                        -0.013474441685569499,
                        -0.032379420036488145,
                        -0.021249089824695824,
                        -0.0337356040155693,
                        -0.032649261546662034,
                        -0.012958959694296494,
                        -0.011043317407739396,
                        -0.024910344046473996,
                        -0.013134052792840417,
                        -0.006789047899680387,
                        -0.010668233209168378,
                        0.003969090812472647,
                        -0.029085483267986025,
                        0.008457636116852386,
                        0.017329885512462985,
                        -0.012614971184685183,
                        -0.01098436361410633,
                        0.004670593546375183,
                        0.007760855254448633,
                        -0.03239562811955575,
                        0.0048491646687097885
                    ],
                    "bias": -0.0035628596513564937
                },
                {
                    "weights": [
                        -0.01896919526450937,
                        -0.023800137335349823,
                        -0.011569148689957166,
                        -0.02308969634402759,
                        0.0023749717005282544,
                        -0.03510750595332908,
                        0.0011631062817803132,
                        -0.005895168957934926,
                        -0.0008420818209796591,
                        -0.010978098522881416,
                        -0.0033404177665169246,
                        0.007536254765289522,
                        -0.018288576344385132,
                        -0.010329473765543735,
                        -0.003395771698826382,
                        0.0030386905617284282,
                        0.0007990582446983764,
                        -0.007922234616796113,
                        0.0007485305969503352,
                        -0.007228900838316079,
                        0.01833341181932956
                    ],
                    "bias": -0.0010390103926965603
                },
                {
                    "weights": [
                        -0.11587176725271225,
                        0.056047186662503905,
                        -0.1101888317514993,
                        0.06147638577495671,
                        -0.00756089165064888,
                        -0.044959691602216814,
                        0.006527986091231522,
                        -0.052238270086001105,
                        -0.03366343414024356,
                        -0.06258865266316874,
                        -0.015453502376506174,
                        -0.007110519054503448,
                        0.03637969435326655,
                        -0.08311793456377456,
                        -0.0010123201065536393,
                        -0.08799495320730946,
                        0.21450886085900467,
                        -0.01418487137260068,
                        0.23229236846775816,
                        0.289927593232354,
                        0.11518290516014693
                    ],
                    "bias": -0.06059339845356501
                },
                {
                    "weights": [
                        -0.03721977530414849,
                        -0.040724674695849714,
                        -0.03933205455607155,
                        -0.04382015746968662,
                        -0.024413650287252113,
                        -0.03836330047646177,
                        -0.04053680741960555,
                        0.048884840927545754,
                        -0.04525812322369846,
                        0.018939767240269745,
                        -0.01865537911352959,
                        -0.04653212664951918,
                        -0.03104713904352821,
                        -0.008232083802262334,
                        -0.018170965499423958,
                        0.028304954890333498,
                        0.07478440534294697,
                        0.00804416308466372,
                        0.07534393179781364,
                        -0.017631575827209492,
                        -0.013527838009530554
                    ],
                    "bias": -0.03312938688151257
                },
                {
                    "weights": [
                        -0.04830828372515231,
                        0.09133590386765161,
                        -0.04639628559220966,
                        0.03785821056696064,
                        -0.015987286570851314,
                        -0.006106510718611137,
                        0.041567260110569326,
                        -0.008038364874576303,
                        0.06470458837650248,
                        0.0027953178761865823,
                        0.0709773004083225,
                        0.03330581706948242,
                        0.059261089215004094,
                        -0.024511888224490724,
                        0.02055093848623087,
                        0.39006973986757243,
                        -0.4419666980884581,
                        -0.007446548141635854,
                        -0.3650198937777848,
                        0.20490050645951902,
                        0.044762787261232104
                    ],
                    "bias": 0.015263069404480526
                },
                {
                    "weights": [
                        -0.0071844335612136784,
                        -0.030897887324648123,
                        -0.015650494808274004,
                        -0.01848185479348987,
                        -0.015766775362300534,
                        -0.022176358833230898,
                        -0.008293072589120678,
                        0.004811465068412851,
                        -0.015888370894245264,
                        -0.01084272230039722,
                        0.007775942926662939,
                        -0.02371628307959882,
                        -0.016506030450813967,
                        -0.004040218914196976,
                        -0.013159073929099336,
                        0.011086515873673547,
                        -0.0031168674579786933,
                        -0.008115253561704595,
                        0.014956779553874235,
                        -0.008979651455245544,
                        -0.0032525119210983704
                    ],
                    "bias": -0.002169225885961113
                }
            ]
        },
        {
            "neurons": [
                {
                    "weights": [
                        0.3108852765855476,
                        -0.033381815696668475,
                        0.06169031053069705,
                        0.04413046877008573,
                        0.09252735973002334,
                        -0.01671584036649204,
                        -0.0013030062499669742,
                        0.04330372248384846,
                        -0.011660739258462574,
                        -0.03143505129250737,
                        0.0024418300115933086,
                        0.07620955688772424,
                        -0.07329934363791245,
                        0.04206424248066267,
                        -0.012078681834712173,
                        0.07224221908295995,
                        -0.00584795846509803,
                        0.001820962223307568,
                        -0.36215765246561904,
                        -0.10985685889903762,
                        0.014607561149017866,
                        0.0341159500164909,
                        -0.2586936821016129,
                        -0.03322907254765288,
                        -0.08323797174888413,
                        0.07133075934563501,
                        -0.11295197659617692,
                        -0.05176271478808667,
                        0.012823174359550897,
                        -0.017912307705668432,
                        0.09449995469946232,
                        0.11781963582458341,
                        0.034066529283376654,
                        -0.03550240329878326,
                        -1.5677064726898063e-06,
                        -0.0540176509558716,
                        0.22982630400164775,
                        0.11480472392404177,
                        0.022005221679941823,
                        0.26766695186990935,
                        0.0008449977372764596,
                        0.2212434241722431,
                        0.040094394870028846,
                        0.0083299067076347,
                        -0.1757722288068196,
                        0.07306462763884065,
                        0.026534613573173913,
                        0.02469153770594157,
                        0.11364516057153425,
                        -0.24896339043239127,
                        -0.01768186760855678,
                        -0.049854627944507034,
                        0.045642244812448274,
                        0.09997486334621093,
                        -0.013399067135575989,
                        0.19323411303461757,
                        0.03606504770908562,
                        0.010570616142199167,
                        -0.015797531764989756,
                        0.006745722939010151,
                        0.08930445096369366,
                        0.08773881417767736,
                        0.03567694698146308,
                        0.0026507305073228188
                    ],
                    "bias": -0.10475083067380657
                },
                {
                    "weights": [
                        0.04343846615242081,
                        0.042332836208042006,
                        0.13255156983148106,
                        -0.03994585596163897,
                        0.16288523933496857,
                        0.042506436353344695,
                        0.003789275656833261,
                        0.038681547816281525,
                        0.0025123446986628703,
                        0.04568253478977755,
                        0.007957519168128056,
                        -0.1699642196637311,
                        0.09135641844310198,
                        -0.01927544591101932,
                        -0.0028039834681356044,
                        -0.04290569275150758,
                        0.011953526199591823,
                        0.004969199075054164,
                        -0.14728673597205003,
                        -0.15374271386324737,
                        0.07335320970240813,
                        0.04290524224533291,
                        -0.08108640711819527,
                        0.04849869551456505,
                        0.01197270367811013,
                        0.07810495074178658,
                        0.03563324012986977,
                        0.07271501620342258,
                        -0.016729555726526124,
                        -0.001782957330016445,
                        0.13763402207916328,
                        0.03451570307165493,
                        -0.08055190936707368,
                        0.08763613795802812,
                        0.00956675364218734,
                        0.11521403181734519,
                        0.21974126930185933,
                        0.04503511722771163,
                        -0.11151655247687785,
                        0.0013739800847237765,
                        0.01243057294503869,
                        0.047710895523188065,
                        -0.032109598680573295,
                        -0.01748298360781634,
                        -0.368964573497173,
                        0.3046884461932919,
                        0.022832817351511416,
                        0.07471195745086313,
                        0.1559840474614489,
                        -0.3582616120115936,
                        -0.0075304099158927705,
                        -0.06894430050159578,
                        0.06730799261269048,
                        -0.22945802028227047,
                        -0.015961041098655822,
                        0.08604028091239119,
                        -0.053840481662982526,
                        0.013282947074430321,
                        -0.006690481836283809,
                        0.007530063821958351,
                        -0.019389056579892427,
                        -0.02411667690837307,
                        0.08242960714230449,
                        0.0007370852833773584
                    ],
                    "bias": 0.024519325776087057
                },
                {
                    "weights": [
                        0.2099357830716257,
                        0.013858226996560703,
                        0.0054093587783793536,
                        0.008026466426970537,
                        0.005654962179081946,
                        0.0496243263603099,
                        -0.0008799424784569565,
                        -0.008003115858937211,
                        0.0036086079308365617,
                        -0.02146767296560445,
                        -0.0038878240974806583,
                        -0.20740306070896994,
                        0.0793770263755836,
                        0.03295778027185112,
                        -0.021119996708730774,
                        -0.275582430179539,
                        -0.016889688261136376,
                        0.010525348548877917,
                        -0.022598775757238218,
                        0.050232419578364884,
                        0.001955771402055751,
                        0.11621757644702141,
                        0.033586259221188706,
                        -0.006226077358096839,
                        -0.025942455894923177,
                        -0.0969043469987598,
                        -0.08595856511719206,
                        -0.10664610288473726,
                        0.010006540600841942,
                        -0.07833362587359517,
                        0.0388969572811793,
                        0.12848263632900947,
                        -0.1361519895917153,
                        0.07252215276113651,
                        0.005329317061819895,
                        -0.04127619797254687,
                        0.19201286780951649,
                        -0.012993579330081799,
                        0.01640104158622149,
                        0.1730447343797812,
                        0.004224967336571942,
                        0.10977924121468428,
                        0.026886801419471966,
                        0.013155344233889197,
                        0.04679956969243753,
                        0.06642863364340938,
                        0.02220138185833989,
                        -0.05385093332373756,
                        -0.10745833393053959,
                        0.05166087036139002,
                        -0.008013623786053244,
                        -0.14915585708162907,
                        -0.05125284376709842,
                        0.014550165915006139,
                        -0.07801340212611668,
                        0.0685779025102862,
                        -0.01554653160813337,
                        0.004263039636607523,
                        0.0021571027134933136,
                        0.005619653361184571,
                        0.06729355195943783,
                        -0.005391972883761267,
                        0.029767173841197057,
                        0.0024645286610447616
                    ],
                    "bias": 0.0035169133116448995
                },
                {
                    "weights": [
                        -0.014834408553787926,
                        0.06101875705372106,
                        0.11651079422860205,
                        -0.08801945470195778,
                        -0.03959292030199513,
                        -0.04254178178283765,
                        -0.022467509439556443,
                        -0.07884698645611701,
                        0.004339243710689035,
                        0.07327545088897726,
                        0.0056933929430922035,
                        -0.001063842884463481,
                        -0.047193255161384125,
                        -0.04163163274402399,
                        -0.003868211459890504,
                        -0.05627408108122742,
                        -0.012155638289459704,
                        0.0029571093494449503,
                        0.007100226873948433,
                        -0.07868969818853377,
                        0.05799285341991511,
                        -0.362354135528703,
                        -0.05015904709057379,
                        0.01857471260931041,
                        0.07196375298691078,
                        0.12250073424314628,
                        0.039923405861369964,
                        -0.19706816645555178,
                        -0.006744363379077595,
                        -0.06392380427756728,
                        0.21218282426591625,
                        -0.01991796401228356,
                        0.12074685689883675,
                        -0.03499692138898183,
                        0.026397452958037766,
                        -0.09950293638109996,
                        0.04029554788122132,
                        0.0732470520345167,
                        -0.006782387846583488,
                        0.02137720842580164,
                        0.010165248979954035,
                        0.040917926110077135,
                        -0.011125029158031268,
                        0.018997499528469547,
                        -0.2426692623207672,
                        0.004530081261004059,
                        0.028116477942482045,
                        0.06478714017159219,
                        0.13054987322587483,
                        -0.34961577447473813,
                        0.0021105049748466956,
                        0.09731239624125886,
                        0.009759156721252112,
                        -0.15452756934734038,
                        0.06609838623609869,
                        0.11742024214714043,
                        0.03200659883450498,
                        -0.002360725378383668,
                        -0.0201461269306758,
                        -0.008782875459133326,
                        0.10636911351135266,
                        -0.07283320407256681,
                        0.05026123430446168,
                        -0.01693777227301915
                    ],
                    "bias": 0.0041520717196311075
                },
                {
                    "weights": [
                        0.16449005932330513,
                        0.024737720488265922,
                        0.09034994287979005,
                        -0.05816626667542094,
                        -0.15886595273260198,
                        -0.024617125565573023,
                        -0.013108914399721663,
                        -0.04392189395274728,
                        0.00503103058394803,
                        0.05581312022287771,
                        -0.013395799746458601,
                        -0.20359030328004313,
                        0.03264685340615595,
                        0.03271097945192855,
                        -0.017664832396359017,
                        0.009593876131379325,
                        -0.0040912663035940254,
                        0.008861839616979627,
                        -0.08967599643819023,
                        -0.17496124871447014,
                        -0.04310454281345293,
                        0.03639030324484236,
                        -0.08445942227075813,
                        -0.10343425519289157,
                        0.005121778468992903,
                        0.07923746624208201,
                        -0.002987832085961994,
                        0.07242621708510089,
                        -0.004583374428648261,
                        -0.0447515202474569,
                        0.14933205388767956,
                        0.08720048234149708,
                        -0.1904170025509976,
                        0.04683237280805867,
                        0.018468029098708903,
                        0.04324909037721738,
                        -0.04774215693113216,
                        0.11722387704380344,
                        -0.06640770760398927,
                        0.07889912223756172,
                        -0.0081879241631764,
                        0.005973439036167821,
                        0.06535912328887675,
                        0.010336035092642321,
                        -0.10523675908173669,
                        0.09489227827005892,
                        0.03382061020334599,
                        0.21876726629577073,
                        0.009035817664851878,
                        -0.18852017922882336,
                        0.01664497018557745,
                        -0.06731225756809689,
                        0.058124189479906135,
                        -0.2524637045390492,
                        0.08173327244029312,
                        0.028911863390755098,
                        -0.08777633296899608,
                        0.0025846987080841723,
                        0.015208471800804367,
                        -0.0031384799686529573,
                        0.048836555111437,
                        -0.0018986064968017713,
                        0.06330365698483825,
                        0.010492052671241515
                    ],
                    "bias": 0.03564613990221172
                },
                {
                    "weights": [
                        -0.053478930728833425,
                        -0.0013070633292015812,
                        0.1537191602253324,
                        -0.030507506770084,
                        -0.11345710157869644,
                        0.014255777896192652,
                        0.00974984434192819,
                        -0.0026846903102418058,
                        -0.001554418137255374,
                        0.059635444080156044,
                        0.020002280917516768,
                        0.09887050116897345,
                        0.06984232124952494,
                        -0.09964790766228787,
                        -0.01364926389219933,
                        0.004881788330551853,
                        -0.009313515390674727,
                        0.0007831988063692395,
                        0.014937819184642062,
                        0.18350773418950023,
                        -2.5115182635702344e-05,
                        0.18010140044889647,
                        -0.15654594710047887,
                        0.029458211857450664,
                        0.1475747343414268,
                        0.055414126979190695,
                        -0.05378167279998414,
                        -0.46716407606309523,
                        0.0020237092146237353,
                        0.06847160999572632,
                        0.07437805649239754,
                        0.18827868182295598,
                        -0.11282054031147971,
                        0.008981081035862875,
                        0.01346550923918682,
                        -0.08062670644934823,
                        0.31472272387400957,
                        0.04320004092619505,
                        -0.0647526557855618,
                        0.06231508370029225,
                        0.004968009911612678,
                        -0.040117289641055626,
                        -0.012053609579210815,
                        0.010738604235470363,
                        0.025238396034818828,
                        0.07813881402122692,
                        0.02800555139678789,
                        0.12288178467238112,
                        0.004505135322808373,
                        0.005923831252530583,
                        -0.008626357486403509,
                        -0.065158252478063,
                        0.13446740975155752,
                        -0.2287676894881469,
                        0.1347525162357454,
                        0.06434445760274123,
                        0.04499282648320699,
                        0.008050255667444349,
                        -0.01819779979815748,
                        -0.0037724086687594897,
                        0.03312964041026875,
                        -0.018177832356105268,
                        0.12204895744972488,
                        0.01445936536333305
                    ],
                    "bias": 0.0617805562548491
                },
                {
                    "weights": [
                        0.007455453898281643,
                        -0.041387590631473355,
                        -0.016784946063262873,
                        -0.05103896413480689,
                        -0.002595941104691991,
                        -0.020692964889210033,
                        -0.002443802504223315,
                        -0.07167134299881474,
                        -0.01904841533728908,
                        -0.019043595228675707,
                        0.002918947315303595,
                        0.03069149611826407,
                        -0.02223224805798536,
                        -0.008291894789259992,
                        0.007285790267458541,
                        -0.012421488625509998,
                        -0.0005056461900520663,
                        -0.009178905319760747,
                        -0.03595339681194443,
                        -0.0039560189245785886,
                        -0.010926687577026322,
                        -0.008920628938238358,
                        -0.033169426887207226,
                        -0.01275765541750273,
                        -0.057818609447690565,
                        -0.012434881277895247,
                        -0.011064640477643727,
                        -0.0057218231854801755,
                        0.010518066025249913,
                        -0.04963205687326762,
                        -0.003215997488375459,
                        -0.00796954195493753,
                        -0.03575940382437556,
                        -0.0232104122991759,
                        -0.002101861669974299,
                        -0.06110454016630792,
                        -0.01174689629048819,
                        0.003195308101156351,
                        -0.032894696345692906,
                        -0.017598428430297477,
                        0.004924449371607984,
                        -0.0014756894580093929,
                        0.013817124572913371,
                        -0.0024767208090775475,
                        -0.035788971935903996,
                        0.010644451618652701,
                        0.012352047009936,
                        0.0013784392008331032,
                        -0.017740990436829727,
                        -0.03842956388543556,
                        -0.005677454003428543,
                        -0.00855309720453394,
                        -0.012150204331763755,
                        -0.04611219062998822,
                        -0.017426469464104744,
                        -0.019019486130842655,
                        -0.013368815056697111,
                        0.0100169830640418,
                        0.012739621714908542,
                        -0.005667849264393461,
                        -0.012536115658279246,
                        0.010203852247885052,
                        -0.02422420984521315,
                        -0.015094162555926287
                    ],
                    "bias": -0.05367622859020327
                },
                {
                    "weights": [
                        -0.11926824695927439,
                        0.041649758747999324,
                        -0.013015030354072442,
                        -0.12541430985855262,
                        0.4327846852204574,
                        -0.030545317666358224,
                        0.0018969099524243159,
                        -0.09512829502463145,
                        -0.0015289107683072374,
                        0.022786407725951655,
                        -0.006796443196522223,
                        0.12227377243252033,
                        0.06181609635688217,
                        -0.025351542842494725,
                        0.009413663147827942,
                        -0.25903284925775083,
                        0.014164530473647923,
                        0.009005830026178791,
                        -0.0740308135725238,
                        -0.04828316590284994,
                        0.0421673246381643,
                        0.1420057219174033,
                        -0.018659739643406583,
                        0.11571806448645264,
                        0.039397823682672285,
                        -0.1966524648349695,
                        0.008693810787183225,
                        -0.15741153985835182,
                        0.005434236092876236,
                        -0.03619676509515084,
                        -0.05749116504331797,
                        -0.17697297008720725,
                        -0.023948413076832605,
                        0.07604001800325427,
                        -0.007802306494229673,
                        0.014066102421254355,
                        0.014831529387127134,
                        -0.039971632447472816,
                        -0.19658109871075757,
                        0.4160012320080468,
                        -0.015408785183750218,
                        0.08054947325363011,
                        -0.0957622340607552,
                        -0.004766953536345994,
                        -0.13470483302806918,
                        -0.00843570276712206,
                        0.019679641519859802,
                        0.07687997124265773,
                        0.02690614953899258,
                        -0.11590894682502588,
                        0.009969674663161366,
                        -0.2679444305894292,
                        -0.0846242535430107,
                        -0.0738706806851022,
                        -0.639288760598433,
                        0.03959849127840133,
                        0.08112323015670081,
                        0.003700468469850127,
                        0.006140955834621018,
                        -0.008675722796150262,
                        0.086457752261598,
                        -0.035394068701435084,
                        0.12386310183580275,
                        -0.010750204037956483
                    ],
                    "bias": -0.05505552288565793
                },
                {
                    "weights": [
                        -0.027810768436896352,
                        0.02706197045922554,
                        0.07720785385100859,
                        -0.02493418450290285,
                        -0.06382438908953587,
                        0.012995891383515146,
                        -3.656802991196635e-05,
                        -0.028490708309626897,
                        -0.009632222101073135,
                        -0.05413138727807934,
                        0.0032900758289126047,
                        -0.002586107909860265,
                        0.040899598703218104,
                        0.011417693011170621,
                        -0.0055590195716491925,
                        -0.45850316616571907,
                        -0.01211727874934806,
                        -0.01185158278069535,
                        -0.04869896499253515,
                        0.032977202981686736,
                        0.005452806198280229,
                        0.0896164118793124,
                        -0.061649365381513,
                        -0.004838825972142066,
                        -0.02021140574762342,
                        -0.25350142475640575,
                        -0.08124950515163065,
                        -0.44163888129380796,
                        -0.005455691664592165,
                        -0.09857680263839425,
                        -0.011937977395136882,
                        0.07189999365591583,
                        -0.18564163347906856,
                        0.11157382472529255,
                        -0.004973423476002,
                        -0.11765427293721312,
                        0.03618092676834582,
                        0.07909019412284861,
                        0.10196923361734675,
                        0.22695393400106117,
                        0.015030700492238163,
                        0.19216212798642354,
                        0.0957400131294599,
                        0.0021244469502618942,
                        -0.0005985759720877642,
                        0.04182147427865954,
                        0.021898636389159242,
                        0.04407596588657104,
                        -0.04164898389053801,
                        0.039090740599245805,
                        -0.005495179969269552,
                        -0.02539360608410327,
                        0.004313123166971771,
                        -0.09627780158206195,
                        -0.19605453672651246,
                        0.07150479096959451,
                        -0.012477366460111928,
                        0.015276615520426851,
                        -0.020855314441940866,
                        0.006791483446348887,
                        -0.03937777541486448,
                        -0.019837586837987805,
                        0.11469542268724954,
                        -0.001729683310571116
                    ],
                    "bias": -0.05875212736817863
                },
                {
                    "weights": [
                        0.06221171520014656,
                        0.038143088784363184,
                        0.033017295611821214,
                        -0.04216777040865413,
                        -0.2800791995997072,
                        0.018389475911784962,
                        -0.00825298298828639,
                        -0.03698123505136866,
                        -0.006836383120142162,
                        0.03669312066186393,
                        0.014936435455683832,
                        -0.04346481049187164,
                        -0.04033160417653743,
                        0.14650216399628518,
                        -0.004526939497989947,
                        -0.07118152874213857,
                        -0.0013065111288145703,
                        -0.019510345425799852,
                        -0.09610167717927205,
                        -0.34056957935538135,
                        -0.023117548082973016,
                        0.035811290293341444,
                        -0.019021010015351038,
                        -0.13600723452344288,
