{
    "items": [
        {
            "neurons": [
                {
                    "weights": [
                        -0.07812862571469595,
                        0.11604532731344142,
                        -0.060521306971398244,
                        0.05844674875174615,
                        0.03152608651099669,
                        -0.004827919913116866,
                        -0.0004337979293866214,
                        -0.013370585473047761,
                        -0.040952977326811024,
                        -0.05596663476058684,
                        -0.004789274006728467,
                        -0.021160886968771827,
                        -0.01941007138988097,
                        -0.1575589779711034,
                        0.012591122737384441,
                        0.21720464589416583,
                        -0.2800732903094057,
                        0.005227709334944912,
                        0.6111356528948897,
                        0.2351501564159084,
                        0.06096494462322595
                    ],
                    "bias": -0.03886807040251254
                },
                {
                    "weights": [
                        0.003940305875719383,
                        -0.04287760012703091,
                        -0.20975727025410432,
                        0.06649994808335617,
                        0.055350128358442954,
                        0.03128625524295695,
                        0.08862124198639558,
                        0.0027859383238545542,
                        0.15167248158512778,
                        -0.058387026969308406,
                        0.18045541706309556,
                        -0.051990230718551016,
                        0.18678615878117436,
                        -0.3585766274890425,
                        0.005237427916718821,
                        0.1279082495845776,
                        0.5161032825405512,
                        0.009535814695736135,
                        0.2694696701230905,
                        0.28252518397636356,
                        -0.03280406038105394
                    ],
                    "bias": 0.013779214282139789
                },
                {
                    "weights": [
                        -0.1221552670219216,
                        -0.1395187137573686,
                        0.07556586945364215,
                        0.03532512481191124,
                        -0.017938080766862777,
                        0.027846580948431735,
                        0.08620414806139784,
                        0.036385525693172896,
                        0.024024252197642565,
                        0.039077702315031736,
                        -0.0055535059550484945,
                        0.09403919789506268,
                        0.015014934335916871,
                        -0.012027902033689137,
                        -0.018012214152256532,
                        -0.013436005465898106,
                        0.5644767061182623,
                        0.0021236740909300355,
                        0.3856288810130465,
                        0.3426750988746003,
                        -0.023852739257616183
                    ],
                    "bias": -0.006959314110024067
                },
                {
                    "weights": [
                        -0.16615817470101266,
                        -0.049862725631170585,
                        -0.03541260102865921,
                        -0.01946809888947686,
                        0.030603128475514906,
                        0.11803559944601247,
                        0.0647201529210689,
                        -0.0030077830656500644,
                        0.025056515506694386,
                        0.054783978049750506,
                        0.046042331102466284,
                        0.07129497678374297,
                        0.028443725030505417,
                        0.05968379954054221,
                        -0.017267232440123723,
                        0.038508447417017456,
                        0.5398783148458705,
                        -0.004182274640948883,
                        0.03917264527025451,
                        0.2421224794520812,
                        0.11331910493290502
                    ],
                    "bias": 0.0036337855463066462
                },
                {
                    "weights": [
                        -0.03423580702113267,
                        -0.02761444476874165,
                        -0.02464232710882285,
                        -0.02902831700253726,
                        -0.04035685920108351,
                        -0.031573984881706374,
                        -0.030969949188654956,
                        -0.020946162668244946,
                        -0.012563737893264756,
                        -0.01959546005562892,
                        -0.008735724692245496,
                        -0.03241196317769762,
                        -0.04120183413377555,
                        -0.015260936856901755,
                        0.0016208570602952194,
                        -0.011865005206882545,
                        -0.0045599636800557515,
                        -0.003496987453116388,
                        0.006307302502358413,
                        -0.008827276412275733,
                        0.016101046837493943
                    ],
                    "bias": -0.012021389053074562
                },
                {
                    "weights": [
                        -0.014889222560705767,
                        -0.011427906949964008,
                        -0.013182762920299419,
                        -0.0008107074100802477,
                        0.008246686246914298,
                        -0.009146537353257298,
                        -0.005137997527080349,
                        0.0018861234197501179,
                        -0.0015308050448140274,
                        -0.010768169736270561,
                        0.011847438987066807,
                        0.0070748720720536186,
                        -0.0017920265431914087,
                        0.009151721507186229,
                        0.008623905759176877,
                        0.012095314011362686,
                        0.0230408978354919,
                        0.0002567231520761203,
                        -0.005701935976981533,
                        0.018575908766496656,
                        -0.0031900803047285333
                    ],
                    "bias": 0.0
                },
                {
                    "weights": [
                        -0.04352647811369922,
                        -0.10251175022485835,
                        0.08369651766523539,
                        0.05066544995917205,
                        0.07391886873351088,
                        0.008636999999565626,
                        -0.005849487118271848,
                        -0.0536912367369586,
                        -0.08726201280768564,
                        -0.0702955517222707,
                        -0.022258698212462267,
                        0.02625818496834024,
                        -0.08444241989881295,
                        -0.04291824951278245,
                        -0.01595967632944039,
                        0.19706391169471096,
                        0.13202809507980304,
                        0.0024917048699487606,
                        -0.7110307754817047,
                        0.29564518696149183,
                        -0.2425796940824342
                    ],
                    "bias": -0.06834239906079255
                },
                {
                    "weights": [
                        -0.0750959464508567,
                        -0.08182203759199054,
                        -0.07103414823320098,
                        0.04191410212337822,
                        0.02666404223616515,
                        0.01908101782541415,
                        0.057172875606851074,
                        -0.012640655933679313,
                        0.0942791895795395,
                        -0.10577248540062714,
                        0.02280734571843542,
                        0.016578961431095066,
                        0.013096019181025258,
                        0.20634475597192126,
                        0.004883303868635073,
                        -0.10685801658454726,
                        0.3430402560686386,
                        -0.0014742485642680364,
                        0.11119581359695971,
                        0.25169588737925874,
                        0.26575045852379126
                    ],
                    "bias": -0.1084280906713567
                },
                {
                    "weights": [
                        -0.021606400572514266,
                        -0.036456360715050505,
                        -0.026444224008477964,
                        -0.016169595440216337,
                        -0.03287699639162619,
                        -0.046482370409417245,
                        -0.03210191800016848,
                        -0.01726348150268765,
                        -0.024053601404085887,
                        -0.040881149958013945,
                        -0.035663905623160436,
                        -0.033621711847991974,
                        -0.03771529318302701,
                        -0.02107700462596686,
                        0.01330343542744101,
                        -0.014823835102639881,
                        0.002611511760580264,
                        0.00019203420886721985,
                        -0.0033773764264427818,
                        -0.020122654772275594,
                        0.011157692339577523
                    ],
                    "bias": -0.011284235920426723
                },
                {
                    "weights": [
                        -0.0978768408987548,
                        0.06204132614007864,
                        -0.10506115194902886,
                        0.013962470984084267,
                        -0.02419018730335894,
                        0.06843591334360344,
                        0.014748945437342226,
                        -0.05448839352634689,
                        -0.04708681955771469,
                        -0.10057839963617994,
                        -0.006287086652899207,
                        -0.11121574480149612,
                        0.006814339046777006,
                        0.19858197033778194,
                        0.020122026120907677,
                        -0.14158589253823597,
                        0.7048472044306134,
                        -0.015158862365948348,
                        -0.7131356409096277,
                        -0.042183259991047495,
                        -0.0230487076732681
                    ],
                    "bias": -0.0912484885183864
                },
                {
                    "weights": [
                        -0.06048999654896998,
                        0.046979624403566976,
                        0.0796892281278163,
                        0.04023349717925363,
                        0.08330490609179365,
                        0.005047885232233626,
                        0.040939451358144106,
                        -0.0024724464188946773,
                        0.014627549834877355,
                        0.050746735360662196,
                        -0.011167404851622565,
                        0.16070146755005077,
                        -0.01735404715763473,
                        0.03845230166915819,
                        0.0028910353428278418,
                        0.004929095357779996,
                        -0.18570362133597135,
                        0.006217002215021685,
                        0.055354588143796235,
                        0.2670844756579914,
                        0.13092549422248914
                    ],
                    "bias": 0.0585137527872499
                },
                {
                    "weights": [
                        -0.0024288301152213493,
                        -0.0458011994468473,
                        0.03288249716231652,
                        -0.0326710646407057,
                        -0.03557131816187842,
                        0.003001400849472805,
                        -0.09109398564300475,
                        -0.15254581352208837,
                        -0.05992434291578453,
                        -0.03723876730505982,
                        -0.04298082825833692,
                        0.04374605211370405,
                        -0.04473380199668097,
                        -0.2933357598125054,
                        0.005315260524195472,
                        0.4300599732988618,
                        -0.5144796992930093,
                        0.0014856336006591302,
                        0.09013891838396626,
                        0.07196200595720156,
                        0.03840097690132373
                    ],
                    "bias": -0.025078829514944726
                },
                {
                    "weights": [
                        -0.1897205031661306,
                        -0.05040416118701099,
                        -0.03949084132686338,
                        0.05513636800558192,
                        0.08439362348438832,
                        -0.04922816343317462,
                        -0.0006386190580343012,
                        -0.02731693690385792,
                        0.0146196508534195,
                        0.0012891916136023617,
                        0.11033180402501203,
                        -0.010466890150845926,
                        0.016291037066349653,
                        0.17651754849934495,
                        -0.02176279103275753,
                        0.2610642913775394,
                        0.0817992169317265,
                        0.00991592504304018,
                        1.0237407149106685,
                        0.31335152681919176,
                        0.03784267802481271
                    ],
                    "bias": -0.0296546670452
                },
                {
                    "weights": [
                        -0.10056520438189204,
                        -0.03240559959971385,
                        -0.01041270961001693,
                        0.04211187775908676,
                        0.08022439934816337,
                        -0.0003023460425229908,
                        0.13029668058869842,
                        0.040387897040243544,
                        0.06497466701942432,
                        0.03580574513813593,
                        -0.009668707458797244,
                        0.04056529508170901,
                        -0.049167817639329287,
                        -0.09528143619876223,
                        0.016259782835753207,
                        0.2810134129971747,
                        0.8275185653375818,
                        -0.0011330352338912587,
                        -0.00431670399816022,
                        0.29699337389145763,
                        0.07897982226916157
                    ],
                    "bias": 0.016269628522271047
                },
                {
                    "weights": [
                        -0.040603035027009744,
                        -0.10234502406521404,
                        -0.018552728217072656,
                        0.032915112146557554,
                        0.03614178268730688,
                        0.07119525530453091,
                        0.05430169493178252,
                        0.013297820979694883,
                        0.05152956784415862,
                        0.012827080284192662,
                        0.058801940411261536,
                        0.05303653443687684,
                        0.04898181840596016,
                        0.08454271596242864,
                        -0.00702225537532918,
                        -0.1095470831819116,
                        -0.7323077507854345,
                        -0.017400799812279537,
                        -0.515029208558725,
                        0.2533552000908003,
                        -0.1028511940334195
                    ],
                    "bias": 0.031597730211454844
                },
                {
                    "weights": [
                        -0.10789884789725587,
                        0.0014591467428533675,
                        -7.038509013241851e-05,
                        0.03052103290479343,
                        0.0964298356999238,
                        0.019180727356679448,
                        0.06919174302490741,
                        0.019573963275312516,
                        0.08788495431743573,
                        0.026392714007206153,
                        0.08810350329963826,
                        0.016484198094990153,
                        0.10223940581899806,
                        0.02366833247520248,
                        -0.0029443530976930583,
                        0.23660901675042223,
                        -0.3564829927498202,
                        -0.003100403919554856,
                        -0.649466724205015,
                        0.14634849082117327,
                        -0.06257504317240793
                    ],
                    "bias": 0.03054666180134405
                },
                {
                    "weights": [
                        -0.006427439858885245,
                        -0.07418151939994241,
                        0.07275136962249411,
                        -0.0889926136985143,
                        -0.005170778611237214,
                        0.16137803592922456,
                        -0.1760723193736409,
                        -0.011781508050131232,
                        -0.23684783191876138,
                        0.05396935693054803,
                        0.04635339312752577,
                        -0.04072659734525855,
                        -0.02243206155300509,
                        0.13821725553165268,
                        -0.003397134570213346,
                        0.19916333562967933,
                        -0.8931217903367304,
                        -0.0020068821751462727,
                        -1.0321916300761433,
                        -0.08548619811302027,
                        0.005362863593410751
                    ],
                    "bias": -0.04694906229506422
                },
                {
                    "weights": [
                        -0.005869226054450949,
                        -0.005407633549772221,
                        0.0010160771869001078,
                        -0.02094437526714903,
                        -0.010105906031585947,
                        -0.01716497577143866,
                        0.009194084287536472,
                        -0.0031257742539469073,
                        0.017009715194164998,
                        0.012784852074516722,
                        0.006128840717631838,
                        0.011400132864007855,
                        -0.010821581358279951,
                        -0.015444549090835542,
                        0.015116734141854311,
                        -0.0083300825583944,
                        -0.008038246482427453,
                        0.007429033054335989,
                        -0.0012979082920469348,
                        0.0008882296227878847,
                        0.002405807577265921
                    ],
                    "bias": 0.0
                },
                {
                    "weights": [
                        -0.11398142431190791,
                        -0.1862581487581775,
                        0.05194815952050142,
                        -0.015956651306206382,
                        -0.0011826858180892647,
                        0.003668167140469542,
                        -0.034383296284580346,
                        -0.011401771499370814,
                        -0.12118953204428508,
                        0.10335668321620176,
                        -0.030209144491308924,
                        0.2340624199762543,
                        -0.07183693627245265,
                        -0.10189574379547936,
                        0.02208830026060914,
                        -0.12510700170602082,
                        -0.10613654348794531,
                        -0.02070081972715465,
                        0.22803403012598053,
                        0.45199913346982246,
                        -0.1503551342271415
                    ],
                    "bias": 0.07780586697450662
                },
                {
                    "weights": [
                        -0.15680766167671656,
                        -0.006255968111382062,
                        0.026602361858306365,
                        0.04530309273288237,
                        0.013575681417831014,
                        -0.0077913649754274734,
                        0.016711496913723194,
                        -0.004278900196037498,
                        0.019934710355923434,
                        0.005648183120806041,
                        0.08331563533676961,
                        0.012461809876442178,
                        0.13176448084576337,
                        -0.18332994098016966,
                        0.0014431831232978598,
                        -0.0677304680736042,
                        -0.46283340083506186,
                        0.00041245099106668035,
                        -0.14014225792438081,
                        0.21487778611046954,
                        -0.1585354809878199
                    ],
                    "bias": 0.011039816889774387
                },
                {
                    "weights": [
                        -0.11177338498025399,
                        0.0684542923537035,
                        -0.0010989702271084032,
                        -0.03692578305674431,
                        -0.04344585153453143,
                        0.14304899565912083,
                        0.08663732540007377,
                        -0.015321759004108319,
                        0.04428387513866489,
                        -0.04954353236913199,
                        0.0315425228197339,
                        -0.02271359881334768,
                        -0.10823058363230953,
                        -0.004749781337425477,
                        0.011895485934437934,
                        0.10181871316555846,
                        1.076124535275174,
                        0.004934418739846927,
                        0.6346910589910638,
                        -0.11741499820255584,
                        0.13740724340510857
                    ],
                    "bias": -0.02215917930304059
                },
                {
                    "weights": [
                        0.002734486728908597,
                        -0.05276295219710159,
                        -0.07543907241624802,
                        0.028481756717365324,
                        0.029411490148002876,
                        0.04447913505056284,
                        0.04624657975055749,
                        0.005454285600397849,
                        0.06814761707731164,
                        -0.012055494373460813,
                        0.07983332189357817,
                        -0.019874636317494174,
                        0.09371154811545969,
                        0.1945686433260771,
                        -0.0010761837394789745,
                        0.5561535989611225,
                        0.3875618537736438,
                        -0.006142784458189576,
                        -0.35721792324573326,
                        0.19983152327069337,
                        -0.0062194211744253
                    ],
                    "bias": -0.0018828072569136817
                },
                {
                    "weights": [
                        -0.028884176253780054,
                        -0.03232394401934128,
                        -0.028883813281196248,
                        -0.037836148168957424,
                        -0.025763919703699394,
                        -0.02092409235647785,
                        -0.018104153773752202,
                        -0.02493312283655607,
                        -0.02238595745911033,
                        -0.02743264996587515,
                        -0.03417170957183258,
                        -0.03072305840292204,
                        -0.027477269452291172,
                        0.01841441383750243,
                        -0.010377954510948837,
                        -0.015722320498767532,
                        0.008208909347731498,
                        0.0007462801280069545,
                        -0.000260945715002999,
                        -0.01334487806930679,
                        0.019675380129773594
                    ],
                    "bias": -0.01923985998949523
                },
                {
                    "weights": [
                        -0.11067806269397118,
                        -0.06828156230597993,
                        0.03440559962684122,
                        0.08670854723257074,
                        0.07464409192813118,
                        0.007087295410771675,
                        0.026195075212245685,
                        0.030299485862576657,
                        -0.009076643948159751,
                        0.0184809085134785,
                        -0.007264549216881785,
                        0.028791987003794286,
                        -0.04767847281270709,
                        -0.026436304272072702,
                        0.014441022618953834,
                        0.08622812469743885,
                        -0.34027515523809015,
                        -0.006346584973138849,
                        0.30569344988416697,
                        0.3938041585303942,
                        0.015040320450473174
                    ],
                    "bias": -0.005007961612637086
                },
                {
                    "weights": [
                        -0.014591125312568417,
                        -0.03300028152236886,
                        -0.023558942097609774,
                        -0.005553686953000031,
                        -0.014863182045060075,
                        -0.03568157543817425,
                        -0.029540572097871576,
                        -0.031160990672166756,
                        -0.03351159595180711,
                        -0.028964882570882044,
                        -0.015513646202174557,
                        -0.029775331946935386,
                        -0.029430815927181306,
                        -0.007667809711633368,
                        -0.006221274637571454,
                        0.023061455708883016,
                        0.0025474101005557265,
                        -0.007295729296523624,
                        0.0020351791735380366,
                        -0.015390248341283618,
                        0.026785943520960316
                    ],
                    "bias": -0.01299994911425172
                },
                {
                    "weights": [
                        -0.08738471402529176,
                        -0.06351928188988498,
                        -0.11352480168271857,
                        -0.06356782072178535,
                        0.08342824125482802,
                        0.02703302069344447,
                        0.08158968728678792,
                        0.1749649039893535,
                        0.011877898780124439,
                        -0.018627158397260618,
                        -0.04454234375662113,
                        -0.14775891042404252,
                        0.0830538171782779,
                        -0.05468444434914261,
                        0.015038253851777737,
                        0.060382730858452104,
                        0.14220572532854453,
                        -0.004086216376842902,
                        -0.738206730677007,
                        -0.03583007609919846,
                        0.05147198944466364
                    ],
                    "bias": -0.05877979041068531
                },
                {
                    "weights": [
                        -0.027188480592436334,
                        -0.04766619478796557,
                        -0.03097515577712589,
                        -0.02496526748010482,
                        -0.024627931001447716,
                        -0.014508516042741533,
                        -0.0028263748120299775,
                        -0.034751642844615974,
                        -0.015122097590767781,
                        -0.002299277111978532,
                        -0.027931492113359414,
                        -0.024043599726941558,
                        -0.014583131629951581,
                        0.011163451775587243,
                        0.01298541304577429,
                        -0.011949980447540347,
                        0.007305984768858958,
                        -0.007106919925534514,
                        0.005376941035801442,
                        -0.019010403657609032,
                        0.01768204516556044
                    ],
                    "bias": -0.005438218545388882
                },
                {
                    "weights": [
                        -0.015213744583510744,
                        -0.04203177313928561,
                        -0.04277598725747032,
                        -0.04085870880271125,
                        -0.031815317060862214,
                        -0.0417978251874255,
                        -0.029308931848799222,
                        -0.00883506629108197,
                        -0.02684252345551972,
                        -0.015724025264788534,
                        -0.04862156470272404,
                        -0.04825805623159562,
                        -0.035389189321268395,
                        0.01254703997853855,
                        0.006134901230257038,
                        -0.011165592464140256,
                        -0.010938064316643653,
                        0.006835994427776356,
                        -0.05067211173136437,
                        -0.027241639808847546,
                        0.055954474270395384
                    ],
                    "bias": -0.03925904969404234
                },
                {
                    "weights": [
                        -0.007407354255776781,
                        -0.018193918822049685,
                        -0.023905055411161093,
                        -0.031665916198877576,
                        0.05930659131497655,
                        -0.05232981570704086,
                        0.1138839167608604,
                        -0.04555343075742052,
                        0.16665566923937872,
                        -0.14197567409246004,
                        0.20262071910109672,
                        -0.16379358965781385,
                        0.23973068732249392,
                        0.09120884260237802,
                        0.018701034889397474,
                        -0.06929871982897301,
                        -1.789045259607634,
                        -0.007131106520452811,
                        -0.2920834341013158,
                        0.14850998722171835,
                        -0.15821050395284664
                    ],
                    "bias": -0.030638522439075163
                },
                {
                    "weights": [
                        -0.01827590618834931,
                        -0.028271146285452423,
                        -0.03024731349747139,
                        -0.038893185935461566,
                        -0.027246560565092785,
                        -0.032270556814421904,
                        -0.043903270131662196,
                        -0.0017278797340119219,
                        -0.024334732307456537,
                        -0.029959841013417504,
                        -0.008984133681814117,
                        -0.011620835764872882,
                        -0.013936962739032877,
                        0.011756539838798331,
                        0.022323459288703135,
                        -0.016546380191253512,
                        -0.010241396351538945,
                        -0.009029100079500741,
                        -0.0006443984960763456,
                        -0.014830733266099608,
                        0.015227303338534368
                    ],
                    "bias": -0.010597719715257988
                },
                {
                    "weights": [
                        -0.08560785699936198,
                        -0.0425254825025624,
                        0.07795426764621254,
                        -0.032259007956884425,
                        0.04313073748297289,
                        0.05076538326410265,
                        0.03428745580426903,
                        0.05683363768042035,
                        -0.025325216794398746,
                        0.033744435258806514,
                        -0.10241941712514854,
                        0.09951672348169573,
                        -0.056256495475801464,
                        0.26798757668761997,
                        -0.002876301758064027,
                        -0.003972694103753048,
                        -0.41507760154263007,
                        0.017431556342817605,
                        0.26999226418083216,
                        0.3001199689548372,
                        0.03651523027140994
                    ],
                    "bias": 0.0654492935149128
                },
                {
                    "weights": [
                        -0.011743306095462498,
                        0.025597790294526905,
                        -0.1414918461245562,
                        -0.012564307007969176,
                        -0.06480116336427402,
                        -0.0023823629270053443,
                        0.055009763143583607,
                        -0.08846250353504564,
                        0.14395680057408175,
                        -0.003391630722593321,
                        0.2060060312967717,
                        0.016403136381806554,
                        -0.060288207542106606,
                        0.016782739021927697,
                        -0.008830447539897503,
                        0.023224645217370325,
                        1.7687670920924745,
                        0.009605048058239021,
                        0.3738768554866558,
                        0.2877003551925224,
                        0.34019083871156414
                    ],
                    "bias": -0.005881498170402425
                },
                {
                    "weights": [
                        -0.018816152438970588,
                        0.01948318029329392,
                        -0.07930187515310955,
                        0.0606270453892229,
                        0.040032811444338776,
                        -0.03067003928346509,
                        0.054050115610499265,
                        -0.03914056740449386,
                        0.030993558545582695,
                        -0.06719496734921353,
                        0.05214549171613631,
                        -0.030168652253437997,
                        0.04559830368594628,
                        0.7572145490700496,
                        -0.027351172162317444,
                        -0.13883977016712856,
                        1.2345748100488891,
                        -0.018456832214543997,
                        0.055080752720603525,
                        0.13559594554273935,
                        -0.1595693769829001
                    ],
                    "bias": -0.0470931613217544
                },
                {
                    "weights": [
                        -0.06973811377967823,
                        -0.015683485891292256,
                        0.05428412685752368,
                        0.028553455329795918,
                        0.11325797417955476,
                        -0.036817975566329285,
                        0.09951506192664927,
                        -0.02216021316277126,
                        0.08253480066664769,
                        -0.053000074621661536,
                        0.05868734342044374,
                        -0.02562035490255206,
                        0.1184163891572315,
                        -0.01025471861965603,
                        0.026003710172702563,
                        -0.045632758106339405,
                        0.08847366941281216,
                        -0.007605303522736712,
                        0.25734681157080747,
                        0.09882220030680568,
                        0.010253086389348737
                    ],
                    "bias": 0.003338499471924861
                },
                {
                    "weights": [
                        0.0027194059094054037,
                        -0.008012203598128834,
                        0.0011263668182564038,
                        -0.00021332381631087506,
                        0.0011033543315937583,
                        0.002862733367774424,
                        -0.025500262915163465,
                        -0.016064589010404137,
                        -0.01745969032474982,
                        -0.011595355504504887,
                        -0.007269948257170568,
                        0.0019192200503611323,
                        0.005834049157981909,
                        0.01492264509475059,
                        -0.004396820089184497,
                        0.0027820459602097987,
                        0.010168308890128515,
                        0.002424629717227108,
                        0.008889400055930374,
                        0.0008220292626279649,
                        -0.0033005273524400083
                    ],
                    "bias": 0.0
                },
                {
                    "weights": [
                        -0.01670884351093224,
                        -0.135213347413491,
                        -0.007030228556317549,
                        0.08238581806539222,
                        -0.012889766100133645,
                        -0.024811082168241815,
                        -0.0416285734726663,
                        0.025753700344871403,
                        -0.032103007401209305,
                        0.02570997221970834,
                        -0.031223544739673103,
                        0.15739031290629463,
                        -0.10433190285254756,
                        -0.06952890871227962,
                        0.01241140017586214,
                        -0.011220813373069467,
                        0.9883566075149356,
                        0.003245855618801202,
                        0.046221816870023566,
                        0.044173036321775876,
                        0.4100089905887421
                    ],
                    "bias": -0.053874029495004194
                },
                {
                    "weights": [
                        -0.011928427628767174,
                        -0.011041906733327016,
                        -0.08721654129821839,
                        0.005955260412347659,
                        -0.04548490327823651,
                        0.03270074557120914,
                        -0.023434788911557446,
                        0.02226740068711426,
                        0.07765247958571603,
                        -0.05457655415485951,
                        0.06531685412590367,
                        -0.060561272284732605,
                        0.08212378643034937,
                        -0.3484254473443536,
                        -0.005908817601839159,
                        0.013180355032135951,
                        -0.21561607243195907,
                        -0.0148817126458682,
                        -0.6848725704537871,
                        0.11530290879766941,
                        0.09493113697965201
                    ],
                    "bias": -0.012760281351673158
                },
                {
                    "weights": [
                        -0.02187230270079551,
                        -0.006639241533797444,
                        0.0022202329938436826,
                        -0.021762542808461214,
                        -0.02784917275818875,
                        -0.033362194613972496,
                        0.0018981547508266005,
                        -0.009981878733572525,
                        -0.009424007228951578,
                        -0.01711066037189589,
                        0.009098179567304552,
                        -0.024586689922616492,
                        -0.008264319998231927,
                        -0.03407390489111287,
                        0.015382656200878994,
                        0.012794565400016077,
                        -0.010363931127603917,
                        0.011585654981098528,
                        0.013563878588454483,
                        -0.008938756519295446,
                        0.0450603958700006
                    ],
                    "bias": -0.004946236842813271
                },
                {
                    "weights": [
                        -0.02326149184302305,
                        -0.01627180336680975,
                        -0.04209151446660119,
                        -0.054561905717193764,
                        -0.04582754038409726,
                        -0.0356260759896567,
                        -0.040466892932129434,
                        -0.03665572082301659,
                        -0.017151265022768564,
                        -0.03461245662286518,
                        -0.024664902581113177,
                        -0.037802607198673344,
                        -0.024056517970655875,
                        -0.024826067095796978,
                        -0.0070083489542519485,
                        -0.023774886573224924,
                        -0.038147389259462657,
                        0.008252137726471721,
                        -0.03856418490303546,
                        -0.00943871298272338,
                        0.05288989289425132
                    ],
                    "bias": -0.03260457206687357
                },
                {
                    "weights": [
                        0.0044702336748104555,
                        -0.027752473334799365,
                        7.053885626817805e-05,
                        -0.02183741987999724,
                        -0.012287486202767412,
                        0.008838638323499282,
                        -0.009123764662585037,
                        -0.0065672477527601155,
                        -0.0029796845058810296,
                        -0.0066450801536835705,
                        0.007516846865825254,
                        -0.011768439920298067,
                        0.006871921581130615,
                        0.004465809031002062,
                        -0.011917191336937704,
                        -0.018816058056364396,
                        0.0022372508691237535,
                        0.004819016320386769,
                        -0.011130383467976705,
                        -0.00018503732277480096,
                        0.0075480650495074264
                    ],
                    "bias": -4.884284639881939e-05
                },
                {
                    "weights": [
                        -0.04066281184437666,
                        -0.0758004397290755,
                        0.1372130444894432,
                        0.0475372488516032,
                        0.017459992050777768,
                        0.001403556055026405,
                        -0.001520038416864851,
                        -0.041089888251041366,
                        0.06383966550446643,
                        -0.08117803050094388,
                        0.06191474753675078,
                        -0.038324574129086325,
                        0.03571631380979099,
                        0.08674604110872736,
                        -0.0022631357447536176,
                        -0.05785686914224193,
                        -1.204016702264005,
                        0.013549995991617287,
                        -1.2073910810329789,
                        0.1624571028090386,
                        -0.1936862493475897
                    ],
                    "bias": -0.059765883381023
                },
                {
                    "weights": [
                        -0.04777336119937532,
                        -0.03810880352010633,
                        0.004604632327027302,
                        0.04319570892655862,
                        0.0021376092786972727,
                        0.05617290956677235,
                        0.01938797207446048,
                        0.022927611438555318,
                        0.004985650061083511,
                        -0.027016406229310085,
                        0.022413735384528198,
                        -0.04619830906567378,
                        0.026429109882114755,
                        0.08478517038216625,
                        -0.005165506552505539,
                        0.23390132200072672,
                        -0.15734781210186408,
                        0.004525401704764866,
                        -1.2175744718124097,
                        0.01127472558787183,
                        -0.20647162155424617
                    ],
                    "bias": -0.04085536726451205
                },
                {
                    "weights": [
                        -0.04377342108032161,
                        0.012327143249306083,
                        -0.07109111849062343,
                        0.08095566012425033,
                        0.05254719664906935,
                        0.0446964116305687,
                        0.07787884618328228,
                        -0.04888611708944828,
                        0.09524952359573916,
                        -0.01657170415840133,
                        0.06061046429225097,
                        0.04658871086289716,
                        0.039989322086858445,
                        0.0530393838203396,
                        0.003728936705980438,
                        -0.18198701106703813,
                        0.7453334517326797,
                        0.004407712455743176,
                        0.17214877052599603,
                        0.19974068113595642,
                        0.0013254499030779029
                    ],
                    "bias": 0.0008737982364400347
                },
                {
                    "weights": [
                        -0.018689740758268767,
                        -0.004681245337961905,
                        0.002909134015923317,
                        -0.017906509929567133,
                        0.00618289303310708,
                        -0.01004704860706796,
                        -0.006117678621927194,
                        -0.0017798620795134506,
                        0.001447654911176404,
                        -0.0014842940106418565,
                        0.008531102644497399,
                        0.012129839285493707,
                        -0.005883615643067782,
                        -0.01356545052286539,
                        -0.0005139492719252362,
                        -0.014453998367807582,
                        -0.004875445564065927,
                        0.015576792718222423,
                        -0.017961977553345516,
                        0.0027509347694375415,
                        -0.0021048803053703336
                    ],
                    "bias": 0.0
                },
                {
                    "weights": [
                        -0.028322211430927086,
                        -0.02108793848285608,
                        -0.01740551627047662,
                        -0.0355217027787176,
                        -0.01706566589621736,
                        -0.016945427352628835,
                        -0.0006250034249128109,
                        -0.045488131412123836,
                        -0.03318914588612948,
                        -0.01579423121207651,
                        -0.02406236172592233,
                        -0.02772177005335999,
                        -0.022954421197413772,
                        -0.019354037132792455,
                        0.006277024593011685,
                        -0.029509848045849746,
                        0.017466195849240453,
                        0.011012195796014498,
                        0.0037202262314541892,
                        -0.01395697585246675,
                        -0.02057928687388472
                    ],
                    "bias": -0.009503246274753368
                },
                {
                    "weights": [
                        -0.009911942176245544,
                        -0.0003531685959489572,
                        0.006737688343362598,
                        -0.002954808139007823,
                        -0.003855589799624851,
                        -0.007216964540154426,
                        -0.0025659483578952353,
                        -0.009176159891063322,
                        0.008479287533552819,
                        0.0058581298355465565,
                        -0.002680325873276106,
                        -0.009447528520088897,
                        -0.01168490892099267,
                        -0.011871303322833242,
                        -0.0029102147308529397,
                        0.0036202455098846577,
                        0.004394858279957648,
                        -0.008415074589115312,
                        -0.016214526245522214,
                        -0.005017577611697203,
                        0.001345832848122468
                    ],
                    "bias": 0.0
                },
                {
                    "weights": [
                        -0.0325185658688965,
                        -0.03482985603724688,
                        -0.033650903399919184,
                        -0.026001870884353517,
                        -0.0220459376085799,
                        -0.036202230398142354,
                        -0.021990413868984444,
                        -0.013596910950623117,
                        -0.004217229964447889,
                        -0.017450788185970526,
                        -0.0056502174010059966,
                        -0.02332661902308342,
                        -0.029859157883003373,
                        0.012803031063069696,
                        -0.006651073418759147,
                        0.01532710794442547,
                        0.002263740083523184,
                        0.006331951791902026,
                        -0.007436243837345254,
                        -0.02209595586244603,
                        0.03015715908011506
                    ],
                    "bias": -0.008502322273685473
                },
                {
                    "weights": [
                        -0.07012565527142164,
                        -0.050338461273018616,
                        0.034127284872657516,
                        0.006889176552761128,
                        0.03899986517115163,
                        0.02030108410446723,
                        0.038636059752456944,
                        0.04000359150861415,
                        0.03152640906927363,
                        0.05084062431775751,
                        0.01438985268790127,
                        0.037393500972825525,
                        0.018454264913906827,
                        -0.19712513218210687,
                        -0.0012762311199150406,
                        -0.37712222702520454,
                        -0.17854570853769952,
                        -0.006595315761911729,
                        -0.4088640997459048,
                        0.0673839502959394,
                        -0.12614046422055875
                    ],
                    "bias": 0.029554501885028523
                },
                {
                    "weights": [
                        -0.03520869784039841,
                        -0.008997710564850096,
                        -0.014706904485386946,
                        -0.025970851175239396,
                        -0.02672673928384459,
                        -0.017343122791664424,
                        -0.01629366418688067,
                        -0.03032612921154345,
                        -0.009232291798681135,
                        -0.040385477044134754,
                        -0.0023743553041731683,
                        -0.02760419450447342,
                        -0.025899422783138924,
                        0.009476377579738697,
                        0.020441966053860346,
                        0.003342748906488895,
                        -0.03226364655244922,
                        0.0050410941833146615,
                        -0.035874681116729215,
                        -0.00015780442895634017,
                        0.07743489333318478
                    ],
                    "bias": -0.026957742017378755
                },
                {
                    "weights": [
                        -0.11047781385391212,
                        0.06611365678107857,
                        -0.03858046296892477,
                        -0.028747750936619167,
                        0.008826885462343687,
                        -0.050581620646673826,
                        0.032620884508045074,
                        0.03616847122480706,
                        0.059077151152083666,
                        -0.036079805792023446,
                        0.049861623932693146,
                        0.06117825386210471,
                        0.04550588656111023,
                        -0.049528138651601564,
                        -0.0009094703176817192,
                        0.14182666658841178,
                        1.0354205307450761,
                        0.004287722159697763,
                        0.34466829961709033,
                        0.16733234048552134,
                        -0.011751242396575642
                    ],
                    "bias": -0.013978747620389392
                },
                {
                    "weights": [
                        -0.08523548639421126,
                        0.08810324614857627,
                        0.010772978118399137,
                        0.055017546586169766,
                        0.06253971462299054,
                        0.010374888070177979,
                        0.03218033032007306,
                        -0.01648130628913862,
                        0.005682869617605905,
                        0.029333316129331183,
                        -0.02266167844521128,
                        0.0810557111115931,
                        -0.023070411956319543,
                        -0.045518005018571915,
                        -0.021639070768485792,
                        0.013492109455446839,
                        -0.4180124941711643,
                        -0.014016996462017305,
                        -0.03181115818393901,
                        0.21854774005301422,
                        0.039470061123733136
                    ],
                    "bias": 0.010025220849697362
                },
                {
                    "weights": [
                        -0.02182668551093382,
                        -0.028483961141043006,
                        -0.030571262858820523,
                        -0.02681268437370981,
                        -0.019674621911355425,
                        -0.03847137455136676,
                        -0.02022322172105281,
                        -0.030476505500568876,
                        -0.025999823417895033,
                        -0.029892534640185892,
                        -0.03299931450001442,
                        -0.025824981332254755,
                        -0.02313979942612878,
                        0.01632817001195633,
                        -0.005202090026355545,
                        -0.013205899208287906,
                        0.013543082584559392,
                        -0.0012184560816425783,
                        -0.011220226129541442,
                        -0.02329536167690206,
                        -0.018398203883921056
                    ],
                    "bias": -0.016957605920084124
                },
                {
                    "weights": [
                        -0.009546158013672144,
                        -0.0277407213165093,
                        -0.05692942625170355,
                        -0.01689502486491875,
                        -0.007929816278178979,
                        -0.04363659812644694,
                        -0.017875114827562533,
                        -0.033982754385547057,
                        -0.037224280946482474,
                        -0.06204083495825551,
                        -0.02810349707849526,
                        -0.03492124690809006,
                        -0.018607415234705153,
                        -0.004148597083498735,
                        0.00096231333516996,
                        0.019397355340458312,
                        -0.005220969594658551,
                        0.002652258892596739,
                        -0.04978979084615425,
                        -0.017214775728416676,
                        0.062175203359472436
                    ],
                    "bias": -0.032369928058544765
                },
                {
                    "weights": [
                        -0.019440247407608417,
                        -0.028398646885091382,
                        -0.021142748073845245,
                        -0.032418693310355136,
                        -0.023119520084381895,
                        -0.030469770699295268,
                        -0.026339237039882744,
                        -0.023440625699134125,
                        -0.01580550089416575,
                        -0.020142140653306335,
                        -0.02071791441864667,
                        -0.009730467017145214,
                        -0.01905976790337684,
                        -0.010599903641971276,
                        0.01845399708097634,
                        -0.011154104887868494,
                        -0.007492748674133421,
                        -0.004362901907229136,
                        0.0024342849046896675,
                        -0.008105527045445989,
                        -0.0018922648351747872
                    ],
                    "bias": -0.004507701693037051
                },
                {
                    "weights": [
                        -0.02631145060499699,
                        -0.02365480201680571,
                        -0.014961776426229369,
                        -0.03756129269905786,
                        -0.011180116172110897,
                        0.003719406785522004,
                        -0.006636665707434607,
                        -0.0032606037453604426,
                        -0.0033457734229927717,
                        -0.016276668317995128,
                        -0.01961840196509682,
                        -0.023192831142033216,
                        0.0036858355096985253,
                        0.029286740268335297,
                        0.010280844524005293,
                        -0.020317615786557858,
                        0.006662596937519877,
                        0.0031467547611781187,
                        -0.05246971743530033,
                        0.003832474276857654,
                        -0.022793716909915544
                    ],
                    "bias": -0.01852260704819329
                },
                {
                    "weights": [
                        -0.05529669756811438,
                        -0.054020545679102056,
                        -0.021222760644975167,
                        0.01743572251005081,
                        -0.0029670738676065454,
                        -0.00029114730277153105,
                        0.08362781078859624,
                        0.033755102573306266,
                        0.0938662314636488,
                        -0.21975681752300008,
                        0.12734936015536533,
                        -0.24069268882553846,
                        0.04890026438489194,
                        0.04060298776326716,
                        -0.008721553920445851,
                        0.21387948853396707,
                        -2.378024320250883,
                        0.00804556278977891,
                        -0.8304175883723278,
                        0.5317346816823901,
                        -0.1948615366100934
                    ],
                    "bias": -0.1659347010575824
                },
                {
                    "weights": [
                        -0.00420985868013176,
                        0.0008401019092435126,
                        -0.011546369488847281,
                        -0.008665705544254967,
                        -0.008095668020895723,
                        -0.00950175462069795,
                        0.004422816383303099,
                        -0.01399343047785875,
                        0.003339450479990393,
                        0.013339356398879483,
                        -0.0054487007082351215,
                        0.004708688593753808,
                        0.0050409383194394185,
                        -0.009834497634779713,
                        0.02418355753572451,
                        0.015895633328625775,
                        0.012116396256491668,
                        -0.00030593064230755615,
                        -0.014647066816175669,
                        0.003116342988074249,
                        0.005570296224878031
                    ],
                    "bias": 0.0
                },
                {
                    "weights": [
                        -0.02704531826689466,
                        -0.03644320002155269,
                        -0.035937746063693946,
                        -0.025196639577676355,
                        -0.007786605104641418,
                        -0.026201320802344007,
                        -0.03516316203886995,
                        -0.026708177346685454,
                        -0.029939186805884865,
                        -0.033378619131156334,
                        -0.02438776699406798,
                        -0.01638473947517845,
                        -0.02395210217052231,
                        -0.021657160746425375,
                        -0.00031160419995338083,
                        -0.014108518065218617,
                        -0.012079080137680437,
                        0.002245994752324161,
                        0.006520316521644609,
                        -0.01399238596606552,
                        0.039948751765354
                    ],
                    "bias": -0.013694695671856386
                },
                {
                    "weights": [
                        -0.21063221638738344,
                        -0.10144640768478354,
                        -0.09019355170046095,
                        0.1602571538036192,
                        -0.15847653062327052,
                        -0.02055881885264698,
                        -0.0185466506948457,
                        0.02459102507127486,
                        0.017019784961075993,
                        0.019934825071031895,
                        -0.01799794696385719,
                        0.06948730057553493,
                        -6.256673138801439e-05,
                        0.04433089699824921,
                        0.012357440046155197,
                        0.13836042975857205,
                        0.4471957965481591,
                        0.013832609080554321,
                        0.3119919540055137,
                        0.343775495939515,
                        -0.13630602649177584
                    ],
                    "bias": -0.04036018465103288
                },
                {
                    "weights": [
                        -0.14467345098480028,
                        0.02325058098899943,
                        -0.034899308055830594,
                        0.09167295039722104,
                        0.07039216021157893,
                        -0.021814625552578713,
                        0.035177491686896004,
                        -0.10085109985709703,
                        0.10061719611429962,
                        -0.16215370431301485,
                        0.0727400937772767,
                        -0.0728391287380575,
                        0.1264471666617894,
                        0.10708383952518813,
                        -0.015787032846415052,
                        0.09750393661363843,
                        -0.25714318041996415,
                        0.004682742580141769,
                        0.6335380860912028,
                        0.18471557050899756,
                        0.05031150557902517
                    ],
                    "bias": -0.10251012719409174
                },
                {
                    "weights": [
                        -0.04748483770931707,
                        -0.033823878712855415,
                        -0.09839777288399183,
                        0.01371088816464432,
                        0.07516465173918192,
                        -0.04333690191901367,
                        0.07711188278811759,
                        0.0046324327086777126,
                        -0.007009363723008256,
                        -0.04082537500058217,
                        -0.023783165629564864,
                        -0.031473711815166054,
                        -0.04428352999191723,
                        -0.2883994061311558,
                        -0.02777042552681494,
                        -0.25536822012217875,
                        -0.3317618825573163,
                        0.0019812069440484,
                        -0.5748697493145319,
                        0.20331170233216228,
                        0.04573101715816319
                    ],
                    "bias": -0.05433606248909065
                },
                {
                    "weights": [
                        -0.0949290007712007,
                        0.06736679552902372,
                        -0.014760309146687016,
                        0.03552574303151065,
                        0.017775014033875304,
                        0.0363912001878253,
                        0.0023623755168604705,
                        0.007576008112313465,
                        -0.01940349285949284,
                        0.033149153629156006,
                        -0.013889471139986235,
                        0.118612520364013,
                        0.0021643628540372758,
                        0.09636755232626824,
                        -0.01617365297418482,
                        0.06420042749076084,
                        -0.03978332640281792,
                        -0.009897763174922658,
                        0.42908855759471887,
                        0.21896442776424702,
                        0.017896581904335514
                    ],
                    "bias": 0.042413303329160316
                },
                {
                    "weights": [
                        -0.17673008006873225,
                        -0.04195986680092984,
                        0.026069819954094256,
                        0.018866761215884435,
                        -0.08711060367354354,
                        0.1023602205625969,
                        -0.022554233954263217,
                        0.052549026108574245,
                        -0.010265025789926161,
                        0.08287700100474434,
                        0.01748276933403302,
                        0.07691597824317326,
                        0.034465568136246606,
                        0.08251127633195059,
                        -0.03284267724670342,
                        0.07330564440629363,
                        -1.47423900123273,
                        0.00670417413091862,
                        0.04680446064301812,
                        0.16847433655347463,
                        0.06005390842398591
                    ],
                    "bias": -0.0034871344831526653
                },
                {
                    "weights": [
                        -0.03235210835638755,
                        -0.013987461383682492,
                        -0.03141540938181004,
                        -0.007373160330100458,
                        -0.020436438291835363,
                        -0.00459495601404043,
                        -0.017705260693526438,
                        -0.023031431717794773,
                        -0.005868045840032645,
                        -0.012256431820530123,
                        -0.011439071179148573,
                        -0.024230427711621125,
                        -0.00732411568297063,
                        -0.004830822407050446,
                        0.021105715262738606,
                        -0.017820534098875206,
                        0.007960703799156203,
                        0.0033012032415832776,
                        -0.04370507796020913,
                        -0.00596956851677869,
                        0.07506198565407958
                    ],
                    "bias": -0.020619387349683566
                }
            ]
        },
        {
            "neurons": [
                {
                    "weights": [
                        0.06297094686209034,
                        0.06095471119752183,
                        -0.08201387077366291,
                        -0.08036527187293266,
                        0.0014347337810050379,
                        -0.01613016813576969,
                        -0.0652234130963767,
                        -0.2581086358860423,
                        -0.028028911839785047,
                        0.027875677806420213,
                        0.031161330791166456,
                        0.1373792144672962,
                        -0.029100366647081467,
                        -0.017899959035040963,
                        0.0915920642803762,
                        0.1558454556060351,
                        -0.030570148912230796,
                        0.014350654120021115,
                        -0.2304457994980148,
                        0.05135874282353819,
                        -0.1336206633464725,
                        -0.0020822035658791577,
                        0.008027328261557387,
                        0.005867979731479107,
                        -0.012594664714734362,
                        -0.2832691193239223,
                        -0.008856523977532654,
                        -0.03621804479512255,
                        -0.07527153641676643,
                        0.021274531088809598,
                        -0.5503071296806088,
                        -0.19044457787909255,
                        -0.36995421794779065,
                        -0.08604172088926619,
                        0.0020400038107769147,
                        -0.09041201329772541,
                        0.011633689429500826,
                        -0.016265988416399323,
                        -0.04354704355854427,
                        0.008359699242722769,
                        0.019892527819589924,
                        -0.0005883722325329399,
                        0.07107226984457547,
                        -0.00727949867474313,
                        -0.01818827997373927,
                        -0.01865839755203436,
                        0.017799150142288493,
                        -0.04160847690285639,
                        -0.011398784209888347,
                        0.05331348225394248,
                        0.07665423342012148,
                        -0.005041895216357368,
                        -0.02837269819583043,
                        0.017606280346244924,
                        0.0007010112862981979,
                        0.06739745061901896,
                        -0.0019845643954403596,
                        -0.0037440044799890676,
                        -0.0740018142059781,
                        0.2515006791265495,
                        0.04845193563812636,
                        0.009437416108633932,
                        -0.053206076068071775,
                        0.003393170983391552
                    ],
                    "bias": 0.03041174995579303
                },
                {
                    "weights": [
                        -0.023974989465516468,
                        0.007326710626845965,
                        -0.029227244720200277,
                        -0.012870239189277044,
                        0.0009643037952850442,
                        0.0006947811622107864,
                        -0.0191132987879253,
                        -0.005636669143573287,
                        -0.002894900804336196,
                        -0.003298423490402816,
                        -0.004155524859188823,
                        -0.006242631413897112,
                        -0.007924491327934722,
                        -0.008970793378072136,
                        -0.0034046929603622077,
                        -0.008846123755094758,
                        -0.011345440413049634,
                        0.014608187182891127,
                        -0.015677423098282208,
                        -0.034187330545223736,
                        -0.024314431746488997,
                        -0.03170753578561491,
                        0.011616627031632949,
                        -0.007109387150367369,
                        0.025901110154029173,
                        -0.015142765102108227,
                        0.0025158791799884486,
                        -0.024964564009382306,
                        -0.02033730356654439,
                        0.012713016100012013,
                        -0.007017905054195179,
                        -0.01012100827721352,
                        -0.03960100355038607,
                        0.005513711793656045,
                        0.006771499741332932,
                        -0.007138695789017226,
                        -0.012023315728215633,
                        -9.285300927653382e-05,
                        -0.03790103235325057,
                        0.009956187318797785,
                        -0.011025823449737092,
                        0.005175911496714338,
                        -0.00919570012707908,
                        -0.0035492135369923363,
                        0.007125090609179029,
                        0.00028468940438410424,
                        0.011328422117128948,
                        -0.012865039627703944,
                        -0.007754488039001507,
                        -0.006020219223361319,
                        -0.01556510769503248,
                        0.0066838696512882875,
                        -0.020199631587211435,
                        -0.0058713714074734675,
                        -0.01695659989136531,
                        -0.021949442811030374,
                        -0.01829094413921217,
                        -0.001446131756420926,
                        -0.00697877105519318,
                        -0.005206716391495412,
                        -0.02022197534458614,
                        -0.0029390860111556095,
                        -0.011364700169432614,
                        -0.01729422200016105
                    ],
                    "bias": -0.011795603624553999
                },
                {
                    "weights": [
                        -0.1267593174950506,
                        -0.08464915904165231,
                        -0.3022750231772893,
                        -0.017516742082672395,
                        -0.022993576962370615,
                        -0.005687057065970534,
                        0.023156955733151866,
                        -0.46156290839576924,
                        0.009191861536769534,
                        -0.37463111173246244,
                        0.07749884280060998,
                        0.4966251275109516,
                        0.05179938711417329,
                        0.01721689499672411,
                        -0.2203620308477738,
                        0.1279226402598282,
                        0.020794560549302028,
                        0.001436308339881977,
                        -0.03238880802519877,
                        -0.06002905730662548,
                        0.05393528136527959,
                        -0.154626828241349,
                        0.00762063873862598,
                        -0.04779109202193739,
                        0.014554982920789432,
                        -0.02752404151354184,
                        0.010511217477579984,
                        -0.008859625679998893,
                        -0.6591804555790453,
                        0.004176751006519598,
                        -0.8094757999554543,
                        0.0682987097362891,
                        -0.4154458099281149,
                        -0.12206458209699783,
                        -0.002024431741833357,
                        0.23787512823499873,
                        0.12271761718054255,
                        -0.018271959374712602,
                        0.007560878806950055,
                        0.0046078884826140105,
                        -0.32202217738284644,
                        0.010879854480961643,
                        -0.07091557708697646,
                        0.021272974137495685,
                        0.008586634390775748,
                        0.009790358254675167,
                        0.011053139014932878,
                        0.2601160458326929,
                        0.008174849807703192,
                        -0.06227293433553606,
                        -0.018220905060913496,
                        -0.007181376587627298,
                        -0.012544010597275014,
                        -0.003919936247877151,
                        0.01150834649684363,
                        -0.536094560116735,
                        -0.016792080900537843,
                        -0.007834881283458743,
                        0.4703510956166242,
                        0.2914318883385642,
                        -0.6002225986083346,
                        -0.22004348011353242,
                        -0.17074189686024438,
                        -0.012590027269681512
                    ],
                    "bias": -0.015762489368160857
                },
                {
                    "weights": [
                        0.1383951072976835,
                        -0.26271009640166093,
                        -0.14175957968307082,
                        -0.1875937417477757,
                        0.0016982667258368723,
                        0.009662787392346717,
                        0.07895680171848818,
                        -0.13514640227611543,
                        -0.010593406872748266,
                        -0.06777334367603612,
                        0.023388353652579092,
                        -0.1365658274448363,
                        0.07476959304498608,
                        -0.24805742560397034,
                        -0.06721487012551988,
                        -0.14271978316422107,
                        -0.00599898672575864,
                        -0.011587930664246047,
                        -0.06728101375845863,
                        -0.05509577033252419,
                        0.20305485612847984,
                        -0.30796263401203416,
                        0.019212374170896128,
                        -0.3307536037285106,
                        0.021639763333015805,
                        0.00800562152379033,
                        -0.008291589224854,
                        -0.05382851173963747,
                        0.08085604127107532,
                        0.01498879733883014,
                        -0.09582464686271054,
                        0.056257277216872265,
                        0.09020760561435308,
                        -0.2370206155191066,
                        -0.011275042470864962,
                        -0.0084704339850456,
                        0.24470966146032178,
                        -0.012209505709988706,
                        -0.004658991673915539,
                        -0.003933924379557356,
                        -0.13854860116015597,
                        0.13091370565202318,
                        -0.09024772334756885,
                        -0.018454238848045357,
                        0.005429852023911052,
                        -0.0064315399720111174,
                        0.0004450208231923648,
                        0.09215560207709923,
                        -0.016229454236101743,
                        0.15835574956641094,
                        0.023913759686518245,
                        -0.006153923257548772,
                        -0.03324548649485575,
                        -0.008250118984061866,
                        -0.010941727758185969,
                        -0.14039062911735983,
                        0.009751071432888088,
                        -0.008825972861435135,
                        0.22174191108885802,
                        0.07025505475307156,
                        -0.0989855915112603,
                        0.06264614564339847,
                        -0.19323419948721154,
                        -0.011253427336278802
                    ],
                    "bias": -0.015521317996870763
                },
                {
                    "weights": [
                        -0.02391674795329848,
                        -0.021207633820839213,
                        -0.03783273326665671,
                        -0.0024852126962835834,
                        -0.023462679430397523,
                        -0.014473960920589406,
                        -0.01800081015062948,
                        -0.028659406151408887,
                        0.007601878945638697,
                        -0.01917112587339193,
                        -0.015864266208905624,
                        -0.008397705586018588,
                        -0.031754710749958406,
                        -0.029390828676425458,
                        -0.027705391285774907,
                        -0.023592868216937034,
                        -0.03966411803345925,
                        -0.010525230549973785,
                        -0.02707992455098608,
                        -0.010737094623298154,
                        -0.02965931423596698,
                        -0.0206403921794497,
                        0.002412450544549151,
                        -0.027629737393418438,
                        0.006713250979008084,
                        0.0011414738556010072,
                        0.004494860301230614,
                        -0.03267081830608395,
                        -0.02180120140630935,
                        0.004662070107608858,
                        -0.030233511488060357,
                        -0.020104710802779813,
                        -0.01976186008649588,
                        -0.03109072744825541,
                        0.013057765782875206,
                        -0.014451000187371029,
                        -0.016351516989302865,
                        -0.012304843814559997,
                        -0.021121667791990158,
                        0.008967077783687036,
                        -0.05004142990302097,
                        -0.025955704478490917,
                        -0.02271180341329156,
                        -0.007550339959104986,
                        -0.0067558925122247005,
                        -0.012265605799019655,
                        -0.006756829876372488,
                        0.005343698619149824,
                        -0.03546987463486902,
                        -0.03336345222363115,
                        -0.031923591341371176,
                        0.013088325905212857,
                        0.0008692745800986308,
                        0.0018710153722227268,
                        -0.007890023555077945,
                        -0.014988705265956593,
                        -0.0073238274559508,
                        0.011673244146549064,
                        -0.01282265074848275,
                        -0.029571492381790986,
                        -0.0432288876888015,
                        -0.033322780062328895,
                        -0.03047363437574982,
                        0.009781536978044673
                    ],
                    "bias": -0.025525275650761597
                },
                {
                    "weights": [
                        -0.028454363252714106,
                        -0.02769426299957315,
                        -0.016294040728180997,
                        -0.02636911112992052,
                        -0.005789045800571878,
                        -0.005420835550478789,
                        -0.009688951452072152,
                        -0.03360805144441858,
                        0.001393117232675461,
                        -0.03369613049096264,
                        -0.006624578016717318,
                        -0.0055922579795521085,
                        -0.03049146848793498,
                        -0.028622511862129187,
                        -0.01644260317672296,
                        0.013159742183234005,
                        -0.015592297221160534,
                        -0.020868485293159374,
                        -0.005428527577563723,
                        -0.006425837420760346,
                        -0.020624943073247796,
                        -0.02546096073429049,
                        -0.02990393740567593,
                        -0.021573967866387326,
                        -0.016755996561743525,
                        -0.016926731647248387,
                        -0.010712428284846656,
                        -0.037549724785985596,
                        -0.02778692637335697,
                        -0.021244003187798132,
                        -0.009642865878656749,
                        -0.021012850845482874,
                        -0.03400309825192665,
                        -0.012772668199631677,
                        0.010089914769316479,
                        -0.02417418264353689,
                        -0.028588299739475322,
                        -0.03461418250704902,
                        -0.026260293770001084,
                        -0.006693662391187534,
                        -0.02993987857380549,
                        -0.00957707500926111,
                        -0.015912794991186547,
                        0.018966040685739285,
                        -0.028656523886919038,
                        -0.0018580561009977831,
                        -0.012481176556908268,
                        0.004349141560309141,
                        -0.022163408359051204,
                        -0.012725493707851133,
                        -0.023521501521946677,
                        -0.017782012544595424,
                        -0.042275472861615544,
                        -0.005427933790436117,
                        -0.009201207918231515,
                        -0.004077532717895655,
                        -0.009074963807359919,
                        -0.03033430423226752,
                        -0.04022018995271853,
                        -0.03279349289462403,
                        -0.03997521976492953,
                        -0.023419140507277832,
                        -0.019313483442058257,
                        -0.01611088199702878
                    ],
                    "bias": -0.027951985424413642
                },
                {
                    "weights": [
                        0.08653531204429304,
                        -0.07066553571371283,
                        -0.030109389628356707,
                        -0.24356038903054716,
                        -0.007606850420799397,
                        0.01812907220658749,
                        0.11767021867549997,
                        -0.12963725143665672,
                        -0.038416770804634265,
                        -0.10178494809014724,
                        -0.024452495878166898,
                        0.0006354867633806566,
                        0.1654658929879433,
                        0.036971434983760446,
                        -0.299583429931168,
                        0.035256488652871815,
                        0.15329447122259407,
                        -0.010836658334280935,
                        -0.12193787180871762,
                        -0.09240285254590067,
                        0.058605577515475,
                        0.055991917364354,
                        -0.016491321210252926,
                        -0.0202920463921475,
                        0.013631441512923939,
                        0.07132555188857873,
                        -0.010785888973692618,
                        -0.0130693093955703,
                        -0.03509085937055858,
                        -0.014796460122247323,
                        0.16267233701890715,
                        -0.08438134510629983,
                        0.0557733182667845,
                        -0.09119619557807764,
                        -0.0024105421459396426,
                        -0.06656853436305285,
                        0.13066428685983314,
                        -0.012848778085466478,
                        -0.017594092080718996,
                        0.01754304878409231,
                        -0.2691623626751717,
                        0.006553129503029533,
                        0.05701482758222197,
                        -0.00044598671995223416,
                        0.01261933936009176,
                        -0.0006068543320192063,
                        -0.0030250094497517067,
                        -0.061379420373958084,
                        0.0053027522047648795,
                        0.02181901434798604,
                        0.041082954087374696,
                        0.012342414329768896,
                        -0.007620455734112408,
                        0.011900527682243905,
                        -0.025107991336761278,
                        -0.15049626969064026,
                        -0.00035638560931668735,
                        0.005970267058427488,
                        -0.17991234225360964,
                        0.06202038339234365,
                        0.032373931651493895,
                        0.1843798840127434,
                        -0.1466848123750497,
                        -0.0062954877135163465
                    ],
                    "bias": -0.059340369631241584
                },
                {
                    "weights": [
                        0.046193873561802025,
                        0.20134388252129104,
                        -0.020583835027390817,
                        0.008470945076472254,
                        0.024261010253154056,
                        -0.009396095170978495,
                        -0.057736298099484495,
                        0.06928417351183865,
                        0.021870750549431887,
                        -0.07273866776654461,
                        -0.027871718713197068,
                        0.027792640302902644,
                        0.1690458111690432,
                        0.06385750065827149,
                        0.003979363065068288,
                        0.07372093376312204,
                        0.06580349228365368,
                        0.0006882365770464906,
                        -0.04993274328576662,
                        -0.023665584307915898,
                        -0.048047363016194736,
                        -0.07288658080760402,
                        0.033004754565311614,
                        0.12059718772537761,
                        0.03733188180681547,
                        -0.07865141198154368,
                        0.025441160423363064,
                        -0.024441212853369126,
                        0.051353478910844665,
                        0.026971474034801924,
                        0.13312437575305763,
                        -0.058227324808541606,
                        0.012434038627861294,
                        0.11463929065165979,
                        0.0027393573693133824,
                        -0.10912925946346624,
                        2.504105998750428e-05,
                        0.02266884934956011,
                        -0.028170917654714453,
                        -0.000823767414409764,
                        -0.05748199386770498,
                        0.008199075836692923,
                        0.010886717279448557,
                        -0.007059851654989105,
                        0.024285316464149408,
                        -0.009086522819154584,
                        0.035851739307347176,
                        0.05746402366426972,
                        -0.0402755309617836,
                        0.12353359750823259,
                        -0.017792840409151345,
                        0.02623399448749415,
                        -0.035591108543000655,
                        0.017117620295553908,
                        0.014195795343036758,
                        -0.14474524461129704,
                        -0.0064420299831993875,
                        0.037717981401532936,
                        -0.0625115522135643,
                        -0.0518991950787442,
                        -0.07997025462111755,
                        -0.010861078039140012,
                        0.07775682461970025,
                        -0.013445415692765
                    ],
                    "bias": 0.012200175004131994
                },
                {
                    "weights": [
                        -0.017675282765629945,
                        -0.02830133981460498,
                        -0.022265745056207195,
                        -0.024132883964577058,
                        -0.0013099182683968802,
                        -0.00236533252096124,
                        -0.03260818325860086,
                        -0.003039531505620986,
                        -0.03531130205045211,
                        -0.024083194882564937,
                        -0.00990873257862436,
                        0.005934483209249257,
                        -0.00670599401931159,
                        -0.033706920793774235,
                        -0.021844985154942275,
                        -0.006977834735546883,
                        -0.024987568780994913,
                        -0.005596541808251622,
                        0.013670787918289592,
                        0.005972803499990458,
                        -0.03076922803035839,
                        -0.011515322699855711,
                        -0.00245665329197668,
                        -0.027316888979336207,
                        -0.03878351536364621,
                        -0.01581592107070616,
                        -0.013138469359705831,
                        -0.011518758902774921,
                        -0.024921467227285988,
                        -0.016098161159722173,
                        -0.030046337298852165,
                        -0.027794032369150106,
                        -0.020236347935186458,
                        0.002430377543546958,
                        0.012409391873848064,
                        -0.03171949270515151,
                        -0.02455290308671598,
                        -0.015330398946773433,
                        -0.008263282466881898,
                        -0.01539053326394759,
                        -0.04413757171947922,
                        0.007720661374849499,
                        -0.013123095513416734,
                        0.011687689170111202,
                        -0.03753338506206777,
                        0.02096161276050951,
                        -0.01991648474683471,
                        -0.004158045600742053,
                        -0.01873050702715385,
                        -0.005409251587599708,
                        -0.04239477848706785,
                        -0.008740736732872552,
                        -0.04308556448369765,
                        -0.02506305341872816,
                        0.011320320411780504,
                        0.001287340999994211,
                        0.0010004862777774517,
                        -0.026862997745503815,
                        -0.025818950256088092,
                        -0.020874692754983888,
                        -0.032369739103742204,
                        -0.03037074064568847,
                        0.008862530109200772,
                        -0.03181114354479782
                    ],
                    "bias": -0.028119550503776593
                },
                {
                    "weights": [
                        0.07243243356386225,
                        0.061034452146644234,
                        -0.03686530959732784,
                        0.10708097484900365,
                        0.009848359341196627,
                        -0.012158439828253684,
                        0.03471620479425378,
                        -0.014343957634638265,
                        0.013514873182746544,
                        0.07507919900651379,
                        -0.0514165559258023,
                        -0.10099982139471747,
                        -0.09349261707538171,
                        0.049502450893042886,
                        0.07262300741603522,
                        0.012245728373220573,
                        0.049521121961319144,
                        -0.0018013560440985133,
                        0.15432613214054985,
                        0.014195850342231121,
                        -0.03674826405961631,
                        -0.05324181741505499,
                        0.012295046146410157,
                        0.09330414751253797,
