{
    "_comment": "Optimizer_Adam(learning_rate=0.005, decay=1e-3), third dataset, trained on all of the data, epochs 75000, test: 0..552, 0.0434",
    "items": [
        {
            "neurons": [
                {
                    "weights": [
                        -0.029585343288643002,
                        -0.0366903161333144,
                        -0.00844096184194066,
                        -0.03295577834315899,
                        -0.0029161190174128654,
                        0.028646485713566365,
                        0.026269277614628044,
                        0.028289888047023367,
                        0.05496621966877279,
                        0.0028524830722898055,
                        0.017503054131867646,
                        0.011816922240499727,
                        -0.022888441877440602,
                        -0.052944253928514914,
                        0.023621206428791,
                        0.0037392450912372495,
                        -0.004693457297659024,
                        0.0030115204804532325,
                        0.04040895030196734,
                        -0.012285472986467582,
                        0.03479817027526905
                    ],
                    "bias": -0.0008868743588695141
                },
                {
                    "weights": [
                        0.0019044807308849934,
                        -0.0038246671146057614,
                        0.004525204739981059,
                        0.007971683564637292,
                        -0.004195088112830643,
                        0.005727380305457791,
                        -0.024612371554361454,
                        0.02407368424665988,
                        -0.018502688847797023,
                        0.029354234375088713,
                        -0.02245403944208031,
                        0.022795282208460565,
                        -0.017600105165885227,
                        0.004385222749536726,
                        0.004533176411504986,
                        -0.011089502118271631,
                        0.003618480505233463,
                        0.0014926644574354715,
                        -0.012057959240460554,
                        -0.0028669183430883663,
                        -0.012877021404530257
                    ],
                    "bias": 0.000322465766843107
                },
                {
                    "weights": [
                        -0.022657304875850968,
                        -0.006590351386568507,
                        0.008654891389986024,
                        0.007158215165603738,
                        0.017070215013461565,
                        0.022302680432187073,
                        -0.00442733887377398,
                        -0.006141796853547735,
                        -0.04383603568898201,
                        -0.028880482724046284,
                        -0.03157442111042478,
                        -0.06377370353779167,
                        -0.011369563009127615,
                        -0.2082867406370568,
                        0.2104885564412691,
                        -0.059828809809564634,
                        0.0298964759357716,
                        0.04941398583818719,
                        -0.005005706814355689,
                        -0.09185028150558013,
                        -0.0560552674042088
                    ],
                    "bias": -0.007483066970024135
                },
                {
                    "weights": [
                        -0.01515616202162875,
                        -0.011304530032968024,
                        -0.010828167464909244,
                        -0.01618241498121218,
                        -0.002485388334623761,
                        -0.019869584262023874,
                        -0.007453200348378276,
                        0.006275009676824732,
                        -0.01580045096590128,
                        0.0035770322082726183,
                        -0.002219232185134005,
                        -0.014935308076423372,
                        0.01527101776645448,
                        -0.0835818909110578,
                        0.24418495651835576,
                        -0.011220005388042065,
                        0.022126025330409617,
                        0.021463807580072693,
                        -0.0658274434041477,
                        0.005170505992383526,
                        -0.06046604165601871
                    ],
                    "bias": 0.0016988793307787541
                },
                {
                    "weights": [
                        -0.0022705091087738,
                        0.00966317596416917,
                        0.014804499354515496,
                        0.003979187860753209,
                        0.05602652916458964,
                        -0.001599284438580229,
                        0.05813331432743709,
                        0.028352496223043366,
                        0.0338435003797977,
                        0.018683213449608053,
                        0.015993369159620612,
                        0.04350847838985981,
                        -0.00836579285413233,
                        -0.06947038234740874,
                        0.057025911627666015,
                        -0.032129397322373285,
                        0.0030173212431519585,
                        0.013976079097401459,
                        0.1166909525721177,
                        -0.04055000728506995,
                        -0.052314176693201216
                    ],
                    "bias": 0.0003063942775434467
                },
                {
                    "weights": [
                        0.002924221081965698,
                        -0.03892141540530565,
                        0.022512108067414188,
                        -0.013351527920663422,
                        -0.0011588690058306269,
                        -0.02479784954631949,
                        -0.020503914804284835,
                        0.07620837978738342,
                        -0.011530650127087518,
                        0.032912332416999916,
                        -0.009309103985418336,
                        0.00836794556414507,
                        -0.00792069704184698,
                        -0.002656312573699642,
                        0.007395404458550374,
                        -0.0007275279594555794,
                        -0.0063009380084639325,
                        0.010204591735693855,
                        -0.017128545522856094,
                        -0.01479270760986333,
                        0.007510854787888359
                    ],
                    "bias": -1.6969828863280026e-05
                },
                {
                    "weights": [
                        -0.016776335736407917,
                        -0.002469916072963583,
                        0.03164317902242917,
                        0.0553095027335717,
                        0.07743880499719238,
                        0.03232614070890055,
                        0.04687689763030928,
                        0.027800360158874448,
                        0.032296126965742154,
                        0.009834339698153706,
                        0.05568806681889889,
                        0.03871621138854032,
                        0.06315861984398574,
                        -0.057495142375473644,
                        0.038308625091378855,
                        0.03402449597073407,
                        -0.018210768208002874,
                        -0.0017678226122923475,
                        -0.03434191678340319,
                        0.06057651198222814,
                        -0.09717539604798274
                    ],
                    "bias": 0.0012749996373066165
                },
                {
                    "weights": [
                        0.019954100765875633,
                        -1.4649054096349467e-06,
                        -0.005239076403881928,
                        -0.023065025715441702,
                        -0.0003475571385802403,
                        -0.018145655810257847,
                        -0.007273805568030791,
                        -0.013685461148725655,
                        -0.0024634986636862463,
                        -0.006561193217563098,
                        0.004554156458632532,
                        -0.005958581287044795,
                        0.004851828164411084,
                        -0.048901657535120484,
                        0.004309193330214151,
                        -0.001668858340331096,
                        -0.012106454555056568,
                        0.001901896478318886,
                        0.025145605711828764,
                        -0.0015023984281277664,
                        -0.011833862527971155
                    ],
                    "bias": -0.00031048449114989927
                },
                {
                    "weights": [
                        -0.027721042018439165,
                        -0.011901456417063914,
                        -0.014636910081099888,
                        -0.022718253177328007,
                        -0.0021724406873662306,
                        -0.006890852190877,
                        0.010203163573240508,
                        0.01002464246741257,
                        0.030204848135556156,
                        0.000881614120229928,
                        0.027317116964591003,
                        -0.006052502554660616,
                        0.03943840119199787,
                        -0.03050307503134755,
                        0.030457978105920457,
                        -0.0016609646406008146,
                        -0.010797300242881345,
                        0.006765510682316901,
                        0.024797679662686426,
                        -0.0021669340985893785,
                        -0.006832752546991042
                    ],
                    "bias": 0.0005479668321297155
                },
                {
                    "weights": [
                        -0.018626207475887516,
                        -0.01159521252526204,
                        -0.006670338919077513,
                        -0.0024311518011964064,
                        -0.013611373085483314,
                        0.012413648679525047,
                        0.027627744763105033,
                        -0.009751177446710352,
                        0.0319817951429871,
                        0.07417425720027902,
                        0.015714564158229277,
                        -0.024494718801494068,
                        0.0014164063472347891,
                        0.005452307000868801,
                        0.006092059006426735,
                        0.0005911247613911353,
                        0.002269158662335191,
                        0.015137055786367482,
                        0.04742469017233938,
                        -0.010587700589218938,
                        -0.09774663042316721
                    ],
                    "bias": 0.00023547658380648257
                },
                {
                    "weights": [
                        0.010788845645337193,
                        0.01891701369762105,
                        0.012521349286474876,
                        0.055247086578825835,
                        0.045582111218651675,
                        0.05858444100625945,
                        0.04310267909506455,
                        0.05903209934342744,
                        0.04385906080380889,
                        0.024664277534154528,
                        0.06482544621809819,
                        0.0482549654883129,
                        0.0975999239473768,
                        -0.13019727780768506,
                        0.14035913372562517,
                        0.042675243888019014,
                        0.009761416431719919,
                        -0.01057072825672923,
                        -0.03183488526629613,
                        0.11514789652529864,
                        -0.12426028469475574
                    ],
                    "bias": 0.013288690344735923
                },
                {
                    "weights": [
                        -0.0626105985186317,
                        -0.03931609910131703,
                        -0.033049359609437765,
                        0.014049570068452635,
                        -0.010761061055795119,
                        2.7019531805662915e-05,
                        0.02793289360845989,
                        0.001982375644825395,
                        0.06359110572448874,
                        -0.04432846620747271,
                        0.019078597483684713,
                        0.0211249803047398,
                        0.0011773979632262537,
                        0.2215895008482862,
                        0.19581397829768613,
                        0.0034237954464926734,
                        0.016336305508567843,
                        0.04504566593381056,
                        -0.09615814559042986,
                        -0.004023595772626614,
                        -0.008210442893298326
                    ],
                    "bias": 0.005803044992579257
                },
                {
                    "weights": [
                        0.029827431938275438,
                        -0.012647600421099026,
                        -0.01816876369472124,
                        -0.007201272218723616,
                        -0.009717729236235515,
                        -0.007582812305029445,
                        -0.008422685376403881,
                        -0.0013224661190552563,
                        -0.011756540839638223,
                        -0.0006246199290818736,
                        -0.01049446496781317,
                        -9.302410078241122e-05,
                        -0.009795274078373783,
                        0.012987861661386413,
                        0.024862677918918163,
                        0.0002676988372362412,
                        0.006410136879404889,
                        -0.0020015781390787706,
                        0.015164649267718147,
                        -0.0025896196371257662,
                        0.012975912675415032
                    ],
                    "bias": -0.00047660520069228913
                },
                {
                    "weights": [
                        -0.005922638446547291,
                        -0.024072855769564944,
                        -0.04277664923717885,
                        0.02103056434404113,
                        0.0568041044566884,
                        -0.012085544006429848,
                        0.03800368436951633,
                        0.04579477576109086,
                        0.03410793855954472,
                        0.04090023676165176,
                        0.0452325378620929,
                        0.023415087562152947,
                        0.05354912230231183,
                        0.0667829029713297,
                        -0.020013419297161744,
                        0.0011823743141789074,
                        0.007592769471092669,
                        0.055997779879862444,
                        0.044601014188164215,
                        -0.0072429245055433316,
                        0.003228456989776054
                    ],
                    "bias": 0.003940604391099047
                },
                {
                    "weights": [
                        0.0008004726659465607,
                        0.007571070154718589,
                        0.04778341688170249,
                        0.0374448755861197,
                        -0.047860414144909505,
                        0.018590861901230347,
                        0.02104712053702857,
                        0.015221317285448769,
                        0.00942726856890613,
                        -0.008333847979540166,
                        0.041869625714868866,
                        0.016364560764754954,
                        0.09394187744320402,
                        0.08940250492821625,
                        0.2655095436902899,
                        -0.0006949261747481502,
                        0.005041353114570423,
                        -0.032088956199344286,
                        -0.09062174203614647,
                        0.12134124461186246,
                        -0.15101136533562942
                    ],
                    "bias": 0.007864490101679243
                },
                {
                    "weights": [
                        -0.03658320490429648,
                        -0.02933640798528144,
                        0.041108263089691996,
                        -0.03940271809021499,
                        0.024341432938049752,
                        -0.015197003566224828,
                        0.06637117205498361,
                        -0.019303144001849022,
                        0.047572693746042116,
                        -0.038446147510226916,
                        0.03605303864631309,
                        -0.04069949215683506,
                        0.0563878703990408,
                        -0.04913739291240892,
                        0.03790800862135314,
                        -0.0033447492482376077,
                        0.01657344319270121,
                        -0.026478468985563202,
                        0.0515134062130352,
                        0.031601507726504774,
                        -0.08469324886409749
                    ],
                    "bias": 0.0019082756965727286
                },
                {
                    "weights": [
                        -0.011206363182871054,
                        0.003929044854273774,
                        -0.02453312535230487,
                        -0.004306965180274033,
                        -0.014469477899832038,
                        0.004743343504342696,
                        0.0018637731442764515,
                        0.012770387097126919,
                        0.015942842436917418,
                        0.0006288115287143998,
                        0.0051043579384488285,
                        -0.0012695610687935284,
                        0.007632301621512723,
                        -0.0004480466057240799,
                        0.018898337912709902,
                        -0.00808602233727187,
                        0.004748186763613434,
                        0.00588875534554656,
                        0.024742673083687928,
                        -0.004833860428738799,
                        0.015918550110015403
                    ],
                    "bias": -4.034587104053584e-05
                },
                {
                    "weights": [
                        -0.03757908116768428,
                        0.01908782921236513,
                        0.030505213529708444,
                        0.030097199040868303,
                        0.05620555089866479,
                        0.007098499220971156,
                        0.026643605320129146,
                        0.03016087742069396,
                        -0.0009526319631757852,
                        0.012199287073933706,
                        -0.012299696914509778,
                        0.020043972011313405,
                        -0.0002987743764810133,
                        0.06274379134748202,
                        0.23621221993802724,
                        -0.060415852506479586,
                        0.0403731713078357,
                        0.05709975993895918,
                        0.018172312466302083,
                        -0.04687714810792881,
                        0.008425674743832098
                    ],
                    "bias": 0.003013347429622956
                },
                {
                    "weights": [
                        0.022595362285779207,
                        0.026723929134973567,
                        -0.04081956928816382,
                        -0.013062440911366295,
                        -0.029110610508946456,
                        -0.0032398369709947437,
                        -0.04820311915559224,
                        0.00882142280386378,
                        -0.023116629441820365,
                        0.011217369791968548,
                        -0.013952019851490662,
                        0.01198383456759253,
                        -0.01459008156472617,
                        0.02548605901104232,
                        0.018395867706233252,
                        0.00991724390523452,
                        -0.0033573553415789767,
                        -0.007484161207574925,
                        -0.018070306644511962,
                        -0.0017153070632388774,
                        0.02261481940131505
                    ],
                    "bias": -0.0010397167690010976
                },
                {
                    "weights": [
                        0.002837118029579784,
                        0.015706514623247656,
                        -0.013744525341740685,
                        0.007813655817587745,
                        -0.01892054024179647,
                        0.011274085073465733,
                        -0.012991874081439156,
                        0.010445142183301432,
                        -0.004534863573338739,
                        -0.001280398610290413,
                        -0.0042468464830426045,
                        -0.014367261174231297,
                        0.007615508972042559,
                        0.09896042521594219,
                        -0.009014843916873896,
                        -5.776382137550495e-05,
                        0.001754504405816154,
                        -0.002640991317082886,
                        -0.007771314846464334,
                        0.0037193429381851954,
                        -0.014316036408191544
                    ],
                    "bias": 0.00042046102890797217
                },
                {
                    "weights": [
                        -0.0022970799577699303,
                        0.02061862431072279,
                        -0.018769826653201514,
                        0.013961813687648488,
                        -0.02830144403295033,
                        -0.07820353082161477,
                        0.004925564222743255,
                        -0.05477701105374828,
                        0.026663676336159153,
                        -0.03852180569222817,
                        0.02339989410961789,
                        -0.02054500044425002,
                        0.037726797378201865,
                        0.06363201320422497,
                        0.02952407478800772,
                        0.0013299897022844194,
                        0.006849235884776156,
                        0.00116893570654533,
                        0.08099186563191275,
                        -0.012777330009575153,
                        -0.017086885984492525
                    ],
                    "bias": -0.0022126718705459693
                },
                {
                    "weights": [
                        0.001095444993262691,
                        0.011945452072296943,
                        0.009288861280378426,
                        -0.0022859695655657827,
                        -0.010289138162780103,
                        0.021211428381233223,
                        0.009687408605907876,
                        0.002219844834621374,
                        0.02253487590770679,
                        -0.008782037013582834,
                        0.018811009351589837,
                        -0.006377333255734556,
                        0.02089721476129807,
                        -0.10774574788214376,
                        0.04728179977192819,
                        0.008472351385810416,
                        -0.006727758367813669,
                        -0.0025064244191412895,
                        0.029401322323794745,
                        0.006183069378188748,
                        -0.0201623519066172
                    ],
                    "bias": -7.036777215393716e-05
                },
                {
                    "weights": [
                        -0.022700480963938115,
                        0.026734733341488102,
                        0.0023949492594212665,
                        0.046874825383893017,
                        -0.014303229728613141,
                        0.04255585483227122,
                        0.03561609164033893,
                        0.05334881338767084,
                        0.07934189598579242,
                        0.020089338077083987,
                        0.08164220595555931,
                        0.04879680673368797,
                        0.08372647825391423,
                        0.03842550505360342,
                        -0.28096689761111265,
                        0.09285390685615567,
                        -0.051145782302993985,
                        -0.011174326854600118,
                        0.0460113881331927,
                        0.0974913693613016,
                        -0.06750362320496205
                    ],
                    "bias": 0.010629439996433421
                },
                {
                    "weights": [
                        0.009498936609831473,
                        -0.007866911293011349,
                        0.014882381432587886,
                        0.008082834062020034,
                        0.0016677525846934154,
                        -0.012096863121191162,
                        -0.0011044673366774754,
                        -0.004227760274183477,
                        -2.6706297840554816e-05,
                        -0.000702315453071626,
                        -0.003976423974942494,
                        0.004815479827667456,
                        -0.006355306549961074,
                        -0.00048664940064028567,
                        -0.006429069589213406,
                        -0.002177443157017693,
                        0.0019008247148339901,
                        0.003340441913509457,
                        -0.006962402993669802,
                        -0.005006241853972263,
                        0.011114267949095905
                    ],
                    "bias": -0.0003540088710576536
                },
                {
                    "weights": [
                        -0.06204885355997146,
                        -0.040842587994543766,
                        -0.04598067993529646,
                        0.0007736388256795862,
                        0.02047525816789846,
                        0.007760170451166749,
                        0.05416696647484109,
                        -0.02238256133395213,
                        0.07136329446841999,
                        -0.04309913392852158,
                        0.06655701101487346,
                        0.017926308819309702,
                        0.01337420129326799,
                        -0.06755536079852222,
                        -0.1779013776485414,
                        -0.011762774333320392,
                        0.005197948401060122,
                        0.14137419726047776,
                        -0.09916679029430298,
                        -0.2560109964307102,
                        0.016525609941120584
                    ],
                    "bias": -0.008339619851482622
                },
                {
                    "weights": [
                        -0.10860181577109658,
                        0.006625840294745098,
                        0.00048446790186663826,
                        0.009861103659662128,
                        0.04137720597203347,
                        0.031480179690857944,
                        0.02667724962184637,
                        0.012603859330611051,
                        -0.00539170781662602,
                        0.03622279721260936,
                        0.023743355044391783,
                        0.051421429053963456,
                        -0.010584782458976375,
                        0.020171498665798576,
                        -0.10462525876915721,
                        -0.003859828045718142,
                        -0.0012392301636637842,
                        0.04584056196783727,
                        0.007572268758292182,
                        -0.01111808689329603,
                        0.031073962117876056
                    ],
                    "bias": 0.0024401535843818637
                },
                {
                    "weights": [
                        -0.04257676662785604,
                        -0.0590129454054003,
                        -0.07002850277411782,
                        0.10330133140120364,
                        -0.04613455597825761,
                        0.009381240855873206,
                        -0.036182333768908816,
                        0.04911781221805461,
                        0.0064454197154118565,
                        0.0008067498792886567,
                        0.0075773593493818105,
                        0.0040814270951409805,
                        0.01657286998065004,
                        -0.019621843288138575,
                        0.2118869056452298,
                        -0.010356486681107108,
                        0.010739421225620242,
                        0.008757831798277263,
                        0.07646335017730486,
                        -0.008858478490611362,
                        -0.018980758368222543
                    ],
                    "bias": 0.00012244218477933425
                },
                {
                    "weights": [
                        -0.021899215054328104,
                        -0.028165795837506287,
                        -0.011870310679972195,
                        0.09061146438707517,
                        0.01568745922582189,
                        0.014540558467198655,
                        0.018110015397169124,
                        0.04283362566603662,
                        0.010108114962732466,
                        0.04262224267246632,
                        0.02077594401765062,
                        0.07206809813197838,
                        0.025090614007509306,
                        -0.1647704614666706,
                        -0.09314901305444231,
                        0.025366893537799334,
                        -0.023526084113194783,
                        -0.0014789726217352003,
                        0.0005779953267894695,
                        0.008293182327825433,
                        -0.04176431999302742
                    ],
                    "bias": -0.0001971054250743328
                },
                {
                    "weights": [
                        -0.0212583178159277,
                        -0.0025440160934578917,
                        0.02931741888933487,
                        0.02510475518576289,
                        0.010252262575041474,
                        0.004721990193881914,
                        0.03253507395513692,
                        -0.007136326437708098,
                        0.03860344036222921,
                        0.003928892408542838,
                        0.010687228673009412,
                        -0.00960301127626221,
                        -0.009907544329811542,
                        -0.1107576928181574,
                        0.22724088457837138,
                        -0.07779264327039188,
                        0.04995827644179524,
                        0.06221548532640432,
                        -0.0010205835063728415,
                        -0.11214282298332724,
                        -0.08074669798732217
                    ],
                    "bias": -0.008217557685932443
                },
                {
                    "weights": [
                        -0.009454112757644774,
                        -0.032044718709406284,
                        0.017396986987747592,
                        -0.008198742389641916,
                        0.03838625573255427,
                        -0.03051399944290662,
                        0.06816202712070378,
                        -0.010112727675972318,
                        0.07506030629760475,
                        -0.017471472049253145,
                        0.07480320763404132,
                        -0.09068820447306229,
                        0.06665757453818996,
                        -0.05183188847115948,
                        -0.07914538793875857,
                        0.009632317459599284,
                        0.014632700581058193,
                        -0.019303152028915353,
                        -0.016074431538501285,
                        0.01513022314251066,
                        -0.010097532433207879
                    ],
                    "bias": 0.0010714178279154403
                },
                {
                    "weights": [
                        -0.00974976355128127,
                        0.00291576275617778,
                        0.004888733371965813,
                        -0.0001299927124773795,
                        0.02071594444809781,
                        0.00979312153168384,
                        -0.03132815015104823,
                        -0.013724553978345547,
                        -0.05563300029597,
                        -0.09755448235024121,
                        -0.06330860497846993,
                        -0.09333309896298544,
                        -0.06242506819579672,
                        -0.4068063443828201,
                        0.1594527742016754,
                        0.021055833408499213,
                        0.15365506751911193,
                        -0.05070030740749451,
                        -0.12860889913068269,
                        -0.07857324431857494,
                        0.015863523862503413
                    ],
                    "bias": -0.01922772259964744
                },
                {
                    "weights": [
                        0.013269406719853752,
                        -0.04094849404788455,
                        -0.009870084839439207,
                        -0.016850433323648696,
                        0.03134897246619148,
                        -0.003784250691286109,
                        0.028692625848692036,
                        0.006348697179662265,
                        -0.015680360592138606,
                        0.03287403222096432,
                        -0.02515454212183591,
                        0.040635189557952006,
                        -0.02342321867493487,
                        -0.06805462355827123,
                        -0.018732269533722493,
                        -0.0009927039435928555,
                        0.00432258663804621,
                        -0.014150782554483966,
                        0.08451010928096618,
                        0.018833493370599884,
                        -0.0017165631639315176
                    ],
                    "bias": 0.000576420087000196
                },
                {
                    "weights": [
                        -0.01306762322549038,
                        -0.01642810870203015,
                        0.051328409039647936,
                        0.07569866515991922,
                        0.008474335006203041,
                        0.012624208295993767,
                        0.046836031907316264,
                        0.019514393349633178,
                        0.02843959354949992,
                        0.038285721428214174,
                        0.01989794089187981,
                        -0.019969730844293498,
                        -0.016398418997515662,
                        0.19663573086870823,
                        -0.28357814680164134,
                        2.84668081918088e-05,
                        0.003842003029457792,
                        0.10149147905409135,
                        -0.10858043946492987,
                        -0.09147715977112789,
                        -0.18885796331262858
                    ],
                    "bias": -0.001680879739463002
                },
                {
                    "weights": [
                        -0.0022083747612489492,
                        0.0015715625456165013,
                        -0.0050143224728838075,
                        0.0010253650838443935,
                        0.01205860878612672,
                        -0.017493973437119177,
                        0.008147943467813609,
                        -0.0024355366324387588,
                        -0.0752637513136537,
                        -0.0372863721858178,
                        -0.048242052870548086,
                        -0.05728655582791498,
                        -0.03391807678489781,
                        -0.3907581458472294,
                        -0.11220906918278475,
                        -0.10342765125147817,
                        -0.03264253804812269,
                        0.012418212109757147,
                        0.1330713108691942,
                        -0.09217576813944571,
                        0.015718989223394857
                    ],
                    "bias": -0.01628629558121869
                },
                {
                    "weights": [
                        0.03303113714821089,
                        0.0052345879786680006,
                        0.0027857906981164616,
                        -0.014682682621357706,
                        -0.009942328331105175,
                        0.0024021674316216245,
                        -0.012924521913200116,
                        0.005241860990811071,
                        -0.0047617991233013844,
                        0.01176343615621823,
                        -0.004169535974380034,
                        0.021440415000555154,
                        -0.005223178670373172,
                        0.014539171630296546,
                        0.021184967459815546,
                        -0.002780394052067624,
                        0.005630777997680873,
                        0.0010254119041259626,
                        0.01635444548607371,
                        -0.0015187096298912588,
                        0.01643455235162847
                    ],
                    "bias": 0.0003661173186760841
                },
                {
                    "weights": [
                        -0.027981054913799285,
                        0.0008259519831728045,
                        0.017096915860240793,
                        0.0006420476868953838,
                        0.09435318767270535,
                        0.03769166924283712,
                        0.04612727255717762,
                        0.023807488338810634,
                        0.017706797645825553,
                        0.02745858190981867,
                        0.011031205360274006,
                        0.049073407602970735,
                        -0.02874401852562695,
                        0.07056781957729207,
                        0.1785455093819899,
                        -0.04738780730068504,
                        0.028325721797961268,
                        0.05702249437332418,
                        -0.03404884886179537,
                        -0.04354754270874938,
                        0.01065521404346323
                    ],
                    "bias": 0.002178323681380968
                },
                {
                    "weights": [
                        -0.021723824145391032,
                        -0.009537748328951193,
                        -0.07649709121846425,
                        -0.011912870361693119,
                        0.032667682263095785,
                        0.013231786814029789,
                        0.03398811236047777,
                        0.0030690094689988234,
                        0.03904944371781273,
                        0.03363910227385448,
                        -6.810784131324466e-05,
                        0.04095204989073499,
                        -0.015052417349291785,
                        -0.01579344061134357,
                        -0.134366223069497,
                        0.005730555972050794,
                        -0.005018579230067555,
                        0.011129205395943526,
                        -0.036772494815379926,
                        -0.0016343466389997113,
                        0.08634680269064605
                    ],
                    "bias": 0.0016437449160613454
                },
                {
                    "weights": [
                        -0.013121438488518215,
                        -0.09416885617998305,
                        0.011447135449427142,
                        0.029908169184392524,
                        0.054254600464466236,
                        -0.018945754542012715,
                        0.03268514954508634,
                        -0.00958053896856214,
                        0.031882136616605924,
                        -0.03697214569804624,
                        0.02815962453932925,
                        -0.05573058456328708,
                        0.03160304777397735,
                        -0.05511447322085676,
                        -0.056389582109087705,
                        0.0012171292907906365,
                        -0.0011013579249656014,
                        -0.0023288852716827004,
                        0.04366514028331059,
                        0.007918337333170168,
                        -0.03690304944297527
                    ],
                    "bias": 0.0007802126446981176
                },
                {
                    "weights": [
                        0.01319198290330927,
                        0.009899178169610327,
                        0.042475336659662494,
                        -0.011524271894750809,
                        0.010748015978335095,
                        -0.013062323511590397,
                        -0.005279131681435845,
                        0.006836227778049389,
                        -0.03884330427121024,
                        0.026682200009081936,
                        -0.03436484857344539,
                        0.029635847231852957,
                        -0.01817977687652083,
                        0.05147378564969271,
                        0.043077785567668295,
                        -0.0015786539767774388,
                        0.016724568584318346,
                        0.01862139605522175,
                        0.04001267990075204,
                        0.013571963983081215,
                        0.00887812450783308
                    ],
                    "bias": 0.006131630635289056
                },
                {
                    "weights": [
                        -0.011992892327924875,
                        0.035962893315639795,
                        0.03389930170992888,
                        0.05238109863063907,
                        0.019362606897477215,
                        0.04260173377585248,
                        0.04631244663314642,
                        0.017282640233405422,
                        0.05054495760957602,
                        -0.004705689128016282,
                        0.05503743614267095,
                        -0.00611181572806928,
                        0.04338599872944015,
                        0.06540715890420183,
                        -0.1657560355778543,
                        -0.004579840449988444,
                        -0.001380735460028833,
                        0.038542152015536756,
                        0.179448687350022,
                        -0.06157882186435981,
                        -0.10454353117629651
                    ],
                    "bias": -0.001979484355791331
                },
                {
                    "weights": [
                        -0.044277710563593954,
                        0.07590118428698141,
                        -0.013133539236607933,
                        0.028929561827413318,
                        -0.017586509958584004,
                        0.020057161735122755,
                        0.008061136247682576,
                        0.03194360137982888,
                        -0.01960712134209477,
                        -0.026359042392974492,
                        0.025172104196414274,
                        -0.09682190932689795,
                        0.03153442455299833,
                        -0.07205929848044546,
                        -0.048362280844989204,
                        0.00815854470619061,
                        -0.005901159738385494,
                        0.0115122948528681,
                        0.11695461006788255,
                        -0.027345229640213492,
                        -0.11528403245787715
                    ],
                    "bias": -0.0011868000208136399
                },
                {
                    "weights": [
                        -0.014591924525997902,
                        -0.03600099074085302,
                        -0.03416573220802373,
                        -0.009516644926591171,
                        0.02351662861721665,
                        0.0002731105290811491,
                        0.0268407278333283,
                        0.010646219933817359,
                        0.031215218129846505,
                        -0.01014014351511554,
                        0.010959376381097688,
                        -0.010165246949678304,
                        0.017142413735842656,
                        -0.0376689021189295,
                        0.05728775257680483,
                        -0.0018389579035819042,
                        -0.004485058454757201,
                        -0.0035063281786655498,
                        0.07323908758089465,
                        0.0083890239381534,
                        0.03535184902527959
                    ],
                    "bias": 0.0004173169352596803
                },
                {
                    "weights": [
                        -2.5647356510492302e-49,
                        -2.5440055801463363e-49,
                        -1.892719416631352e-49,
                        -2.2045239595166884e-49,
                        -1.0383003278160838e-49,
                        -1.5402470673602189e-49,
                        -5.526746847237489e-50,
                        -4.667266265847653e-50,
                        -2.891284420836627e-50,
                        -1.404606357516564e-50,
                        -1.216557506255949e-50,
                        -1.0490860993799057e-50,
                        -4.4490444641848177e-51,
                        -4.315812344755153e-51,
                        -3.1615243849925286e-50,
                        1.9087703049021014e-53,
                        1.2331472785393328e-51,
                        3.734153995130205e-50,
                        3.407839057328196e-50,
                        2.7156253722379954e-50,
                        -1.9029941856449155e-49
                    ],
                    "bias": 1.7772892208823037e-50
                },
                {
                    "weights": [
                        -0.03635606496493935,
                        -0.03291176177254323,
                        -0.021708879610826758,
                        0.005362051629947817,
                        -0.025493299829246314,
                        -0.006076818790822521,
                        0.003648903266085817,
                        0.036592885212780576,
                        0.029805475511295906,
                        0.0569018498151276,
                        0.0014072871318350773,
                        0.06324648879880947,
                        -0.009530633503021205,
                        -0.020652576003493305,
                        -0.00529044428425526,
                        0.002373106501741658,
                        -0.0018926934351285926,
                        -0.0008514848728667263,
                        0.04942417531634492,
                        0.004916830642709555,
                        0.021234371811756848
                    ],
                    "bias": 0.0005012007969682402
                },
                {
                    "weights": [
                        0.0047809367249547555,
                        -0.0057978772949976096,
                        0.02192242921956191,
                        -0.005133244362516394,
                        -0.003908162889512776,
                        -0.016898627910841568,
                        -0.006510726124236124,
                        0.00621573386703612,
                        0.01968316716956569,
                        -0.0005024766353094188,
                        -4.827855924714713e-05,
                        0.007233901672455435,
                        -0.008293937040454535,
                        0.06963621936038293,
                        -0.017063620328560222,
                        0.0006943928910367948,
                        -0.00229598459021385,
                        0.007638452185382013,
                        0.03621438309168213,
                        -0.002311876288010124,
                        -0.027316238781601724
                    ],
                    "bias": 0.00018121593095432004
                },
                {
                    "weights": [
                        -0.09406464638059575,
                        -0.059553565631054045,
                        -0.058108376005500416,
                        0.02244864468740037,
                        0.05424536076863515,
                        0.010160702168802863,
                        0.06011363930659402,
                        0.0323410525559276,
                        0.0768465907737602,
                        -0.020379236868720965,
                        0.07427967034078259,
                        -0.01260382516625872,
                        0.04405022397398251,
                        0.03249548479407175,
                        0.06564388904327861,
                        -2.2662195582451026e-05,
                        -0.0003555124657117243,
                        0.10692254928875622,
                        -0.15081194576848608,
                        -0.12020070147146306,
                        0.029901105718351983
                    ],
                    "bias": -0.00721694164114387
                },
                {
                    "weights": [
                        0.015826108507077795,
                        0.0005201725850981428,
                        0.005567529969397852,
                        -0.0037585343623525824,
                        -0.0021971852858905503,
                        -0.007109236440783077,
                        -0.000620781297082165,
                        -0.003239977625689495,
                        0.0005057833384988029,
                        0.0014724916564987146,
                        -0.0021702309879637347,
                        0.003579163947668368,
                        -0.0022914990689331663,
                        -0.005320576073478951,
                        -0.008341035525174477,
                        -0.0015684234406099723,
                        0.001062619529250151,
                        -0.00028810264091533625,
                        0.0028342557237519494,
                        -0.0011869862718408848,
                        0.009509622937047173
                    ],
                    "bias": -4.8331354294638354e-05
                },
                {
                    "weights": [
                        0.040946441504032045,
                        -0.02117509286272541,
                        -0.00920482794617467,
                        -0.04034688404589295,
                        0.009580530460569213,
                        -0.013367486338689009,
                        -0.015248959491796216,
                        -0.009364291087598129,
                        -0.015869780655997767,
                        0.005703750209236488,
                        -0.009545114808483853,
                        0.0077340287679408485,
                        -0.007129254587705134,
                        -0.03432845683754428,
                        -0.0002104121340202968,
                        0.00137308785285897,
                        -0.0007860156010741352,
                        0.004088482321963874,
                        0.04416728340515635,
                        -0.006057459679517845,
                        -0.030092660694464424
                    ],
                    "bias": -0.0004952592935694345
                },
                {
                    "weights": [
                        -0.008856196517537317,
                        0.013547245773171726,
                        -0.03395385670643541,
                        0.04042420605053666,
                        -0.05866950322707054,
                        0.003588265617866376,
                        -0.000323034237048656,
                        -0.024130532871722486,
                        0.019469002813352874,
                        -0.07104313926924057,
                        0.05282987286386616,
                        -0.08560514368794496,
                        0.07003516545195866,
                        -0.22140756671342113,
                        0.013743822828051883,
                        0.01247701109917095,
                        -0.014176335497263604,
                        0.0244522657476702,
                        0.02574444382552134,
                        -0.037376523489486314,
                        0.015810052283314273
                    ],
                    "bias": -0.0006561017495205284
                },
                {
                    "weights": [
                        0.025902280758933856,
                        0.051007586313400376,
                        -0.00647872707851521,
                        0.0637979733096663,
                        -0.01166532941622777,
                        -0.016162000635602934,
                        -0.013248525141638889,
                        -0.05853727711141865,
                        -0.046904846633375276,
                        -0.06787955825975364,
                        -0.02528884674779518,
                        -0.05109094116681118,
                        -0.03624828709550587,
                        -0.05911503437137573,
                        0.32975886851958247,
                        -0.07927857919158962,
                        0.01928129309043474,
                        0.008334352716912652,
                        0.09086903757468093,
                        -0.018519885394201564,
                        -0.11326041242930765
                    ],
                    "bias": -0.0068537868701057155
                },
                {
                    "weights": [
                        -0.010854084922036298,
                        0.012105651066390536,
                        -0.021074422614019813,
                        -0.005571904791908244,
                        0.0004177127952874877,
                        0.03659133886026187,
                        0.0013175690162415539,
                        0.013649187754067161,
                        0.0034559070602118483,
                        -0.005444647756021458,
                        0.01203168064461774,
                        0.0034607820056160483,
                        0.0200862393105699,
                        0.012471269343494459,
                        0.013659674322343726,
                        -0.0010727277659865694,
                        0.007152654534401072,
                        0.009098187602782063,
                        0.040885793678741095,
                        -0.012682157855823608,
                        -0.022364863668045132
                    ],
                    "bias": -0.00069952808262213
                },
                {
                    "weights": [
                        -0.0033954015550786746,
                        -0.004224434124667813,
                        0.004982147232391212,
                        -0.007673361319740184,
                        -0.00035489501998059225,
                        0.0027581935078357586,
                        -0.00886112823631208,
                        0.013351196567153055,
                        -0.011062321926995116,
                        0.00677597644855098,
                        -0.00906623226171082,
                        -0.0014090596007305942,
                        -0.009790318137015827,
                        0.013818578846246174,
                        0.0020122891758709376,
                        -0.0016635211925288336,
                        0.0008656859023940928,
                        0.00031236407255043314,
                        0.01914481888423321,
                        -0.0011305025326944261,
                        -0.003522394603758476
                    ],
                    "bias": -0.0002084545756652164
                },
                {
                    "weights": [
                        -0.001566130058800208,
                        0.005856302412707536,
                        -0.010466120282547006,
                        -0.0033600877573768282,
                        -0.008544793312385513,
                        0.00011719531003245105,
                        -0.00700323379652787,
                        0.004170681181245896,
                        -0.00646277034335475,
                        0.0018357477142711958,
                        -0.0064095968296353795,
                        0.0018687475096038691,
                        -0.006785637301974729,
                        0.004293290067499737,
                        0.007500089573635171,
                        -0.00020067996604473847,
                        0.0005283227439455816,
                        -0.000994374435344938,
                        0.005145610912352898,
                        -0.0008304000660189445,
                        -0.0014830269636408539
                    ],
                    "bias": -0.0003245597294292929
                },
                {
                    "weights": [
                        -0.012373788162210117,
                        0.019035901225661383,
                        0.016855214465248364,
                        -0.006103745823214478,
                        0.00940517276218549,
                        -0.04124854919966604,
                        0.019242707070005187,
                        -0.020967474896209697,
                        0.005580426586684104,
                        -0.01579482562842743,
                        0.009840594131183211,
                        -0.01203205985081173,
                        0.01070673447243052,
                        0.013998618387839477,
                        -0.0026009788199577505,
                        -0.0007206113806930347,
                        0.002337953678627203,
                        -0.0026175932498645246,
                        -0.00849707848303665,
                        -0.0009897502749089135,
                        0.003022705464922628
                    ],
                    "bias": -0.0004795648661386278
                },
                {
                    "weights": [
                        0.02586788598626371,
                        -0.04605835700909247,
                        0.060437200404237494,
                        -0.013519172942192546,
                        -0.03080071782190234,
                        0.14121921512551694,
                        -0.037286770052028295,
                        0.013832571509157156,
                        -0.015334047796361825,
                        -0.0032597014760607727,
                        -0.03819364274527154,
                        -0.06812522426916232,
                        0.007972836352604672,
                        -0.056045434784317935,
                        -0.06470083859502584,
                        -0.003884270627188332,
                        0.005880626451735555,
                        0.019324871867872767,
                        -0.0712485075038889,
                        -0.07552255766569714,
                        -0.06764739475308404
                    ],
                    "bias": -0.00578210204848405
                },
                {
                    "weights": [
                        -0.0199234765952416,
                        0.03666105900142077,
                        -0.04501691768605968,
                        0.022040835239878178,
                        0.015183315095117696,
                        0.008727639498499662,
                        0.029249851956393295,
                        -0.00806449909627115,
                        0.019836898484639886,
                        -0.018399410431369632,
                        0.03460683884628818,
                        0.03203281510008255,
                        0.05914499159054756,
                        0.1668338448725117,
                        -0.04402528349834777,
                        -0.020723064453587375,
                        0.014715196216035927,
                        0.036009067467812524,
                        0.015049559566241719,
                        0.0067359410820053475,
                        0.046367434487646214
                    ],
                    "bias": 0.007004748699957173
                },
                {
                    "weights": [
                        -0.028528350797342422,
                        0.011641414979883524,
                        -4.332388900274099e-05,
                        -0.027933412270137497,
                        0.009512739204028004,
                        -0.0035383836696073166,
                        -0.002058849187720711,
                        0.022077932124225454,
                        0.0054924329323003855,
                        -0.01757345936127992,
                        0.01522396018794622,
                        -0.005282898783237679,
                        0.021888827357498506,
                        0.016793710556355958,
                        0.018158142850858067,
                        -0.0005058915479677426,
                        0.0021563852391663888,
                        0.006312237505056615,
                        -0.007599095057036967,
                        -0.005732750690332836,
                        -0.0263928696758649
                    ],
                    "bias": 0.00029993043078707914
                },
                {
                    "weights": [
                        0.008342422679026698,
                        -0.014162798073609132,
                        0.08892698488907473,
                        -0.016358763298807536,
                        -0.02055330854939015,
                        -0.005534861245545593,
                        -0.046319696534806956,
                        0.021260404891522904,
                        -0.05107568104552185,
                        0.07121981831012483,
                        -0.021259917749701276,
                        -0.037220766345118506,
                        0.05022497718851581,
                        -0.023350449172441643,
                        -0.042954293044988406,
                        0.031241536550701648,
                        0.0009481980201892134,
                        -0.10915699262299021,
                        -0.028557943090857147,
                        0.16513143568753838,
                        0.061347871830971415
                    ],
                    "bias": 0.007975005462753867
                },
                {
                    "weights": [
                        -0.017846842298283105,
                        0.003913601299229867,
                        0.05338626355512146,
                        0.009489200192161198,
                        -0.009758639755378778,
                        -0.027393027355243564,
                        -0.03497834904046391,
                        -0.05125782182843137,
                        -0.03005524687409422,
                        -0.03788939955349653,
                        -0.051421161883263185,
                        -0.03770041905791337,
                        -0.02230184936039725,
                        -0.044561981578378054,
                        0.23153858371103625,
                        -0.0009295217819928346,
                        -0.00726660976370182,
                        -0.04399840639624316,
                        0.1307607205074414,
                        0.00946871935634204,
                        -0.03622849158455924
                    ],
                    "bias": -0.0028621320378632597
                },
                {
                    "weights": [
                        -0.014928316941479195,
                        -0.010052275843057772,
                        -1.606728221569913e-05,
                        0.012042012604224064,
                        0.018254498444914478,
                        0.007229232226673021,
                        -0.0056979761660246025,
                        0.03418320658569078,
                        -0.015424221937586882,
                        0.01967189848247403,
                        -0.029206619687817417,
                        0.022097378468591507,
                        -0.0308760630631899,
                        -0.023051387234664104,
                        0.04866320342054425,
                        0.001596725244188733,
                        -0.0027290233963247305,
                        0.0016108289615856936,
                        0.02292169779356556,
                        0.002141274299563704,
                        -0.024652927271873917
                    ],
                    "bias": -0.00018760656585031194
                },
                {
                    "weights": [
                        -0.06447575995135359,
                        -0.05869064189636747,
                        -0.032133684231790596,
                        0.01506146087985291,
                        0.07758541055628271,
                        0.001955055422851614,
                        0.13543751991111963,
                        0.006128083164991427,
                        0.12332478091105843,
                        0.01716720332692955,
                        0.04526343487160522,
                        0.067247092090433,
                        -0.021586047516889754,
                        -0.06700863644123621,
                        0.16068255318573074,
                        0.005186456448028986,
                        -0.011275344954641591,
                        0.10669561828038099,
                        -0.2016609233427617,
                        -0.17484947854962649,
                        -0.0652992819823804
                    ],
                    "bias": -0.007511505520429268
                },
                {
                    "weights": [
                        0.014619689254196775,
                        0.0041314930759781855,
                        -0.030943080021898727,
                        -0.006103961167254578,
                        -0.011785028490821718,
                        -0.0026678466490865334,
                        -0.007371319064926463,
                        -0.004109820067574774,
                        -0.004860201216412518,
                        -0.007484864981662689,
                        0.00104046817400677,
                        -0.007736688494748867,
                        -0.007591767154286974,
                        0.1419025102073837,
                        -0.0579311769191652,
                        0.007889978485015953,
                        0.007280032281953472,
                        -0.0012266955934077577,
                        0.047232170864667807,
                        0.023151367553339058,
                        0.0003345079594852034
                    ],
                    "bias": 0.0036960491559256863
                },
                {
                    "weights": [
                        -0.0640716025295358,
                        0.010360973548553599,
                        -0.027420371589536155,
                        -0.07357787475031685,
                        0.05742779909501345,
                        -0.003716840658626434,
                        0.07094090889592732,
                        -0.019410068034788834,
                        0.052935237544203616,
                        -0.005995150823946163,
                        0.07692553888187269,
                        0.03619481263784806,
                        0.050102790868205516,
                        0.011867460667918942,
                        0.05433146150826044,
                        0.0028151921170601487,
                        0.00020936526043585603,
                        0.026583394799491344,
                        0.044065579146295886,
                        0.0006894906481168708,
                        0.03407412362797539
                    ],
                    "bias": 0.002574163163290077
                },
                {
                    "weights": [
                        0.036029012046579593,
                        0.007630312169607417,
                        -0.07076312197695495,
                        0.007634797479628552,
                        -0.02442171217094522,
                        0.005494396978003503,
                        -0.015642133671538216,
                        0.013482790511168255,
                        0.021886852429010083,
                        0.018403515654746065,
                        0.0030032284747276688,
                        -0.002860329993861833,
                        0.02929907175625583,
                        -0.02269852331966214,
                        0.0036609315803424742,
                        -0.02279373964069572,
                        0.01630970644977732,
                        0.014391256874547004,
                        0.03305234039916658,
                        -0.020924822143530603,
                        0.09260126013954602
                    ],
                    "bias": 0.0019068867497659305
                }
            ]
        },
        {
            "neurons": [
                {
                    "weights": [
                        -0.0013053567348061176,
                        -0.004750930330519579,
                        -0.020275810981192355,
                        -0.0003508896314024899,
                        -0.03536718545406013,
                        0.007033448305133656,
                        0.0028615029260190064,
                        -0.00977630351524123,
                        -1.2988770127351806e-05,
                        0.0009211994612333442,
                        -0.01604728379341582,
                        0.05279357403457778,
                        -0.0012534143209524833,
                        0.03705347620066311,
                        -0.0352829874688271,
                        -0.0003485335690999044,
                        -0.002443225212206499,
                        -0.020900586933388192,
                        -0.008510284605521575,
                        -0.006025358192067475,
                        0.023414648570612297,
                        -0.021863117491014043,
                        0.027375679037007633,
                        -0.0018368619290574943,
                        0.016506052416857087,
                        0.004066143682810078,
                        0.025315069867975385,
                        -0.010648305038337424,
                        0.0007949785928863549,
                        0.026373892674718076,
                        0.004607865568731537,
                        -0.03216836348786738,
                        0.026505391736913263,
                        -0.0384914854222976,
                        0.002152885407003624,
                        0.0012227538165875355,
                        0.014673891195493506,
                        0.00019846973160236655,
                        0.010579487646890337,
                        0.01041575166706377,
                        -0.023253086733167682,
                        5.7910996409789794e-05,
                        3.2370161509877265e-50,
                        0.010585696207360176,
                        0.009664692582978588,
                        -0.03552832721245241,
                        -0.0008099725559711961,
                        -0.006739036711964782,
                        -0.0322623393704531,
                        0.008843710199025662,
                        0.013093155909379034,
                        0.0039373247071442605,
                        0.00010129778925634823,
                        0.003361812389992357,
                        -0.0033806514857013968,
                        0.03267771561070299,
                        0.0054193548625103595,
                        -0.02522343835710019,
                        -0.004555153302116252,
                        0.001847805586499359,
                        -0.021801325950381204,
                        0.005735977841633752,
                        -0.0038039627953380963,
                        -0.022969469836199623
                    ],
                    "bias": -0.004203877997972241
                },
                {
                    "weights": [
                        0.01177775333225038,
                        0.0014546927594523093,
                        0.006442699461521234,
                        0.009036275374714808,
                        0.015210792059836211,
                        0.0032717312575174825,
                        0.0013319422415682361,
                        0.001144340272769435,
                        0.00601913011990228,
                        0.0037520097383585056,
                        0.0012224911006555117,
                        -0.017252212878636288,
                        -0.0026084636877965455,
                        0.0008337136494296307,
                        -0.0020832080001502756,
                        0.002594449828582174,
                        0.0021855930145866227,
                        0.0031574597154004425,
                        -0.00038154138206898024,
                        -0.00750786365877523,
                        0.003551561496162335,
                        0.0013511168898327633,
                        -0.012132948122020693,
                        0.001202618259376328,
                        0.010094979545045603,
                        -0.001135486025998225,
                        0.0037032984483454266,
                        0.00042843662920136384,
                        0.01107869303301432,
                        0.0057884562310677205,
                        0.008394460376507006,
                        0.011987319741955122,
                        -0.007543697661936397,
                        -0.007005631739955597,
                        0.007784154229383294,
                        0.006504448690112683,
                        0.0036874660502911973,
                        -6.086891548677974e-05,
                        0.008386912501029728,
                        0.0014541609995202104,
                        -0.0196602923001603,
                        0.00648004974502312,
                        -4.3495223911035365e-50,
                        0.006541893328757026,
                        0.012300963621761111,
                        0.000765117918114551,
                        0.0015071847895833802,
                        0.00858645432965501,
                        -0.010351668792366212,
                        0.008863574005156695,
                        -0.0030126873955121218,
                        0.0007868601089865169,
                        0.0015552613569747538,
                        -0.004748048403462226,
                        0.008606481882685691,
                        -0.009165394226095809,
                        0.0005477435528595821,
                        0.0032411229715887885,
                        0.013474253105297226,
                        0.00947436939189357,
                        0.009374305814842054,
                        0.01219823494388716,
                        0.013917468456790668,
                        -0.00877076527903585
                    ],
                    "bias": 0.0018517282128866835
                },
                {
                    "weights": [
                        -0.005547160142172004,
                        -0.008098922884028475,
                        0.008127147276051674,
                        -0.03266730203943214,
                        -0.017204637450780377,
                        -0.01151814061207219,
                        -0.004183052298670105,
                        0.012139497129481777,
                        -0.007769221521758987,
                        -0.044284724971746424,
                        0.022927487690318372,
                        0.003547119955314418,
                        -0.0058755381968751625,
                        0.005080281487388725,
                        0.042210063999600915,
                        0.018747824867553723,
                        0.00040769272560623897,
                        0.028334659328861915,
                        0.017857355056449524,
                        0.025340662900806443,
                        -0.010881232236831729,
                        0.019551404151814892,
                        -0.03613198232137602,
                        -0.001821854771033893,
                        -0.04494941442849492,
                        -0.046675854304467364,
                        0.007949174735078883,
                        0.014191828694083879,
                        0.003155977625256288,
                        -0.02306219347116875,
                        0.017902066165321688,
                        0.009216792223697949,
                        0.0013816457431821171,
                        0.02041432755533946,
                        -0.001373815896474843,
                        0.017470113567232142,
                        -0.031890714778329575,
                        0.01972584578095164,
                        0.024413032621606875,
                        0.0008771254299395049,
                        -0.006796232486597491,
                        -0.007556913152300211,
                        2.5292405261778406e-50,
                        -0.004123015913888089,
                        -0.006509017433340911,
                        -0.016274495044963463,
                        -0.001560394891205764,
                        0.00866206610013983,
                        0.039163285683938065,
                        -0.024108702324117444,
                        0.0008010661319460872,
                        -0.006184268618452419,
                        -0.003723553598563605,
                        -0.013426467187164264,
                        -0.04191747635999528,
                        0.04102869357147011,
                        -0.0035376882631106476,
                        0.021125930388149472,
                        -0.033673023158503054,
                        -0.013171614330339984,
                        -0.023820921812862977,
                        -0.006123322132822217,
                        -0.000875850973100354,
                        0.03331836489927468
                    ],
                    "bias": 0.005747831491365458
                },
                {
                    "weights": [
                        -0.0031990123177610317,
                        0.0015508638811229417,
                        -0.008364850322962844,
                        0.010732666000298523,
                        0.0010553023549758303,
                        9.569105247277676e-05,
                        -0.012918415935849812,
                        0.002927526161908301,
                        -0.0008827173070153404,
                        0.0024835270860600177,
                        0.0018408221325448538,
                        0.016222954897771907,
                        0.001171857053366861,
                        -0.021971259941622887,
                        0.010044763150837977,
                        -0.004116020462721335,
                        0.002580064224303617,
                        0.007229931333643849,
                        0.00875274434407162,
                        -0.006300484854488643,
                        0.0016055768624092992,
                        0.000756221429604976,
                        -0.0007276262052533153,
                        0.001145717677339254,
                        -0.0029746357741217153,
                        -0.0024144056833325725,
                        -0.01866793376832172,
                        -0.012832063771297737,
                        0.0023454519915405247,
                        0.0013369657262223944,
                        -0.010798003144059843,
                        0.004338911801525965,
                        -0.02515531444522333,
                        0.006787297816352499,
                        0.011400920631555058,
                        0.0023711325148027917,
                        0.008765319356479584,
                        -0.00024484348392517853,
                        0.006491269485082745,
                        -0.0001613056548866534,
                        0.02552407631609489,
                        -0.0036001329744492425,
                        -3.3395504191526705e-51,
                        -0.002196024354677451,
                        -0.007896001821780534,
                        0.005773056470413854,
                        0.004302715966383966,
                        -0.0037034551764508023,
                        -0.01288346961117012,
                        0.015978826800569043,
                        0.002852139786315779,
                        -0.0001524659255526169,
                        4.590505130413484e-05,
                        -0.0013845030975717688,
                        0.0019415437609433142,
                        -0.013269127990000627,
                        0.0011174661724752905,
                        0.0172394406209674,
                        0.010605331430119805,
                        -0.0056301344321406386,
                        0.001653025390883276,
                        -0.009548472471449345,
                        -0.0034383807591836456,
                        0.017388585581184054
                    ],
                    "bias": 0.0017732671678988554
                },
                {
                    "weights": [
                        -0.014024487698795208,
                        -0.012053433234245209,
                        0.07104190025319676,
                        0.058096604408057334,
                        -0.00951720470915568,
                        0.009145206390379131,
                        -0.022031643699858813,
                        0.0002945209858935604,
                        0.003000334491260684,
                        -0.004959446828735563,
                        -0.028536653622487206,
                        0.05454970610398852,
                        0.011691683733138345,
                        0.026904917091531422,
                        -0.05347789400766324,
                        0.0006430543196292345,
                        0.007705160745129581,
                        0.006001138078396392,
                        -0.0016327677719719005,
                        -0.017340084732156837,
                        -0.02153270670739618,
                        -0.008779224454842933,
                        -0.024765122234343233,
                        -0.0015362612464671797,
                        0.02488723943967801,
                        -0.014147098214934099,
                        0.012061576635358433,
                        -0.037255397475928875,
                        0.019839826618037945,
                        0.04383164860321552,
                        0.008987285079344112,
                        0.012255278992179215,
                        -0.0186818919724654,
                        0.004574936190431344,
                        -0.002306422470236736,
                        -0.006069258371977351,
                        0.006611126448719859,
                        0.02134618382416432,
                        -0.03258361291449783,
                        -0.008943427685205702,
                        0.026668037412723413,
                        0.023708471203607355,
                        -5.947496960784076e-50,
                        0.0003695079045539895,
                        0.002864437112798338,
                        0.05710020918225122,
                        0.0010916782742867916,
                        -0.0008823654556330493,
                        -0.010461487402468373,
                        0.014656255205042545,
                        0.02122660727634378,
                        0.002870760052255119,
                        0.0010851486392603955,
                        -0.002936548412455283,
                        0.007185995660729188,
                        0.05505963944544061,
                        0.012911232727563605,
                        -0.01998164015789494,
                        -0.011601786362583485,
                        -0.0007492098357257695,
                        0.03659137309468634,
                        0.004306175673282692,
                        0.026769577499652843,
                        0.03792797957876175
                    ],
                    "bias": -0.0005458764588013151
                },
                {
                    "weights": [
                        -0.000342327065675578,
                        -0.0033450567800240912,
                        -0.004035465674680368,
                        -0.007307059202950272,
                        0.012092764264368236,
                        -0.002721914791318394,
                        -0.024007134627715605,
                        -0.0008720145845356636,
                        0.003094098946453643,
                        0.016744929981472947,
                        -0.01353786007763308,
                        0.007116579927440234,
                        0.0006698851320428836,
                        0.020300332758951507,
                        -0.010293854508143185,
                        -0.0004972869159345107,
                        -0.0007268053733071516,
                        0.021950054260061715,
                        0.0010760447630492722,
                        0.006679105180222205,
                        -0.015585936029581852,
                        0.001369581575483343,
                        -0.0036840691026699506,
                        -0.0031792549853550322,
                        -0.015251309262178494,
                        0.007896084476013249,
                        -0.012070372613448887,
                        -0.016997392571319707,
                        -0.002513811890231877,
                        -0.008572888607652889,
                        0.007514408566108433,
                        0.0013113797138930132,
                        -0.0072160052569482476,
                        0.008311136890014758,
                        0.016604731585370864,
                        0.013955081531464051,
                        -0.004634908142447751,
                        0.002771672619964381,
                        0.027253321939500582,
                        -0.0075593323727505025,
                        -0.013552896767163189,
                        0.010467763120591818,
                        -2.5937518741517037e-50,
                        0.007454640748575981,
                        0.01564846272967417,
                        0.00502529036607827,
                        0.001966091701851831,
                        0.0021679254546002886,
                        -0.01755015576654114,
                        0.01351995654815539,
                        0.01035983425871064,
                        0.002902128885782805,
                        0.001909432860139025,
                        -0.010072026424760263,
                        -0.003828792721557057,
                        0.009459447492849025,
                        -0.0011475502292874803,
                        -0.015044862332612636,
                        0.03701411937745894,
                        0.015037506197976757,
                        -0.006674052069583238,
                        0.026984776878059398,
                        0.01719418269511876,
                        0.004620644657019273
                    ],
                    "bias": 0.002214439626899199
                },
                {
                    "weights": [
                        -0.0011428289020691226,
                        -0.009102071400299196,
                        0.01625568585154322,
                        0.03313626947349306,
                        -0.01563015756196289,
                        -0.0006375821147082139,
                        0.014344171291186026,
                        0.012837432686211772,
                        -0.005689825814223631,
                        -0.012851652061214587,
                        0.032524424053395375,
                        0.011236424087867899,
                        0.0019640856642597565,
                        -0.007904793626699312,
                        -0.00854489202240902,
                        0.011755089642926228,
                        -0.0022707415035208623,
                        -0.009393458675502779,
                        -0.011028416638573643,
                        -0.019463394728734713,
                        0.0018407480238049336,
                        0.014441234595176914,
                        -0.03825572468460617,
                        -0.0003712765529576656,
                        -0.048705289852375,
                        -0.02943096923816816,
                        -0.02242761980842513,
                        -0.002065512495653312,
                        0.020596856713169586,
                        0.01657024971540768,
                        0.046229119932694004,
                        -0.007366961904950533,
                        -0.04085616195958024,
                        0.054343682040792096,
                        -0.00459672028558995,
                        -0.019935664384937074,
                        -0.028176166839427853,
                        0.01676486722135759,
                        -0.029357923281868308,
                        0.0029320168037539566,
                        0.011785563613961329,
                        -0.004264870592814242,
                        2.7977614717564307e-50,
                        -0.00747446582175922,
                        -0.01920112232872207,
                        -0.02531911221152039,
                        -0.0009158421848800794,
                        0.012345277237386583,
                        0.0534214638423798,
                        0.04395770650960174,
                        -0.006985452620747823,
                        -0.0021357354676301062,
                        -0.005725102608734358,
                        -0.009267434167306823,
                        -0.02344514873103797,
                        -0.03937339263062179,
                        0.004980586072842396,
                        -0.007712863248344766,
                        -0.02109653088136684,
                        -0.025372614165131632,
                        -0.05266053961009271,
                        -0.040945576029431954,
                        -0.006670227431851361,
                        0.021340380976857715
                    ],
                    "bias": -0.0008587469845230659
                },
                {
                    "weights": [
                        -0.016426734783906743,
                        -0.004812030038005973,
                        -0.005385962827299053,
                        -0.01136358115657332,
                        -0.022435013351727765,
                        0.002218319068364057,
                        -0.0022511084712438416,
                        0.008037303207697072,
                        -0.008334097190471453,
                        -0.01452929283290587,
                        0.019148634956430537,
                        2.3854220058486234e-06,
                        -0.002043267634060455,
                        0.010054884587681069,
                        0.017255928235643366,
                        0.003918221151306942,
                        -0.0024480980025766413,
                        0.026144039854478635,
                        0.005219220485237732,
                        0.013938613474818793,
                        -0.018453906271680632,
                        0.01061179075160288,
                        -0.003753188670090931,
                        0.0025236056590623307,
                        -0.02032722917083162,
                        -0.010050745011012515,
                        -0.005667191015166766,
                        0.0043194502437188505,
                        -0.0063272043419256244,
                        -0.019004845257062798,
                        0.0024777731464682485,
                        0.01621573963748866,
                        0.007109395507837664,
                        0.017839191982013117,
                        -0.00018390708603511748,
                        0.019788162554432748,
                        0.0073538656205385895,
                        -0.004329796883762927,
                        0.007397114163823338,
                        -0.020943951383756477,
                        -0.01393755668843325,
                        -0.005754609689751104,
                        2.2681995126925713e-50,
                        -0.005363059657130501,
                        -0.009091655509241216,
                        0.009073378865406646,
                        0.0028961136464266497,
                        0.014144462534179668,
                        0.028418849307940915,
                        -0.0026370911401667725,
                        -0.009163827904196196,
                        -0.0022240003705059,
                        -0.0016454200848116697,
                        -0.007632818863483683,
                        -0.00624047416492611,
                        0.04093156233461291,
                        -0.0018700669755755534,
                        0.015045886649340428,
                        0.000904038020286148,
                        -0.00736761946816786,
                        -0.017706092370999228,
                        0.002926019754919702,
                        -0.015519416655439388,
                        0.04398976253142745
                    ],
                    "bias": 0.013084961284732003
                },
                {
                    "weights": [
                        0.0004993527833129914,
                        -0.02740835573997861,
                        0.10838460137410263,
                        0.05991635721979156,
                        -0.017295939143196343,
                        -0.027124358109548687,
                        0.03735135679655833,
                        -0.01461395110010116,
                        -0.023920066371909764,
                        -0.04881003398473611,
                        0.04658723652585029,
                        -0.022542383997664513,
                        -0.011738532011683348,
                        -0.01232697768226228,
                        0.015236926023480401,
                        -0.06554723588811943,
                        -0.014335080852505813,
                        -0.03956598526606555,
                        -0.007849930003988773,
                        0.033139768541044765,
                        0.009210229711386358,
                        0.01038438262995455,
                        0.07862258601577289,
                        -0.0008415665166837514,
                        -0.16671098451019686,
                        0.025371937957793685,
                        -0.05562146307776402,
                        0.03308991548469813,
                        0.043505344828186604,
                        -0.02247585695758356,
                        0.01620731988460818,
                        -0.0051116093975959245,
                        -0.1056663843678694,
                        -0.0885581333296443,
                        -0.0038102986396320628,
                        -0.07371137448743591,
                        -0.02199482405723714,
                        0.037391725059897275,
                        0.003934281408426402,
                        -0.04620251202616518,
                        0.0348885446350334,
                        -0.011856356918925707,
                        -4.980278867678975e-50,
                        -0.008599858904752391,
                        0.01904509126215206,
                        -0.06465899572431634,
                        -0.0028668549765965335,
                        0.014809964035789411,
                        0.04064312359086507,
                        -0.13835316143319,
                        -0.029067440504403748,
                        -6.01366201700288e-05,
                        -0.0014173553983688341,
                        -0.005660238495153102,
                        -0.07631437401642753,
                        -0.03985674763053271,
                        0.004503620666023156,
                        0.009857540796065796,
                        0.012121801026382184,
                        0.023996903865038697,
                        0.015785209071478953,
                        0.03259380671753071,
                        -0.067859031966302,
                        0.007415655538494545
                    ],
                    "bias": 0.015636979920623136
                },
                {
                    "weights": [
                        -0.010734868190584798,
                        -0.016240516393316452,
                        0.0823596959675826,
                        -0.025565235679629258,
                        0.05335554352014733,
                        0.015146508350345944,
                        -0.04926027917854858,
                        0.0034741239550420897,
                        0.001591072067020434,
