{
    "_comment": "Optimizer_Adam(), fourth dataset, trained on all of the data, epochs 75000, test: 0.261, 0.0101, init weights 0.1, regularized",
    "items": [
        {
            "neurons": [
                {
                    "weights": [
                        0.09891858349079424,
                        0.04967468122524356,
                        -0.01979114704359963,
                        -0.0759143429367117,
                        0.06370895745445213,
                        -0.004349846729039801,
                        0.018332839428641865,
                        -0.03540279711381289,
                        0.054988995430531,
                        -0.0480270845149892,
                        0.03447510591626722,
                        -0.09079320258375694,
                        0.05110286228743367,
                        -0.22667331566219878,
                        0.07379268641657233,
                        -0.007289637704882925,
                        0.1491968739573431,
                        0.024457971798784586,
                        -0.047139109759475446,
                        0.09569250108224832,
                        0.0272565018525345
                    ],
                    "bias": -0.01370953903256687
                },
                {
                    "weights": [
                        1.7929488419372506e-05,
                        2.2004354868032622e-05,
                        0.0003236450860608699,
                        0.0001973407176617084,
                        0.0007042586837074305,
                        0.0005451560119218978,
                        0.0009052421251483074,
                        0.0009486211011519573,
                        0.0010203462750976874,
                        0.0010847850017792146,
                        0.0010810689591004715,
                        0.0011074370371137927,
                        0.0011046165490658237,
                        1.1344485611265672e-12,
                        -2.5694827488541132e-20,
                        -1.94144568524566e-29,
                        -4.139096433145173e-30,
                        -4.6456004907554975e-11,
                        6.02619928732608e-29,
                        0.00014659078531496192,
                        1.4509185571174063e-05
                    ],
                    "bias": -0.001720188781323259
                },
                {
                    "weights": [
                        9.554209245878406e-36,
                        3.096322076540654e-36,
                        2.539837598296639e-35,
                        -2.826072791373759e-35,
                        3.5885183950585326e-35,
                        -4.350788096045697e-35,
                        4.326134929966767e-35,
                        6.144339041653988e-35,
                        5.092439679616463e-35,
                        6.473077195189759e-35,
                        5.682999679932193e-35,
                        6.420039954791655e-35,
                        6.144125581412028e-35,
                        1.3104009764266757e-35,
                        3.01266799728568e-35,
                        -9.415586298033555e-37,
                        2.5517170295663484e-36,
                        -5.880114564737416e-35,
                        9.55527295796443e-37,
                        -4.3223654135455976e-35,
                        6.886804277391012e-36
                    ],
                    "bias": -9.204918554758705e-35
                },
                {
                    "weights": [
                        7.402812421349411e-05,
                        6.358376491343667e-05,
                        6.41994638664093e-05,
                        1.8354171509136263e-05,
                        5.55570365963537e-05,
                        1.9807513084793905e-05,
                        5.3898532417522353e-05,
                        5.504583488757189e-05,
                        5.3890942888172346e-05,
                        6.280762161389096e-05,
                        5.389081873250151e-05,
                        6.31423596091664e-05,
                        5.440825527528973e-05,
                        7.133953049787763e-05,
                        6.081828153149866e-05,
                        -4.67186204633486e-06,
                        -9.035875582227524e-07,
                        7.209963713720599e-05,
                        -1.6381218546335036e-05,
                        -6.236210774446188e-05,
                        7.509162128437866e-05
                    ],
                    "bias": -6.389639403108563e-05
                },
                {
                    "weights": [
                        9.442064355875675e-11,
                        8.593449175448224e-11,
                        6.106077959761517e-11,
                        6.378830149221624e-11,
                        5.950010959422725e-11,
                        5.617873281101455e-11,
                        6.050706582203718e-11,
                        6.47658584680851e-11,
                        6.148039580478351e-11,
                        6.590697980062075e-11,
                        6.273754111459059e-11,
                        6.542887424816824e-11,
                        6.345432808303362e-11,
                        -3.097524922577112e-11,
                        1.1476817585549921e-10,
                        -1.9667488833567343e-12,
                        2.184556238397533e-11,
                        1.201628360031811e-10,
                        6.643797338182155e-12,
                        2.400705733035351e-11,
                        1.2787156492291526e-10
                    ],
                    "bias": -6.535961765701002e-11
                },
                {
                    "weights": [
                        0.08767833906949271,
                        0.07511992820565719,
                        0.03394976622371056,
                        0.0016447620280543866,
                        0.012363792981467092,
                        0.0017247671726411565,
                        -0.01819213559343599,
                        0.040409096239193705,
                        -0.03893530447348271,
                        -0.01448189082911234,
                        -0.04324199997957118,
                        0.009374526954692227,
                        -0.01873124863655377,
                        -0.33774840239362597,
                        -0.008546586440996597,
                        0.004019299694815955,
                        -0.026003196622731706,
                        0.0048269717030377975,
                        0.08246143376477442,
                        0.13329775861641732,
                        -0.1150156731869391
                    ],
                    "bias": 0.011717072464124583
                },
                {
                    "weights": [
                        -1.4701409289123102e-45,
                        7.141768409581172e-43,
                        -1.7737248859488794e-28,
                        -2.5302703042801283e-28,
                        8.717012231911308e-20,
                        1.0033660098832848e-20,
                        3.4100301891296296e-18,
                        4.6079138463418365e-18,
                        1.5346570220823908e-17,
                        2.0299717524710818e-17,
                        3.0612395248345634e-17,
                        2.6761391139382218e-17,
                        3.813928881578568e-17,
                        7.609046855815401e-58,
                        -2.7078784500558248e-39,
                        -4.877132775936709e-59,
                        2.1678220651483287e-58,
                        1.8975293859944178e-47,
                        -5.597920633397919e-58,
                        1.0613384789477107e-24,
                        1.6693105627480934e-46
                    ],
                    "bias": -6.858297122502726e-15
                },
                {
                    "weights": [
                        -1.3946944850021872e-49,
                        6.88346088696288e-47,
                        7.4745654973318565e-37,
                        1.916604370677595e-38,
                        4.9896031590901486e-30,
                        2.6120214965930568e-33,
                        -2.0855550235253704e-27,
                        -2.2904328011304917e-26,
                        -2.848014589378859e-26,
                        3.667703343517288e-25,
                        -2.1474361468958714e-26,
                        6.9334261558952675e-25,
                        2.7427695380020766e-26,
                        -1.8125646670673012e-51,
                        1.058198959816753e-31,
                        1.1918394118617934e-52,
                        -3.4965254088943385e-53,
                        -6.27355150381588e-52,
                        1.3554085604287747e-52,
                        -3.329055911280296e-46,
                        5.073702981379144e-51
                    ],
                    "bias": -2.7458551014553096e-20
                },
                {
                    "weights": [
                        -0.09771357156865347,
                        -0.03436840858228355,
                        -0.10277606137234989,
                        0.02507286517627204,
                        -0.03960290522415579,
                        0.06635335510175874,
                        -0.0038439508800875216,
                        -0.022660597339423452,
                        0.038195926107139684,
                        0.013996543619331952,
                        0.07170437121383431,
                        0.004294310682783179,
                        0.06371657356307209,
                        -0.18952946096999462,
                        0.14863727240730026,
                        -0.046389341152637806,
                        0.018570081508720464,
                        -0.07607302265965224,
                        -0.13526424928868053,
                        -0.1368854867858124,
                        -0.0078353398798035
                    ],
                    "bias": -0.013040685766907612
                },
                {
                    "weights": [
                        7.447277917857464e-14,
                        4.01020446506067e-14,
                        5.298474519890978e-14,
                        5.582190170258662e-14,
                        7.74569049148527e-14,
                        8.744560920454512e-14,
                        1.0597705507040926e-13,
                        1.4148979576788776e-13,
                        1.2439803124900574e-13,
                        1.2781545918411632e-13,
                        1.3265714420001438e-13,
                        1.3324686569455564e-13,
                        1.343771841740452e-13,
                        -8.726466066860376e-15,
                        1.2191386634815886e-12,
                        9.624262228628936e-16,
                        3.1940992938581904e-16,
                        5.040956512105734e-14,
                        -5.79345107947014e-14,
                        3.741873486698073e-14,
                        5.153948846599945e-14
                    ],
                    "bias": -2.410555958544348e-13
                },
                {
                    "weights": [
                        3.429507742374663e-05,
                        0.00016302766076883073,
                        0.001044737998361158,
                        0.0011687318306538525,
                        0.002067253652683335,
                        0.002010392705739291,
                        0.002487017020785588,
                        0.0025128669924699273,
                        0.002686918224000164,
                        0.0026793594116142003,
                        0.0027828536389792693,
                        0.0027196989180349827,
                        0.0028123817522657203,
                        -1.2000208415905463e-12,
                        4.621090908195348e-06,
                        7.490628832240779e-67,
                        8.295514154215683e-68,
                        -0.0005573844101533236,
                        -4.299015824861722e-57,
                        0.002339393131534626,
                        1.4694806549389207e-05
                    ],
                    "bias": -0.003707673347229797
                },
                {
                    "weights": [
                        0.049844959674509706,
                        0.004808870784978912,
                        -0.018343849309883496,
                        -0.026541064185086432,
                        -0.08049369124770266,
                        0.008408913409334412,
                        -0.03271960970797902,
                        -0.06498487589258109,
                        0.016891278280414895,
                        -0.04615384258287179,
                        0.04497019436308626,
                        0.060048862677001345,
                        0.017565471825008463,
                        0.010823687480480864,
                        -0.0003127074106573496,
                        0.012001666513400665,
                        0.017641550668847348,
                        -0.027427147857480134,
                        0.09610192706259474,
                        -0.08984615848956587,
                        0.19288142352540036
                    ],
                    "bias": 0.008002844796216763
                },
                {
                    "weights": [
                        0.003093940653426157,
                        0.006653090809284241,
                        0.0064461797048200355,
                        0.006103596211985352,
                        0.006248401864943532,
                        0.005896264683580881,
                        0.006238410275118721,
                        0.006245246068287448,
                        0.00624760214877901,
                        0.006316579793221977,
                        0.006264240492362823,
                        0.006311906641048114,
                        0.00627860554110842,
                        -0.0025051826649717373,
                        -0.004118931144922222,
                        -0.002212986772500804,
                        -0.005360062293030956,
                        -0.004352460167258992,
                        0.008476926246882259,
                        0.005614165149149904,
                        -0.004171473533337249
                    ],
                    "bias": -0.00630306824115851
                },
                {
                    "weights": [
                        -0.014612945519274818,
                        0.002782258260787969,
                        0.018680025913737262,
                        0.0020762549539335845,
                        -0.002512116308083631,
                        -0.009638674829616622,
                        0.024876511229254192,
                        0.003570792218294932,
                        -0.03830730738469493,
                        -0.013664169125466804,
                        -0.007985603790353686,
                        0.010334562080946096,
                        -0.03107062500677831,
                        -0.18998233059056796,
                        0.5590853408739055,
                        -0.06987564733438505,
                        0.11238350095140995,
                        -0.027995740563107125,
                        1.004428364667186,
                        0.18880418568052285,
                        -0.02380975311886433
                    ],
                    "bias": -0.0005546884096119261
                },
                {
                    "weights": [
                        -7.998394678473686e-20,
                        -3.567815925575689e-18,
                        4.019560097129126e-15,
                        8.145822017015929e-17,
                        2.5624078275185858e-12,
                        2.125473617775894e-13,
                        9.003115921553629e-12,
                        1.8249380564012537e-12,
                        -1.3389756650039296e-12,
                        1.0725158108529749e-11,
                        6.502270898954214e-11,
                        -5.416416428364406e-12,
                        3.878589346893512e-11,
                        1.1945823058220686e-16,
                        -6.559828022882575e-15,
                        -2.2607277035122182e-160,
                        2.1110038151808528e-157,
                        1.766404934923457e-11,
                        -2.011119976289635e-118,
                        2.9583905593957596e-10,
                        6.870626769139442e-16
                    ],
                    "bias": -2.710056082905986e-10
                },
                {
                    "weights": [
                        0.0036198183788590777,
                        -0.006966613815533226,
                        -0.016674665094123353,
                        0.0042139588606839385,
                        -0.0021798228314692802,
                        0.005615203758607521,
                        0.021900213821313328,
                        0.018086275991294126,
                        0.0017324017952268752,
                        0.003848408366582333,
                        0.03173294084084781,
                        0.019259398156911037,
                        0.04391495403438225,
                        0.6001344221374194,
                        0.008677978004787253,
                        0.029975038307169747,
                        0.02416495570233647,
                        0.16808128644540335,
                        -1.1467990097034093,
                        -0.04188069970437894,
                        0.014504187328763284
                    ],
                    "bias": -0.030378097998315867
                },
                {
                    "weights": [
                        0.00412744907737287,
                        0.006241798235253958,
                        0.011262035094620012,
                        0.01134850283900257,
                        0.013951297878888665,
                        0.013643638085320955,
                        0.014753313118740839,
                        0.01486798123201018,
                        0.015108200526737947,
                        0.015198580177503276,
                        0.015267503446991942,
                        0.015270431066758506,
                        0.015317219787742134,
                        -0.00010930500411059984,
                        -0.00022927523266653716,
                        -2.2517140262880283e-19,
                        2.3878581131321787e-19,
                        -0.00809149391483648,
                        -3.195903276849062e-19,
                        0.013219368789510784,
                        0.003290998228267396
                    ],
                    "bias": -0.0168482030018642
                },
                {
                    "weights": [
                        0.00011676906110198852,
                        0.0004454783419931767,
                        0.002178124214861842,
                        0.002247965798960355,
                        0.0035588998685013363,
                        0.0034299728734179915,
                        0.0042254401062259885,
                        0.0048440492302580344,
                        0.004587074392098227,
                        0.005212791027471971,
                        0.004788481179451051,
                        0.005195815829210601,
                        0.004893572577078797,
                        3.8316516296062375e-07,
                        0.0019178119843969524,
                        -1.937859968971497e-41,
                        -9.489953218272897e-42,
                        -0.00013836503079558203,
                        6.870587146072235e-21,
                        0.002010001391519612,
                        0.00013455749813827091
                    ],
                    "bias": -0.006778674323608198
                },
                {
                    "weights": [
                        -0.025153258613264708,
                        -0.24233176835521128,
                        -0.026413248343438785,
                        0.06273350163941896,
                        -0.003362648163514417,
                        0.1287662406654185,
                        -0.0022683030398871437,
                        0.04692918690558692,
                        0.0012151022804539583,
                        0.028787635800360215,
                        0.008936830184803117,
                        0.010018679889551978,
                        0.02099515984733378,
                        -0.008638367583994947,
                        0.01987475281247065,
                        -0.006830924531054447,
                        0.020580728082733427,
                        -0.013492903086261549,
                        -0.06916076010140111,
                        -0.09579971520686856,
                        0.11183003487622663
                    ],
                    "bias": 0.0022180813395987348
                },
                {
                    "weights": [
                        5.3733126916129874e-09,
                        1.1591238059337594e-08,
                        1.0109652034187293e-08,
                        1.1647651745421832e-08,
                        1.1425071543051159e-08,
                        1.179054564717803e-08,
                        1.1738777463858764e-08,
                        1.1806623638201059e-08,
                        1.1836508676265597e-08,
                        1.1865996654995287e-08,
                        1.187111231834126e-08,
                        1.1873529480956848e-08,
                        1.1875598305090097e-08,
                        -2.2079152766776212e-09,
                        -1.012547471005467e-08,
                        1.3702280178170976e-10,
                        7.289688352708521e-10,
                        -1.141241397340093e-08,
                        -4.4464457005544645e-10,
                        1.3267480510291442e-08,
                        1.7181266331807157e-09
                    ],
                    "bias": -1.2101122702719042e-08
                },
                {
                    "weights": [
                        -2.0257866412575497e-20,
                        -1.2764964339788685e-20,
                        1.777744615620416e-15,
                        5.578278110685224e-16,
                        9.97854471209959e-15,
                        5.914760376475485e-16,
                        2.109998749429917e-14,
                        1.1615136597176292e-14,
                        2.7724129917670868e-14,
                        1.7377324346509746e-14,
                        3.06998984737617e-14,
                        2.141239244582062e-14,
                        3.221584942163635e-14,
                        -8.691734843562662e-21,
                        1.3293080253809148e-14,
                        -2.2465230612939783e-21,
                        -2.8517168774508664e-22,
                        -2.663412104703582e-13,
                        1.0106268894207723e-20,
                        5.841560539876464e-14,
                        3.0730595811341375e-16
                    ],
                    "bias": -2.541858022924067e-13
                },
                {
                    "weights": [
                        1.8969498616244876e-25,
                        -4.4356526833486346e-20,
                        2.442498551773296e-13,
                        -4.796055175486161e-13,
                        3.336977790566811e-11,
                        1.9270900039759414e-12,
                        1.3601581414700456e-10,
                        1.5667202688844185e-10,
                        2.3612637093648204e-10,
                        2.5907893645537674e-10,
                        2.8877603932671675e-10,
                        3.0895851789833544e-10,
                        2.9902351339766643e-10,
                        1.4248307137041255e-26,
                        -3.483184856748569e-17,
                        1.0222821627500575e-177,
                        -1.2212182483739757e-175,
                        1.9929727555029928e-13,
                        1.1780045387710052e-151,
                        -2.8611190125677317e-09,
                        -4.84545264694185e-21
                    ],
                    "bias": -3.3635645856968632e-09
                },
                {
                    "weights": [
                        -1.1611669370745817e-35,
                        -1.4887580157090476e-40,
                        3.2277740932341657e-23,
                        2.2924659034237748e-29,
                        2.0585938685675345e-20,
                        3.3036976201160315e-23,
                        1.2007518522844432e-19,
                        1.4086773042186542e-18,
                        1.1032275685245817e-18,
                        1.034643012319671e-17,
                        1.030612211617591e-18,
                        3.533768890843756e-18,
                        1.0848694176338937e-18,
                        1.379878184828987e-24,
                        -1.745803567884075e-26,
                        1.62670444140289e-195,
                        -3.494611766339449e-199,
                        1.7511891374669435e-19,
                        1.4483939755335721e-123,
                        9.448661735631513e-22,
                        4.253357287526724e-28
                    ],
                    "bias": -3.4637388013595666e-16
                },
                {
                    "weights": [
                        -1.1513186720941126e-10,
                        9.360485857607475e-12,
                        2.1561594431921563e-10,
                        2.841524492331102e-10,
                        2.357391678474866e-10,
                        3.219822029247879e-10,
                        2.344822481850311e-10,
                        3.2998281144387627e-10,
                        2.3904029501172513e-10,
                        3.3126611928487565e-10,
                        2.579314010763185e-10,
                        3.2895367985582587e-10,
                        2.7573214796968777e-10,
                        6.971839164408151e-11,
                        2.0604147616965843e-10,
                        9.658168327514455e-12,
                        1.8005952337332788e-11,
                        -3.584660166325467e-10,
                        8.495770516446798e-11,
                        -1.0743506456270948e-10,
                        4.7987357754348755e-11
                    ],
                    "bias": -3.762800962738047e-10
                },
                {
                    "weights": [
                        0.08097010417334811,
                        0.007953035700381349,
                        -0.032739097195907195,
                        -4.737984587004713e-05,
                        -0.021087817529946453,
                        0.009994330072299334,
                        -0.03544511825456119,
                        -0.0073814120445008175,
                        -0.0022461462608020914,
                        -0.0052881396931642385,
                        -0.0009720345171083395,
                        -0.028276092494715476,
                        0.007952472533194088,
                        -0.5625212049604021,
                        0.09660372479414649,
                        -0.11775787902940418,
                        -0.05057184328975749,
                        0.09702573342229,
                        -0.20192849973735746,
                        0.10214789755451972,
                        0.05949631681132171
                    ],
                    "bias": 0.0026078306189579437
                },
                {
                    "weights": [
                        0.018681229491161896,
                        -0.0025992610939764758,
                        0.018264975289193262,
                        0.0173170631038129,
                        0.044701584405747695,
                        0.00693786396529459,
                        0.0344631924217336,
                        0.06553243151193233,
                        -0.04584525475353889,
                        -0.03345740149203992,
                        -0.018846362855190302,
                        -0.011424140062175939,
                        -0.0616577502432636,
                        0.0925714883079667,
                        -0.08979477234107397,
                        -0.031886137586568615,
                        -0.03607488300992424,
                        -0.01706677528392927,
                        -0.04301142177952011,
                        -0.07652305134700405,
                        -0.04815811932654588
                    ],
                    "bias": -0.00894285757655476
                },
                {
                    "weights": [
                        6.839531598430905e-17,
                        4.847738007009757e-17,
                        4.569772509131543e-17,
                        -6.039627705214077e-18,
                        5.1805097134483117e-17,
                        -5.303083127601557e-18,
                        5.647706731407381e-17,
                        6.157341839874051e-17,
                        6.247908618493307e-17,
                        8.105894602230092e-17,
                        6.537125646917974e-17,
                        7.580799958449568e-17,
                        6.73180900875704e-17,
                        -6.994458989302412e-17,
                        2.6706615257376107e-17,
                        -3.542322771915249e-17,
                        -2.0611353923734628e-17,
                        1.9497143788346324e-17,
                        8.51570789192309e-17,
                        -2.7836835850586815e-17,
                        5.558265592875816e-17
                    ],
                    "bias": -9.861672266205857e-17
                },
                {
                    "weights": [
                        0.008995193321761854,
                        -0.002325962175385484,
                        0.01018164156204238,
                        -0.0021729786233376782,
                        0.010306673439530515,
                        0.0014499636945874898,
                        0.008930111350273037,
                        0.008760071617893278,
                        0.007737761282603969,
                        0.013771271966993565,
                        0.006889572642389378,
                        0.01454426486363161,
                        0.006224324798604251,
                        0.0068197470953410555,
                        -0.013470550484666069,
                        -8.185381912257951e-17,
                        -5.052142708883126e-25,
                        -0.007516970980192974,
                        1.6185077856154745e-06,
                        -0.01862368293672794,
                        -0.005329650566861109
                    ],
                    "bias": -0.011558647957559202
                },
                {
                    "weights": [
                        0.0068827328803720365,
                        -0.0003365971896834692,
                        0.0033148883061236392,
                        0.0018526237374167902,
                        0.002427843010901173,
                        0.005887033418629415,
                        0.0034853344199969453,
                        0.006795173936089102,
                        0.0041198910593481675,
                        0.006496905071481488,
                        0.004546454348314149,
                        0.006418538933914542,
                        0.004801664790642785,
                        -0.005519528638398915,
                        0.004570883727851769,
                        -4.657826781686927e-49,
                        -2.3172899797185668e-45,
                        0.013475114318290397,
                        -1.5403483452291387e-41,
                        -0.0037384628564192117,
                        0.0023289321302337614
                    ],
                    "bias": -0.006384074379576162
                },
                {
                    "weights": [
                        -0.00408965518065169,
                        0.017490331210274077,
                        0.020854871193994685,
                        -0.003565788917508297,
                        -0.02068114837484654,
                        -0.01143400244674614,
                        0.052351919695643206,
                        0.007904355741294557,
                        -0.007440118539440904,
                        -0.0022781546436587644,
                        0.009920290341433116,
                        0.0005532696096979371,
                        0.005034110115770239,
                        -0.33648527416059076,
                        -0.2122722278815841,
                        -0.14068251098125992,
                        -0.0972335178649603,
                        0.37715377195552197,
                        -0.6823728515592711,
                        0.07977788044167808,
                        -0.01601935773626897
                    ],
                    "bias": -0.012895019225061314
                },
                {
                    "weights": [
                        0.005668860757533034,
                        0.008179057530441677,
                        0.012344882871367632,
                        0.013128865807879649,
                        0.014232935456670648,
                        0.014503141334072597,
                        0.014711600457708937,
                        0.014141318347406551,
                        0.01488455633357232,
                        0.014412358005684963,
                        0.014953655119861655,
                        0.0145014691451644,
                        0.014942425140577205,
                        -0.0024686002370519,
                        -0.0040826990229387685,
                        -1.32467234879968e-41,
                        -1.3827360501777925e-41,
                        -0.019986237568063732,
                        1.6112141074338077e-08,
                        0.020947549296986,
                        0.0037089473728748983
                    ],
                    "bias": -0.01536458364474833
                },
                {
                    "weights": [
                        0.10592517824582647,
                        -0.021498846414285417,
                        -0.027208477065933812,
                        -0.021810839729649454,
                        -0.002492421097741663,
                        -0.004688377239238305,
                        -0.009591083125915422,
                        0.039515893952426835,
                        0.018464189010776122,
                        -0.043819951252070534,
                        -0.048823939077650834,
                        0.008771449393930127,
                        0.00015698085880657078,
                        0.09277563229688829,
                        0.18111508054528008,
                        -0.015627980484811087,
                        0.07367301009482094,
                        0.29414552454302484,
                        -0.23322424446129053,
                        0.13904582877306904,
                        0.017630633866056143
                    ],
                    "bias": -0.009830960286952016
                },
                {
                    "weights": [
                        5.669301375437773e-22,
                        -2.2523239116113656e-22,
                        3.050853277161126e-21,
                        3.351296961704706e-21,
                        4.437129140243962e-21,
                        4.341220720155233e-21,
                        4.8101341807153786e-21,
                        4.67213911210476e-21,
                        4.9649943640636045e-21,
                        4.806556721442406e-21,
                        5.031197447887886e-21,
                        4.8526546240080524e-21,
                        5.043570157233024e-21,
                        3.305694513727638e-22,
                        -4.913972151174669e-21,
                        5.521946527016493e-23,
                        5.962831169952108e-22,
                        -5.576937811240412e-21,
                        4.910334330982303e-22,
                        5.67502666176769e-21,
                        2.244783236775497e-21
                    ],
                    "bias": -5.656332136747777e-21
                },
                {
                    "weights": [
                        -0.005759142137574752,
                        -0.044258548457447,
                        -0.048939528234980524,
                        0.038233199386611544,
                        0.0024822072492988296,
                        -0.017544456763257086,
                        0.03475080115789157,
                        -0.024621465279200967,
                        0.03199066003889452,
                        0.003729639809014478,
                        0.04355387681033477,
                        -0.0057035373025706914,
                        0.047927520269846424,
                        -0.31845839262628906,
                        -0.01006446826428982,
                        -0.04275502436241089,
                        0.035246824381243755,
                        0.14619803701743306,
                        -0.19194460324913276,
                        -0.01796205418526837,
                        0.09335305398512868
                    ],
                    "bias": -0.019397533536995033
                },
                {
                    "weights": [
                        4.6924833985602e-30,
                        -2.468704803133662e-30,
                        1.2113917176460236e-30,
                        1.0678262461413127e-30,
                        2.9746405784669453e-30,
                        2.9309555232247935e-30,
                        3.0523160928686955e-30,
                        3.0062174532819532e-30,
                        3.2139328691694674e-30,
                        3.614732393452681e-30,
                        3.545607067290623e-30,
                        3.9264653822376515e-30,
                        3.760466476189335e-30,
                        -1.1369775989328348e-30,
                        3.1905709645302414e-30,
                        3.8515221140239668e-31,
                        -1.5157605705588917e-31,
                        6.1673035312254596e-30,
                        -5.389753175748683e-31,
                        -6.347671889536252e-30,
                        4.908062839314512e-30
                    ],
                    "bias": -6.178042157413312e-30
                },
                {
                    "weights": [
                        -0.008216262295070689,
                        -0.011916075212028174,
                        -0.02773982668230465,
                        -0.015370972733605673,
                        -0.022739365748395458,
                        -0.016267595162006983,
                        -0.01919733093182715,
                        -0.02987639662263965,
                        -0.03531227800623066,
                        -0.064212003826029,
                        -0.05861630891093656,
                        0.002791744002038249,
                        -0.0465653932402905,
                        -0.13300392444985085,
                        0.41190843583214864,
                        -0.011430083482273878,
                        0.065195059784357,
                        -0.19225451216416675,
                        -0.8164676423131725,
                        0.08015413937955998,
                        -0.030510130455245376
                    ],
                    "bias": 0.023391926190213283
                },
                {
                    "weights": [
                        1.197874474217442e-16,
                        1.712146488508401e-20,
                        1.2880887903070076e-13,
                        2.172299707331214e-20,
                        2.3283795859276746e-12,
                        2.181639884539162e-14,
                        8.228040102837304e-12,
                        3.351034162906044e-11,
                        1.699985495611729e-11,
                        9.470982751562164e-11,
                        2.4725152613431938e-11,
                        1.0418646423116993e-10,
                        2.891216748868982e-11,
                        -1.6677302008771216e-49,
                        5.685492693402284e-15,
                        -2.4461882329322553e-91,
                        -6.264102212625431e-91,
                        8.27760970978019e-22,
                        -1.6155666682869893e-90,
                        -1.0596321330934082e-90,
                        1.3740294542157463e-15
                    ],
                    "bias": -1.1138555568828782e-09
                },
                {
                    "weights": [
                        -0.0957224436141331,
                        -0.022019075160425845,
                        -0.04109958955681942,
                        0.015217753592826443,
                        0.004560294091611571,
                        -0.01664665258008355,
                        0.08142223898357646,
                        -0.01731974624388367,
                        0.006233574823236914,
                        -0.02103397286749728,
                        0.0833090586905319,
                        -0.05599787363291451,
                        0.00799454805654781,
                        0.17946873831545634,
                        -0.290598388096356,
                        0.03047426204434206,
                        0.00046753280369041337,
                        -0.26828751947310986,
                        0.0275975274862084,
                        0.004512123571914229,
                        0.04066725733620966
                    ],
                    "bias": 0.0022786189073353467
                },
                {
                    "weights": [
                        -4.1944022377788776e-23,
                        1.2363850072245043e-22,
                        1.0105861389956308e-22,
                        2.769805435288833e-22,
                        2.914046539126343e-22,
                        3.051087340543709e-22,
                        3.2513953789938483e-22,
                        3.146885568854503e-22,
                        3.3458900622901037e-22,
                        3.5717584264755217e-22,
                        3.391617412159498e-22,
                        3.6641946950313844e-22,
                        3.416546760822233e-22,
                        3.5601737795847024e-24,
                        -2.775630408687322e-22,
                        1.052979489012707e-24,
                        3.713078135241185e-23,
                        -3.2807637958851607e-22,
                        -2.9364345713817414e-23,
                        3.444868888820015e-22,
                        3.3198038579273536e-23
                    ],
                    "bias": -3.960721058364595e-22
                },
                {
                    "weights": [
                        -4.0226499616966415e-09,
                        6.670100950330505e-10,
                        4.8588742303671125e-09,
                        9.859304758699484e-09,
                        1.6005246827999514e-08,
                        1.7956127929627477e-08,
                        2.2647548857199662e-08,
                        2.2884637232372183e-08,
                        2.6333635595372804e-08,
                        2.43584224444249e-08,
                        2.8068669371191353e-08,
                        2.4983620982098133e-08,
                        2.866645472390583e-08,
                        1.8615076844066957e-09,
                        -2.1190116190244427e-07,
                        1.8727830211715652e-10,
                        -6.086357385151958e-10,
                        -8.985930550174408e-09,
                        8.420021989235372e-10,
                        2.340713502572849e-08,
                        5.398220931358109e-09
                    ],
                    "bias": -5.2126292457768574e-08
                },
                {
                    "weights": [
                        0.08229091077150144,
                        0.11134779650560882,
                        -0.008384988505592168,
                        -0.01628888819040395,
                        0.028803088833773877,
                        -0.014771553956084512,
                        0.0012626054178968473,
                        0.048075321069156275,
                        -0.007115408678849153,
                        0.01696992173315756,
                        -0.03267344717722977,
                        0.034094190246882414,
                        -0.04186144767468394,
                        0.03631148665579632,
                        0.0695220363052186,
                        0.0002733093225287532,
                        0.0008510369245688582,
                        -0.029258992263745127,
                        0.11974714881750645,
                        0.010123029804808933,
                        -0.13935774754568905
                    ],
                    "bias": -0.050459516521973356
                },
                {
                    "weights": [
                        -5.068148908020499e-25,
                        3.0999210648241274e-13,
                        2.2667933588010183e-08,
                        9.147126708793805e-08,
                        8.806084600219637e-07,
                        8.063527765787852e-07,
                        2.0730896527824203e-06,
                        2.029193555949847e-06,
                        2.9296070219307675e-06,
                        2.610708255446434e-06,
                        3.4193652144506123e-06,
                        2.7966022554488943e-06,
                        3.5662098989184687e-06,
                        -8.96776354683959e-28,
                        -8.048363788246767e-09,
                        -6.738064247934313e-29,
                        2.0874724792609694e-28,
                        -4.12116771451024e-07,
                        -2.578424624332135e-28,
                        5.912553797617324e-06,
                        -5.795338635121665e-28
                    ],
                    "bias": -1.1108547242121385e-05
                },
                {
                    "weights": [
                        -0.008701654766628378,
                        0.04538414825730267,
                        0.003219988422632998,
                        0.014783741016042004,
                        0.009155131135273355,
                        0.005601813884185411,
                        0.008197488830455906,
                        0.005536609538610293,
                        0.008532959540224878,
                        0.00395413172927094,
                        0.008915567545230435,
                        0.003968303129320652,
                        0.009066634279426004,
                        -0.036523366360331044,
                        0.05779557560355467,
                        -0.004775561001647291,
                        -0.0022908547741755294,
                        0.05387895657899456,
                        0.014758387440777655,
                        -0.009384188734222258,
                        0.078911885137071
                    ],
                    "bias": -0.007005318348314644
                },
                {
                    "weights": [
                        -1.4044871847620865e-47,
                        -1.4922492936910569e-46,
                        1.5461565033433266e-38,
                        -1.7368167539908346e-39,
                        2.3769793506187643e-32,
                        -2.338593881403757e-33,
                        -9.720526343427962e-30,
                        -6.999475703827332e-30,
                        6.420374969893783e-29,
                        4.13927533451723e-29,
                        3.8232562266479918e-28,
                        1.1934923156163636e-28,
                        5.561455372736093e-28,
                        1.4040126851711354e-46,
                        1.7520308917123669e-44,
                        1.302641449444048e-47,
                        -2.226705495025183e-47,
                        -4.133463577240504e-44,
                        4.0775254582721843e-47,
                        -1.0254384179206279e-35,
                        1.3234037891167895e-46
                    ],
                    "bias": -1.2585750101529788e-23
                },
                {
                    "weights": [
                        5.024306773810147e-23,
                        1.2555577164792073e-27,
                        8.672435540608952e-22,
                        3.953978226478779e-41,
                        5.219358380178251e-21,
                        -4.243473913386901e-28,
                        4.5017875513226165e-20,
                        2.7044784468007742e-18,
                        2.334578050178569e-19,
                        3.0161480710026964e-17,
                        6.496518852138092e-19,
                        3.231663185754541e-17,
                        1.250908699013553e-18,
                        1.691486658761909e-69,
                        1.4388634641108078e-25,
                        -8.884423195507596e-215,
                        -3.2613814769254907e-203,
                        -1.88494143411431e-15,
                        4.1734600753212557e-103,
                        -3.650646760089389e-35,
                        2.064351659560527e-23
                    ],
                    "bias": -2.1742061051055297e-15
                },
                {
                    "weights": [
                        2.3654210990220893e-23,
                        1.0238113377921572e-13,
                        1.658997862350766e-07,
                        -5.445491948644132e-07,
                        2.0849060711964454e-06,
                        1.6963051604047668e-06,
                        3.473720388763403e-06,
                        5.515014911916412e-06,
                        4.340587632240019e-06,
                        6.151752448871137e-06,
                        4.1677404613804026e-06,
                        6.817215233035779e-06,
                        3.2730812770807678e-06,
                        1.0767126423407655e-16,
                        1.5330533905561899e-06,
                        -6.467558376422029e-182,
                        -1.1908485791736761e-127,
                        1.5623571589590745e-05,
                        1.1803372741615172e-116,
                        -1.2716370072058889e-05,
                        4.522957708860094e-13
                    ],
                    "bias": -1.624576356230108e-05
                },
                {
                    "weights": [
                        0.03293923289434873,
                        0.03890648708398928,
                        -0.005909364877500215,
                        -0.011863580700584459,
                        0.04396752341167036,
                        -0.017795273075177996,
                        -0.05556465771393038,
                        -0.008467264666685367,
                        0.014463819838380082,
                        0.10175120389413471,
                        -0.018076395076662418,
                        -0.018811339815348417,
                        0.027800118752239922,
                        0.09341776317247284,
                        0.3693631860412183,
                        -0.0217590005631762,
                        0.08872092202711286,
                        0.06716215881135666,
                        0.5975210580179248,
                        -0.15872958355449712,
                        -0.026091284694297008
                    ],
                    "bias": 0.017198307497580403
                },
                {
                    "weights": [
                        -9.140831331117631e-28,
                        -1.8737998386171568e-27,
                        3.673330974330851e-15,
                        1.497590807276554e-13,
                        3.6402549463180007e-11,
                        3.3958848747344473e-11,
                        2.430339466998047e-10,
                        2.0649105411885107e-10,
                        5.073197975863918e-10,
                        3.574590191891195e-10,
                        6.986159903301669e-10,
                        4.196129108274688e-10,
                        7.586692323168669e-10,
                        1.301727428127955e-29,
                        -5.9295770631398825e-27,
                        2.5071793899308102e-30,
                        9.614190481283407e-30,
                        -1.2078034062845908e-11,
                        -1.5926070016226751e-28,
                        3.5992642546958815e-09,
                        -5.77465005683838e-28
                    ],
                    "bias": -8.080581142241429e-09
                },
                {
                    "weights": [
                        -0.03404707614412421,
                        0.020426659751930525,
                        0.006112559084083474,
                        0.018486895194180095,
                        0.017356735259599364,
                        0.005189170837735361,
                        0.014262210687201333,
                        -0.03012899057336516,
                        0.0432917187051289,
                        0.06175197977015234,
                        0.08903140267169765,
                        -0.06245338138324826,
                        0.06765063196983308,
                        0.28622391907390227,
                        0.45149738731789435,
                        0.012652315519890645,
                        0.07138943902484102,
                        0.3271948638099197,
                        -0.5728926547511228,
                        0.08178305998714072,
                        0.047187997711595
                    ],
                    "bias": -0.028841956704544397
                },
                {
                    "weights": [
                        -0.002279405005536843,
                        0.008943253356723852,
                        -0.010194225549048006,
                        0.021684069439746875,
                        0.006190222914425339,
                        0.0057394309330180875,
                        -0.0023354930731015466,
                        0.0014056267043554497,
                        -0.004938504906007691,
                        0.005437949640705963,
                        -0.0063044662091363765,
                        0.007111225110565384,
                        -0.006953158520931861,
                        -0.0007835705820739438,
                        -0.007831333245896504,
                        0.005843814085199287,
                        -0.020145218079201895,
                        0.06204410197628232,
                        0.06783763531061067,
                        -0.0160670673006396,
                        0.032047092824096006
                    ],
                    "bias": -0.0007566179359597904
                },
                {
                    "weights": [
                        0.06608158426261491,
                        -0.04994055892953496,
                        0.003964235170211292,
                        -0.015751518072288896,
                        0.005782641825887493,
                        0.0009228500803599916,
                        -0.001475206729224051,
                        -0.0028505313246907824,
                        -0.002700601323728573,
                        0.0018829118558279746,
                        -0.0030955650670591328,
                        0.0043459522643015955,
                        -0.003956410174437802,
                        0.03165626958924175,
                        0.016991472620467275,
                        0.04923902443390446,
                        0.005010382162148645,
                        0.08601365784506272,
                        0.2830391176785331,
                        -0.032509468670598604,
                        -0.010202603440890521
                    ],
                    "bias": -0.0021848038004140115
                },
                {
                    "weights": [
                        -1.631188762166066e-48,
                        9.179563100358567e-43,
                        1.1703791129722319e-20,
                        7.594804394643049e-22,
                        4.691829151616231e-17,
                        1.592766263802319e-18,
                        4.069530688670037e-16,
                        3.911325690431383e-16,
                        1.1130541522914061e-15,
                        9.462968292639435e-16,
                        1.8049275475140717e-15,
                        1.1668137901815357e-15,
                        2.1693256252289062e-15,
                        -1.1710875058097976e-24,
                        9.29537337762061e-15,
                        -4.4536040568425963e-128,
                        9.460015948824617e-128,
                        5.502416201913623e-14,
                        -3.456446963886119e-123,
                        -1.223714062757695e-14,
                        3.11121985026477e-29
                    ],
                    "bias": -1.1463784987185234e-13
                },
                {
                    "weights": [
                        4.361505189836379e-27,
                        4.194776017597049e-27,
                        3.775707847787333e-27,
                        3.52699453389973e-27,
                        3.8334493234438066e-27,
                        3.733616028899458e-27,
                        3.873028414495455e-27,
                        3.836107197331076e-27,
                        3.89133735619996e-27,
                        3.851785631443823e-27,
                        3.899290398314527e-27,
                        3.8548128757377495e-27,
                        3.901099261250308e-27,
                        1.8397064488114034e-27,
                        -2.3416723190283753e-28,
                        -5.5369034699276595e-28,
                        2.1115259474315595e-29,
                        -3.222263376956004e-27,
                        1.9702927781093366e-29,
                        1.899548061523696e-27,
                        5.3985827178076216e-27
                    ],
                    "bias": -7.74108076997781e-28
                },
                {
                    "weights": [
                        -1.793539017023479e-08,
                        1.3982274428329979e-06,
                        5.348260812085772e-07,
                        1.675335486606961e-06,
                        7.587467480480905e-07,
                        1.023514637025326e-06,
                        9.982242444075312e-07,
                        1.2580497366234174e-06,
                        1.1023847129717315e-06,
                        1.3066795353121733e-06,
                        1.146160767636841e-06,
                        1.3104855254466412e-06,
                        1.1590735198438615e-06,
                        -4.33255363270416e-07,
                        1.829637365203157e-07,
                        -2.0873618944463947e-08,
                        1.4309291776101774e-07,
                        -1.8950046170180407e-06,
                        -2.9542511409417516e-08,
                        2.031691912948786e-06,
                        -3.3060947298797744e-07
                    ],
                    "bias": -1.2116531040528725e-06
                },
                {
                    "weights": [
                        0.004763222725672671,
                        0.006963243195945733,
                        0.009965555100247249,
                        0.010628944161951773,
                        0.011928257626440337,
                        0.012118804018781215,
                        0.01253430761360016,
                        0.01265057595750127,
                        0.012789642280972607,
                        0.012829361756039435,
                        0.012906135994697523,
                        0.0128718468249979,
                        0.012941061548523269,
                        -0.0004731226931524997,
                        7.010736161964798e-06,
                        1.3892183401559022e-41,
                        -2.0084566534884938e-42,
                        -0.008381812145333635,
                        1.0786510185268349e-16,
                        0.013162144706543123,
                        0.005717658970902603
                    ],
                    "bias": -0.013846624330143874
                },
                {
                    "weights": [
                        0.0006480196090360228,
                        -0.04258862718462932,
                        0.02296875813359849,
                        -0.027278910090790198,
                        -0.01641910767593387,
                        -0.007160938686210689,
                        -0.028300178176668644,
                        0.012024624462661861,
                        -0.019680997815055057,
                        0.05201710340074328,
                        -0.00616490311298716,
                        0.05578731201959836,
                        -0.020395259158980397,
                        -0.20094839347789303,
                        -0.06421612494971206,
                        -0.005018898272079965,
                        -0.00013950616546674915,
                        0.02404505998540517,
                        -0.14670085208372138,
                        0.26829815760888326,
                        0.18276295285486188
                    ],
                    "bias": -0.003958225837228841
                },
                {
                    "weights": [
                        0.005640226436616906,
                        0.016400238907329914,
                        0.042003711513857414,
                        -0.009888346377579687,
                        0.020829307572699105,
                        -0.005397457039811251,
                        0.008138741416070778,
                        0.0014989752444843258,
                        0.004209271583593097,
                        0.004800158326448478,
                        0.0019446172917628184,
                        0.007795096949690656,
                        6.619456170279692e-05,
                        -0.006848252877798506,
                        -0.03809824074970428,
                        -0.0032269039977303156,
                        -0.007902424890937345,
                        0.04676901921803532,
                        0.04388408515987093,
                        -0.028955844152205458,
                        0.013455103202841509
                    ],
                    "bias": -0.0038821015329183876
                },
                {
                    "weights": [
                        -0.09804208673643708,
                        0.00444980940711768,
                        0.049988245648274365,
                        0.0030626077547792783,
                        -0.010438025442806241,
                        -0.038574289551484044,
                        0.014453332455237472,
                        -0.015338069706260563,
                        0.016473479726241264,
                        -0.018522566349122742,
                        0.018110681928430652,
                        -0.027498658990875353,
                        0.05137855172853616,
                        0.021894889739216404,
                        0.12054597504947792,
                        -0.0013711688049558338,
                        0.0388367498625083,
                        0.06213134558006133,
                        0.010030891862076365,
                        0.0395377228588356,
                        -0.13445515598924473
                    ],
                    "bias": -0.015666894652426926
                },
                {
                    "weights": [
                        0.08707520420363642,
                        0.048192453800006085,
                        0.031747389485280116,
                        0.02810703592859449,
                        0.09825031759092909,
                        0.0032360506009115075,
                        0.010521346148181796,
                        -0.010254968409513274,
                        -0.005534650678533492,
                        -0.04867114492936875,
                        -0.006944784713773974,
                        0.028001096035306042,
                        -0.041175832204786336,
                        0.2748510460245557,
                        -0.026447969762936934,
                        -0.00436867612289838,
                        -0.005006085378265728,
                        -0.07475490608358024,
                        0.1432217924503716,
                        0.23020510805210678,
                        -0.03074034868201877
                    ],
                    "bias": 0.018682035108803625
                },
                {
                    "weights": [
                        0.10929952620148434,
                        0.005708962265355944,
                        0.07393919389913588,
                        0.00809552941833365,
                        0.0410077951215199,
                        -0.008180202311838058,
                        0.004233448155362654,
                        0.03692823915529598,
                        -0.0591727774671569,
                        -0.014525092195410035,
                        -0.06448845272821073,
                        0.008986669144778775,
                        -0.07470368859900813,
                        0.024604045446992975,
                        0.19646573573053766,
                        0.01888747262188597,
                        0.0504873426574571,
                        -0.13159213497001002,
                        0.08033901053414921,
                        0.01654610770925855,
                        -0.0367441701653134
                    ],
                    "bias": -0.005879322415238706
                },
                {
                    "weights": [
                        -0.061876325818093304,
                        -0.05447681531473147,
                        -0.08762916789155635,
                        0.007096069600334156,
                        -0.04231964002984447,
                        0.009959157470107383,
                        0.040585578341188346,
                        -0.0002704914255052364,
                        0.08036451725887718,
                        0.032793329258469554,
                        0.023709150652941463,
                        -0.0025184954735843145,
                        0.009722313993104904,
                        0.38619079321623273,
                        0.13145221204681276,
                        0.03873504701756426,
                        0.017632569123716926,
                        0.2112078786013135,
                        -0.05141698955710755,
                        0.3900497225770125,
                        0.22106620825026638
                    ],
                    "bias": 0.01727331778363534
                },
                {
                    "weights": [
                        -0.017367973178430366,
                        -0.03341107080575436,
                        -0.03290522925751487,
                        -0.004357075937204205,
                        -0.01998594968240496,
                        0.047076668143023644,
                        -0.00650421858436318,
                        0.03412349896113181,
                        -0.0011621108199519718,
                        0.006149456004337315,
                        0.011646833252635378,
                        -0.0028503557137189235,
                        0.011198043694715906,
                        0.017223873998084144,
                        0.03887647814140208,
                        -0.006117964491204848,
                        0.03051449896943011,
                        -0.01715031650704581,
                        -0.018708312032506298,
                        -0.04519668699674157,
                        0.10859251774781782
                    ],
                    "bias": 0.003092946669141986
                },
                {
                    "weights": [
                        2.2039798782851575e-06,
                        1.113642434545148e-05,
                        0.00021650925659425757,
                        0.00014211342707319926,
                        0.0005326243406397244,
                        0.00040378742684737994,
                        0.0006952724212304555,
                        0.0007470772125443145,
                        0.0007866617511088312,
                        0.0008631374389311741,
                        0.000834603323613635,
                        0.0008803484041503363,
                        0.000852646862644347,
                        -3.119163181667851e-17,
                        -4.949889251877235e-18,
                        7.18073383195701e-44,
                        -9.490163345248936e-44,
                        -1.0055702458504224e-07,
                        -1.8312659948603135e-43,
                        6.649007712276231e-05,
                        1.7432766332901732e-07
                    ],
                    "bias": -0.0013962290182512784
                },
                {
                    "weights": [
                        0.00010630823615775341,
                        6.578107139608315e-05,
                        0.0001038788318438973,
                        0.0001211998408876083,
                        7.432402025777228e-05,
                        2.0031883504580282e-05,
                        7.015227148929416e-05,
                        9.824401802913937e-05,
                        -2.3812716285169024e-05,
                        0.00014008732557160963,
                        -1.4507818737770792e-05,
                        0.00046606405156734477,
                        -9.360933532822735e-07,
                        -1.582428866757862e-06,
                        9.492361666315797e-06,
                        2.5452287942850745e-07,
                        2.702876028306972e-06,
                        -0.0002509375260476217,
                        5.868719158409772e-05,
                        -5.788467377811741e-05,
                        0.00011562160107076958
                    ],
                    "bias": -0.00019872385819536535
                }
            ]
        },
        {
            "neurons": [
                {
                    "weights": [
                        0.09482868376932868,
                        0.002123837969265137,
                        4.4769489289444464e-35,
                        -2.28288769792529e-06,
                        -6.926346424225604e-11,
                        -0.005045756846946613,
                        -1.0391727745015742e-47,
                        -2.586788843426654e-51,
                        0.002243795635409058,
                        -1.8224581355066138e-14,
                        0.005233524681497229,
                        -0.05374222220942011,
                        0.0038863962325998373,
                        0.030296396650296403,
                        1.2186982887451025e-07,
                        0.1901961647936706,
                        -0.004262130630491336,
                        0.0019368332496288022,
                        -0.058890966941842725,
                        3.6881045869853354e-09,
                        -2.501026932798019e-16,
                        -1.9972530780490603e-16,
                        4.486603743126723e-50,
                        1.0344308583096462e-11,
                        0.1891962244663406,
                        0.0543647552199768,
                        2.9182691690945805e-16,
                        0.00832555426153732,
                        0.013719948768191652,
                        0.13104009183687854,
                        0.011467700508348914,
                        0.15054442456006983,
                        -3.5238704393324906e-22,
                        0.04087504501372102,
                        -2.82339616298058e-30,
                        0.04603825202483043,
                        -3.450313493011528e-14,
                        -0.2840492668456252,
                        -1.2561315389499562e-23,
                        1.9585119001407917e-07,
                        0.09796157119204744,
                        1.182475658444861e-12,
                        0.017020078348605985,
                        2.6192595044630234e-08,
                        1.6594124680281559e-121,
                        2.0997905962253516e-08,
                        -0.1689860282556239,
                        0.000891537191288932,
                        0.20449858142397614,
                        -0.0007725927882403553,
                        -0.034513041659418535,
                        1.1993319062667235e-14,
                        -1.5100108452837906e-27,
                        3.6867619654444644e-06,
                        0.015084994665948167,
                        -0.30606521299983724,
                        -0.012868869953695721,
                        0.09804651236989693,
                        0.01668486014119345,
                        -0.01385252201748192,
                        0.08525864632951508,
                        0.01404967626144101,
                        -0.0004939693833658074,
                        -7.166617985398651e-05
                    ],
                    "bias": -0.06644470012781921
                },
                {
                    "weights": [
                        -1.7850322744798615e-114,
                        1.172341e-317,
                        2.546323e-317,
                        -3.6038863e-317,
                        -2.3035545310816944e-207,
                        3.541267165182778e-85,
                        1.4375136e-317,
                        -4.872262355893722e-228,
                        -2.601291638584438e-68,
                        -1.1599273e-317,
                        -1.3128126513992948e-214,
                        1.8850923920515044e-106,
                        -5.95074e-318,
                        -6.511265683633125e-113,
                        -1.6183595286217317e-198,
                        1.989453092771738e-130,
                        -1.023212554243584e-198,
                        1.1117243e-317,
                        1.8566170666908728e-141,
                        7.466268e-317,
                        4.012642342461947e-201,
                        3.4417337775945496e-200,
                        -3.0720325e-317,
                        -3.3430893e-317,
                        -7.222558185469297e-44,
                        1.8718857782500316e-138,
                        2.737195e-317,
                        -1.16382e-317,
                        -1.7718024e-317,
                        -4.733694648711616e-71,
                        -4.898479e-317,
                        4.239315478253416e-124,
                        4.3682014e-317,
                        1.7842342090164292e-85,
                        2.1430774e-317,
                        -4.0975420939829195e-39,
                        3.989599e-317,
                        2.231166771319808e-183,
                        -1.3469865e-317,
                        5.2042014e-317,
                        -6.038734746289758e-199,
                        -9.8080287e-317,
                        1.090954e-317,
                        1.5711564e-317,
                        2.759962e-317,
                        -2.914633e-317,
                        -3.532724476343288e-102,
                        9.7788896e-317,
                        2.653207841122937e-102,
                        -1.7263923e-317,
                        -3.7068797e-317,
                        -4.59762e-317,
                        -1.9533169545620617e-229,
                        1.0838244e-317,
                        1.0092635e-317,
                        3.711668885179402e-136,
                        -1.7921276369705452e-105,
                        -2.0101860230320084e-176,
                        3.112299754088021e-198,
                        -2.831962094352965e-172,
                        -3.1459697109080753e-152,
                        4.38945659259896e-173,
                        1.2942134e-317,
                        5.166935519811566e-198
                    ],
                    "bias": -1.0389430066731799e-19
                },
                {
                    "weights": [
                        0.06889649952773633,
                        9.653956131608813e-12,
                        1.784778947522159e-35,
                        6.696179142176013e-06,
                        2.967225510985548e-12,
                        0.043884113909419736,
                        3.383376742256834e-58,
                        -2.3383483436189715e-52,
                        -0.01862144950992572,
                        5.0371691838868025e-14,
                        9.160601997853427e-10,
                        -0.07079326164458001,
                        0.005709688026720875,
                        -0.0027758761845269302,
                        -1.00096603757515e-310,
                        0.06922616699228536,
                        -3.245748119782818e-05,
                        -7.625957262962973e-06,
                        -0.02685457292539388,
                        1.318590291450837e-09,
                        2.374317210679117e-20,
                        1.0507146e-317,
                        -8.7075369482097e-311,
                        -2.9350470631338566e-12,
                        0.029072403840569423,
                        0.03584405793015006,
                        -1.3771520843905672e-16,
                        -3.8071521779556113e-90,
                        -1.280288502680715e-88,
                        -0.049693786956846016,
                        3.5179105821951063e-06,
                        0.0010463127408576781,
                        5.953520979330875e-25,
                        -0.049586515634773086,
                        -5.14689369425731e-32,
                        0.0032146814344979654,
                        -1.515844336204113e-98,
                        0.03967487540566569,
                        1.452167241724683e-23,
                        -7.735246003706154e-10,
                        0.008261629857284594,
                        -2.1005520587700205e-28,
                        -0.007728949388462698,
                        1.7432137700069701e-46,
                        4.8119044e-317,
                        1.51972323430713e-222,
                        -0.06950367134439436,
                        -7.2663365385914085e-28,
                        0.03172167851490912,
                        0.010942433822098337,
                        0.017255604296099316,
                        2.9789747e-317,
                        -6.706034850083393e-30,
                        -3.721267275080572e-08,
                        4.2513722427029485e-05,
                        -0.022561350722074085,
                        0.005082434924991459,
                        -0.007641806711339625,
                        0.06473747526158917,
                        -0.009083512011964744,
                        -0.029404127212572847,
                        -0.009789258789500125,
                        -5.942468874480258e-34,
                        -2.868786024202443e-05
                    ],
                    "bias": 0.001116053844918512
                },
                {
                    "weights": [
                        -6.472627169055988e-42,
                        1.0577580599948017e-74,
                        -1.5107798936287726e-79,
                        5.78583e-318,
                        -4.5373843e-317,
                        -8.057740668667549e-30,
                        8.527974510921173e-297,
                        2.262689943295092e-92,
                        -1.1615436841107553e-18,
                        5.264159055379204e-52,
                        -1.4987985e-317,
                        -9.646381414381362e-13,
                        -5.9368934e-317,
                        -1.6905678314582889e-10,
                        1.742560160521323e-227,
                        -2.93240466911464e-12,
                        2.1451550435653065e-266,
                        7.146427224114174e-88,
                        6.943964073500934e-42,
                        8.452141997638967e-297,
                        8.112877420685167e-80,
                        -3.6582424e-317,
                        -5.289496825102338e-277,
                        -2.253517e-318,
                        -9.502682019312524e-09,
                        -6.40505446664038e-39,
                        -3.5415606274838187e-242,
                        -3.4358565e-317,
                        -2.639616e-317,
                        -1.3148368537797092e-10,
                        9.400253086326329e-44,
                        -1.3328290153095298e-10,
                        -4.271689126355567e-185,
                        -6.052520492954849e-18,
                        -1.5233156e-317,
                        -1.9039354917207117e-06,
                        5.735516071500143e-287,
                        -2.337629993199839e-41,
                        -2.306783e-317,
                        5.363616e-318,
                        -1.6570059889044755e-42,
                        -1.1189100599363735e-67,
                        1.0054116850676524e-42,
                        8.198096312360647e-105,
                        3.5161096e-317,
                        1.5780292013830826e-266,
                        -1.5774922576570668e-07,
                        4.261365e-317,
                        -1.1890238048100562e-09,
                        1.2132201085766882e-39,
                        -6.606492635806617e-16,
                        -1.6728521019377292e-273,
                        -6.954385289391221e-289,
                        3.0723709697580006e-65,
                        -3.830111745732848e-43,
                        4.4844304765038824e-42,
                        -1.929639229676765e-41,
                        -2.0099095201684325e-32,
                        -7.814095964381995e-43,
                        2.017672806797611e-39,
                        -1.893670712877172e-41,
                        2.3711725832016486e-41,
                        -2.7832772097379604e-48,
                        1.2853417993377503e-46
                    ],
                    "bias": -0.0018907637517180866
                },
                {
                    "weights": [
                        1.2236304962261609e-15,
                        3.7645121709667994e-76,
                        -1.046315446261616e-98,
                        -1.9675043e-317,
                        2.8747044852549045e-249,
                        -6.5035966027321e-14,
                        6.4771201521971804e-257,
                        -2.2731880940995733e-216,
                        -1.884202685483328e-08,
                        1.8580634571134993e-28,
                        7.6718533e-317,
                        -7.034546465450676e-07,
                        -6.759243e-318,
                        -3.1078513316474443e-07,
                        1.0628205571557554e-210,
                        -1.4769332845469802e-05,
                        1.4177018511885195e-210,
                        1.6397006e-317,
                        -1.4107190115274602e-17,
                        -3.170778624055672e-43,
                        -3.210722493905152e-211,
                        1.8052315260529362e-211,
                        -1.3952947403897747e-254,
                        3.50325e-318,
                        -0.00010689835612324489,
                        -6.351334342038975e-11,
                        1.753380258376635e-55,
                        1.4896825e-317,
                        -2.33884e-318,
                        -0.0003194054548006349,
                        -1.0237620550363324e-52,
                        -2.773658317234591e-07,
                        5.6975255e-317,
                        -1.1058178896175782e-07,
                        5.0505327e-317,
                        -0.00019180535722221304,
                        2.884607e-318,
                        -1.0050775023272355e-10,
                        -3.252352963629454e-71,
                        7.680543968027282e-265,
                        1.9837798419237372e-16,
                        -2.1657276731505827e-47,
                        4.301465894228911e-16,
                        -6.095556600794831e-68,
                        5.1664649068927556e-275,
                        -1.8533104e-317,
                        -5.2420539787556005e-05,
                        -2.665663365239452e-92,
                        -6.053342957731923e-07,
                        5.482844637648511e-16,
                        -7.429411833404066e-08,
                        -5.48642e-317,
                        -2.218861879092656e-253,
                        -1.033459346372431e-46,
                        3.631836675644149e-54,
                        -1.8790859077706782e-16,
                        -1.7145526635851525e-15,
                        -1.5584208224553229e-15,
                        8.052222599945861e-16,
                        -1.8271352382700537e-15,
                        1.0340690941665366e-16,
                        -9.67773453663551e-16,
                        5.801635037737577e-62,
                        -1.7967509629646422e-25
                    ],
                    "bias": -0.012511242787904279
                },
                {
                    "weights": [
                        -0.043620609936907945,
                        -1.9602250379464278e-08,
                        -6.717803250553057e-35,
                        -7.21620689065912e-07,
                        2.8016891246279625e-10,
                        0.0007946596268982285,
                        2.256421599792808e-58,
                        -4.115314531484697e-53,
                        -0.08206927883871694,
                        4.360868864482535e-16,
                        -0.00043069412635636436,
                        0.057815470169921744,
                        -0.0023845714118263563,
                        0.028883704872000465,
                        7.187751355511383e-123,
                        0.01622746318949359,
                        0.011247411747984895,
                        -0.0015115590320750004,
                        0.035886499340077815,
                        -1.915859887120572e-08,
                        6.867660754965217e-57,
                        3.161691910406323e-145,
                        1.1697012971755762e-220,
                        -5.149832847200405e-14,
                        -0.1849689187651127,
                        -0.14766609721966886,
                        1.9186766920657944e-15,
                        0.00017611931467465238,
                        0.010704304964555544,
                        -0.5533610656311694,
                        -0.0034771070518507747,
                        0.09689896371108225,
                        4.484051654970532e-21,
                        -0.15472323728105888,
                        9.820795595867625e-31,
                        -0.07295874667083911,
                        -4.792835416099015e-81,
                        -0.004514944675043155,
                        -1.4354889631664243e-22,
                        -2.0912367256372828e-09,
                        -0.007826573725581876,
                        1.1792721290137593e-22,
                        0.0554694611381949,
                        -6.971358965536987e-14,
                        -5.4755424794790394e-216,
                        -2.5938243750520663e-281,
                        0.10193726735966627,
                        -0.00016340437425764278,
                        0.11227226517386835,
                        -0.0006107645396768321,
                        0.08138232780045525,
                        8.315101491853296e-67,
                        -4.8506111565638265e-39,
                        7.740951648683039e-06,
                        -0.008798851940608539,
                        1.1954048849213797e-86,
                        0.025686653707333855,
                        0.01655309079381812,
                        -3.251560600872497e-17,
                        0.05908882072079402,
                        0.10227473706874392,
                        0.023245229136407197,
                        7.186711510525013e-05,
                        -1.7735667609845518e-90
                    ],
                    "bias": -0.05501237367205675
                },
                {
                    "weights": [
                        -5.70472356215934e-102,
                        -5.628365355528606e-123,
                        -1.5925430710712568e-110,
                        -2.622531e-317,
                        -4.28076e-317,
                        -1.0645999301267341e-101,
                        3.162971e-317,
                        1.342899753684205e-156,
                        -5.486633146468474e-54,
                        -4.20243907584277e-110,
                        5.815727953669961e-115,
                        1.056028400015027e-44,
                        -2.40101e-317,
                        -3.06683579053159e-21,
                        3.1461685e-317,
                        3.518994154167392e-36,
                        5.575375167800678e-164,
                        2.334714e-317,
                        -3.544524804438339e-102,
                        -6.689995e-318,
                        2.0363851750791772e-108,
                        4.8721375e-317,
                        -3.3607047e-317,
                        3.5892644e-317,
                        -3.912828549369115e-41,
                        -1.774228456386264e-97,
                        -2.34467e-318,
                        -8.150205e-317,
                        -1.7550317609367532e-102,
                        -8.261479202547894e-102,
                        -2.2004093e-317,
                        -4.193935299028951e-23,
                        -7.199865e-318,
                        -1.9051783026103465e-73,
                        1.617762e-317,
                        -1.0572575817227041e-13,
                        1.818432e-317,
                        -1.037205332314911e-66,
                        3.03239e-317,
                        8.152691977774423e-132,
                        -1.8709680383823372e-103,
                        7.473923e-317,
                        -5.538213688177408e-45,
                        1.907015e-317,
                        4.79348e-318,
                        -8.9928554e-317,
                        -4.41256071924184e-16,
                        2.083301e-317,
                        -8.651543759358139e-19,
                        2.2889226766416172e-125,
                        -3.485175499973461e-107,
                        4.1036081970621574e-165,
                        3.13077e-317,
                        4.54367122e-315,
                        1.8418807e-317,
                        3.3321944567885698e-102,
                        2.217577311928812e-102,
                        5.555559756750243e-70,
                        2.197449688996669e-72,
                        -2.3674614153985166e-63,
                        9.903748694461013e-67,
                        1.1689653314651871e-79,
                        6.096612270909061e-259,
                        5.970124232225719e-163
                    ],
                    "bias": -2.5266938255827463e-07
                },
                {
                    "weights": [
                        0.047153936503175405,
                        -0.0009074299711831182,
                        6.88203198206155e-36,
                        -1.0584284650900765e-05,
                        -3.034997558771703e-13,
                        0.08183808962579044,
                        -8.919833387886485e-58,
                        -1.2223543222846518e-50,
                        0.03283571892108837,
                        1.3763405890030349e-14,
                        -0.0009788151685426105,
                        -0.006433139845617377,
                        -0.007726722275224089,
                        0.16643643960754964,
                        -9.35648666182738e-111,
                        0.027562260274201767,
                        0.008254186287879004,
                        0.006422593311934271,
                        -0.034679809532775004,
                        2.597707483770122e-09,
                        -5.3005510380491e-21,
                        2.3785421751023987e-47,
                        5.825235590517083e-81,
                        2.699094633120572e-12,
                        0.04991945331078613,
                        -0.02983761500164578,
                        5.743840523305785e-17,
                        0.0026174959133102756,
                        0.0032884259113102124,
                        -0.13931877751321803,
                        -0.002823495105389965,
                        -0.1708931687887957,
                        2.0237967618191626e-25,
                        0.02048391672409906,
                        1.2945724812502948e-30,
                        -0.11331065531414368,
                        8.13921690947227e-09,
                        0.03523104871076374,
                        5.306421541956183e-24,
                        5.196028697528511e-11,
                        -0.09079889154733521,
                        8.495095353709019e-28,
                        0.008246810227893631,
                        -1.4689704369257035e-28,
                        1.3031253507161338e-27,
                        9.5001510556318e-37,
                        0.07753560823806342,
                        -2.0437297801636122e-08,
                        -0.42474177813214664,
                        -0.03532960105282686,
                        0.023153045411550343,
                        2.633839826052423e-83,
                        3.599500788050661e-27,
                        2.992013786572524e-08,
                        -0.008128150423705897,
                        0.07076478594509387,
                        -0.05826963181410628,
                        -0.061092669877173746,
                        -0.04880164882226842,
                        -0.021347227591140654,
                        0.14536077987858026,
                        -0.01832928251496893,
                        5.497957045663863e-07,
                        5.747961210378009e-05
                    ],
                    "bias": 0.03911969060851087
                },
                {
                    "weights": [
                        0.012127696143669556,
                        -3.108205075842628e-29,
                        8.821288137972831e-36,
                        2.4282817460261916e-07,
                        -5.05277630707479e-10,
                        -0.012691061039503784,
                        8.144232742164592e-59,
                        -3.0286654552864814e-52,
                        -0.04901788182729578,
                        7.851676194186615e-15,
                        -8.249897432726681e-16,
                        0.11231708208683559,
                        0.0019527522205172259,
                        -0.04229456635016054,
                        2.8268296839813743e-174,
                        -0.012268744149298525,
                        5.277826304752169e-08,
                        3.5105725807355056e-09,
                        0.029950041113216943,
                        -1.2521368233745475e-09,
                        -1.4488868010378955e-20,
                        -4.183414785139098e-192,
                        -8.91477287896985e-253,
                        -1.485162945035002e-13,
                        -0.09182070925809957,
                        -0.012255445267533879,
                        -6.732119438732963e-17,
                        1.0046961305325102e-17,
                        -6.1968280582075555e-09,
                        -0.10242449100248222,
                        -1.4800724110487486e-09,
                        0.035456791205231854,
                        9.32738779796205e-22,
                        -0.06997429548740021,
                        3.6057004885387862e-31,
                        -0.040614890518750585,
                        -3.74099515154046e-91,
                        0.03417000819397498,
                        -1.34603855533748e-23,
                        -2.3134812930612567e-14,
                        -0.0034212408034737423,
                        3.0527550470857533e-28,
                        -0.04478541654282762,
                        1.7702460408358748e-46,
                        -1.8058334870641099e-215,
                        2.4322634e-317,
                        0.02078861922976304,
                        1.698671172486059e-27,
                        0.0737715522687846,
                        0.0201501247798273,
                        0.08468597768057809,
                        6.993477552075518e-127,
                        7.840912098694096e-58,
                        6.864017367883986e-07,
                        -4.932724415324019e-06,
                        -0.0045664242124763745,
                        0.003028053653060651,
                        0.002275513476041213,
                        0.06899874039068835,
                        0.012081872348741581,
