{
    "items": [
        {
            "neurons": [
                {
                    "weights": [
                        -0.039275650466701936,
                        0.002618463126979586,
                        0.005297860339391902,
                        0.09539634187247933,
                        0.14503347332293334,
                        -0.029627334236252207,
                        0.04047614246303802,
                        -0.12346250237437142,
                        0.04780205011518707,
                        -0.03675297155964736,
                        0.06478694948461416,
                        0.013591719623291266,
                        0.06667395370372423,
                        -0.17011925129025202,
                        -0.0021127834365076382,
                        0.37947053650916934,
                        -0.5145897444595001,
                        -0.002534248101332289,
                        0.15883999477327737,
                        0.0492966051383597,
                        -0.05015984776256316
                    ],
                    "bias": -0.0015144324965439154
                },
                {
                    "weights": [
                        -0.01790515996556721,
                        -0.00035556317493778885,
                        -0.08686545711570157,
                        0.013620469443194012,
                        0.01938713437254446,
                        0.046540919022388376,
                        0.05313559361256655,
                        -0.04495710474337319,
                        0.07515960515104655,
                        -0.06107939722785131,
                        0.10032833763638764,
                        -0.07600102717142672,
                        0.11369830926612151,
                        -0.4697283321316375,
                        0.005287894600317074,
                        0.17232248118272983,
                        -0.4826084799819929,
                        -0.0016633471693002881,
                        0.26435623577036826,
                        0.13219550071767824,
                        -0.023492801244531458
                    ],
                    "bias": -0.028763483637337876
                },
                {
                    "weights": [
                        -0.007560161307819624,
                        -0.00919991892938991,
                        -0.07123401594235329,
                        0.030043615677957033,
                        0.023258004842708832,
                        0.00012765051830986357,
                        0.1491031697862668,
                        -0.03315268090424236,
                        0.13544276498356536,
                        -0.021266421316978774,
                        0.12705859073482184,
                        0.003840293610685952,
                        0.0568499573654369,
                        0.1588491433652612,
                        0.009823819622558835,
                        0.34819292593881607,
                        -0.16747177728769796,
                        -0.0015957702278798262,
                        -0.06180015820885535,
                        0.03393482683979579,
                        0.05177913038770088
                    ],
                    "bias": -0.014444947773830394
                },
                {
                    "weights": [
                        -0.061716008294438386,
                        -0.041429938919288437,
                        0.038227405672494164,
                        0.030289407044299027,
                        0.012594977715702725,
                        -0.009549557478246,
                        0.027814913209878972,
                        0.052370615242847446,
                        -0.04438477456441134,
                        0.06745500676972492,
                        -0.06669159169511162,
                        0.09551075251091548,
                        -0.08116344470299716,
                        0.07060574251792123,
                        -0.005679093452262416,
                        -0.03269226039955633,
                        0.13506756201263964,
                        -0.00035537107178326607,
                        -0.17868415480353234,
                        0.2008103014385129,
                        0.05348915403838369
                    ],
                    "bias": 0.022124027521988512
                },
                {
                    "weights": [
                        -0.03478331868941201,
                        0.01843754091181888,
                        -0.11013807335590169,
                        -0.02368814380314981,
                        -0.03453294957334852,
                        -0.10628265026356998,
                        -0.05914170938572052,
                        -0.05747133283278127,
                        -0.09590108814278567,
                        -0.02910094664389345,
                        -0.133618486834837,
                        0.0008988833504845852,
                        -0.1282492878346398,
                        0.07945009807552195,
                        0.0034559758203292585,
                        -0.003289644479844223,
                        -0.1769332179006606,
                        0.007217858455470837,
                        0.6075933296205318,
                        0.11425077685115016,
                        -0.1960355369575693
                    ],
                    "bias": -0.06610757344799591
                },
                {
                    "weights": [
                        -0.11256887414262857,
                        -0.04731969681531592,
                        -0.11283447291098515,
                        0.1080443338880357,
                        0.036629680858939674,
                        0.02521832448161762,
                        0.04149723673425752,
                        -0.03830900528691438,
                        0.010484136416798859,
                        -0.13953048847036617,
                        0.022562840172109418,
                        -0.0642750694730725,
                        0.05704938998738422,
                        -0.0752178184408574,
                        -0.004490125850586613,
                        -0.29635281690770604,
                        0.20241308790045082,
                        0.000511074068096487,
                        -0.8344273102434041,
                        0.25605608657622553,
                        -0.05253410532043534
                    ],
                    "bias": -0.06763662385113986
                },
                {
                    "weights": [
                        -0.017585546713259632,
                        -0.026334653398339066,
                        0.06395646137434519,
                        -0.03320815021528978,
                        0.026191256621413733,
                        0.054525175855216726,
                        0.02468699443294692,
                        0.03966254580249969,
                        -0.023568104424093034,
                        0.009813593448828511,
                        -0.055633746047716856,
                        0.02000556229973066,
                        -0.017282428634088843,
                        0.499533166276836,
                        -0.005895945259018493,
                        0.049049300133249145,
                        0.2911313246741672,
                        0.006719915720217589,
                        -0.18383859545128484,
                        -0.034499092402337096,
                        0.04953840556466416
                    ],
                    "bias": -0.01749226361166419
                },
                {
                    "weights": [
                        0.029621884850453476,
                        0.04486963047341556,
                        0.013304653482044146,
                        0.014806136104420397,
                        -0.011333751865234564,
                        0.031662625413596025,
                        0.013890665881959557,
                        0.027976931820025825,
                        0.03226730719133562,
                        0.011701983536046913,
                        0.01738073170199256,
                        -0.01895554606053041,
                        0.010416532480678675,
                        0.014623788620969776,
                        0.009060518986237586,
                        -0.18612011456422345,
                        0.03985885724559705,
                        -0.0008157496803133794,
                        -0.5953088066091737,
                        0.05488589769032096,
                        -0.09347218218974336
                    ],
                    "bias": -0.011544326259269126
                },
                {
                    "weights": [
                        -0.04744965045224112,
                        -0.03555462506715499,
                        -0.05234130587383014,
                        0.056789482656600415,
                        0.06333114735726252,
                        0.01731487982805231,
                        0.05751011426103749,
                        0.029369662389247295,
                        -0.023088616056953778,
                        -0.01682691075246277,
                        0.031873334582184804,
                        -0.041069391581882796,
                        0.004574905924063165,
                        0.0764484708102816,
                        0.004070896497286817,
                        0.08968430071625363,
                        0.31265835651338036,
                        0.0007916266837602656,
                        -0.1329779444187877,
                        0.19412663687281576,
                        -0.26443358273679607
                    ],
                    "bias": -0.08168058102725106
                },
                {
                    "weights": [
                        0.019326271596829345,
                        -0.0433819169652234,
                        -0.08226407284538476,
                        -0.03205418461792557,
                        0.10721540978668971,
                        0.1082734982035208,
                        0.13531590787537942,
                        0.018769028869746098,
                        0.1180621380186317,
                        -0.03356682519154037,
                        0.07929424171169713,
                        -0.048243076310608354,
                        0.06309480884219325,
                        0.061043940974598136,
                        -0.0006984515856200182,
                        -0.002268616484655808,
                        0.09164921712160265,
                        -0.02002610469545079,
                        -0.32489925748568454,
                        0.17464763076984893,
                        0.15358199471041442
                    ],
                    "bias": -0.019608618358670574
                },
                {
                    "weights": [
                        -0.1433035852847,
                        -0.16592434766542194,
                        -0.0655427632429311,
                        0.0579772307209805,
                        0.02034019529967747,
                        -0.012468676350720088,
                        0.08945326731926803,
                        -0.08727642018502853,
                        0.03130041921413699,
                        0.03601661592512839,
                        0.14648538383546086,
                        0.16618883444056626,
                        0.09204395111551933,
                        -0.10742916600324495,
                        -0.012910963074269964,
                        -0.12412160465371053,
                        -1.6627341343591777,
                        0.009160588899320896,
                        -0.20474946294162888,
                        0.39421178696976306,
                        -0.14186483746729578
                    ],
                    "bias": 0.0018140354604804347
                },
                {
                    "weights": [
                        -0.010605549850862381,
                        0.06647599502894877,
                        -0.09909575601107462,
                        0.03950325265631649,
                        -0.03483636529720461,
                        -0.012420313449891618,
                        0.025157159516803373,
                        0.018897246633607777,
                        0.05104218209007109,
                        0.03270821707566096,
                        0.04908138246104655,
                        0.054778774453732415,
                        0.016780904996581202,
                        0.003162512594047455,
                        0.008243798140040585,
                        -0.028903042590629417,
                        0.32444980422995084,
                        0.003497182887264044,
                        0.5820433345132493,
                        0.09722797635966002,
                        0.1669576021158959
                    ],
                    "bias": 0.035465317718813116
                },
                {
                    "weights": [
                        -0.11381379763432779,
                        -0.09997447468458752,
                        0.07453968303913068,
                        -0.03388506295981125,
                        -0.014388642155994813,
                        -0.014881020808362719,
                        0.02785192894249332,
                        0.005331623954110142,
                        -0.0008865569904835169,
                        0.20161617465341747,
                        0.039834810530943475,
                        0.33923707556179633,
                        0.020354613416434655,
                        0.10090415557997989,
                        0.009659743367044135,
                        -0.08622199373497068,
                        0.7685545913815224,
                        0.009984824051606712,
                        -0.2073130916903805,
                        0.3208127641138348,
                        -0.054675199783222495
                    ],
                    "bias": 0.16328875522260552
                },
                {
                    "weights": [
                        -0.01913280244657798,
                        -0.002990073504658675,
                        0.013071427542824282,
                        -0.009378250399151229,
                        0.0013074057728609135,
                        -0.006771617115121117,
                        0.01353872374165413,
                        0.0003526355197172861,
                        -0.01804882100664519,
                        -0.008560838259088672,
                        -0.011065259087416703,
                        0.001503017614618776,
                        -0.013353443587101013,
                        0.004924512640081491,
                        0.021632547233054602,
                        -0.006526239793023909,
                        -0.014643748802098202,
                        -0.028962553781936892,
                        0.02439752406339273,
                        0.022105230015913514,
                        0.00838490774451642
                    ],
                    "bias": 0.0
                },
                {
                    "weights": [
                        -0.172687818956248,
                        0.0031852553386932173,
                        0.04263600664391825,
                        0.03220487446207473,
                        0.12400536778153014,
                        0.009187063713428456,
                        0.11466904595783599,
                        0.004038831587432937,
                        0.08737717499331983,
                        -0.06531777263099128,
                        0.11687424964736172,
                        -0.02905109987812871,
                        0.06603113678955787,
                        0.02505312365479226,
                        0.0007284954442428711,
                        -0.05930630974694745,
                        0.4104598326567952,
                        0.020876799072381543,
                        0.026287791703351476,
                        0.245887865899309,
                        0.02685004634365722
                    ],
                    "bias": -0.01622276574248498
                },
                {
                    "weights": [
                        -0.10051655787111625,
                        -0.1136880580172455,
                        0.012922158139656938,
                        0.0037187953798229418,
                        0.059997179516343875,
                        0.024502187715458767,
                        0.11051089163930299,
                        -0.0016101355114209678,
                        0.08487653049064414,
                        -0.09070824494552233,
                        0.09859135824784543,
                        -0.017534582335219387,
                        0.15933335623680706,
                        -0.020247489575219366,
                        0.0027944149028712026,
                        -0.041341141305759284,
                        -1.187091766654804,
                        -0.0014139417571777003,
                        -0.36356864048584336,
                        0.2874823209244049,
                        -0.22119360865552282
                    ],
                    "bias": -0.03759276538141145
                },
                {
                    "weights": [
                        -0.016230895050251607,
                        -0.009010625828914315,
                        -0.0029385834624363525,
                        -0.0016342387090914235,
                        0.006498539877021649,
                        -0.01426718389726699,
                        -0.02083583096720614,
                        -0.006281223897505385,
                        -0.0021939561927406073,
                        4.878786832805278e-05,
                        -0.004649791469333541,
                        -0.0016207790673190203,
                        0.0007122143799052449,
                        -0.0031507270902469196,
                        0.0024938369418156196,
                        -0.0012707325062263472,
                        0.016917464308844853,
                        0.01108182816869788,
                        0.006006180821429159,
                        -0.0036180633083552492,
                        0.0035733107701595656
                    ],
                    "bias": -0.0012698493358360198
                },
                {
                    "weights": [
                        0.014122471495137099,
                        -0.02923926469039407,
                        -0.02871550718673911,
                        0.07654489501355172,
                        -0.08675167058452377,
                        0.060944672257226516,
                        -0.1250384434029633,
                        0.039781392392592534,
                        -0.16660141941063292,
                        0.01410367257984262,
                        -0.13421562417859242,
                        0.0007038132321618261,
                        -0.1280726039810377,
                        0.03267302287970437,
                        0.01606167231956145,
                        0.05959973638971322,
                        0.168632111257214,
                        -0.01035184233691779,
                        -0.15323515485626527,
                        0.08570085199646886,
                        0.0664638309394545
                    ],
                    "bias": -0.04840940856276589
                },
                {
                    "weights": [
                        -0.14991716489096996,
                        -0.06300831536771023,
                        -0.03319016484574651,
                        -0.018992706108276084,
                        -0.03888950807978441,
                        0.05347085547360253,
                        0.012941668406295914,
                        0.009053871924335072,
                        0.020602436417933738,
                        -0.025971161658265223,
                        -0.0010339585904421353,
                        0.048050508114831185,
                        -0.03316533891868462,
                        0.18179833132124829,
                        0.0009393967844099103,
                        0.009391723893418856,
                        -0.1338081090478039,
                        0.006135118376461008,
                        0.10486609753085144,
                        0.1927412022026192,
                        0.0169896251439287
                    ],
                    "bias": -0.04362416365562651
                },
                {
                    "weights": [
                        -0.058019014202174625,
                        -0.06623444804301562,
                        0.031768900878500955,
                        0.07869511688093972,
                        0.09110864545846985,
                        0.02104469768930193,
                        0.06400563626859423,
                        0.010923149098807127,
                        0.02110947496023638,
                        0.0167695654034433,
                        -0.0003332659611075808,
                        0.0784407428285601,
                        -0.01431661437157182,
                        0.14889345278140112,
                        0.002496297987071365,
                        -0.12239059228393778,
                        -0.4854411502740874,
                        -0.010566305654844909,
                        -0.03834979856860998,
                        0.11258631221360113,
                        0.015445994916340813
                    ],
                    "bias": 0.04413894640975771
                },
                {
                    "weights": [
                        0.0300156039926059,
                        -0.03341137637245593,
                        -0.06631853192779895,
                        0.06956442412273724,
                        0.01713014862452612,
                        0.02954717811127659,
                        0.03525137514979859,
                        0.03361325243955418,
                        0.06080754323914528,
                        -0.029214578523247377,
                        0.06887263837762576,
                        -0.04686487711429687,
                        0.09568085513058319,
                        0.1877614986563465,
                        0.01105394816942307,
                        0.033672796979168924,
                        -0.13507339574192867,
                        -0.0061535173715617005,
                        -0.5839136238717685,
                        0.05201916992422505,
                        -0.30501231348317887
                    ],
                    "bias": -0.016050104942778535
                },
                {
                    "weights": [
                        -0.10316838521395634,
                        -0.1320110658770639,
                        0.08391766562376214,
                        0.05921992614325117,
                        0.05037574030744867,
                        0.019846379757045812,
                        0.10407181445566083,
                        0.02877679390614524,
                        0.06065894366734309,
                        0.020017650863474037,
                        0.04371581842975669,
                        0.06330259490688862,
                        0.06976925764213798,
                        0.12359015390323655,
                        0.0032838174437460044,
                        0.22886175203781928,
                        0.3038877508125828,
                        0.019212609049749307,
                        -0.5973377182188871,
                        0.24766243752433176,
                        -0.017901773336318625
                    ],
                    "bias": 0.02374555953070865
                },
                {
                    "weights": [
                        -0.035709277803218795,
                        -0.024755183024767775,
                        0.0342099595313795,
                        -0.07522275109105424,
                        0.024282595307815465,
                        0.015784930983602972,
                        -0.03511679253621299,
                        0.03538515545476355,
                        -0.10120400791462296,
                        0.09839014269065004,
                        -0.13949339429356036,
                        0.11007024236839924,
                        -0.15422672981437183,
                        0.016757912442822095,
                        -0.005423481013591727,
                        -0.021653959329469757,
                        0.1970681378904661,
                        -0.0018862552070460325,
                        0.35961161342770376,
                        0.15603961376521172,
                        0.010797749608628475
                    ],
                    "bias": 0.020091974045112742
                },
                {
                    "weights": [
                        -0.018447781371485984,
                        -0.0017102951825737095,
                        -0.00036810751024621144,
                        0.0016686270332912595,
                        -0.007281226535128935,
                        -0.009634017306428872,
                        -0.004499917945680684,
                        -0.026400979454899266,
                        -0.002423459634826176,
                        0.0007120029027407242,
                        -0.008298075691913875,
                        0.00040044856002557976,
                        -0.0008497044445560834,
                        -0.0026017632063355996,
                        0.0019408999822951472,
                        0.0009539346372273483,
                        -0.01570716264225688,
                        0.002174328732425644,
                        -0.002798559659252177,
                        0.014841844562183204,
                        -0.004872660913639302
                    ],
                    "bias": -0.0006127770936225938
                },
                {
                    "weights": [
                        -0.005443827245251827,
                        -0.005297602037670388,
                        -0.006800247215784908,
                        -0.007728252145375718,
                        0.0011351734525124803,
                        -0.004710383056183228,
                        0.0012029563171189887,
                        -0.015151910621985523,
                        -0.008604133652839524,
                        0.007569886166453519,
                        -0.007128457826771644,
                        -0.005397596803093615,
                        0.0027157883719537345,
                        -0.008323555731042287,
                        0.01073631749859772,
                        -3.6025390905684045e-05,
                        0.014765403497258958,
                        0.008700677306887542,
                        -0.016929568141953854,
                        -0.003791277409874871,
                        0.005365098435704036
                    ],
                    "bias": 0.0
                },
                {
                    "weights": [
                        -0.024049311989788488,
                        -0.02781388646637789,
                        0.01998712838639219,
                        0.032958410818977324,
                        0.02834242655913157,
                        -0.026862556372097772,
                        0.007229424020089749,
                        0.0852107909333478,
                        0.006614544759914049,
                        -0.1603380171334758,
                        -0.0004625948782100929,
                        -0.25578398410928654,
                        0.020743723768602673,
                        -0.01189492892879769,
                        -0.010285664122894242,
                        -0.1097944767420493,
                        -0.397165422521937,
                        0.004951274912002953,
                        -0.4537024752920555,
                        0.11485658226724388,
                        -0.18074849188293984
                    ],
                    "bias": -0.08925173706482627
                },
                {
                    "weights": [
                        -0.022968108872415162,
                        -0.009820231733479888,
                        -0.008618431660132897,
                        -0.01634224839407914,
                        0.004424979890519362,
                        -0.027263578319173525,
                        -0.004113323902577693,
                        0.003172762135349729,
                        -0.0006652071813461701,
                        -0.0021870267463222717,
                        -0.012765049621692953,
                        -0.00892017472624902,
                        -0.0206734650744384,
                        -0.008446484766144083,
                        0.001329696674277524,
                        0.004104096733201095,
                        -0.006225704546435124,
                        0.0015041890508713353,
                        -0.010574264216136836,
                        -0.013647446669527151,
                        0.012476142295335172
                    ],
                    "bias": -0.004475698361462081
                },
                {
                    "weights": [
                        -0.009924615445178376,
                        0.0121178920371815,
                        -0.06210090170014515,
                        0.025252082939110035,
                        0.044217634864220444,
                        0.051706345371308096,
                        0.07299890583043268,
                        -0.02226314570320178,
                        0.09582196204120183,
                        -0.027639135548963,
                        0.1058551495880996,
                        -0.06236646887716265,
                        0.09808023729190768,
                        0.5642469177331074,
                        0.004077194463268505,
                        -0.06066490537329446,
                        0.5819063951544761,
                        0.0037079847175371483,
                        0.1498196079912856,
                        0.1249032782326717,
                        -0.031059447328437097
                    ],
                    "bias": -0.016711142216044677
                },
                {
                    "weights": [
                        -0.04325554563365245,
                        -0.04127390741461398,
                        0.029155303543864572,
                        0.012374959462828121,
                        0.06820726546927623,
                        0.014739398234743049,
                        0.03669668130871401,
                        0.002695626035111514,
                        0.02938013255360404,
                        0.02923515756571448,
                        -0.041527073113391065,
                        0.0814194142822414,
                        -0.027845680259934887,
                        -0.04519004515818338,
                        0.010967991320644601,
                        0.234158791236893,
                        0.07398387893866701,
                        0.023898048689300996,
                        0.1764178532013528,
                        0.05451127400142804,
                        0.05444465313670989
                    ],
                    "bias": 0.02239234243845248
                },
                {
                    "weights": [
                        0.001798509389772883,
                        -0.061957779626013475,
                        0.009928085222122702,
                        -0.005542694938610737,
                        0.034462223904592706,
                        -0.005627001640222237,
                        0.030303812263346837,
                        0.004222853474272853,
                        -0.11484034936844706,
                        0.0062984580202943815,
                        -0.0009581861938246102,
                        0.06581964988831322,
                        -0.044500011892840995,
                        -0.11009740773543926,
                        -0.011968518991199075,
                        0.1966117592282494,
                        -0.12500229324513878,
                        -0.0005592823990150254,
                        0.16616202938106606,
                        0.18382884839794345,
                        -0.2885808238028041
                    ],
                    "bias": -0.022076932861176696
                },
                {
                    "weights": [
                        -0.01187871333256872,
                        0.025681975621452663,
                        -0.06429931598895122,
                        0.07582425998758878,
                        0.03878599274760544,
                        0.0016594782340724821,
                        0.05705531395953481,
                        0.02698713026448489,
                        0.07634508780698585,
                        -0.041895851030360996,
                        0.0763789474662042,
                        -0.024292783001687007,
                        0.05788490498966949,
                        0.22283037796296656,
                        -0.0017846910424464465,
                        -0.02961239030769783,
                        0.7758700938532914,
                        0.002080436569262343,
                        0.05863844426242543,
                        0.09872388150885936,
                        -0.13935441492270212
                    ],
                    "bias": -0.005936815966588044
                },
                {
                    "weights": [
                        -0.022401984533146117,
                        -0.0052406866417936526,
                        -0.06315461509572956,
                        0.02451820399058534,
                        -0.0015480511330478327,
                        0.04702098843807213,
                        0.043785768603185664,
                        0.02656626372580798,
                        0.07689903921762203,
                        -0.07692848187813842,
                        0.05520514226742529,
                        -0.07563666799213377,
                        0.08617976783403579,
                        -0.15827769703300942,
                        0.008667397259975531,
                        -0.46080885722087767,
                        0.049025758318676345,
                        0.010582298858701234,
                        -0.18790144542303938,
                        0.11564259404112931,
                        -0.03712904042384908
                    ],
                    "bias": -0.04438341328588237
                },
                {
                    "weights": [
                        -0.009374296222035465,
                        0.0016572401228609204,
                        0.04875037551647515,
                        0.040674307663379726,
                        0.12393758881903409,
                        0.045460125530506885,
                        0.12545315348869038,
                        0.053862661224232236,
                        0.052210362033859,
                        0.04608483370352264,
                        0.07023933410406356,
                        0.0672047471294853,
                        0.05735917125904181,
                        0.014318332537319031,
                        0.01693093149610804,
                        0.17885329451518056,
                        0.7363768793181399,
                        0.010605400545745809,
                        -0.5577033808673906,
                        0.1909098300688637,
                        0.10887888429053555
                    ],
                    "bias": 0.064798315596824
                },
                {
                    "weights": [
                        -0.07455161247092557,
                        -0.054459632355739584,
                        0.17772608253271874,
                        -0.016433349991265684,
                        -0.010165299625511678,
                        -0.03578681356654824,
                        -0.009648020941122286,
                        0.025143031391332747,
                        -0.01461237412215126,
                        0.0797039752371435,
                        0.005773418411034245,
                        0.10213261841641967,
                        0.05786247905880943,
                        -0.0060914212242421835,
                        -0.0006015345831855494,
                        -0.06234604866807216,
                        -0.11866167392253192,
                        0.012094528514289172,
                        1.3902461741918706,
                        0.06186392471766342,
                        0.010017666928694012
                    ],
                    "bias": 0.028856433804744293
                },
                {
                    "weights": [
                        0.05137819669915551,
                        -0.07481069175914977,
                        -0.004022784834438303,
                        -0.05158086499063956,
                        -0.1718520522471547,
                        0.10514975542827455,
                        -0.08465540489157114,
                        -0.02596845913020388,
                        -0.05432029794890415,
                        0.0034805756477718614,
                        0.14770033568912871,
                        0.0315098346908444,
                        0.18746649616960032,
                        0.15623646869472305,
                        -0.006041362133730119,
                        0.10420398265769025,
                        0.7607057075874752,
                        0.00637332939609314,
                        -0.47287353509528834,
                        0.15429649855158262,
                        -0.025995426404718455
                    ],
                    "bias": 0.009386152715843641
                },
                {
                    "weights": [
                        -0.012208436499710222,
                        -0.0023458713337514694,
                        -0.008206823183517105,
                        -0.010777447779293061,
                        -0.004930009346588328,
                        -0.01002529364637809,
                        0.0006751848141010895,
                        0.002034636358672231,
                        -0.0020304538604299267,
                        -0.0005558467091045507,
                        -0.007778166875908753,
                        0.010143700650181305,
                        -0.004622752887050425,
                        0.00334456789987025,
                        0.0188115706944059,
                        -0.002811002928859549,
                        -0.0037061433208610594,
                        -0.011430049127304836,
                        -0.002246331499970246,
                        0.008335289616089247,
                        -0.013118362323501595
                    ],
                    "bias": 0.0
                },
                {
                    "weights": [
                        -0.25173434647686926,
                        -0.06248346763837267,
                        -0.05017398553801341,
                        0.12131177911611027,
                        -0.10871091547396955,
                        0.0838133333843087,
                        0.1627683179110515,
                        -0.033752139883903486,
                        0.02644613692291795,
                        -0.012237380641497063,
                        0.020767430840071224,
                        -0.09766013007403969,
                        0.10372571988017448,
                        0.057459817687616085,
                        -0.014349639780703938,
                        0.06541609578083268,
                        -0.138480117223259,
                        0.01632620511781735,
                        -0.26557089436910364,
                        0.16956615835404829,
                        -0.18571414493647026
                    ],
                    "bias": -0.11847657269373309
                },
                {
                    "weights": [
                        -0.07821602031462858,
                        -0.03872967479384631,
                        0.024294210312998353,
                        0.05248219416488695,
                        0.11685766942617298,
                        0.03664547717019035,
                        0.10988007808106773,
                        -0.005827884646370097,
                        0.08350288359972662,
                        -0.04570274791495593,
                        0.07904908715905153,
                        -0.046694096812861886,
                        0.05150528779725928,
                        0.12380177475716923,
                        -0.021293370684885644,
                        0.09680883266322521,
                        -0.5878316772893453,
                        -0.011543088443822359,
                        0.1166569732523451,
                        0.08810785363424924,
                        0.03372298961087024
                    ],
                    "bias": 0.02788002978878516
                },
                {
                    "weights": [
                        -0.021825370160705213,
                        -0.011999669161005163,
                        -0.00031899528988193994,
                        -0.015886517267031375,
                        -0.004791920251483404,
                        -0.005339077218818569,
                        -0.010773699110933439,
                        -0.016431386658171624,
                        -0.00708333027736175,
                        0.012489770145552697,
                        0.0017452725505007025,
                        -0.013909197224675028,
                        -0.005202523654135168,
                        0.0011408382347720578,
                        0.004400144582950082,
                        0.0007420700620151313,
                        0.011672411871671153,
                        0.0030263546534065786,
                        0.0012041257282243522,
                        0.0067014414001614914,
                        0.003527612283751012
                    ],
                    "bias": -0.003036316655995494
                },
                {
                    "weights": [
                        -0.028702106385695574,
                        -0.0004578373555322359,
                        -0.012974219889755131,
                        0.048472726382788274,
                        -0.014491477398005624,
                        -0.0257367947899939,
                        0.04765163668181975,
                        -0.01413266088841563,
                        0.03014292080868422,
                        -0.07193350463603204,
                        0.03323791374239741,
                        -0.0807521000858216,
                        0.04727312109098113,
                        -0.24284866858386955,
                        -0.003322502650263246,
                        -0.16380386346803585,
                        -0.23049192343263916,
                        -0.0075102337618693235,
                        -0.03458128876501077,
                        -0.04128529093374003,
                        -0.20213199884822305
                    ],
                    "bias": -0.04729174169438925
                },
                {
                    "weights": [
                        -0.04103802594218063,
                        -0.03112545807947019,
                        -0.009637499200732917,
                        0.037284422007490214,
                        0.05815133837981951,
                        0.0011261661152756727,
                        0.06006284383668284,
                        0.01275630566777856,
                        0.05247282662917495,
                        -0.0059683185232831054,
                        0.02039577662284283,
                        -0.025881446445207654,
                        0.029767043842175114,
                        0.04270369311629171,
                        -0.009806913387188806,
                        -0.30699288981332823,
                        0.16447259887084945,
                        -0.0003223332421146393,
                        0.7773541696918616,
                        0.16318298159407724,
                        0.09024213498757581
                    ],
                    "bias": 0.003117958268981302
                },
                {
                    "weights": [
                        -0.03082529296298468,
                        -0.0023168829006268744,
                        -0.11103731151808384,
                        0.032048514905561765,
                        -0.0062930372642181825,
                        0.04358346207767474,
                        0.04147981922771619,
                        -0.017986604953827437,
                        0.07371542819761556,
                        -0.06828788570307134,
                        0.08804663990278691,
                        -0.037942453600048894,
                        0.09971605775027653,
                        0.20764914216506927,
                        0.013844483397776698,
                        0.5223151044227579,
                        0.1658610329359612,
                        0.003382701412402016,
                        -0.02451361427898269,
                        0.19769684141488356,
                        -0.05513246746509706
                    ],
                    "bias": -0.05854753191207797
                },
                {
                    "weights": [
                        -0.005126474476050429,
                        0.03867941989650495,
                        -0.1417879288023593,
                        -0.01786339342321783,
                        -0.010669140011960749,
                        -0.004004012843354225,
                        0.01458652241015653,
                        -0.05026933118417626,
                        0.050071383064230215,
                        -0.023161456280165433,
                        0.01689772187021911,
                        -0.01940478587756162,
                        0.003892451276988443,
                        -0.1088600637348235,
                        0.0019366341122528012,
                        -0.09111865419427975,
                        -0.04491327114690125,
                        0.003213292626863429,
                        -0.9778035176759968,
                        0.11335686904170926,
                        -0.15978944023189195
                    ],
                    "bias": -0.022840946116457646
                },
                {
                    "weights": [
                        -0.024526794093788353,
                        -0.15411522516004983,
                        0.0468867380615472,
                        0.06680903313074911,
                        0.1678738286748539,
                        -0.03642130366236033,
                        0.15687183145695974,
                        -0.2313501629818537,
                        0.22755658365420217,
                        -0.33591001757867317,
                        0.1745855295867373,
                        -0.25257811434966604,
                        0.11902233495175643,
                        0.05165549264307294,
                        -0.004820283020321518,
                        -0.15522454800362984,
                        -1.6615473998746546,
                        0.004961866954991662,
                        0.25539476365311387,
                        0.3652656155337277,
                        0.032940105034358624
                    ],
                    "bias": -0.1258411778394232
                },
                {
                    "weights": [
                        -0.014785219903674275,
                        0.0025755039072276435,
                        -0.000771017094141042,
                        -0.02025142586657607,
                        -0.008289950109220724,
                        0.006901439917111125,
                        0.010584244868495877,
                        0.0007736830764761831,
                        -0.004876062240724935,
                        -0.007904744554453119,
                        -0.012221278088919454,
                        -0.0061151780299194824,
                        0.01446977884353733,
                        -0.005176112990361715,
                        -0.012803043986708944,
                        0.0069822331361358994,
                        -0.004677012013118913,
                        0.016137112690586472,
                        -0.00019637798926681215,
                        0.005583269125217224,
                        0.0006447441481012025
                    ],
                    "bias": 0.0
                },
                {
                    "weights": [
                        -0.13020735835668065,
                        -0.012072903880342076,
                        0.12009037446735552,
                        0.08257662099975127,
                        -0.11481938031128236,
                        -0.07355247950300461,
                        -0.0770541269782574,
                        -0.06636188860933191,
                        0.05019457508006923,
                        -0.146219997117809,
                        0.12486137971818884,
                        -0.18160525307708822,
                        0.021030705577790326,
                        0.052727380058840104,
                        0.00904681060790754,
                        0.02834572810773863,
                        -0.2411281188925333,
                        0.004531178951784837,
                        -0.46152676231670864,
                        0.07975989647814476,
                        -0.32117269763131046
                    ],
                    "bias": -0.12502443616823386
                },
                {
                    "weights": [
                        -0.01676251981231575,
                        -0.03162756786850119,
                        -0.009210567542573156,
                        -0.019520734128781476,
                        -0.00430060768605441,
                        -0.011330244210881163,
                        -0.023337548583383064,
                        0.001676020283899455,
                        -0.0071338391523575705,
                        0.007074762614340698,
                        -0.012980933081309197,
                        -0.02023730489736826,
                        0.0001712127380035026,
                        -0.006187904002011384,
                        0.006502011768467793,
                        -0.0008616792687353597,
                        -0.0005465776211495303,
                        -0.002441566353097426,
                        0.0018804384942395624,
                        -0.001953253511456487,
                        0.003252926321139033
                    ],
                    "bias": -0.003766098522447316
                },
                {
                    "weights": [
                        -0.06418374741234573,
                        -0.142456290087529,
                        -0.15415659643748048,
                        -0.0787803522785101,
                        -0.005638180492028924,
                        0.03355662072426995,
                        -0.0005391840776728623,
                        0.05748420038240738,
                        0.015481262174984526,
                        -0.0785352019554313,
                        -0.031377832573262356,
                        -0.05672593508794692,
                        -0.08129131079328848,
                        0.1338487440801402,
                        -0.000609495110756824,
                        -0.1563353788938889,
                        0.2038773426787879,
                        0.009700941757149636,
                        0.4160624054246214,
                        0.13265818399102047,
                        0.16024941383788582
                    ],
                    "bias": -0.05390107513838278
                },
                {
                    "weights": [
                        -0.055110635121423175,
                        -0.05652363490533169,
                        -0.014787019501770747,
                        0.00039538347490378103,
                        0.12473305106315398,
                        0.04309494796094334,
                        0.12764981651928375,
                        -0.022061415303639784,
                        0.025606150940813092,
                        0.011818170057657439,
                        0.04644184840718852,
                        0.010239040977249174,
                        0.0579206550928605,
                        0.1735198128158721,
                        0.01967440703733366,
                        0.3475645966485045,
                        0.1466295165215167,
                        0.012347590377029889,
                        0.01089121888568659,
                        0.16142360466574257,
                        -0.024045120851306466
                    ],
                    "bias": -0.0412936417180932
                },
                {
                    "weights": [
                        -0.04439687219527962,
                        0.047147721553967056,
                        -0.0005264501091271164,
                        0.036296284802907655,
                        0.047009326036569925,
                        -0.0012913040324449851,
                        0.05281304175465061,
                        0.01282626718178916,
                        0.01739532075982788,
                        -0.009520901404873619,
                        0.0380022438636595,
                        0.024282095730678577,
                        0.04376577068625251,
                        -0.1709121992542602,
                        -0.015654515125623828,
                        0.4544360756324261,
                        -0.2633809321820056,
                        -0.012641210375183988,
                        0.23824101089709282,
                        0.03365660266957538,
                        0.04971115667532689
                    ],
                    "bias": 0.004452109121911954
                },
                {
                    "weights": [
                        -0.045229858697417656,
                        -0.08151380329636414,
                        0.014584526672405597,
                        -0.0016323570628804264,
                        0.11493348976238374,
                        -0.007615412067025294,
                        0.0633692150034506,
                        -0.030845896900564947,
                        -0.0024136304689094568,
                        0.01833275687038343,
                        -0.028252755989359765,
                        0.05173589577428993,
                        -0.04938073363692385,
                        -0.07491829476473592,
                        -0.01792731502925335,
                        -0.021464299707922855,
                        -0.07714622152019192,
                        0.005718853451709404,
                        -0.14277476068505668,
                        0.047544316686550875,
                        0.08552603989665761
                    ],
                    "bias": 0.009587759613249137
                },
                {
                    "weights": [
                        -0.012287349895062402,
                        0.010359194927625272,
                        -0.05276580228601616,
                        0.02767702080441563,
                        0.01620397537616298,
                        0.0686991041542403,
                        0.033847086289280216,
                        -0.0020319911318460453,
                        0.02725004811576205,
                        0.028622012178188872,
                        0.03871251930567381,
                        0.05956819224730188,
                        0.044527771007836336,
                        0.5998928567933992,
                        0.0022608363605165,
                        -0.02679649089635166,
                        0.8635092206363161,
                        0.006950421111237398,
                        0.4303815694665512,
                        0.16522110525970932,
                        0.017539268197845514
                    ],
                    "bias": 0.012216887186614308
                },
                {
                    "weights": [
                        -0.14793166618213516,
                        0.025066331912666218,
                        -0.02310861633859337,
                        -0.011248759696339873,
                        -0.05176244543721263,
                        0.019916456051880468,
                        -0.03456826918605029,
                        -0.07464476128497466,
                        -0.0339502883764661,
                        -0.05793196226230072,
                        -0.08805562324839203,
                        -0.024255828979524247,
                        -0.0965501220138332,
                        0.058264842486047415,
                        -0.0005531296591704818,
                        -0.06380095227859651,
                        0.9294912838294281,
                        -0.002982831424620694,
                        -0.37851027650233654,
                        -0.04718686431501934,
                        -0.06140404764591264
                    ],
                    "bias": -0.035647123224638436
                },
                {
                    "weights": [
                        -0.07933439042952539,
                        0.0076885560741629935,
                        -0.1972203336572185,
                        0.08902943576539815,
                        -0.03711370403288533,
                        0.017902262884256157,
                        -0.07208849109381318,
                        0.04939302177848627,
                        -0.06320705355897159,
                        0.04037407764946631,
                        -0.018333099810876996,
                        -0.016042415527694757,
                        0.03658304936274365,
                        -0.1609496947262866,
                        0.0037248245114230145,
                        0.062031740039568205,
                        0.3401392073912225,
                        0.013761381459865033,
                        -1.1282925206323342,
                        -0.002399480581603043,
                        -0.0029845909025690083
                    ],
                    "bias": -0.005416251966405172
                },
                {
                    "weights": [
                        -0.0471613091598602,
                        -0.021391581977237315,
                        0.00824791309966376,
                        -0.06947310216588011,
                        -0.031680920409113744,
                        0.07748409539347317,
                        -0.08160456840067642,
                        0.013863499270418085,
                        -0.07709556504678336,
                        -0.009987170293440964,
                        -0.07190502488872728,
                        0.02088324527506074,
                        -0.06953900332928602,
                        -0.18377791262323623,
                        -0.0008400333656058517,
                        0.12274935375869737,
                        -0.15333222543145975,
                        -0.0014789675456201713,
                        -0.46834581489353566,
                        0.07749633725918673,
                        0.1646204853207969
                    ],
                    "bias": -0.04863487674923519
                },
                {
                    "weights": [
                        -0.024786002214369406,
                        0.00993388318382688,
                        -0.024272218227333452,
                        0.05021066245679307,
                        -0.0027078257053314296,
                        -0.0011623926800985289,
                        0.023895493419783812,
                        0.046810460588238366,
                        0.03545718893545962,
                        -0.017380720127496627,
                        0.03383710644530518,
                        -0.03966015123743153,
                        0.03012740206667274,
                        0.11144911511989561,
                        0.003821689415305094,
                        -0.1751855611904112,
                        0.18374443878885482,
                        0.0012674148544195847,
                        -0.5987951602233458,
                        0.14413618943147935,
                        -0.001580685062532722
                    ],
                    "bias": -0.014653335217706606
                },
                {
                    "weights": [
                        -0.030240638590557305,
                        0.02249030850194106,
                        -0.07076396668463922,
                        0.10772295859157399,
                        0.06166027734597678,
                        -0.00562789250989581,
                        0.08072806419675724,
                        -0.028586200454896606,
                        0.0529455101333838,
                        -0.06653652075740221,
                        0.053144812422516945,
                        -0.08520759568413341,
                        0.05918331169874185,
                        -0.17846877735971653,
                        -0.012911110654836511,
                        0.15000064636550667,
                        -0.030266019047265776,
                        -0.0017847193030039409,
                        -0.2770466520253548,
                        0.10071246757322326,
                        0.010738688027419022
                    ],
                    "bias": -0.018223392051213965
                },
                {
                    "weights": [
                        -0.04074890176286311,
                        -0.053872506511140276,
                        0.09800097939314693,
                        0.08646727791832337,
                        0.07455264450638822,
                        0.03633181362150522,
                        0.004753594636077447,
                        -0.019278772472095775,
                        -0.07789935353701523,
                        0.0014039089589963328,
                        -0.09906466970573492,
                        0.011894602604807975,
                        -0.09821204906051494,
                        -0.01553638416727141,
                        0.012529006210250836,
                        0.010413346294806043,
                        0.17624274002956297,
                        0.00012643953809899874,
                        -0.33603328109127883,
                        0.015058713427313445,
                        0.06055601281647512
                    ],
                    "bias": 0.0014866410516429316
                },
                {
                    "weights": [
                        0.0021663714512821035,
                        0.031225637595723547,
                        0.013283100049269057,
                        -0.005947696462746845,
                        0.00422221553947045,
                        0.023134655187387047,
                        -0.02833249462816268,
                        -0.003924695659931735,
                        0.0006176022459309635,
                        -0.012842283733858498,
                        -0.007808512672360425,
                        0.0382916450731456,
                        0.00147042745422779,
                        -0.03247278109391487,
                        -0.0059447353652987795,
                        -0.32964793719038304,
                        0.047180720569959804,
                        -0.010990662711012395,
                        -0.467055515699246,
                        0.08570807770387767,
                        0.13373852295561606
                    ],
                    "bias": -0.0015906905353874465
                },
                {
                    "weights": [
                        -0.0484484773290215,
                        -0.08732960722878076,
                        -0.02138133840093631,
                        0.056116691742569995,
                        0.12221951921721225,
                        0.04311683775671083,
                        0.05413661031827899,
                        0.021854021812421985,
                        0.07600780887729439,
                        -0.10287551842821781,
                        0.0386777632679807,
                        -0.04556901979195266,
                        0.06011915634464673,
                        -0.0682732442501725,
                        0.011639504279825911,
                        -0.025594533593956487,
                        -0.8041736760240191,
                        -0.013922709425623936,
                        -0.4011596314546597,
                        0.08263383935635425,
                        -0.11424929462084858
                    ],
                    "bias": -0.07669675383660637
                },
                {
                    "weights": [
                        -0.04387268880038109,
                        -0.02808519560842355,
                        -0.022646178429387792,
                        0.034677925334964554,
                        0.021013789641050936,
                        -0.0246515602500767,
                        0.00337745290802372,
                        -0.05136667287994107,
                        0.0029833134260354925,
                        0.0022222394730098643,
                        -0.031880956434502575,
                        0.04978378930031451,
                        -0.050431671666697105,
                        0.12876780964868104,
                        0.006010141024210511,
                        -0.21518061191504198,
                        0.012157337955470865,
                        0.015947168411595422,
                        -0.21654850809071302,
                        0.11058604620511596,
                        -0.0006915996260449908
                    ],
                    "bias": 0.012164526847348835
                },
                {
                    "weights": [
                        -0.049153478309418165,
                        0.02092225534487797,
                        -0.07748497968349502,
                        -0.0024101677687877474,
                        0.06192066036991025,
                        0.08238905656905122,
                        0.05323026155555975,
                        0.10127087754600698,
                        -0.03769002174693292,
                        0.051323313193091545,
                        -0.05279613528626172,
                        0.046522577323375496,
                        -0.0722601891811228,
                        -0.1130218785593434,
                        0.00405041354246664,
                        -0.016569029484175934,
                        -0.1401879713220234,
                        -0.008460151820965277,
                        -0.5439378501193511,
                        0.2262545025856555,
                        0.03192850366561787
                    ],
                    "bias": 0.009914566933023873
                },
                {
                    "weights": [
                        -0.011063349740060282,
                        -0.009905363251306884,
                        -0.004465149520670211,
                        -0.015193699659540134,
                        0.003241663524884421,
                        -0.02123895724309807,
                        0.003665982460968483,
                        0.002704568257798388,
                        0.008294055811834893,
                        -0.01289960899741054,
                        -0.007043436905427592,
                        -0.000349884904969617,
                        -0.01344450511034277,
                        0.013821589910375272,
                        0.0056976728023220395,
                        -0.00024354592260982842,
                        0.010302834540318422,
                        -0.009913923494563073,
                        -0.002949496782920278,
                        0.001920491164900316,
                        0.004369381697463499
                    ],
                    "bias": 0.0
                },
                {
                    "weights": [
                        -0.011962066240806708,
                        -0.005662977296027719,
                        0.008563987943234723,
                        -0.004842340728662514,
                        -0.0013014305436768459,
                        -0.005257550216807611,
                        -0.009398797863273552,
                        -0.0005023810944913696,
                        -0.02211135309007885,
                        -0.012950787720636162,
                        -0.014084612963635596,
                        0.0177080063563551,
                        -0.009186519464841983,
                        0.006487098875896427,
                        0.0044770856001731495,
                        0.021422703586118638,
                        0.002387891590265135,
                        -0.021533901136037148,
                        0.012477420726737338,
                        -0.003091164642025014,
                        0.011906462747863413
                    ],
                    "bias": 0.0
                }
            ]
        },
        {
            "neurons": [
                {
                    "weights": [
                        -0.024648719228643114,
                        -0.03813307619407368,
                        -0.030590705271659344,
                        -0.02485508734737624,
                        -0.03143905924304513,
                        0.00758084155203693,
                        -0.03289453795264275,
                        -0.030853043702548148,
                        -0.0182422718100844,
                        -0.03710872568202629,
                        -0.009161866808028258,
                        -0.007906817625100558,
                        -0.03089509674285884,
                        -0.016076610271180587,
                        0.014637030269454704,
                        -0.011208051572899069,
                        -0.013516190455140934,
                        -0.014749974706720088,
                        -0.017141569297060854,
                        0.003990134033648284,
                        -0.03138449424423494,
                        -0.022919513897215516,
                        -0.034649761226015006,
                        0.0037348849667692865,
                        -0.02238231233324972,
                        -0.013666902867878052,
                        0.00548166053391907,
                        -0.02789909610047715,
                        -0.027590790092461785,
                        -0.02810790615039432,
                        -0.029968991524647177,
                        -0.019702590265515935,
                        -0.0034756221253411947,
                        0.027201275737182003,
                        -0.028957222550724807,
                        0.0007125374991089249,
                        -0.022744142146052897,
                        -0.023653186469452286,
                        -0.020383985577852592,
                        0.00038331293029021066,
                        0.007964832586708407,
                        -0.01719774726999462,
                        -0.023982499323661737,
                        0.008779017869978338,
                        0.0001282864354368512,
                        -0.04349384360640092,
                        0.009478544993602674,
                        -0.009564184968601758,
                        -0.032471117213295986,
                        -0.04867902758513658,
                        -0.0013319535490943807,
                        -0.0289990366334755,
                        -0.03383611729264468,
                        0.0039124843434702765,
                        -0.0010698249549197028,
                        0.0086760646771026,
                        -0.04982482284828519,
                        -0.034194140491122654,
                        -0.00036001699045015636,
                        -0.04429411312363271,
                        0.030563466226650165,
                        -0.019775791042024822,
                        -0.008050951810305088,
                        0.025719953174949687
                    ],
                    "bias": -0.03508655447314263
                },
                {
                    "weights": [
                        -0.24299158903125131,
                        -0.24446849445495478,
                        0.059383369454607315,
                        -0.19644011274335615,
                        0.09422502470163535,
                        0.3906722001273361,
                        0.08532871391256289,
                        -0.057511091192701785,
                        0.08023713412020453,
                        -1.2046779230294042,
                        0.07695885744062657,
                        -0.00935931645062164,
                        0.03350648659627893,
                        0.0018474057889572447,
                        -0.035928157584818717,
                        0.13910973622142675,
                        0.012358116200069387,
                        -0.6291476466210678,
                        -0.23145116150721748,
                        -0.4128386798913993,
                        0.0711974483413379,
                        -0.19829163167909838,
                        -0.09591805716052061,
                        0.0036873314731751972,
                        -0.02120700152635066,
                        0.24804493194158841,
                        -0.004712708666592095,
                        -0.07262039101029677,
                        -0.45563743973194976,
                        -0.02528781010750922,
                        0.018500851777979922,
                        0.18691578317982896,
                        -0.74060820856739,
                        -0.2096177457651174,
                        0.20732461030982002,
                        -0.012935076252040958,
                        0.043864337029748866,
                        -0.24727722989668183,
                        -0.012310435151268905,
                        0.18886529469181426,
                        -0.7157413731885797,
                        0.31897549662464625,
                        -0.11020903587043737,
                        -0.008410840561213311,
                        0.00479827035366833,
                        0.1380081496423642,
                        0.005968203554088447,
                        -0.1476439468515115,
                        0.1573474573107766,
                        -0.32517270964429773,
                        -0.004539285189602974,
                        -0.22096278296337057,
                        -0.1587951160725046,
                        0.09498662119690945,
                        -0.2792051626551774,
                        -0.24636907060704236,
                        -0.17346548765265318,
                        -0.10271739129608529,
                        -0.23158878064754426,
                        0.1925171322995123,
                        -0.3965332955995357,
                        -0.08034437861319746,
                        0.0018847576101810291,
                        -0.02249432454200764
                    ],
                    "bias": -0.22455387086346928
                },
                {
                    "weights": [
                        -0.009965948357044223,
                        0.03319527165961429,
                        0.07175908816716471,
                        -0.03343275352175502,
                        0.04806156181520074,
                        -0.015467025987554965,
                        0.008522291425181903,
                        0.01989307443623186,
                        0.11566283054957932,
                        0.008275440188943274,
                        -0.047413709848716276,
                        0.16902194214095093,
                        -0.1475550522938869,
                        0.020236062192296393,
                        0.1956645541545891,
                        0.03204374251002575,
                        -0.0015598284274041558,
                        0.07117401814549176,
                        -0.094309170270699,
                        -0.08136557853762992,
                        0.05645029024816961,
                        -0.10477320633444655,
                        -0.009775269994627345,
                        0.003937972982162515,
                        -0.006068651778571754,
                        0.07974356425799113,
                        -0.0009087650570882206,
                        0.0646278660299509,
                        0.054059189469582034,
                        0.16269083454467262,
                        0.04844075166766031,
                        0.0008531666158803371,
                        0.09069291822770943,
                        0.09556797805743303,
                        -0.08034715190036316,
                        -0.00695694877197064,
                        0.1151550631759307,
                        -0.05138279169959681,
                        -0.020088139201929506,
                        -0.15055800724129323,
                        0.0289262756366971,
                        0.08476642763367281,
                        -0.013769649528884377,
                        -0.32852317354679217,
                        -0.0026864575330974257,
                        0.24196215420679248,
                        0.005178588440545176,
                        -0.0053810724372181104,
                        0.03193540432118566,
                        -0.04876838490048239,
                        0.04525027244259294,
                        0.05753893881323942,
                        -0.008199739169608406,
                        -0.09789709369735874,
                        0.017042623771793105,
                        0.015178648935863737,
                        0.07805533195793718,
                        -0.0804015255454455,
                        -0.0448059957094155,
                        -0.021684732563809973,
                        0.05603587535584855,
                        0.033506678694854415,
                        -0.006566893456274132,
                        0.00608735589124417
                    ],
                    "bias": -0.07479585827372681
                },
                {
                    "weights": [
                        -0.09548222351435565,
                        -0.2227983224992734,
                        0.27802055420033905,
                        -0.040710833820683384,
                        0.11351637163584286,
                        0.0772297519481808,
                        0.018461756558450927,
                        -0.4722665223339376,
                        0.05172715050884427,
                        0.20155511975420784,
                        0.2796640092217667,
                        -0.08196538330823039,
                        0.27277209571972333,
                        6.799844559997769e-05,
                        -0.8611285253860598,
                        -0.23914033415042407,
                        -0.005482872964906009,
                        -0.04701176235141932,
                        0.18318994561549887,
                        -0.4296062885495117,
                        -0.03561634769136346,
                        0.19296502424235792,
                        0.06015918051515792,
                        -0.0192767257934561,
                        0.004576865860535521,
                        -0.1620897781429808,
                        0.013257966475421901,
                        0.002084881021627855,
                        0.09331168636748474,
                        -0.03306163973009134,
                        -0.07626265887433378,
                        -0.10870464641325273,
                        -0.526925154495194,
                        0.1070910154909336,
                        -0.09407333326939354,
                        -0.00918126983416575,
                        -0.07904786201121532,
                        0.2116343185556213,
                        -0.0008606969279089307,
                        0.08526765092981713,
                        -0.3014477535726646,
                        0.12584429305645584,
                        -0.22952100822251217,
                        -0.13399643795731517,
                        -0.018363597837703974,
                        -0.01870063128818954,
                        -0.004303093199546424,
                        -0.49651334207952635,
                        0.010436064788943404,
                        -0.12218392571769214,
                        -0.39083239184143237,
                        0.04704262546670914,
                        0.03810662873465196,
                        0.41222316799853104,
                        -0.10200456775369615,
                        -0.4771441900108053,
                        -0.26028617216719474,
                        0.10578445458720118,
                        -1.121894934265765,
                        -0.3593475082839659,
                        -0.16651306004160107,
                        -0.20207829007522568,
                        -0.0026030904127143754,
                        -0.0055713057257223125
                    ],
                    "bias": -0.04457310968650827
                },
                {
                    "weights": [
                        -0.15312462275648087,
                        0.04986135391089871,
                        -0.26999793981260284,
                        -0.019759759746655454,
                        0.11210707893059818,
                        0.1449881062499675,
                        -0.2040123793778781,
                        0.0059572163890385015,
                        -0.14838083425365883,
                        0.031935922109799036,
                        0.1953024721580517,
                        0.062041829327315355,
                        -0.5947116657977483,
                        -0.0019003903500149446,
                        0.23903582655327474,
                        0.10929808845859602,
                        0.007721416384570508,
                        0.0958015475743867,
                        -0.01652958197324056,
                        -0.07309395706762743,
                        0.02284696477359339,
                        -0.19104591875832344,
                        -0.021850071469661635,
                        -0.0023839170844320804,
                        -0.027475048427252347,
                        0.07557382936990073,
                        -0.003842800380386198,
                        0.10551981227287655,
                        0.04320800426177719,
                        0.20854691499626868,
                        0.04053311769639117,
                        0.015095440076867746,
                        0.036081666223897364,
                        0.0773877475023673,
                        -0.001816104403803914,
                        0.012395840064415615,
                        -0.4384691424334533,
                        0.08716330761524489,
                        0.0049402310378191035,
                        -0.2024322824060432,
                        0.03407739735223844,
                        0.03230203983549422,
                        0.012307720415222703,
                        0.44768871315037956,
                        -0.004327738835883887,
                        -0.19999726555362551,
                        -0.005526202538755884,
                        0.024421663272913882,
                        0.04825959578621416,
                        -0.05194748180739977,
                        -0.10403665994780463,
                        0.015858323590052174,
                        0.05689505162449465,
                        0.07567272390920543,
                        -0.004465740258362196,
                        0.025639810296098648,
                        -0.02470631800729344,
                        -0.025471406797727705,
                        -0.023593990222995038,
                        -0.1885682261506751,
                        0.05073092347438787,
                        -0.0920536176963953,
                        -0.015100412119852523,
                        -0.005864151488887735
                    ],
                    "bias": -0.0743960532449673
                },
                {
                    "weights": [
                        0.09257797955941786,
                        0.15026008068716093,
                        0.38741184836588527,
                        0.023823199658162934,
                        0.2264968953872506,
                        0.1848290040908849,
                        -0.017730936132913155,
                        0.04456526183929226,
                        0.0580834452722759,
                        -0.10617767041064002,
                        0.22791430156434087,
                        0.10688898249541605,
                        -0.031141617966234943,
                        -0.003574454228104272,
                        0.05488438496670311,
                        0.09166958134598804,
                        0.004420746113142922,
                        -0.09747668225028598,
                        -0.04801945326029404,
                        -0.13755103949000938,
                        0.0909578253024484,
                        -0.0077699524795517795,
                        -0.028203199471166594,
                        0.008258406642810918,
                        -0.004997301761516307,
                        -0.0032970891500854415,
                        -0.014819678455363926,
                        0.03824227504740416,
                        -0.14003491298263127,
                        -0.13139170108565407,
                        0.05444559004113666,
                        0.026732840790918495,
                        0.004779655905369437,
                        -0.1006009365353856,
                        0.11849393179350497,
                        -0.003962296781017598,
                        -0.06215790228198385,
                        -0.019678133205785462,
                        -0.0028189085044283864,
                        -0.062465115657319326,
                        -0.0924836256164638,
                        0.26891938582505936,
                        0.07687169162765525,
                        0.13971840089142998,
                        0.007938184671438156,
                        0.17912299269540055,
                        -0.003343252544817908,
                        -0.11426115184307181,
                        0.018965900202755747,
                        -0.573184652678415,
                        -0.05933655161600197,
                        0.011197085258604486,
                        0.059254435748562054,
                        -0.2175520606434113,
                        -0.18211259214130457,
                        0.014479917385521459,
                        -0.15752125153135435,
                        -0.04385285983047411,
                        -0.023441180204171838,
                        -0.06500102851879459,
                        0.05715285686814729,
                        -0.12858343753567672,
                        -0.002205382291565374,
                        -0.006197721282538776
                    ],
                    "bias": -0.015534572337198654
                },
                {
                    "weights": [
                        0.20723560520892464,
                        0.04074274424946396,
                        -0.7080963865579842,
                        0.10068166129742814,
                        -0.06428527179290063,
                        0.03570436765297994,
                        0.049063735042318285,
                        0.023702950722828423,
                        -0.12238442850430312,
                        -0.09326577399820514,
                        -0.1065905626461718,
                        0.07646010994892943,
                        -0.3277464482769661,
                        -0.0018039168176240783,
                        -0.037338074085053505,
                        0.020431618768379137,
                        0.013574359558286049,
                        -0.03082250153607299,
                        0.07041965914775075,
                        0.08361908681962453,
                        0.012753124551639714,
                        -0.0719856468786874,
                        0.10739140022907667,
                        -0.0004858300497195201,
                        -0.005262478565174211,
                        0.07287760910688243,
                        0.00017169299245465558,
                        -0.022574163496830557,
                        0.1446178687512454,
                        0.03970245597262287,
                        0.01696555682656336,
                        -0.031056688926039033,
                        0.063273083123646,
                        -0.03068221191871993,
                        -0.012336947647596016,
                        0.010683793336940164,
                        0.13754111400105082,
                        0.05819617053426391,
                        -0.006799696008731794,
                        -0.111875939049248,
                        -0.03613569044164583,
                        -0.30819886958482706,
                        -0.026279480692527963,
                        -0.08362265710939669,
                        -0.0029737607924310645,
                        -0.04660529784552605,
                        0.018442286130644983,
                        -0.14850246665705283,
                        -0.3274809409877157,
                        0.13841291740572556,
                        -0.01697717646265122,
                        0.019602331649239812,
                        0.05203252509943235,
                        -0.0825049609056602,
                        0.07926262640021314,
                        0.05004219425061647,
                        0.05255166492128602,
                        -0.03255929257764287,
                        0.024889816085865005,
                        -0.04173838415644621,
                        0.11980941500994019,
                        -0.006906615033202505,
                        -0.0019370537980496205,
                        -0.009087696708079733
                    ],
                    "bias": 0.07762048288042196
                },
                {
                    "weights": [
                        0.09158674951715075,
                        0.10527706817912474,
                        -0.21810815008602552,
                        -0.004506611635061836,
                        -0.03514572506011205,
                        -0.28766442157999467,
                        0.055955714642104054,
                        0.05487381037052927,
                        -0.02838357526403632,
                        0.049808077948315856,
                        -0.3194848540865742,
                        -0.07452077121935295,
                        -0.33213595957693415,
                        0.013728484746765302,
                        0.01756908733812752,
                        -0.10993012245742688,
                        0.014484992298929262,
                        0.024147403295851144,
                        0.08997659396373567,
                        0.01648144146118958,
                        0.042512806611901356,
                        0.12434623008736802,
                        -0.012803388309368714,
                        -0.014051898468035751,
                        0.01388337778208448,
                        -0.1989572223808683,
                        0.010381671646517937,
                        0.06485376296962723,
                        -0.02881463692279589,
                        -0.03040671257099049,
                        -0.009418866624078589,
                        0.07273895595476493,
                        -0.11669995820911254,
                        0.03311814768651582,
                        -0.06458381031254833,
                        0.00604120889588518,
                        -0.016485951982098093,
                        0.05157926036710867,
                        -0.011722337534366401,
                        0.12751888408405482,
                        0.0026674060020744224,
                        -0.06880053220191652,
                        0.08657174896249223,
                        0.05882631824145442,
                        -0.00246383402514548,
                        -0.027073928837049052,
                        -0.015271678565896476,
                        0.06679417071646405,
                        0.06231119115728481,
                        -0.018267261446973174,
                        -0.06160318984155682,
                        0.06805203386850316,
                        -0.02674110316383755,
                        0.03156518633411653,
                        0.05543773125334372,
                        0.03562119235410544,
                        0.0733531254262821,
                        -0.0024404665331046907,
                        0.02326908842743921,
                        0.011673273565301087,
                        -0.019079769051876895,
                        0.023828768973584193,
                        0.005402879440356953,
                        0.016845248346034517
                    ],
                    "bias": 0.0258434596983586
                },
                {
                    "weights": [
                        -0.08107308333452376,
                        0.0742214915268351,
                        0.13507523068387556,
                        -0.08881244705722952,
                        0.029190161681390103,
                        0.11426509584275493,
                        -0.1836418605214937,
                        -0.048376909793505084,
                        0.07281049392882578,
                        0.0007334179344776029,
                        0.3888690484588893,
                        0.04079466314342467,
                        0.3743249141217827,
                        -0.02211861911329507,
                        -0.008801172035076578,
                        0.19183284840407697,
                        0.003030879270344967,
                        0.0013541274179939217,
                        0.20481836437872575,
                        0.05333746052391232,
                        0.03520779818846494,
                        -0.04541371174574303,
                        -0.051492835433371284,
                        -0.00031041187951314457,
                        -0.0038502181171286365,
                        0.11620442021878456,
                        -0.006581222210985721,
                        -0.03593172678897974,
                        0.023757987526716817,
                        0.07047059263840097,
                        0.03895986990190795,
                        -0.07336977970501557,
                        0.011639431407073842,
                        0.016179589344705696,
                        0.028627677310068704,
                        0.02303638752104789,
                        -0.2097712134396172,
                        -0.004544314911956013,
                        0.009733555089445919,
                        -0.24317592808642272,
                        0.046504132269444595,
                        0.017550982159466766,
                        -0.03491731212388983,
                        0.09036720782251992,
                        0.00986376505905937,
                        -0.08490077958680024,
                        -0.0019912467328273044,
                        -0.0017346956777061842,
                        -0.07287170860884414,
                        0.08280641888792999,
                        -0.0024000364357787854,
                        -0.09739068176167241,
                        0.00013254573452750165,
                        0.0031403797461655963,
                        -0.04745650148894466,
                        -0.04140559118530016,
                        0.06312364142024629,
                        -0.05214352811212718,
                        -0.0023425266635663344,
                        -0.06333911351353327,
                        0.028386436495295885,
                        0.010564771398224095,
                        0.0022328091325537055,
                        0.008422973270139028
                    ],
                    "bias": -0.04412245236622333
                },
                {
                    "weights": [
                        -0.5081337600454671,
                        -0.1233801330574122,
                        0.09601083915227183,
                        0.03888073907150339,
                        0.06949558681567986,
                        0.11286209436374305,
                        -0.07102707240045511,
                        0.005744133937478489,
                        -0.06403421598203873,
                        0.10208624898694343,
                        0.11363814403644598,
                        0.14637728910708442,
                        -0.045162509819112,
                        0.015334337012963255,
                        0.05965094136808719,
                        0.05062996360724342,
                        -0.010260001382845215,
                        0.12652891269404912,
                        0.04211038346277943,
                        0.05410547530864881,
                        -0.12123850257793375,
                        -0.03249966029183802,
                        0.014753338082552669,
                        0.016701088468059948,
                        0.0038298898474092846,
                        0.07949135702901335,
                        -0.024622034590049982,
                        -0.04298505149791526,
                        -0.04623900005939845,
                        0.30396735362041033,
                        -0.008373176691443508,
                        0.08081962899882286,
                        0.10533840649205736,
