{
    "_comment": "Optimizer_Adam(learning_rate=0.001, decay=1e-3), third dataset, trained on all of the data, epochs 75000, test: 0.300, 0.0484",
    "items": [
        {
            "neurons": [
                {
                    "weights": [
                        -0.03332551133195369,
                        0.0030347944754603663,
                        -0.024483821476461817,
                        0.043747983746115965,
                        0.04119930504535598,
                        0.017890302829765288,
                        0.03815504152681394,
                        0.011479910945201214,
                        0.00584325602429185,
                        0.009888078578695433,
                        -0.004216897067379689,
                        0.030545038213089848,
                        0.005431352751939318,
                        0.002321843123059749,
                        -0.008212676992272782,
                        0.004065877618265495,
                        -0.005639654259263305,
                        0.1056723564872219,
                        -0.016276703934931656,
                        -0.07982127250739945,
                        -0.01656159878509904
                    ],
                    "bias": -0.002183832243301725
                },
                {
                    "weights": [
                        0.008550538819880129,
                        0.01603485076651982,
                        1.2172879154742141e-05,
                        0.021093832866563418,
                        0.009223492425181884,
                        0.01756502892011917,
                        0.024181768350818252,
                        0.022345201869926445,
                        0.02008356307359639,
                        0.005725837389723452,
                        0.03284291868371422,
                        0.009926783476402629,
                        0.0434339574254879,
                        0.08105625281644939,
                        -0.1624263880152863,
                        0.05037160783648168,
                        -0.1517523455940148,
                        0.03895973821602111,
                        -0.007012761495242698,
                        0.03465720060843936,
                        -0.025254637668626474
                    ],
                    "bias": 0.021023036611038666
                },
                {
                    "weights": [
                        -0.02606816445265326,
                        0.0031461200004164608,
                        0.004178473627219681,
                        0.03094260464635219,
                        0.01973195318494511,
                        0.023362452486728105,
                        0.038840605006064725,
                        0.020299204238872787,
                        0.0316594121172067,
                        0.011446513980667192,
                        0.027602564989284775,
                        0.025536693899810285,
                        0.030860689802149455,
                        0.1763837715234269,
                        0.10133223612902914,
                        0.005271447989574072,
                        0.07606917718121588,
                        0.10760181267086617,
                        -0.04771446692621832,
                        -0.025958584879152626,
                        -0.011285834249134055
                    ],
                    "bias": 0.014333259836088918
                },
                {
                    "weights": [
                        -0.014007703306472314,
                        -0.010189341821666588,
                        -0.024990162544963668,
                        0.03493786133723648,
                        0.006835515551051136,
                        0.008119920071952927,
                        0.03081356703101586,
                        -0.0004016525507657234,
                        0.03263569666798165,
                        -0.013730924563752725,
                        0.017472234761571444,
                        0.005082143564435402,
                        0.0054308834084028845,
                        0.0561000527543705,
                        0.1397926823738409,
                        0.025283289193128465,
                        0.12820360372365328,
                        0.03581349547334513,
                        -0.05083656429905194,
                        -0.029871924098878427,
                        -0.020933363375877808
                    ],
                    "bias": -0.0065256002531393804
                },
                {
                    "weights": [
                        -0.035618829815737454,
                        -0.016676116016773882,
                        0.01344071652981555,
                        0.02375470892532139,
                        0.00864967461448834,
                        -0.0016439742195056217,
                        0.009036229450136365,
                        0.01578889694571342,
                        0.020073257253403858,
                        0.005446757236920759,
                        0.006011017697753719,
                        -0.007429505407790769,
                        -0.00697053609663909,
                        0.12347235573970097,
                        -0.06441258301385666,
                        0.02537865314000476,
                        -0.01888344916238215,
                        0.07961573527668145,
                        -0.07466658795292357,
                        -0.05589393432140879,
                        -0.041210574710519754
                    ],
                    "bias": -0.008699113766073956
                },
                {
                    "weights": [
                        0.024431068252975634,
                        0.005653907739044251,
                        -0.007401417232739211,
                        0.034301828608888536,
                        0.010785176079133311,
                        0.002105642308735559,
                        0.037019688540121456,
                        0.0011541777608237386,
                        0.0053138470718052415,
                        -0.00678359892348704,
                        0.0009165630191179731,
                        0.0108902962996546,
                        0.017808633059408822,
                        0.04031168763837978,
                        0.12857757448817014,
                        0.0006814147225943389,
                        0.020009186223033378,
                        0.07233979491162167,
                        -0.00834205924148042,
                        -0.01708092422045726,
                        -0.06563160065637061
                    ],
                    "bias": 0.010687914532845616
                },
                {
                    "weights": [
                        0.06488948155584047,
                        0.029856771553283954,
                        -0.0301719546621555,
                        -0.0076074236571310305,
                        -0.014535387689668215,
                        -0.053972798309995365,
                        0.018630375526273515,
                        -0.04253662896729375,
                        -0.016939575446382492,
                        -0.029806642074921265,
                        -0.02596429410016145,
                        0.003795506288417439,
                        -0.02523500709469482,
                        -0.004799492874959997,
                        0.017869946307827393,
                        -0.054493034784126315,
                        0.07869358461730029,
                        0.05908671172234119,
                        0.008802681450389418,
                        -0.03342593847149399,
                        0.09064659358013263
                    ],
                    "bias": -0.0034717238029736467
                },
                {
                    "weights": [
                        0.0073175248437742394,
                        -0.013224472372928932,
                        -0.019130651961548676,
                        0.01902816485951795,
                        -0.04095436606555617,
                        0.038764377478255535,
                        -0.0022962391751360145,
                        0.022560523547498112,
                        0.02756902562394014,
                        0.005454608282967698,
                        0.026928888251351864,
                        -0.023567367852742105,
                        0.027770234785875526,
                        0.2111529077755801,
                        -0.0629665367561266,
                        -0.003955716024293168,
                        0.03199456385235366,
                        0.02499765285258077,
                        -0.05519722476744733,
                        -0.004672337563972387,
                        -0.010519001328579445
                    ],
                    "bias": 0.0023765737535324442
                },
                {
                    "weights": [
                        -0.029220299086438115,
                        -0.022367297424286777,
                        -0.03815863651199701,
                        0.012709946171220881,
                        0.004025503958059927,
                        0.010651276837036596,
                        0.033958871772210616,
                        0.012210340665623723,
                        0.0027069407683878856,
                        -0.001822749685861151,
                        -0.014090761564400629,
                        0.008683138795291083,
                        0.004642156734689422,
                        0.0028222961252910767,
                        0.016186468616841906,
                        0.0014761744905184822,
                        -0.07013454526625765,
                        0.14008850184676988,
                        -0.056556674362641654,
                        -0.14408182480996526,
                        0.08234738420559709
                    ],
                    "bias": -0.022533917538681024
                },
                {
                    "weights": [
                        -0.013707148807772043,
                        -0.0037663258108375907,
                        -0.0035756540878321415,
                        0.018805898136063953,
                        0.01675414582453021,
                        0.04235658329971306,
                        0.03224151666604039,
                        0.01292957001656288,
                        0.02302393610370864,
                        0.011808717300227383,
                        0.020667214770265202,
                        0.023368267093810076,
                        0.027349148686038244,
                        0.21514484623000615,
                        0.07260291521394444,
                        0.05486833551796804,
                        0.11317717876635362,
                        0.09565639564889165,
                        -0.021629885299618363,
                        -0.032747284387465686,
                        -0.021945576648236254
                    ],
                    "bias": 0.008906217070157096
                },
                {
                    "weights": [
                        -0.010409505581400202,
                        -0.01667193216230529,
                        0.0006115194753416018,
                        0.044666705329445756,
                        0.01194935874992372,
                        0.032649242120261074,
                        0.00918025665225846,
                        0.006717427744237204,
                        0.02993231085097946,
                        -0.005167414346623324,
                        0.022848391455847227,
                        -0.013338431217662799,
                        0.030023038594855236,
                        -0.21175500047524481,
                        -0.069671484194998,
                        -0.01876757693073298,
                        0.035791578807823854,
                        0.053763438187216524,
                        -0.02676856245624441,
                        -0.018636532698765546,
                        -0.017635117373717046
                    ],
                    "bias": -0.0021842513868807023
                },
                {
                    "weights": [
                        -0.024923483916417695,
                        -0.007814680615295394,
                        -0.012736254073468158,
                        0.019355984226576833,
                        0.023242273060522324,
                        0.0027191225820881915,
                        0.046381467468556266,
                        0.01086132183644715,
                        0.02179820360832565,
                        -1.2732418976343472e-05,
                        0.002605572121557635,
                        0.010693397410939134,
                        0.00592997693722964,
                        -0.05899378012204423,
                        -0.15168880443294455,
                        0.034861667280371454,
                        0.04746377775035363,
                        0.06306396148206014,
                        -0.09512468976240397,
                        -0.04135733912778181,
                        -0.0166326188852934
                    ],
                    "bias": 0.0052867119086929225
                },
                {
                    "weights": [
                        -0.041394185440995566,
                        0.0071432497319677294,
                        0.03169799987013955,
                        -0.003732197674090277,
                        -0.009627370171645035,
                        0.0237913687811146,
                        -0.0052758839816982985,
                        0.011624088215769188,
                        0.028345354406692187,
                        -0.04400352679422817,
                        0.03567418613290446,
                        -0.06895167750262508,
                        -0.024860026675465493,
                        -0.010266158306618464,
                        -0.036746790168742646,
                        -0.029125697896778713,
                        0.01935484231856623,
                        0.005639731770985392,
                        -0.10506865383535618,
                        -0.07645694733773085,
                        -0.0053712361084462075
                    ],
                    "bias": -0.009906969668859393
                },
                {
                    "weights": [
                        0.008318262382207493,
                        0.02012568042424488,
                        0.011910828319672752,
                        0.0026422862258274147,
                        0.03814620395626186,
                        0.008856363057140278,
                        0.04050054583736539,
                        0.005567296940003137,
                        0.0051555348001990214,
                        0.012479859116268713,
                        0.006336663275974572,
                        0.0159187985491909,
                        -0.0019286467234902796,
                        -0.022592710466450713,
                        0.18082156082010623,
                        -0.020965019336352673,
                        -0.11569096271318724,
                        0.07234452512580013,
                        -0.0020545516046943913,
                        -0.04115111326043616,
                        -0.0619796590241906
                    ],
                    "bias": 0.0025069592218968386
                },
                {
                    "weights": [
                        0.002166495746125789,
                        0.0008969461970005727,
                        -0.01593716064457482,
                        -0.000985321018938746,
                        -0.0063628174577154625,
                        0.025627237888600465,
                        0.023972527841260173,
                        0.007515190181554189,
                        0.03209471589421943,
                        0.007820485181116821,
                        0.02861264582989507,
                        0.02535328465881449,
                        0.006320401879437652,
                        0.04305510946030099,
                        -0.1569220128774321,
                        0.03866425161557505,
                        -0.05818606640726342,
                        0.0659538018654549,
                        -0.0485607305954719,
                        -0.056727102231864404,
                        -0.007965182679315268
                    ],
                    "bias": -0.0018784717843275504
                },
                {
                    "weights": [
                        -0.039115305699085064,
                        -0.006642686975771693,
                        -0.030908046422280684,
                        0.01956205367317932,
                        0.013911756830082327,
                        0.015381185169045762,
                        0.02892935785767968,
                        0.012920547686168515,
                        0.02429263115761359,
                        -0.0015773735621689192,
                        0.015855001774177993,
                        -0.011233580469910598,
                        0.019919143323545333,
                        0.03686348830273085,
                        -0.010491272611607188,
                        -0.0011976473072037612,
                        -0.04632954738800712,
                        0.1065869324126262,
                        -0.07826912018221896,
                        -0.11612238168850109,
                        0.01763473510124006
                    ],
                    "bias": -0.01209545405621357
                },
                {
                    "weights": [
                        -0.02849389509982523,
                        0.020029020179321743,
                        -0.015190526069072771,
                        0.018713062017041527,
                        0.055449917001347604,
                        0.00326347053062755,
                        0.05468023156974211,
                        0.021589192846701737,
                        0.008072455156765312,
                        0.022652027939294307,
                        -0.010391832521833178,
                        0.03555629194098121,
                        0.0031993455527034877,
                        -0.07097763994576628,
                        0.03604993300164755,
                        -0.03987555176558145,
                        0.04367378949442384,
                        0.11633785899763374,
                        0.004266603561427545,
                        -0.10697345221357062,
                        -0.07313714107946956
                    ],
                    "bias": 0.0006619027416900066
                },
                {
                    "weights": [
                        -0.0008300275166565651,
                        0.03707478693540033,
                        -0.011331035974666077,
                        0.05705203343821084,
                        -0.010809939985599551,
                        -0.01692013471395641,
                        0.0112246331259486,
                        -0.03380830021455753,
                        -0.004469977634569996,
                        -0.04135596485143777,
                        -0.010169857594297168,
                        -0.03806040073372655,
                        -0.003027130572548774,
                        0.09952814144720869,
                        -0.0074245135470367455,
                        0.024685793742174097,
                        0.0180825392648509,
                        0.0017534076078941562,
                        -0.022078938880616152,
                        -0.03045645013668826,
                        0.013259461716171886
                    ],
                    "bias": -0.005042850131606111
                },
                {
                    "weights": [
                        -0.04530562756952368,
                        0.012644576335815009,
                        -0.022561665540478126,
                        0.022353180906732724,
                        0.011635029253497086,
                        0.015457811332783402,
                        0.027275887253739584,
                        0.02230322667938116,
                        -0.0019403685100538991,
                        0.02131858097675488,
                        -0.0053563218454591235,
                        0.02648836897173238,
                        -0.021993583783845073,
                        0.006596147155477457,
                        0.03997475636955159,
                        0.015955643675562133,
                        0.0013765135498968843,
                        0.018611793530288273,
                        -0.03883751515606295,
                        -0.0017016774740677178,
                        -0.002110666215889909
                    ],
                    "bias": 0.004021573644428305
                },
                {
                    "weights": [
                        -0.0019333440215640169,
                        0.0020075198821226945,
                        -0.014149194246102366,
                        -0.0009715358535043798,
                        -0.0050317880612293486,
                        0.02295398082928527,
                        0.027355135471159614,
                        0.004609682041323215,
                        0.04403408160397195,
                        -0.010405757515681053,
                        0.03357632505098538,
                        -0.0007312029538388553,
                        0.016147324624853184,
                        0.042665271201164034,
                        -0.139136059327374,
                        0.009931371765835627,
                        -0.03728809689496586,
                        0.05037079071760287,
                        -0.035246108316803255,
                        -0.05544590412384379,
                        0.0024515214290198478
                    ],
                    "bias": -0.00668177907435141
                },
                {
                    "weights": [
                        -0.021233589952900582,
                        -0.003826280848604317,
                        -0.021102595267978582,
                        0.03169897010689498,
                        0.011056354470238079,
                        0.01530870752083162,
                        0.05553707355598994,
                        0.005454465327107295,
                        0.041394093130493526,
                        0.0031082084409032747,
                        0.0339773735329419,
                        0.012265442700053787,
                        0.027944982578678883,
                        -0.0892203078380988,
                        -0.1639800902585953,
                        0.04301426346381053,
                        -0.006767597213399127,
                        0.10997236846086567,
                        0.03725760132200806,
                        -0.0711525504576275,
                        -0.04983559603635337
                    ],
                    "bias": 0.01663233046489045
                },
                {
                    "weights": [
                        -0.03594083299357383,
                        0.010859017268498885,
                        -0.0185118849269396,
                        0.03708693693289559,
                        0.04976971183247623,
                        0.0140049653255332,
                        0.03599617574255757,
                        0.007143462096791924,
                        -0.0007140935315019171,
                        0.00851065578699993,
                        -0.012783504849336803,
                        0.026779407533541393,
                        0.0020334161899872626,
                        0.0036545427623891364,
                        -0.005508908426745845,
                        -0.00500751744894525,
                        -0.013395030354366807,
                        0.11066876547581861,
                        -0.008010170837680046,
                        -0.09954185867444354,
                        -0.02578672836446995
                    ],
                    "bias": -0.005166443295180653
                },
                {
                    "weights": [
                        -0.011463960892363232,
                        -0.014398630401058165,
                        -0.008255696870414666,
                        0.05558098474590857,
                        0.0055019899140505875,
                        0.012242561740641178,
                        0.007587904047015868,
                        0.00906692669040616,
                        0.014645903708012668,
                        0.01184639904684908,
                        0.009643603400539397,
                        0.00013927369677760158,
                        0.0028384240711140842,
                        0.019286145088707324,
                        -0.059179157361914286,
                        -0.018716917697371233,
                        -0.03269943325309287,
                        0.03669151382404734,
                        -0.027876172419062345,
                        -0.05300544060379297,
                        -0.02063999909389698
                    ],
                    "bias": -0.011694364594249421
                },
                {
                    "weights": [
                        -0.002181386024846421,
                        0.012126879738262257,
                        0.0045228448260411615,
                        -0.003571890403730105,
                        -0.011275251018279918,
                        0.002896463171385069,
                        -0.008863682252870628,
                        0.003922505693487966,
                        -0.03791386850387236,
                        0.012315946396758324,
                        -0.016817379511703073,
                        -0.012561851528661058,
                        0.005015910881544776,
                        -0.1817350290703616,
                        -0.055086907281776294,
                        -0.08931208753837594,
                        0.007192244797959898,
                        0.015016037079318447,
                        0.007740730437137946,
                        -0.02063087396313125,
                        0.010369991921152386
                    ],
                    "bias": -0.009855210059274833
                },
                {
                    "weights": [
                        -0.007711400054889425,
                        -0.003921009338186001,
                        -0.015334683750518137,
                        0.02840114312097262,
                        0.03432563604094207,
                        0.0243560590903901,
                        0.05871623117161386,
                        0.0038363843631756002,
                        0.023374787562716673,
                        -0.006226657800285927,
                        0.0037848897148181366,
                        0.012711383526070524,
                        0.023154994236151732,
                        0.09639720718087728,
                        0.05602944235661675,
                        -0.03363867121140235,
                        -0.02689063953236668,
                        0.09127255631291323,
                        0.00852876793459563,
                        -0.042461288741151404,
                        -0.06487442907953335
                    ],
                    "bias": 0.011653413999751686
                },
                {
                    "weights": [
                        -0.031236295872396545,
                        0.011049163326129513,
                        -0.016625709798152453,
                        0.045787587116630654,
                        0.00578152802465315,
                        0.010035775591539885,
                        0.015309888055375606,
                        -0.0006578907096853133,
                        2.4626112202556895e-05,
                        -0.015629716127667496,
                        -0.009869623430245974,
                        -0.001664182902679566,
                        -0.010812080593683661,
                        0.08420797843752521,
                        -0.04364571453844868,
                        0.024457618365357123,
                        0.007006938328333663,
                        0.0012718764556054775,
                        -0.059086292854922416,
                        0.024605942403854813,
                        -0.02855427202871505
                    ],
                    "bias": 0.006514481711991865
                },
                {
                    "weights": [
                        -0.02193350084417342,
                        0.022236644211151128,
                        0.005901240388446375,
                        0.026986667764046235,
                        0.003226175806230516,
                        0.022583038181345202,
                        0.007679469871898843,
                        0.00022363347113189258,
                        0.0008968472668021726,
                        -0.013912171216678015,
                        -0.0010256861867556425,
                        -0.019569372396902877,
                        0.0083456919692904,
                        -0.03447651088351408,
                        0.017440459396922122,
                        -0.0007216040604785356,
                        -0.014456995447435906,
                        0.02277204291547226,
                        -0.042031850068613145,
                        -0.017838778940939336,
                        -0.021916161824535884
                    ],
                    "bias": -0.008082513657228774
                },
                {
                    "weights": [
                        -0.021181299656167687,
                        -0.013869827731252966,
                        0.005880011741578828,
                        0.016875047009387717,
                        0.027793578303752987,
                        0.00916576890045255,
                        0.04809652551769003,
                        0.0035415616159106683,
                        0.02478074647903237,
                        -0.0158088929929468,
                        0.014647554858445383,
                        0.001574820953222374,
                        -0.0016622234209942412,
                        0.0633170486367869,
                        0.132806049093147,
                        0.01617762532035767,
                        0.06434166987864348,
                        0.05804336739997905,
                        -0.0757669116016796,
                        -0.048277540051241345,
                        -0.025607807119997154
                    ],
                    "bias": -0.0017939452631411039
                },
                {
                    "weights": [
                        -0.045768900814233966,
                        -0.015274427850708889,
                        -0.022295459363074314,
                        0.04218624731701601,
                        0.018812963265343128,
                        0.00031432324807834783,
                        0.013029460085631366,
                        0.003430791220483178,
                        -0.0016560159472800012,
                        0.02420875068818741,
                        0.0007579905355429255,
                        0.02846920175276284,
                        -0.009169482251911065,
                        -0.06928869385108939,
                        0.022182492846693307,
                        0.009269660853714798,
                        -0.014029622986696801,
                        0.0038972634015166357,
                        -0.013604190965359156,
                        0.02008854235987718,
                        -0.01357441654391944
                    ],
                    "bias": 0.00802970096198273
                },
                {
                    "weights": [
                        -0.04877987355618051,
                        -0.0009307034349072909,
                        -0.007591776790764847,
                        0.050546732432983674,
                        0.02702089548636009,
                        -0.007851260625920339,
                        0.018769106986324374,
                        0.008861348580610847,
                        0.002291433329526976,
                        -0.02783320608598447,
                        0.013167965206260538,
                        -0.008226189567174602,
                        0.008637928520618897,
                        0.008753893335795624,
                        -0.09167479478064469,
                        -0.023857744149245783,
                        -0.006513637723827009,
                        0.09515824363979182,
                        -0.012806155396097831,
                        -0.09913927903366601,
                        0.001116319823831675
                    ],
                    "bias": -0.013559697118527074
                },
                {
                    "weights": [
                        -0.03178228056753823,
                        -0.005394491165618709,
                        -0.001949753968253663,
                        -0.0014559892585314232,
                        -0.011682475994911448,
                        0.01844553590036228,
                        0.008329919207602416,
                        0.011447860758575859,
                        -0.012063013519645966,
                        0.012682349846790564,
                        -0.009493945159931362,
                        -0.0016036808825625121,
                        -0.008858657886169312,
                        -0.1576461311976495,
                        0.14936858012208246,
                        -0.08536225547146536,
                        0.09805154126048304,
                        0.04208570054114122,
                        -0.038319953301133886,
                        -0.06205680407969065,
                        -0.06503500289811182
                    ],
                    "bias": -0.023035417279077132
                },
                {
                    "weights": [
                        -0.011752866525927393,
                        5.182177124961212e-05,
                        -0.011900642702073716,
                        0.026291677851400436,
                        0.04178664162485636,
                        0.03395434016472668,
                        -0.0015713657837900157,
                        0.014447302630966961,
                        -0.014073606078253639,
                        -0.031089283979858506,
                        0.017485278617738655,
                        -0.03172986076499003,
                        -0.044292446909530936,
                        -0.15360127358642237,
                        0.027812859857824047,
                        -0.005285204650920088,
                        -0.027281165163928065,
                        0.007906204509061354,
                        -0.0628539944756014,
                        0.002710031981758757,
                        -0.02900749302759672
                    ],
                    "bias": 0.001334856428415908
                },
                {
                    "weights": [
                        -0.028067232323206695,
                        0.00724070265006543,
                        -0.006736750866152192,
                        0.037647542590684424,
                        0.025184127195281444,
                        0.006444363217885523,
                        0.02692849193407235,
                        0.004968487308629779,
                        0.003362255000382944,
                        -0.003496856407137547,
                        0.00046027346931889053,
                        0.017241309172091174,
                        -0.011701610197048419,
                        -0.03701195176946159,
                        -0.0049592647397352346,
                        -0.011901498976384359,
                        -0.018720211322186223,
                        0.01697898922879535,
                        -0.04967768723235796,
                        0.00782202436510606,
                        -0.03781313307349724
                    ],
                    "bias": 0.005292270742562017
                },
                {
                    "weights": [
                        -0.048155570614889606,
                        0.007568710234035267,
                        -0.0037389528721383926,
                        0.00864153614642938,
                        0.0397474613083247,
                        0.009045456330215479,
                        0.047299502737912585,
                        -0.00586610011208924,
                        0.025114527326840587,
                        -0.015511860318667869,
                        0.015435378273505239,
                        0.00471810423953754,
                        0.015371454917856632,
                        -0.05622558523160142,
                        0.08876456725190338,
                        -0.024843706471236918,
                        0.055698225007796275,
                        0.08584112622983751,
                        -0.041715225468502856,
                        -0.07425077071955771,
                        0.015042260352902579
                    ],
                    "bias": -0.008311986437518966
                },
                {
                    "weights": [
                        -0.050375785033678774,
                        0.035002066504328536,
                        -0.013822909523478621,
                        0.033238319769594064,
                        -0.0024053698111467896,
                        0.003941306783353816,
                        -0.0007919783016631079,
                        0.007656298962097668,
                        -0.010524927284642646,
                        -0.00501727430691034,
                        -0.0043410940176804,
                        -0.018852470745082183,
                        0.019862684927792886,
                        0.06906520936748321,
                        -0.02318775486845543,
                        -0.02005419948949262,
                        0.03755223878438852,
                        -0.01500306491551444,
                        -0.009523940797729455,
                        0.04531907411416609,
                        -0.026165726544363933
                    ],
                    "bias": 0.010847480078915978
                },
                {
                    "weights": [
                        -0.007679257628819875,
                        0.0004889647281304657,
                        -0.00620501522733336,
                        0.015695169928969084,
                        0.008864876173414164,
                        0.010066833141377648,
                        0.020175432172333987,
                        0.00433441604479275,
                        0.017979651676901333,
                        -0.0019022233346143312,
                        0.008785070229788337,
                        -0.0052639969907284185,
                        0.012400766035335475,
                        -0.15315733294142306,
                        0.13646492734105228,
                        0.0025721973922801303,
                        0.03004460456070446,
                        0.033362958002490534,
                        -0.061564996451660525,
                        -0.043962085988688164,
                        -0.015787985637133933
                    ],
                    "bias": 0.004454201486503686
                },
                {
                    "weights": [
                        -0.016773174325667734,
                        -0.0011668745112534675,
                        -0.021745245402682797,
                        0.02488091458013293,
                        0.016266569915477626,
                        0.009452620749787723,
                        0.017961366157976957,
                        0.002496431738686762,
                        0.023709756255661633,
                        0.006463671974112244,
                        0.021708548130136198,
                        -0.008171901987591785,
                        0.027972517524867437,
                        -0.025143287355372173,
                        0.11289126788270716,
                        0.02770444703528488,
                        0.07310364206050031,
                        0.05217347898993265,
                        -0.07191790132206786,
                        -0.07254535024341889,
                        -0.015326958189093196
                    ],
                    "bias": -0.006822249788476194
                },
                {
                    "weights": [
                        -0.03333455288623192,
                        0.020683984350392867,
                        -0.005286821691685996,
                        0.030743669108310678,
                        -0.011842259440079677,
                        0.0002203058312388232,
                        0.013499381143611107,
                        0.012817989964387998,
                        0.014168344773303915,
                        0.0087055503913817,
                        0.008138618205472277,
                        0.008539325853619458,
                        0.018710944840483076,
                        0.03296089884805163,
                        -0.05846548530357521,
                        -0.016061632752901112,
                        -0.0023188011881190296,
                        0.06781015299170542,
                        -0.0410553183606953,
                        -0.06412933441085518,
                        -0.004408294556478461
                    ],
                    "bias": -0.008315056382772775
                },
                {
                    "weights": [
                        -0.059323300303083734,
                        -0.023569118417775484,
                        0.004895281196601466,
                        0.0064437274920984364,
                        0.0521326762758501,
                        0.032214767662711315,
                        0.023639949708247694,
                        0.010760787207703876,
                        -0.0025014454911022306,
                        -0.0014675893139908035,
                        -0.00638173257683478,
                        0.06883960088458133,
                        -0.04543527611610223,
                        0.032095794974862514,
                        -0.02240802673827271,
                        -0.011182985380984738,
                        0.01947587971773178,
                        0.0008951657878480723,
                        -0.047543789540853316,
                        0.029221478383816245,
                        -0.015451750421013905
                    ],
                    "bias": 0.009532561708639918
                },
                {
                    "weights": [
                        -0.019266012593116406,
                        0.01829506875742763,
                        -0.013310542454319101,
                        0.01609088647906221,
                        0.0066356483207139815,
                        0.019179781604981707,
                        0.008689640226355206,
                        -0.004017565292490234,
                        0.0034435958465664114,
                        -0.0019736803873364223,
                        0.001881983184760733,
                        -0.021069131341536106,
                        0.016127221568638123,
                        -0.009591790241927706,
                        0.03119225938198467,
                        0.0072406102359781396,
                        0.009816696914862793,
                        0.029781429730984285,
                        -0.05688442586578264,
                        -0.046174771442703245,
                        -0.03542229794047001
                    ],
                    "bias": -0.010174212225320412
                },
                {
                    "weights": [
                        -0.015807491965200468,
                        0.003442031977646032,
                        -0.002413624564304509,
                        0.02824852539563141,
                        0.017299932484131718,
                        0.011783881224189899,
                        0.022163057045640283,
                        0.008432087407089638,
                        0.008653183405070278,
                        -0.00734133500031143,
                        0.004454885030976174,
                        -0.008677188384671207,
                        0.012715504452243327,
                        0.007631123529490791,
                        0.12989758300276935,
                        0.038421796903946204,
                        -0.02217179531177722,
                        0.026567276204889485,
                        -0.0685659737682356,
                        0.01454997260708946,
                        -0.01862702526830022
                    ],
                    "bias": 0.006685392510667117
                },
                {
                    "weights": [
                        -0.00791329229413378,
                        -0.0043916642522339,
                        0.008078966247588365,
                        -0.002543317196030046,
                        -0.001667192056131014,
                        0.0034192814127785506,
                        -0.009439752416148863,
                        -0.0017422981740490954,
                        0.010063756958952352,
                        -0.011877181677877515,
                        0.006897079509006879,
                        0.0329124359195813,
                        -0.042543767021082694,
                        0.11093084846353116,
                        -0.1544452247837001,
                        0.026814791511092638,
                        -0.018537492946604714,
                        0.07104917285338119,
                        -0.05985719626860768,
                        -0.03722678295835883,
                        -0.06014280788230932
                    ],
                    "bias": -0.00651698853725112
                },
                {
                    "weights": [
                        -0.002318032165709603,
                        0.020305433801895856,
                        0.00021612631467319044,
                        0.02820148377793517,
                        0.029860235888591245,
                        0.02386717731272795,
                        0.031864918676623916,
                        0.021501416861426148,
                        0.026817142565958654,
                        0.005357277065455271,
                        0.029804215779863585,
                        0.0022299009762360867,
                        0.031242699448651566,
                        -0.10471129336799098,
                        0.1806386077509434,
                        0.008598109561310425,
                        -0.012935486166873528,
                        0.039066527712993133,
                        -0.059528278185020746,
                        0.01822680988222473,
                        -0.014995597262030019
                    ],
                    "bias": 0.011526691555106987
                },
                {
                    "weights": [
                        -0.030921457958364713,
                        -0.019777140305150338,
                        -0.0304856868397202,
                        0.021701071672202716,
                        0.0266672578771873,
                        -0.0009606856862776474,
                        0.024427338359993698,
                        -0.0026455270036782794,
                        0.017175047627261495,
                        -0.015187509529844021,
                        0.001061333242076264,
                        0.017322979871062707,
                        -0.01880449404789513,
                        0.10619096421235451,
                        0.08085881972426491,
                        -0.023171891347527597,
                        -0.0030917123343219576,
                        0.0436452831529979,
                        -0.08032740349800152,
                        -0.011315674585423612,
                        -0.007576663963490439
                    ],
                    "bias": -0.00218240221014546
                },
                {
                    "weights": [
                        -0.0082105987721368,
                        0.010781756061398431,
                        -0.019842689344655984,
                        0.006796322114702551,
                        -0.02234122232499716,
                        -0.003826009468417322,
                        0.0013531286531196008,
                        0.002670404984949077,
                        -0.020011776904821636,
                        -0.022506700407163953,
                        0.00046964160842725674,
                        -0.011836442583814326,
                        0.006015912277645625,
                        -0.1836172580385857,
                        0.008457836420579937,
                        -0.09045199836713001,
                        0.06864618177757904,
                        0.02937877776121361,
                        0.047743321891015156,
                        -0.09067766484998106,
                        0.011199011637748339
                    ],
                    "bias": -0.030292717266467425
                },
                {
                    "weights": [
                        0.0019165997473665922,
                        -0.0025208571934950447,
                        -0.024065413638453163,
                        0.008762769482166678,
                        0.012857971232777887,
                        0.012810005094266008,
                        0.018920589129239523,
                        0.0037909067790302432,
                        0.04774565119650429,
                        -0.015054416418292952,
                        0.032492011699184774,
                        -0.0031555243432621846,
                        0.015540481828202144,
                        0.05508948665864171,
                        -0.133194843513088,
                        0.03490935926850066,
                        -0.05284546712182837,
                        0.04412316088325802,
                        0.026300063091768945,
                        -0.006367740015918077,
                        -0.04352808928600417
                    ],
                    "bias": -0.003865808395059118
                },
                {
                    "weights": [
                        -0.0306461352974516,
                        -0.009559550835322827,
                        -0.023733839528404275,
                        0.010964017103751634,
                        0.0023614489224180633,
                        0.011569204663081839,
                        0.01952132824927169,
                        0.008453098917616695,
                        0.02778778883283189,
                        -0.01437752083028508,
                        0.02716441343259044,
                        -0.030429372800429875,
                        0.032400499952656245,
                        0.011273969366844615,
                        -0.012131754101484933,
                        -0.0070809534879702485,
                        -0.04499098561428779,
                        0.07457942322655169,
                        -0.07134198815436782,
                        -0.10005470726397363,
                        0.011788305051655157
                    ],
                    "bias": -0.010276217660487278
                },
                {
                    "weights": [
                        -0.0014294392797411853,
                        0.05693330071526142,
                        0.0032499017579885763,
                        0.016978156856728724,
                        0.061286469916094245,
                        0.00257696258282413,
                        0.024655789758731297,
                        -0.0007708928386112855,
                        -0.02180658875296524,
                        -0.017254009170699056,
                        -0.017132489102250386,
                        -0.006851081280786939,
                        0.0020708948246681317,
                        -0.05081683303560511,
                        -0.07825703628673132,
                        0.047867887058584434,
                        -0.10192057676339418,
                        0.061131709365670306,
                        0.15724884745204779,
                        -0.024192449370994958,
                        -0.0359740935772566
                    ],
                    "bias": -0.0007328818366420611
                },
                {
                    "weights": [
                        -0.008685776185800053,
                        0.005158835049613207,
                        -0.011415355664627074,
                        0.021492903840312758,
                        0.023641542400139343,
                        0.02789968885827787,
                        0.044632203626701804,
                        0.0027164047627076257,
                        0.024306347423256564,
                        -0.004636724680492633,
                        0.009290681411544254,
                        0.01267692292124541,
                        0.02532397260281582,
                        0.06526143242058487,
                        0.028224228499997055,
                        -0.04205970451805566,
                        -0.039394879845183396,
                        0.0913406023713088,
                        0.004319058700400324,
                        -0.04866106247363897,
                        -0.06313927495117753
                    ],
                    "bias": 0.008924837843638827
                },
                {
                    "weights": [
                        -0.01978632313247322,
                        0.021055453511577192,
                        0.007457158345355201,
                        0.035799656960985325,
                        0.023557623765236693,
                        0.00231577827504426,
                        0.028415437593563395,
                        -0.008374113443462604,
                        0.02354185178515218,
                        -0.01269431032634826,
                        0.00989603700268592,
                        -0.010503445456203483,
                        0.009993910177660976,
                        -0.012701921951147256,
                        0.01399088591150956,
                        -0.02481119565649321,
                        0.015194456307827791,
                        0.025962167795674344,
                        0.02036783639111903,
                        -0.014629406138174005,
                        -0.04147686519886478
                    ],
                    "bias": -0.007114310407387449
                },
                {
                    "weights": [
                        -0.03398565082867881,
                        -0.015171214805862665,
                        0.0048321617893893306,
                        0.018852043963259766,
                        0.03374090572672967,
                        0.0027780827311460845,
                        0.026511926658386392,
                        0.006559484526203744,
                        0.02166582719773644,
                        -0.0009075584309324299,
                        0.014710483284744766,
                        0.0464110827513319,
                        -0.015130173289569874,
                        0.06264236215611214,
                        0.11820599284757691,
                        -0.0015199663012592437,
                        -0.04539754782931449,
                        0.06318193572080086,
                        -0.04130085770983718,
                        -0.017230253374804588,
                        -0.04033937929206957
                    ],
                    "bias": 0.009352819786544198
                },
                {
                    "weights": [
                        -0.002460338509834754,
                        0.028816900508493812,
                        -0.0011181004722100804,
                        0.04052070911901919,
                        0.029987602664018242,
                        0.030986858438681545,
                        0.04942459481062192,
                        0.02336161794009992,
                        0.051515100645496255,
                        0.015398170621260776,
                        0.04789938988015267,
                        0.0048268643396688175,
                        0.05029854503436727,
                        0.07660297680895146,
                        -0.040960837572300714,
                        0.002971640374497736,
                        0.017387054577356096,
                        0.01779428425488267,
                        -0.09336135431957475,
                        0.026110482342398836,
                        -0.026699837721160257
                    ],
                    "bias": 0.017258934888497873
                },
                {
                    "weights": [
                        -0.02981104169025213,
                        0.010059194788150618,
                        -0.020028619354117812,
                        0.007782065259362979,
                        0.029780550067436476,
                        0.014848705122302183,
                        0.05563732519659378,
                        0.0006271937972007058,
                        0.03746355382832443,
                        0.011757097686686927,
                        0.016791551616671698,
                        0.010861598887177264,
                        0.021333095532806767,
                        -0.04109167564380395,
                        -0.09407757213430953,
                        -0.0064805847593916695,
                        0.010349810772063732,
                        0.0852256231203014,
                        -0.00845217610213116,
                        -0.07368814201782395,
                        -0.04387655602832627
                    ],
                    "bias": 0.007329297514579831
                },
                {
                    "weights": [
                        -0.02687478866226983,
                        -0.008694172577606766,
                        0.0022442047391686096,
                        0.008641166842974942,
                        0.027540191334705148,
                        0.026848490994017975,
                        0.01864862081285991,
                        0.019639607960558088,
                        0.0047273927119096965,
                        0.012334075535911686,
                        -0.011403159534289371,
                        0.028389080421260024,
                        -0.024932531650365266,
                        -0.029838378592126433,
                        -0.04483837159407521,
                        -0.0019904915654349003,
                        0.01115247949037536,
                        0.004471411467281988,
                        -0.06888676468757313,
                        0.02172542980063313,
                        -0.02726855598165755
                    ],
                    "bias": 0.005138339246266906
                },
                {
                    "weights": [
                        -0.05242036820158028,
                        0.014837546344889171,
                        -0.04258945013276245,
                        0.005176426293703464,
                        -0.0028007715879344425,
                        0.01663330738391549,
                        0.02830998803453925,
                        -0.014202451203771444,
                        0.013832978182266064,
                        -0.008650969769277705,
                        0.019667131345245663,
                        0.006521584215083508,
                        0.03457215401296272,
                        -0.09041952241486619,
                        0.03033491608681735,
                        0.017512633791680002,
                        -0.015034956202094864,
                        0.023276981141645944,
                        -0.01707863781278798,
                        -0.009694557388425425,
                        -0.006809701299901547
                    ],
                    "bias": 0.005714208225337562
                },
                {
                    "weights": [
                        -0.05211681355862082,
                        -0.0017415603387229387,
                        -0.019238463124387865,
                        0.056874198166278256,
                        0.004209162532798889,
                        0.0008708522043362736,
                        -0.012671826348073869,
                        0.005034096518251055,
                        0.01060816659813777,
                        -0.01149883453228808,
                        0.028627724290785233,
                        -0.000312521508706562,
                        0.015933192433231956,
                        0.16170520483281578,
                        0.03075626712372876,
                        0.03788584227048926,
                        -0.03517305889163665,
                        0.04375411068618054,
                        0.01744472091925771,
                        -0.07363192467534176,
                        0.029514535324052783
                    ],
                    "bias": -0.02466455422072428
                },
                {
                    "weights": [
                        -0.0340879306450127,
                        0.009053836080882626,
                        -0.019924111924645275,
                        0.044805387409003986,
                        -0.0038396819782018734,
                        0.012729906390111173,
                        0.017080919365495047,
                        0.004861387827991551,
                        -0.008790976444755967,
                        -0.014340648766652088,
                        -0.016460129569099112,
                        -0.002070968221188279,
                        -0.01035908111258216,
                        0.05839404019836391,
                        -0.059404028768441065,
                        0.008169801172445021,
                        0.03512297130100686,
                        0.0023652812313463925,
                        -0.052468410437572485,
                        0.013036297424716554,
                        -0.024969857677090694
                    ],
                    "bias": 0.002278909203746542
                },
                {
                    "weights": [
                        -0.0019404588411009495,
                        0.011992355364758343,
                        -0.024126987554359092,
                        0.0464084704117318,
                        -0.03694738776110847,
                        0.027816721789596145,
                        -0.012575509638414863,
                        0.012251371091704499,
                        0.005455318193113301,
                        -0.004993912787937184,
                        -0.003958190211148146,
                        -0.017855431744174248,
                        0.008384525961063581,
                        0.02155535680589989,
                        -0.07663571618108744,
                        0.03351089047385025,
                        -0.014182841959136064,
                        0.02522906691125741,
                        -0.01824675724008423,
                        -0.04935223930109565,
                        -0.024308896232378918
                    ],
                    "bias": -0.019376241980015266
                },
                {
                    "weights": [
                        -0.03527496625871984,
                        0.021209970162023577,
                        -0.010254805242811464,
                        0.032447282991320235,
                        0.012231741836345367,
                        0.025460360793116227,
                        0.008060203392207883,
                        0.008814640915608253,
                        0.008272374540431017,
                        -0.003170478311977989,
                        -0.0003897858407850599,
                        0.018078660065168475,
                        -0.005002313773949247,
                        -0.04251985166952674,
                        -0.009355661438342947,
                        -0.008223339260384637,
                        -0.00037933516649285164,
                        0.016192057507769208,
                        -0.0314656778151542,
                        0.006391146818559078,
                        -0.031213262295497462
                    ],
                    "bias": 0.004757976834275756
                },
                {
                    "weights": [
                        -0.02615800541618649,
                        0.005592745149414156,
                        -0.003031555001092494,
                        0.03873033545278467,
                        0.029765097438324613,
                        0.019899991796630653,
                        0.030448066569936757,
                        0.009240111487725102,
                        0.002084011142978429,
                        -0.007668920717957539,
                        -0.001566245297830199,
                        0.008561093173993263,
                        0.009051854409668917,
                        -0.040026291815782954,
                        0.005985600699221063,
                        -0.011264685553999837,
                        0.00591279157406269,
                        0.10776195498932051,
                        -0.0038173647611978666,
                        -0.09051669420790552,
                        -0.034839945993770945
                    ],
                    "bias": -0.00959142167026609
                },
                {
                    "weights": [
                        -0.03392823184196382,
                        0.027550079720663683,
                        -0.04113333345319058,
                        0.024734632967054526,
                        -0.0034578319638675654,
                        0.021352339877721085,
                        0.01118185012515163,
                        0.027419361884964008,
                        0.017399688889518948,
                        0.011432405269413276,
                        -0.0002871500472046157,
                        0.026417655681033034,
                        -0.014355547880746168,
                        0.01776870617319148,
                        -0.018088928200767806,
                        0.008656332904150073,
                        0.0011784603340840175,
                        0.01839982884773676,
                        -0.009829441042759748,
                        0.04224444092204869,
                        -0.037533063051139855
                    ],
                    "bias": 0.015472183776887584
                },
                {
                    "weights": [
                        -0.034413017769152184,
                        0.012284023088391282,
                        -0.027602988651333316,
                        0.020965040090261993,
                        0.0035123094145018794,
                        0.0033105001304782953,
                        0.026733106897197552,
                        0.0017781658064601363,
                        0.029666131495766985,
                        0.009543251643416954,
                        -0.0025542132025551992,
                        0.004864679755555445,
                        -0.0023589824410126313,
                        -0.11530612761822491,
                        0.04294253763493218,
                        -0.005726195809611109,
                        -0.01747367704190437,
                        0.03031161765070499,
                        -0.05601795988652515,
                        -0.02286795011908094,
                        -0.015880837777688214
                    ],
                    "bias": 0.005439507698650161
                },
                {
                    "weights": [
                        -0.010130967617681669,
                        -0.0020329625455188993,
                        0.0027591744682491713,
                        -0.000649155313740512,
                        0.005593233533243604,
                        -0.006123686052467398,
                        0.02717508487486849,
                        -0.00971191413674831,
                        0.01539309507157197,
                        -0.0007732747263467857,
                        -0.003913825907887147,
                        -0.0016177443204767514,
                        0.00155239550451502,
                        -0.12569009780319,
                        0.13189929740746767,
                        -0.04222063867995007,
                        0.0634332784432601,
                        0.016203091674265327,
                        -0.06216494261073604,
                        -0.025833570874259398,
                        -0.06807665020310572
                    ],
                    "bias": -0.013059567182002184
                },
                {
                    "weights": [
                        -0.00888777259132386,
                        0.004419260819365647,
                        -0.02071382409695481,
                        0.013498393857719093,
                        0.03477309990439869,
                        0.01737587637129974,
                        0.03254666487905035,
                        -0.0020632536542255493,
                        0.0421779907418236,
                        -0.023621549131595695,
                        0.014852377174760263,
                        0.02015992119073813,
                        -0.012077467812481988,
                        0.015994045527142946,
                        -0.13000106143589446,
                        0.05522992646616918,
                        -0.051824243708616526,
                        0.044151685815799716,
                        0.0013119649659228659,
                        -0.04212709846977089,
                        -0.00734965952526149
                    ],
                    "bias": -0.0057804443021653076
                }
            ]
        },
        {
            "neurons": [
                {
                    "weights": [
                        0.02977301412739659,
                        -0.016792284620978346,
                        0.02684948084244591,
                        0.002915575365054408,
                        0.030965853139202856,
                        0.01892140518284758,
                        0.03101146338513746,
                        -0.0156877425018959,
                        0.06469755807172325,
                        0.03062818322850104,
                        0.044388506387253286,
                        -0.020418312358293954,
                        -0.001993513948174533,
                        0.05299448235588869,
                        0.022284396693276767,
                        0.046901516639002244,
                        0.030050018652087295,
                        -0.04668811326740962,
                        -0.02228839994548072,
                        0.024283971040105566,
                        -0.00875654263271556,
                        0.027414533594063883,
                        0.0037134081501375136,
                        0.0450757008562947,
                        -0.028571570184777417,
                        -0.037202924129545005,
                        0.01624230230121255,
                        -0.015968180983535994,
                        -0.02896005704735566,
                        0.013195898227942381,
                        0.06260450374817018,
                        0.02460420885795969,
                        -0.014704504161318922,
                        0.026477694298345893,
                        -0.04221773270685776,
                        -0.03136233765550882,
                        0.017799416983201873,
                        0.014206656486919371,
                        -0.0032326757011853667,
                        0.01257019414032138,
                        -0.007080849788421496,
                        0.04517487137669697,
                        -0.016886513593184386,
                        -0.025502707700297996,
                        0.03682920103704795,
                        0.03213991287860961,
                        0.03175834329224247,
                        -0.022660333363347263,
                        -0.016905517588489974,
                        0.00800095571657611,
                        -0.012449004762697355,
                        -0.03938289035112283,
                        -0.0026382526426679672,
                        -0.013349997516746329,
                        -0.011099060843618627,
                        -0.0014357997743474217,
                        -0.03274981455966657,
                        0.015162119929145776,
                        -0.006125338988368369,
                        0.035145130759755,
                        -0.024076894464975743,
                        -0.020905320628174098,
                        0.037327946061233,
                        0.0211986581121524
                    ],
                    "bias": -0.028422339571445368
                },
                {
                    "weights": [
                        0.00555716550798634,
                        -0.009187008268596478,
                        0.010166172737722344,
                        0.007347642080296514,
                        0.004146024233989194,
                        0.009619308980321435,
                        0.01559009809832116,
                        -0.017507318420774052,
                        -0.010235058874662323,
                        0.0013891973061959748,
                        0.026918016461935087,
                        0.002172464186664234,
                        -0.025210011328216674,
                        0.009329128181069984,
                        0.01004781642701608,
                        -0.011000573335866102,
                        0.010918665822422846,
                        -0.00028389553783223404,
                        -0.0003858208245888449,
                        0.0067552840101757095,
                        0.003337037066708179,
                        0.004788956119871807,
                        0.00905640971805058,
                        0.01949131669929304,
                        -0.0030349922814744876,
                        -0.008495773527900843,
                        0.0029089937295808423,
                        -0.00642271141446272,
                        -0.007215301223469866,
                        0.0006755865152278834,
                        0.01867208510561325,
                        -0.004493831225033854,
                        -0.0029087214482668546,
                        0.01672327352940474,
                        -0.010655811271860596,
                        -0.019704609047217533,
                        0.018447339587910144,
                        0.0038413924326652638,
                        -0.026667791765338667,
                        0.007080485770292326,
                        -0.0005255199413218001,
                        0.003296323097389013,
                        -0.0012033865007859991,
                        -0.014610701279083324,
                        -0.00045850751617917783,
                        0.021279661909470227,
                        -0.002652953531937094,
                        0.0007793662201073017,
                        -0.0076536851258712174,
                        0.007461071362532925,
                        -0.00106509782045535,
                        0.0023866710377285242,
                        0.006862919131711992,
                        -0.008306410881354743,
                        -0.005321216482934645,
                        0.008869473965655041,
                        -0.0070235945873623005,
                        0.005353320150884605,
                        -0.006660506118970557,
                        -0.0011981630604641575,
                        0.0035858526903137324,
                        -0.009975590384224752,
                        0.021005288992714095,
                        0.012149784907887299
                    ],
                    "bias": -0.0023910296618967317
                },
                {
                    "weights": [
                        0.006789088268083718,
                        -0.009978001009898907,
                        0.009114111685651538,
                        0.005096732127777007,
                        0.0022154231143119906,
                        0.006596435854033258,
                        0.013495030686675373,
                        -0.017077871878321313,
                        -0.003216263099964006,
                        0.003661764448594798,
                        0.02155186038157613,
                        0.006682634447340782,
                        -0.01295577548717473,
                        0.006106515839927791,
                        0.01199989046268165,
                        -0.00670987858266714,
                        0.0048485934407898655,
                        -0.0053109444286947504,
                        0.008557725838716675,
                        0.008638258624260776,
                        0.0016350701374666474,
                        0.0038491613562130307,
                        0.008446862109917568,
                        0.017300775580762175,
                        -0.008839214662162637,
                        -0.004808770659289322,
                        0.006056975097578126,
                        -0.005763357258966802,
                        -0.009020299983521026,
                        0.00030156064965636997,
                        0.01602974832086028,
                        0.00161593947385736,
                        -0.002687024624833894,
                        0.01194826514858329,
                        -0.007575353223235681,
                        -0.016936891559760334,
                        0.014575087512622858,
                        0.004607849916009223,
                        -0.01307404386619701,
                        0.012000546402948453,
                        -0.0005891078225737304,
                        0.0036200141462640768,
                        0.0027730526200648634,
                        -0.015089465477027103,
                        -0.0038333588666477707,
                        0.02127986155605413,
                        0.0017984144403931199,
                        0.005002907752283645,
                        -0.010718849944359054,
                        -0.000959695443433293,
                        -0.005286230256925776,
                        -0.0003697182620349362,
                        0.008669878993692301,
                        0.0012005028759697583,
                        -0.005402860311104183,
                        0.007030242151864321,
                        -0.0012749476692428614,
                        0.007600133900129636,
                        0.0012632361474470412,
                        -0.0024457451875850656,
                        0.006997705793897199,
                        -0.0029025979357416125,
                        0.013943546983576825,
                        0.01636254663245131
                    ],
                    "bias": -0.0024177530827785014
                },
                {
                    "weights": [
                        0.011121844596231275,
                        -0.006792710535466526,
                        0.019798638701780297,
                        0.0012004422056184512,
                        0.012531160769082289,
                        0.026652154909614447,
                        -0.005266353071001728,
                        -0.013463418415313589,
                        -0.005768447812675214,
                        0.022021653056728506,
                        0.029973450761677498,
                        -0.0032154936582155288,
                        -0.012292899388675007,
                        0.033119124429104724,
                        0.022669296801154468,
                        0.0074877480764855755,
                        0.01875013550101082,
                        -0.01929158673302981,
                        -0.007002176558047086,
                        0.017364246401881604,
                        0.004004310119480843,
                        0.010604215290218086,
                        0.01967216532268655,
                        0.0197246306105044,
                        -0.0122581650070509,
                        -0.019349408179338688,
                        0.011126712504783464,
                        -0.01441733578808628,
                        -0.0028792133351849976,
                        -0.0002321508383398547,
                        0.038102369503499774,
                        0.005383587735316289,
                        -0.005486562746179696,
                        0.009621434709593164,
                        -0.030351441914435937,
                        -0.02443989537199984,
                        0.012282983890689715,
                        0.009085415005157391,
                        -0.018368447938170263,
                        0.009045724712522513,
                        -0.0038479443961013933,
                        0.013577571992582707,
                        -0.013599159850552293,
                        -0.029605895362369673,
                        0.011076504267437939,
                        0.04345353997797856,
                        0.004239303743574078,
                        0.01785734718061411,
                        -0.008778352443308008,
                        0.011437724693227768,
                        -0.009349212883436571,
                        -0.01944383090994476,
                        0.00838467141763676,
                        -0.00177717718407614,
                        0.0009255099621523341,
                        0.016514377083990228,
                        -0.01646027007668768,
                        0.02168030609908297,
                        -0.00047440856005845757,
                        0.008044968386673007,
                        0.00044949342946984866,
                        -0.01809580974527807,
                        0.026326445450362432,
                        0.025241156071418934
                    ],
                    "bias": -0.0016110682650956139
                },
                {
                    "weights": [
                        0.002875534429245379,
                        -0.011952992798774048,
                        0.012304190994645688,
                        0.007566567364090822,
                        0.000827671398891012,
                        0.012928663195913567,
                        0.02204278950187348,
                        -0.016638079013559254,
                        -0.007874358364040643,
                        0.007022823123083278,
                        0.022187319756443953,
                        0.001466273471305526,
                        -0.011405785651879342,
                        0.010360256078350729,
                        0.009570190389556662,
                        -0.011462313005228198,
                        0.004033647476338319,
                        -0.005553921178979689,
                        0.013222111937388028,
                        0.005234844839444572,
                        0.002209596875358992,
                        0.0004961190070488872,
                        0.004933718870229193,
                        0.013691808311896803,
                        -0.008647972567806746,
                        -0.005655978230988014,
                        0.0044865569548277985,
                        -0.005163288278026865,
                        -0.01729203914071677,
                        -0.005415711999801924,
                        0.01571824447759543,
                        0.008739724014538762,
                        -0.0020135622954575018,
                        0.009672541465918788,
                        -0.005990476001160128,
                        -0.013838784022980109,
                        0.01485195445218827,
                        0.0009341570497951628,
                        -0.01272021237589356,
                        0.015861360573428268,
                        0.0019115811719458682,
                        0.0037009281449549604,
                        0.011315869438480244,
                        -0.01475549186563397,
                        -0.011457854837947862,
                        0.014328445170246075,
                        -0.0011766669507042946,
                        0.001991884156038729,
                        -0.012295218242503628,
                        -0.0069075978175158715,
                        -0.005110169110187411,
                        0.0016502847414084556,
                        0.00860730780902578,
                        -0.002401804217024836,
                        -0.009321758491883133,
                        0.008040933991105758,
                        -0.0021136776767966955,
                        0.005315985558339858,
                        0.006202243746023162,
                        -0.003652915807371964,
                        0.008833439793369724,
                        0.0032206451755664033,
                        0.01168417404379309,
                        0.011435018813136529
                    ],
                    "bias": 0.0011135799032703964
                },
                {
                    "weights": [
                        0.00867721486943452,
                        -0.008478304064312455,
                        0.013098919258145438,
                        0.00689591147955908,
                        0.001783524826092589,
                        0.00807645523674435,
                        0.017388724213634382,
                        -0.018536379139171708,
                        -0.004385479938269145,
                        0.010206525486168906,
                        0.02207993683973543,
                        0.009249919983545914,
                        -0.012403232121143502,
                        0.007561735486194448,
                        0.013260572970041936,
                        -0.009688142639267509,
                        0.0037006316634523462,
                        -0.003851208152622142,
                        0.012688549424129345,
                        0.008166662292702444,
                        0.004697008352746243,
                        0.005504043926418243,
                        0.009800727134227746,
                        0.018612778770628398,
                        -0.005447639875610543,
                        -0.00427191117622813,
                        0.0053193199539846485,
                        -0.00262882054791641,
                        -0.009279570706715784,
                        0.002284541149543365,
                        0.015195110639507082,
                        0.004625134172879932,
                        -0.00011455106162425295,
                        0.012423863906941167,
                        -0.0023862453638678264,
                        -0.015513772157624608,
                        0.013523139390491169,
                        0.00415163792921439,
                        -0.012482444458595575,
                        0.012903949635523647,
                        1.951075362994164e-05,
                        0.003234071222141774,
                        0.00984603203915134,
                        -0.014227734346949527,
                        -0.0035306643566510067,
                        0.025760894950730917,
                        -0.0002955631488023096,
                        0.004943694606668078,
                        -0.010236750980278757,
                        -0.004350083327512042,
                        -0.004456235527718526,
                        0.0002246452525180707,
                        0.01253423688375705,
                        0.0005717119573537998,
                        -0.006271629618841934,
                        0.007618802105792615,
                        0.000510450573320808,
                        0.005501372993837955,
                        0.007088527759174709,
                        -0.0003743018061550863,
                        0.009462517286119097,
                        0.0033132094434516995,
                        0.009963355509500728,
                        0.017365122971521613
                    ],
                    "bias": 0.0014990001086068027
                },
                {
                    "weights": [
                        -0.004459324617128404,
                        -0.005369688537706908,
                        0.007502866923233344,
                        0.008043237431309077,
                        0.008769148347968282,
                        0.011259900831399439,
                        0.010450526611796643,
                        -0.010831350540081943,
                        -0.012677506372776943,
                        -0.0004998420169711969,
                        0.01963325082749936,
                        0.013547795697479985,
                        -0.0028131138533485207,
                        0.011483527776312398,
                        0.02104963970802161,
                        -0.006872752333748871,
                        0.012002778375614634,
                        -0.006043373641370051,
                        -0.0021330197910866583,
                        0.01763427096264472,
                        -0.009084602511210068,
                        -0.00731668633579023,
                        0.009220747570361433,
                        0.006470521697756384,
                        -0.006739213914428947,
                        -0.009488496031944372,
                        0.008814871249982285,
                        -0.009795959857994502,
                        -0.0317735617142521,
                        -0.004768120852213857,
                        0.015260279574742889,
                        0.006055017157017111,
                        -0.0029545498672061466,
                        0.010743611037361454,
                        -0.0176311410121159,
                        -0.010015749323767155,
                        0.016391977719495895,
                        0.0033379912640399538,
                        -0.03016962714505415,
                        0.018147763822385848,
                        0.0027019127641807338,
                        0.017745434482223234,
                        -0.0009186680391790884,
                        -0.020359313354280248,
                        -0.014912875559221396,
                        0.02842323788184207,
                        0.003599752601159573,
                        0.0016103600412922744,
                        -0.007379120065373735,
                        0.004728447648441142,
                        -0.013656890169850661,
                        0.0012557786403753764,
                        0.00996862877215723,
                        -0.0011903355668866768,
                        -0.012152512338972106,
                        -0.001767145125623485,
                        -0.0038205898098855407,
                        0.012318343764626646,
                        -0.004241126519322203,
                        -0.005546492870769883,
                        -0.003115750381031547,
                        0.0032125506461833818,
                        0.01974734754364443,
                        0.020617417030203887
                    ],
                    "bias": -0.004186269237062556
                },
                {
                    "weights": [
                        0.007864984473498884,
                        -0.007258706391236476,
                        0.014216732193287564,
                        0.003985735393515614,
                        0.0012963562323494915,
                        0.004638394096116675,
                        0.019574255111355344,
                        -0.015931742426945297,
                        -0.004616416190185383,
                        0.013127307565347563,
                        0.023770285059330508,
                        0.007571068308719195,
                        -0.014363528012532892,
                        0.005705407850555116,
                        0.012806104719567788,
                        -0.009165233212890858,
                        0.004029746784463755,
                        -0.004746348752864298,
                        0.007576868723341618,
                        0.008254993079080758,
                        0.0041142556615843,
                        0.005800413828486089,
                        0.006956453548162393,
                        0.01847882969513375,
                        -0.004438116782555326,
                        -0.0042821835962415355,
                        0.005295712917673734,
                        -0.005352037359961575,
                        -0.00882138403393787,
                        0.00271692300556913,
                        0.014337851655061006,
                        0.002950938008417625,
                        -0.0007415355138126055,
                        0.013789222846663238,
                        -0.0020823492338446423,
                        -0.015861530352813857,
                        0.013261852097323138,
                        0.003967474248258154,
                        -0.013647238200632749,
                        0.012299428221217525,
                        -0.003556224249069208,
                        0.0023399735512759762,
                        0.008975260380267166,
                        -0.016749892093292505,
                        -0.00042761175892714026,
                        0.024696191061113742,
                        -0.00092185637565047,
                        0.002674575946594193,
                        -0.008096663899524514,
                        0.0009530383112511253,
                        -0.00689115652328343,
                        0.0014328745355670282,
                        0.011353544859011938,
                        -0.0010059840887780241,
                        -0.004456682864615711,
                        0.012122431025026116,
                        -0.0013869943236676757,
                        0.0036545975780301527,
                        0.003941213135166357,
                        0.0010312190492590867,
                        0.008767853566616843,
                        0.001440587805040816,
                        0.012271670083469919,
                        0.01872840423094995
                    ],
                    "bias": 0.001862110470500541
                },
                {
                    "weights": [
                        0.02640410850943179,
                        -0.021169882114080614,
                        0.012613516737550737,
                        0.010594604897589928,
                        -0.00743554412802853,
                        0.018786963006626176,
                        0.017926212233973456,
                        -0.00778293884168306,
                        0.04123710388988862,
                        0.008815130726365845,
                        0.024615455405184557,
                        -0.012255344875106098,
                        -0.0029271600169763746,
                        0.044467994173869124,
                        0.02036576157905091,
                        0.03680814238474738,
                        0.05121201432901431,
                        -0.03324640989144867,
                        0.01668646888651478,
                        0.0079349102093521,
                        0.013012193319777396,
                        0.027053472349061667,
                        0.005086571546712853,
                        0.02668500886772001,
                        -0.02028373323173287,
                        -0.025627563866076276,
                        0.012200840739673773,
                        -0.005488850605084932,
                        -0.014515217335585551,
                        0.006455719939513703,
                        0.033037454113702645,
                        -0.005598231537628792,
                        -0.0053719495831506,
                        0.028365595737517325,
                        -0.038618164605201684,
                        -0.03729747226210516,
                        0.021407133019277123,
                        0.008646256470319025,
                        0.015622623453782023,
                        0.011973357552671236,
                        0.00121713745721926,
                        -0.008444700258983842,
                        -0.020012438706335792,
                        -0.0009524381306013235,
                        0.02300523215433932,
                        0.012982868620924178,
                        0.029040390906977697,
                        0.004991291582690379,
                        -0.012141756123305035,
                        -0.0033521811685338645,
                        0.0006070264541156769,
                        -0.029902707329195526,
                        0.006195982165909102,
                        -0.005040396913774775,
                        -0.004627531929113158,
                        0.013804804685173299,
                        -0.024496064921009256,
                        0.017797074242085667,
                        -0.003391574340603681,
                        0.0329637185870382,
                        0.010410196244018398,
                        -0.026106920660702027,
                        0.033528394177269556,
                        0.010596003709572211
                    ],
                    "bias": -0.02261321255055157
                },
                {
                    "weights": [
                        0.018897749041372987,
                        -0.020257384707473475,
                        0.0821398405485525,
                        0.005077486193706183,
                        0.09492925068350476,
                        0.0017254251687065887,
                        0.0033875381321392846,
                        0.005732993175194092,
                        0.040692443824151645,
                        0.08890727378568837,
                        -0.04222542745538994,
                        -0.09065832810481263,
                        -0.01061922645302721,
                        -0.005417508280793488,
