{
    "_comment": "Optimizer_Adam(learning_rate=0.005, decay=1e-3) full data, 25000 epochs",
    "items": [
        {
            "neurons": [
                {
                    "weights": [
                        -0.016676257313949918,
                        -0.02381067227241864,
                        -0.01890027725464529,
                        -0.023964488972089974,
                        -0.008272178045110596,
                        -0.023146006967598633,
                        -0.011871091054777884,
                        -0.007860999533773252,
                        -0.020181402413679612,
                        -0.015063618869320778,
                        -0.0181925426352873,
                        0.002840784008821572,
                        -0.006442813825577009,
                        -0.010437214809887569,
                        0.002996540905862799,
                        -0.0029621402514002754,
                        -4.195238801708412e-06,
                        -0.009316042485071502,
                        -0.007233883481222257,
                        -0.016710848904718714,
                        0.005407312170825337
                    ],
                    "bias": -0.001015667233376657
                },
                {
                    "weights": [
                        -0.15877129941495463,
                        -0.22919719605921804,
                        -0.11362530884500559,
                        -0.08615833921414436,
                        -0.027613590006883487,
                        0.1006316851865071,
                        -0.11744566356095466,
                        -0.048864444495372694,
                        0.2042857718027259,
                        -0.025528224180687772,
                        0.009761800566531826,
                        0.05632994105777083,
                        -0.035581756557657836,
                        0.47303787798466573,
                        -0.012820416252657302,
                        -0.4588056843178661,
                        0.5280937106889467,
                        0.0054108533472706985,
                        -0.5756239460299519,
                        0.18288194393813417,
                        0.035143347048309063
                    ],
                    "bias": -0.004263359442248669
                },
                {
                    "weights": [
                        -0.3062646071374183,
                        0.0959702158131499,
                        -0.13414057252760603,
                        -0.0518093355786556,
                        0.04138220847714031,
                        0.09574544526430855,
                        0.03592734897548291,
                        -0.12456665071451653,
                        -0.12228457153362321,
                        -0.12598766486441026,
                        -0.046008684724317545,
                        -0.060119836934894755,
                        3.0054620154384504e-05,
                        -0.5021524464497034,
                        0.003129254016171235,
                        -0.009332519259563174,
                        0.7852061731358252,
                        -0.0006808043119829399,
                        0.19387386510109994,
                        0.2921710898501924,
                        -0.03335111765430713
                    ],
                    "bias": -0.10361343287215553
                },
                {
                    "weights": [
                        -0.06807576738097153,
                        0.1370002855063367,
                        -0.06932734491202025,
                        -0.04335330308923668,
                        0.002879280418416968,
                        0.04016615912452768,
                        -0.03119094249133874,
                        0.07235593380134611,
                        -0.030129811881666475,
                        0.08960964621794781,
                        -0.03625349432070612,
                        0.1588072475792371,
                        -0.0854720968696956,
                        -0.04514325684284682,
                        0.013286500802768877,
                        -0.08114841399056828,
                        2.1010134412195223,
                        0.013809580614495448,
                        0.007352321683981072,
                        0.14094266806966999,
                        0.6106678646086239
                    ],
                    "bias": -0.008241094652070019
                },
                {
                    "weights": [
                        -0.13140101707511104,
                        -0.1287399992704064,
                        0.10867289675975118,
                        0.06816538948824606,
                        0.12017278955517764,
                        0.06908557284624985,
                        0.035371428342219874,
                        0.0007653295399261011,
                        -0.03832117898290422,
                        0.08193959494887273,
                        -0.09754175479436637,
                        0.18364265235833604,
                        -0.11559980957409031,
                        -0.144643687525815,
                        0.007509800890588077,
                        -0.24429000037030624,
                        2.339971185668806,
                        -0.0062087659317675,
                        0.018806192944352054,
                        0.3986246777286383,
                        0.017879671214727184
                    ],
                    "bias": 0.030590766729398377
                },
                {
                    "weights": [
                        0.0029666416808836883,
                        -0.02141848956999135,
                        -0.015303651060178287,
                        0.006773845454874175,
                        -0.009613946093887724,
                        0.0045824449243326085,
                        -0.006076146192177794,
                        -0.029924375231021993,
                        -0.01863313626219442,
                        -0.013366337272805829,
                        -0.013457001863246172,
                        0.0024615852632991326,
                        0.010231586407433017,
                        -0.009962705785343123,
                        -0.013494475102337575,
                        0.021241938318869988,
                        0.009321320655919672,
                        0.0031397976380664228,
                        -0.006283409572435624,
                        0.0008065759027476506,
                        -0.009616844396758913
                    ],
                    "bias": 0.0
                },
                {
                    "weights": [
                        -0.27633498468567474,
                        -0.13086797466020736,
                        -0.07920800316184799,
                        0.13836727734977958,
                        0.22998111651916173,
                        0.03386919553394527,
                        0.1546317151854816,
                        -0.12165753172754643,
                        0.22639186733314892,
                        -0.24857861098551598,
                        0.2221038569494332,
                        -0.1511517721390299,
                        0.22896868280082786,
                        -0.22531705023396187,
                        -0.018551467026567122,
                        -0.20171597105979885,
                        0.564339350377412,
                        -0.012114741332061772,
                        -0.9427660804648987,
                        0.31238761865717646,
                        0.059489392790495935
                    ],
                    "bias": -0.12615363800239057
                },
                {
                    "weights": [
                        -0.04793996801410083,
                        -0.048852248071383934,
                        -0.03404887020880083,
                        -0.034972410304559005,
                        -0.02795299385221982,
                        -0.05128838787913253,
                        -0.01656747884708907,
                        -0.0389358826305027,
                        -0.015927333993539204,
                        -0.03627059822355556,
                        -0.03544190778462395,
                        -0.03423921603481843,
                        -0.025632165659106518,
                        -0.020925707962230398,
                        0.016407543305542758,
                        0.01698600947492458,
                        0.0019022258147190843,
                        0.0149182031899414,
                        0.0019567449126346457,
                        -0.009116272570954294,
                        0.022720978258465
                    ],
                    "bias": -0.005658971594729587
                },
                {
                    "weights": [
                        -0.05635344551000329,
                        -0.03247279910810977,
                        -0.033206030462922774,
                        -0.0495429168448855,
                        -0.03906089973079653,
                        -0.03743868430610238,
                        -0.020766618149565853,
                        -0.031235506500680063,
                        -0.028441017963809382,
                        -0.02022513338797281,
                        -0.03966691708415772,
                        -0.025581365124595027,
                        -0.027569679937224655,
                        0.027439360408968258,
                        0.007015482889967044,
                        -0.01749328044068083,
                        0.0016923269434899488,
                        0.0068457824264069505,
                        -0.00444688181944371,
                        -0.028752434528104207,
                        -0.004975545421681385
                    ],
                    "bias": -0.006427888823241254
                },
                {
                    "weights": [
                        -0.06425444903210122,
                        -0.12488568065778573,
                        0.09431631212261198,
                        -0.01023010789486319,
                        0.16884524650132776,
                        0.0013281982187059497,
                        0.07140987685666306,
                        -0.0020522762183875468,
                        0.11789389729622782,
                        0.09149164665681957,
                        0.07378093406257284,
                        0.1283916226039455,
                        0.03999295976867596,
                        0.5861949478094604,
                        0.011452599982528146,
                        -0.17263808312286225,
                        -0.6505726514802066,
                        0.004918913206723962,
                        1.0525201904239063,
                        0.8062358142598448,
                        0.013520522684511163
                    ],
                    "bias": 0.11150320074706101
                },
                {
                    "weights": [
                        -0.14994380160732879,
                        -0.25239025975095636,
                        0.15012640836630634,
                        0.09312668645610693,
                        0.1043104424436308,
                        0.0975499296624504,
                        0.03727592745786906,
                        0.11735839089465289,
                        0.04731914142698561,
                        -0.01339448360304551,
                        0.0910927134120516,
                        0.08643088411921888,
                        0.08944371632838805,
                        0.0658055599071301,
                        0.02041322466900614,
                        -0.026269091229306398,
                        0.16278924742687978,
                        0.020196118573320796,
                        -3.455163341655717,
                        0.25922495564236314,
                        -0.02649553871541515
                    ],
                    "bias": 0.017310704744621406
                },
                {
                    "weights": [
                        -0.09178636575668077,
                        -0.05111691883262062,
                        -0.10271372567030844,
                        -0.11248399085031152,
                        0.08473569086229986,
                        -0.09229825271533695,
                        0.06467520394572637,
                        -0.11048058713842362,
                        -0.01018392934513416,
                        -0.18037292919486447,
                        0.009399359488486567,
                        -0.061026394508560525,
                        0.025462634800909913,
                        -0.5243389844735562,
                        -0.013319476055824687,
                        0.5685733697523865,
                        -1.3953296027171689,
                        -0.018299934892575954,
                        0.11475997807708052,
                        0.2033463186453475,
                        0.06696506969924615
                    ],
                    "bias": -0.0801940548948099
                },
                {
                    "weights": [
                        -0.024940039331198854,
                        -0.0095904219458379,
                        0.003273455285664839,
                        -0.013550985014774836,
                        -0.010809038682040641,
                        -0.02456072344432842,
                        -0.019731013166766953,
                        -0.014481542636862051,
                        -0.022881911404519912,
                        -0.0055366766074427054,
                        -0.015265919213027635,
                        -0.013668413891435005,
                        -0.012540498366329563,
                        0.005699071045541242,
                        0.005173839337815563,
                        0.001921984512389983,
                        0.014847927426819113,
                        0.0036056750284027324,
                        0.0010400864730908837,
                        -0.005991733897555912,
                        0.016619168600493416
                    ],
                    "bias": -0.0007646467745359229
                },
                {
                    "weights": [
                        -0.031111645095691663,
                        -0.053537385424046964,
                        -0.0324779642368239,
                        -0.04998152740278678,
                        -0.04421301213821512,
                        -0.0321936171577584,
                        -0.03330786775844591,
                        -0.04411964722546617,
                        -0.0474269677802546,
                        -0.044152930678875546,
                        -0.013965584053526978,
                        -0.0390769869293624,
                        -0.03307338686910119,
                        0.016313252186990163,
                        -0.0023443829601186724,
                        -0.002774953852046124,
                        -0.0060253636351170385,
                        0.00414050846381825,
                        -0.0022879694378504316,
                        0.002627311375761271,
                        -0.027230706285571598
                    ],
                    "bias": -0.006450442243726126
                },
                {
                    "weights": [
                        -0.19549569493203867,
                        -0.04306569592435336,
                        -0.19825863785926678,
                        0.178155346062474,
                        -0.14552343394747114,
                        0.12153684420119241,
                        -0.13311302932097072,
                        0.03305539306224128,
                        -0.10906213722464862,
                        -0.06454536631257542,
                        -0.10962707506400167,
                        -0.130286547277263,
                        -0.051571602188087165,
                        -0.30329242164998654,
                        -0.001180175420631235,
                        -0.015352770893849786,
                        1.7277161263572605,
                        -0.02137661006821154,
                        -0.5443254564027505,
                        0.18124695878839597,
                        -0.040202902927322766
                    ],
                    "bias": -0.13753732053421078
                },
                {
                    "weights": [
                        -0.021697561129392466,
                        -0.04641967502509,
                        -0.03134298010534881,
                        -0.02186446481740914,
                        -0.0053600486735968095,
                        -0.03467426134499699,
                        -0.01914169958518094,
                        -0.033870407595178904,
                        -0.013775740367829904,
                        -0.004729275287090145,
                        -0.021498021624491586,
                        -0.012673372150147607,
                        -0.020839608499669395,
                        -0.003493801181455145,
                        -0.003129849512790418,
                        -0.00379276525930393,
                        0.02001128898725625,
                        -0.009752117643532142,
                        -0.008315791031825647,
                        -0.009222540964507867,
                        -0.0015518360028435223
                    ],
                    "bias": -0.0020375051213339947
                },
                {
                    "weights": [
                        -0.13906883027362513,
                        -0.23244846050657006,
                        0.1408680272132689,
                        0.05055534933340343,
                        0.21358739605290597,
                        0.08904543120872005,
                        0.08550550556091063,
                        0.011997359307424101,
                        -0.010646389294924065,
                        -0.095032198956771,
                        0.014679538171026369,
                        0.11201443699790206,
                        0.02542861261798035,
                        0.24660170803879017,
                        -0.0010718208854353817,
                        0.06609815491950297,
                        -1.1541468301657236,
                        -0.008817916216938391,
                        0.5854665608890424,
                        0.4927094995399835,
                        -0.06893595794315463
                    ],
                    "bias": -0.01527269734276919
                },
                {
                    "weights": [
                        -0.17056943298097285,
                        -0.23359594957951021,
                        0.06918727608344999,
                        -0.026309250100768122,
                        0.21316911782364903,
                        0.025832092632149688,
                        0.16939607781915236,
                        -0.000629570578100053,
                        0.16772062995946804,
                        -0.024128812553115005,
                        0.13305958578579763,
                        0.2646681817261929,
                        0.09483759952080227,
                        -0.07383950708178338,
                        -0.003991653059139398,
                        -0.014974719132582933,
                        -0.8303830203350434,
                        -0.009794745842008309,
                        -0.23336345769408234,
                        0.5479087876931688,
                        0.009610813768227481
                    ],
                    "bias": -0.01255251497132275
                },
                {
                    "weights": [
                        -0.30214811491989757,
                        -0.050326649616629034,
                        0.02009899820975416,
                        0.0396198974178155,
                        -0.19115909994819033,
                        0.0713620936595172,
                        -0.057000964046829375,
                        0.058532762477755455,
                        -0.09651524811056617,
                        0.07320418550138895,
                        -0.033839085545456754,
                        0.13024744393527285,
                        -0.04062847475057383,
                        0.09288085947728171,
                        0.0036127863521799143,
                        -0.12320334899599787,
                        -1.3131625052969946,
                        -0.011464043155787506,
                        0.05068266896630258,
                        0.49656370846050035,
                        -0.3110017063734433
                    ],
                    "bias": 0.02517378804584446
                },
                {
                    "weights": [
                        -0.02686960753189535,
                        -0.028374675137935575,
                        -0.015067188437629673,
                        -0.0346146119525296,
                        -0.018274854734273007,
                        -0.03277399324745611,
                        -0.02565521431632891,
                        -0.023556360708762013,
                        -0.025508834113409547,
                        -0.024349385359312394,
                        -0.03683577344272752,
                        -0.00922446256483712,
                        -0.01746341130329868,
                        -0.015141885469954576,
                        -0.0009430660917142637,
                        -0.0042725328550140005,
                        0.009757315382071594,
                        -0.0025424741465471796,
                        0.01718547734335912,
                        -0.024429639315193808,
                        -0.006510276222018052
                    ],
                    "bias": -0.002517005375172934
                },
                {
                    "weights": [
                        -0.1982708197588209,
                        -0.1265816227023858,
                        -0.02052449529222191,
                        0.06484271980100524,
                        0.03944555147681004,
                        0.015930176899610786,
                        0.02936649375606041,
                        0.01880678663095564,
                        0.09896884818572771,
                        -0.05967650685778584,
                        0.12380384218335365,
                        -0.025246071151973817,
                        0.1146223111659634,
                        0.34558238294753446,
                        0.011808445227445842,
                        0.2925570037048132,
                        -0.9971861059909486,
                        -0.0023184826738550097,
                        -0.6418868433255888,
                        0.43345469331481556,
                        0.05654986683765234
                    ],
                    "bias": 0.01331303299087132
                },
                {
                    "weights": [
                        -0.0324941041075085,
                        -0.03254701555326718,
                        -0.023137408427900276,
                        -0.040928178275130705,
                        -0.024528132957518472,
                        -0.03742285732081873,
                        -0.030943962385408485,
                        -0.01695889586530901,
                        -0.013822545066973047,
                        -0.009858709079396032,
                        -0.008710465934991972,
                        -0.02584851784540685,
                        -0.03508809103724276,
                        0.004020753823452343,
                        -0.01008706720301816,
                        0.005656495593981633,
                        -0.0012538948084897953,
                        -0.010443514304554436,
                        -0.006867640926181629,
                        -0.01985032553575696,
                        -0.02173590786467596
                    ],
                    "bias": -0.002842556906436218
                },
                {
                    "weights": [
                        -0.14882293279491707,
                        -0.16196026965352164,
                        0.022619301575217788,
                        0.05934002474195198,
                        -0.10884843488633615,
                        0.11118588324889564,
                        -0.013035717060060263,
                        0.015032176358199912,
                        0.06588671308386614,
                        -0.20104990763107577,
                        0.19364553445264107,
                        -0.32322568604487345,
                        0.3355764678589589,
                        -0.0982835529346466,
                        0.005112537073530702,
                        -0.12889433061649183,
                        -1.6708073405361938,
                        0.0017316860990602128,
                        -0.40861547868657244,
                        0.22479054760921632,
                        -0.32646920384471023
                    ],
                    "bias": -0.10943582400547297
                },
                {
                    "weights": [
                        -0.14639383088340616,
                        -0.15583034056756342,
                        -0.012306180450405033,
                        -0.044367101788656875,
                        0.025273346232959317,
                        0.0011256610491550923,
                        0.11433641114314139,
                        -0.06866105517230722,
                        0.1744102179062001,
                        -0.07072674045967978,
                        0.3159831862791205,
                        0.014431093876872535,
                        0.2462603608538632,
                        -0.02877179029789695,
                        -0.012497528476552826,
                        0.3189631279345019,
                        -2.3318488298424174,
                        -0.0035837526298065163,
                        -1.5998705464756426,
                        0.48320456010953444,
                        -0.4520854721644122
                    ],
                    "bias": -0.04731341676572662
                },
                {
                    "weights": [
                        0.2601277671297972,
                        -0.08052142986812008,
                        0.12667900968609774,
                        -0.11330546965819199,
                        0.01108607723801579,
                        0.07582017993441156,
                        0.0832068893259018,
                        -0.006257586811540363,
                        0.039129189974199785,
                        0.12420953832981468,
                        0.06264692962360548,
                        0.05140626039654551,
                        0.012710010667701796,
                        0.27696730021868227,
                        -0.011280630968360239,
                        -0.019757321814902116,
                        -0.509499864560964,
                        0.01587733352380388,
                        0.018398903640742446,
                        -0.37501507586946065,
                        -0.09862003965629608
                    ],
                    "bias": 0.08284784907658249
                },
                {
                    "weights": [
                        -0.15868199372564856,
                        -0.026174961768226666,
                        -0.00679173194985436,
                        0.04304471260138322,
                        0.21231826191532674,
                        -0.03120773473413774,
                        0.15829396726369765,
                        0.001871848354421033,
                        0.19477716240748058,
                        -0.010817800251186475,
                        0.1898262864564552,
                        -0.000618666219670692,
                        0.19809984790664129,
                        -0.1589523392876408,
                        -0.0018790750932863999,
                        -0.48360784493016334,
                        -0.5869485264731047,
                        0.017047067271289372,
                        1.0189911459378282,
                        0.30705767250833815,
                        -0.1745424591767273
                    ],
                    "bias": 0.034708026268448544
                },
                {
                    "weights": [
                        -0.026102901960276485,
                        -0.053280306525967915,
                        -0.03363888198541581,
                        -0.03483438889517884,
                        -0.0106262264860836,
                        -0.01702492152625942,
                        -0.025206460547113133,
                        -0.04618393890292153,
                        -0.039739157796711014,
                        -0.036894014396719334,
                        -0.023058286037640513,
                        -0.014531816386287137,
                        -0.026916966286837322,
                        -0.009496624791291026,
                        -0.0019460189615356335,
                        -0.027307933198702897,
                        -0.003986413534761692,
                        0.0037395251667130414,
                        -0.0050350994659655235,
                        -0.009926919387200292,
                        0.011012482476109973
                    ],
                    "bias": -0.004284547380785369
                },
                {
                    "weights": [
                        -0.24443510696667362,
                        0.045728659235784966,
                        0.01790236096863913,
                        -0.09204188885053702,
                        -0.023127685828088076,
                        0.2489322852293125,
                        0.189583474717269,
                        0.03233787358328638,
                        0.15148637534783463,
                        -0.3151043868373638,
                        0.20407217476511263,
                        -0.307702780006362,
                        0.29158277324033993,
                        0.22908286514827275,
                        0.005303714809471276,
                        0.0952269784465329,
                        0.063320531668716,
                        0.0015683323526888666,
                        -0.3469972067659234,
                        0.12573449427584396,
                        -0.29567660195276796
                    ],
                    "bias": -0.15097614547386853
                },
                {
                    "weights": [
                        -0.045176951648645096,
                        -0.05029088368623675,
                        -0.056458036500075304,
                        -0.058925199879244765,
                        -0.05276551285936613,
                        -0.053896793177115425,
                        -0.044054623375097794,
                        -0.060312836157604015,
                        -0.034339933030166615,
                        -0.055840432997286756,
                        -0.04052230447399351,
                        -0.047994942119143104,
                        -0.04855249766269208,
                        0.022890662097828827,
                        0.012576916745815557,
                        0.037318505908220355,
                        -0.0038016726747916603,
                        -0.007438966351016258,
                        -0.003522603350982992,
                        -0.030744170130356303,
                        0.03746245410417472
                    ],
                    "bias": -0.025727726170231842
                },
                {
                    "weights": [
                        -0.27412270505729247,
                        -0.04260848708955311,
                        0.15491796737196056,
                        0.1445871258683574,
                        0.21006903358889165,
                        0.04704691981928518,
                        0.11501352789304903,
                        -0.15354529951609566,
                        0.07737344354952491,
                        -0.21341944124016257,
                        0.09918228089398338,
                        -0.07991028051554645,
                        0.07222908179537614,
                        0.13651551968493572,
                        0.012210358824814839,
                        -0.1321817173305971,
                        -1.2262166603263418,
                        -0.0003012490952984463,
                        -0.7046165618752068,
                        0.07385278176059662,
                        -0.27621704448626805
                    ],
                    "bias": -0.06532140892913094
                },
                {
                    "weights": [
                        -0.0560408281395338,
                        -0.05370828026533603,
                        -0.05959037509724019,
                        -0.07214221049486975,
                        -0.05076890622775723,
                        -0.049883954851380884,
                        -0.034069890974610814,
                        -0.05559992802490593,
                        -0.04880537823500597,
                        -0.042448131082150994,
                        -0.053709922164453194,
                        -0.042410230208032744,
                        -0.06516926846579164,
                        0.04779947793619281,
                        -0.000463422650092086,
                        -0.04672888075476037,
                        0.010961648323936124,
                        -0.005727348722797894,
                        0.014583121169167589,
                        -0.029798150880151062,
                        0.04843601931831795
                    ],
                    "bias": -0.034039264058240884
                },
                {
                    "weights": [
                        -0.1067574869658589,
                        -0.06775394167347158,
                        0.055768652900857286,
                        -0.018079856037512543,
                        0.16791054147694545,
                        -0.02552776369822079,
                        0.11330143486041593,
                        -0.04168476395398492,
                        0.16390772260629186,
                        -0.07512207391388463,
                        0.16272544573030667,
                        -0.0054926219368278,
                        0.1499117248377226,
                        -0.33684515038891666,
                        0.023335909716491278,
                        -0.600799533235787,
                        -0.7084416781604732,
                        0.013664428925611575,
                        0.9767792718368857,
                        0.2671227752336481,
                        -0.13935882300599342
                    ],
                    "bias": -0.02528920724653167
                },
                {
                    "weights": [
                        -0.20107932359066133,
                        0.1857549693550263,
                        -0.2674241926302715,
                        0.02916359010874712,
                        -0.0021794742270447153,
                        0.03458501214468899,
                        0.009523836945055845,
                        -0.009998625670894393,
                        0.01682471881014911,
                        0.023137069342641585,
                        0.039805267182633726,
                        0.09485151389908049,
                        0.022839769224855123,
                        0.06690596358205926,
                        -0.007601927600078513,
                        -0.03574270645367052,
                        -1.021934744070462,
                        -0.011833198353856465,
                        -0.3760803510196536,
                        0.407929721840909,
                        -0.05817650760009254
                    ],
                    "bias": -0.009893141210393454
                },
                {
                    "weights": [
                        -0.11031754636216146,
                        -0.08050125676210539,
                        0.03491391343311537,
                        0.04955475190767297,
                        0.1180755234126198,
                        0.15311190808110958,
                        0.07890129035359182,
                        0.005725890561211477,
                        0.04148734835071846,
                        0.13053351456856593,
                        0.02054278435832885,
                        0.2181931970920655,
                        -0.003196834546598605,
                        0.36814653121476265,
                        -0.00425880833791857,
                        -0.18727071218309801,
                        0.3623406561210904,
                        -0.024741389163178175,
                        0.9565002913164786,
                        0.44355241337569684,
                        0.014286644185233646
                    ],
                    "bias": 0.09983525855334734
                },
                {
                    "weights": [
                        -0.00047546250702532186,
                        -0.005268474487263827,
                        -0.014474538467917972,
                        -0.024716639373351147,
                        0.004543266749587837,
                        -0.009730601907521393,
                        -0.006168756754717111,
                        -0.005042822524890279,
                        0.00760779727092182,
                        -0.005664991585418089,
                        -0.009346856197653868,
                        0.03148928776710689,
                        -0.011530106302508118,
                        0.01130307198565306,
                        -0.001692526877899888,
                        0.009155166987847027,
                        0.0020691013672752357,
                        0.002541759421276104,
                        0.005952241632207655,
                        0.015925540083216474,
                        0.005903926827959547
                    ],
                    "bias": -0.00015686670718011058
                },
                {
                    "weights": [
                        -0.21150198393988015,
                        0.03726865586164019,
                        0.09336135014662861,
                        0.054870616523395574,
                        0.10133792001075573,
                        0.024485078415747194,
                        0.050807371121435074,
                        -0.0554993873074621,
                        0.05434060278005625,
                        0.000964385906124749,
                        0.09383945514690448,
                        0.13828323826577973,
                        0.10250496634631223,
                        0.2669775621026688,
                        0.006921520387696925,
                        -0.05634102223183611,
                        -0.2690636753152439,
                        0.00393932113607699,
                        -0.3759255608401946,
                        0.2508198137478249,
                        -0.27833180164660276
                    ],
                    "bias": 0.01598914647524136
                },
                {
                    "weights": [
                        -0.06184259666129077,
                        -0.027356681905574675,
                        0.1209500278041703,
                        0.03882384460545839,
                        0.12136493204836285,
                        0.018856622156843517,
                        0.08590224723383547,
                        0.039964226045774966,
                        0.021614044983539263,
                        0.04273748454649729,
                        -0.0053734742942483085,
                        0.04265003681677911,
                        -0.026496906752390966,
                        0.21452739050576056,
                        -0.0011754877356022842,
                        0.8101540456788633,
                        -0.414354579107971,
                        0.016343186789380803,
                        -0.24812085435976797,
                        0.12094532450117879,
                        -0.030940241762551172
                    ],
                    "bias": 0.01718141420596713
                },
                {
                    "weights": [
                        -0.04860248165766586,
                        -0.04145498912889724,
                        -0.04804429609540148,
                        -0.06060800535485207,
                        -0.04020813787084628,
                        -0.05766627469254207,
                        -0.027993021437478317,
                        -0.04790863690730083,
                        -0.041947453120184414,
                        -0.038414780700580166,
                        -0.05849169155176353,
                        -0.035160823713936105,
                        -0.03873173241787497,
                        0.009420395124968589,
                        0.00022032414871064895,
                        -0.020591447749807663,
                        0.013722347598701775,
                        -0.005934795594664884,
                        0.009930721560753588,
                        -0.018237696927487872,
                        0.05235937356493166
                    ],
                    "bias": -0.014526728677615324
                },
                {
                    "weights": [
                        -0.019474983968455917,
                        -0.03681772897554684,
                        -0.0036157900560444423,
                        -0.020862801938955306,
                        -0.00852990124030459,
                        -0.024530626591512894,
                        -0.010223839413300115,
                        -0.007097673766123379,
                        -0.011680281963752029,
                        -0.0028876468534348256,
                        0.007918668051086736,
                        -0.00851909346036939,
                        -0.005347948157815388,
                        -0.0033646962212681973,
                        0.0035435927519938365,
                        -0.0017530176993079346,
                        0.0078031908172505925,
                        0.005612173836699628,
                        0.0015973461364380294,
                        -0.00031002185414931953,
                        -0.0033152066316934716
                    ],
                    "bias": -0.0009877976687190071
                },
                {
                    "weights": [
                        -0.0972030697728572,
                        -0.13103329329057256,
                        0.1390590796274828,
                        -0.04608228261337709,
                        0.09413752050857106,
                        0.16288177007747429,
                        -0.021076313725882135,
                        0.021309485685752326,
                        -0.03153966712176357,
                        0.166787235352898,
                        -0.07290371450147053,
                        0.19375307286108723,
                        -0.11065471719112023,
                        0.08205483499574352,
                        0.013822334389857126,
                        0.10590536871054466,
                        1.5782733684286852,
                        0.0008245644405889669,
                        0.9396772629714232,
                        0.477932652348439,
                        0.07285083544403671
                    ],
                    "bias": 0.06906203829375226
                },
                {
                    "weights": [
                        -0.10040194205493387,
                        -0.1277699373434053,
                        0.09935932045746328,
                        0.07304758259169943,
                        -0.04466448002132639,
                        -0.1447206910843793,
                        -0.23261353076783964,
                        -0.13039911958384853,
                        -0.21628157854332228,
                        0.20902998176021256,
                        -0.22210070117977257,
                        0.3374001975736511,
                        -0.3085014879804476,
                        0.0793521666558764,
                        -0.0003090153750242079,
                        -0.12442216151667354,
                        -1.8322876262096859,
                        0.010294625786763949,
                        -0.020940793587439128,
                        0.5495889219062183,
                        -0.2511644087081741
                    ],
                    "bias": 0.04929725219749317
                },
                {
                    "weights": [
                        -0.17600903243135116,
                        -0.14125283988273543,
                        0.045125210194108915,
                        0.05098343289532426,
                        0.16855827382507274,
                        0.09933236661274998,
                        0.14574319820481083,
                        0.04508537953860111,
                        0.13992288964402258,
                        0.14152723444347437,
                        0.11954914991346824,
                        0.16495368694051185,
                        0.09685121298375719,
                        0.13485998527251916,
                        0.011210459975614442,
                        0.2305116036756166,
                        -0.9890649200010405,
                        0.007311454401453888,
                        -0.8544990489335739,
                        0.4714718232166889,
                        -0.036006395723250206
                    ],
                    "bias": 0.10079226072194702
                },
                {
                    "weights": [
                        -0.03715756715735683,
                        -0.04243123366920164,
                        -0.039761371617797664,
                        -0.05941320725609447,
                        -0.03316169784149261,
                        -0.0535803060082367,
                        -0.04415759401037347,
                        -0.050945721583845534,
                        -0.05686295694244688,
                        -0.03834377298527531,
                        -0.0245738507863988,
                        -0.03235692924825544,
                        -0.016833527597390666,
                        0.021848523841714578,
                        -0.0024586738292443904,
                        -0.019007622235535458,
                        -0.006651744895639397,
                        0.0076775048943006985,
                        -0.014147596557332609,
                        -0.024706001727757363,
                        0.032685430009648464
                    ],
                    "bias": -0.012107844266525065
                },
                {
                    "weights": [
                        -0.1693522687484143,
                        -0.11621549543864862,
                        0.006490824159283248,
                        0.13909991574167813,
                        0.04984958295900676,
                        0.10138905282448102,
                        0.034005050360941404,
                        -0.01628482734444875,
                        -0.07893346521497437,
                        0.08566715491829191,
                        -0.11794106634439708,
                        0.2785815803208442,
                        -0.14091095682042779,
                        0.05569601723730044,
                        0.005590984333491303,
                        0.017409700920210467,
                        -0.9519769884724757,
                        -0.00915032371335524,
                        -0.738861424152366,
                        0.4228958265615287,
                        -0.028597428049802195
                    ],
                    "bias": 0.019261665429838853
                },
                {
                    "weights": [
                        -0.0067134846465439655,
                        -0.01992538338305533,
                        0.0008661615881973481,
                        0.0005703142158449583,
                        0.017903631743069897,
                        -0.019857159230300143,
                        0.01368618600774319,
                        -0.0024462886644822236,
                        -0.01509789782884607,
                        0.0016064085238658003,
                        -0.013375559715325596,
                        -0.0002068615622056165,
                        0.00537538958893793,
                        -0.003681693164203348,
                        -0.014556015756709773,
                        -0.011529596783291374,
                        0.011788197153603281,
                        -0.010526820209757067,
                        0.01417734282215229,
                        0.0057200092620295975,
                        0.011918934442145201
                    ],
                    "bias": 0.0
                },
                {
                    "weights": [
                        -0.1751930693450873,
                        -0.09875081900338621,
                        -0.04386665672123614,
                        0.10120544548596141,
                        0.006507979078681605,
                        0.04593240693970094,
                        -0.14017328708306193,
                        0.02617199579193009,
                        -0.015340082125565516,
                        -0.1377604649428759,
                        -0.06677766723181405,
                        0.005189885413131627,
                        -0.10220283153774117,
                        0.3581878723960871,
                        0.010764028108139173,
                        -0.5760888041382134,
                        0.331128427965165,
                        0.004102690554812749,
                        -0.9191478545278137,
                        0.19335987668698937,
                        0.029705527848370723
                    ],
                    "bias": -0.06987996793529112
                },
                {
                    "weights": [
                        -0.03765475679080261,
                        -0.06473612000121028,
                        -0.04434597786810887,
                        -0.07127909481591084,
                        -0.04320795106388675,
                        -0.06033425985338613,
                        -0.06117570196633442,
                        -0.05693652938683218,
                        -0.05930561580832262,
                        -0.04573191620433259,
                        -0.05599702300574862,
                        -0.05699847806524371,
                        -0.07080325743834003,
                        0.034633715692603366,
                        -0.006836355048491314,
                        0.030073183256446086,
                        0.012321074814882824,
                        0.0026227938039489126,
                        -0.02836791751106515,
                        -0.019389416956787652,
                        0.05724251319750164
                    ],
                    "bias": -0.041179214495281856
                },
                {
                    "weights": [
                        -0.08811235875349076,
                        0.14362940797477464,
                        -0.24206409211201527,
                        0.024299343688550825,
                        -0.15331109891018746,
                        0.19930080728729538,
                        0.03360302571366188,
                        -0.052796952757320846,
                        -0.004879039552125302,
                        -0.27319137807414673,
                        0.034756699285069775,
                        -0.3441402367861794,
                        0.018574426140907093,
                        0.5730431754744107,
                        -0.006330355546728614,
                        -0.3131796258030522,
                        1.6176744544012558,
                        0.003823588295456003,
                        -0.07645855248072427,
                        -0.15064689036699877,
                        -0.18661459321249368
                    ],
                    "bias": -0.18079170737519795
                },
                {
                    "weights": [
                        -0.11006022466185099,
                        -0.13264707236382892,
                        -0.13860594183688116,
                        0.17725945490026368,
                        -0.0068959986271548415,
                        -0.005336393405802227,
                        0.09744803960305512,
                        -0.00883620651391301,
                        0.134264879099861,
                        -0.2517320068265271,
                        0.17712609113557884,
                        -0.3469636164902392,
                        0.11988094862573657,
                        0.0032805464100383445,
                        0.021418293533648478,
                        -0.324716495670657,
                        -1.2266325445979238,
                        -0.010196576384676054,
                        -1.202834345003244,
                        0.04570534355206611,
                        -0.3925434510225622
                    ],
                    "bias": -0.18777132966203544
                },
                {
                    "weights": [
                        -0.15787446204007505,
                        -0.02951384801004737,
                        -0.06590359460738675,
                        -0.0021751736056541417,
                        0.08214738491068933,
                        -0.05828776787910548,
                        0.10998956261204923,
                        -0.08684087573549444,
                        0.08984711808710669,
                        -0.19329852545036372,
                        0.08767253430287929,
                        -0.27736633065318267,
                        0.045526731176386934,
                        -0.6077580926185017,
                        0.009075138675719305,
                        0.34948702871969256,
                        -1.0993802292777441,
                        0.009569999825542685,
                        -0.544956975771719,
                        0.22121568724382334,
                        0.30209027843755604
                    ],
                    "bias": -0.14419190478647068
                },
                {
                    "weights": [
                        -0.02967605851312081,
                        -0.05302999157968722,
                        -0.05595246726233952,
                        -0.0600646811991435,
                        -0.06408859349002634,
                        -0.07314343977371879,
                        -0.058103091626058256,
                        -0.06932577426752554,
                        -0.042897835608610733,
                        -0.04653204142284111,
                        -0.0460346739953732,
                        -0.07181625454738845,
                        -0.04516991284001637,
                        -0.06816778105059379,
                        -0.002794974441845887,
                        -0.035900776930332626,
                        -0.03641487591387689,
                        0.000481804456713391,
                        -0.05094329047724574,
                        0.054937771600596264,
                        0.0478346178808434
                    ],
                    "bias": -0.0456681257617388
                },
                {
                    "weights": [
                        0.09426240095609296,
                        -0.03928965966960814,
                        -0.010292342527602916,
                        -0.09881311402604645,
                        -0.07666486602505321,
                        -0.10366497390970535,
                        -0.10682657240023098,
                        -0.06784852582251569,
                        -0.09474746264251419,
                        0.006948224960620549,
                        -0.10895229122467132,
                        0.0061613148542922595,
                        -0.10310711909554562,
                        0.0398996170461136,
                        -0.012825468920420286,
                        0.009189308378810367,
                        0.14732759581374597,
                        0.0043875196468772006,
                        0.13894385351818916,
                        -0.21382628630488654,
                        -0.0031960517774124023
                    ],
                    "bias": -0.016011129413893793
                },
                {
                    "weights": [
                        -0.05169756684924828,
                        -0.05260489637880286,
                        -0.021898832392252748,
                        -0.049004762632392763,
                        -0.028050343772348652,
                        -0.03991709836091965,
                        -0.04036970206786817,
                        -0.043446504098322264,
                        -0.02923240900618526,
                        -0.030134388256234382,
                        -0.019230155854239657,
                        -0.04766430285498451,
                        -0.043026001702007995,
                        -0.03951785296100843,
                        0.00810793331606036,
                        0.039638611908066904,
                        -0.008709194057358028,
                        -9.936657286406415e-05,
                        0.02006457947965662,
                        -0.03432281660152579,
                        -0.018659794014077732
                    ],
                    "bias": -0.008715932937667302
                },
                {
                    "weights": [
                        -0.042647340439807294,
                        -0.034149482865648846,
                        -0.020371249487318534,
                        -0.035684587807742134,
                        -0.007646109962988924,
                        -0.05982923722638739,
                        -0.04019668626661915,
                        -0.02827938683101877,
                        -0.02625090284380627,
                        -0.04838652869179609,
                        -0.041120501957262315,
                        -0.04057350426427323,
                        -0.023806405456366617,
                        -0.01425088906912762,
                        -0.0014226601062889547,
                        -0.00536054525705057,
                        0.0014814043683018102,
                        0.016260739962111276,
                        0.009664234315724373,
                        -0.020480885033479057,
                        0.032288581613312425
                    ],
                    "bias": -0.00508786755472812
                },
                {
                    "weights": [
                        -0.04135755750351375,
                        -0.04063551826563739,
                        -0.03871831580332365,
                        -0.048926487783177965,
                        -0.01385780865231248,
                        -0.03498011832905992,
                        -0.03741089288506804,
                        -0.02460092690887039,
                        -0.024450259235660576,
                        -0.016348653829743362,
                        -0.027819618922855154,
                        -0.03741040226905495,
                        -0.02660839927203982,
                        0.005285197904778326,
                        0.00668500722377812,
                        0.015853702043967112,
                        -0.022142224357553867,
                        0.0016009787168725685,
                        0.009636532548586487,
                        -0.0057057491469930804,
                        0.023697153789445244
                    ],
                    "bias": -0.004664649470250166
                },
                {
                    "weights": [
                        -0.048742443836183307,
                        -0.05424555759752704,
                        -0.04526675123598628,
                        -0.0396663034674023,
                        -0.04780401792096247,
                        -0.06695660657082814,
                        -0.03394538142965876,
                        -0.03528659596187731,
                        -0.024793451107012213,
                        -0.05492844284708604,
                        -0.036134769460517906,
                        -0.04974872246415783,
                        -0.05260438883855044,
                        -0.0205981230024562,
                        0.02124066593637385,
                        0.03056544710047728,
                        0.02113108746515528,
                        -0.001915108007440037,
                        0.0042432650070323,
                        -0.03580296419151446,
                        0.024214909438879575
                    ],
                    "bias": -0.013107503532600187
                },
                {
                    "weights": [
                        -0.02500777470471221,
                        -0.027917135993932165,
                        -0.024713543306430278,
                        -0.0491929898290567,
                        -0.007656335341994047,
                        -0.035020655915033234,
                        -0.01933794696819842,
                        -0.028419327059830194,
                        -0.016805881882313068,
                        -0.005882174083986434,
                        -0.026755679289368915,
                        -0.0151293725906335,
                        -0.013424854920891174,
                        -0.005527323241476582,
                        -0.003370801723029609,
                        -0.01773162243172513,
                        -0.010965912710363913,
                        -0.014506748737272503,
                        -0.013240498401082598,
                        0.014723710315303557,
                        -0.004200237166469646
                    ],
                    "bias": -0.0024583067977446793
                },
                {
                    "weights": [
                        -0.05018059656745883,
                        -0.05491869786418759,
                        -0.015134819050532307,
                        -0.05038881470637472,
                        -0.030197296120701562,
                        -0.04707361041576966,
                        -0.025795591506250163,
                        -0.048203259147577025,
                        -0.03256447534070253,
                        -0.022358307525675514,
                        -0.0404636515870995,
                        -0.027009848019135245,
                        -0.018686994328936384,
                        -0.023368641869955006,
                        0.003882918359943773,
                        -0.02430577020676901,
                        0.003547789912725021,
                        -0.002264732656134277,
                        -0.01539612252403983,
                        -0.010545244649873416,
                        0.027377689522340994
                    ],
                    "bias": -0.007512694433638574
                },
                {
                    "weights": [
                        -0.062012377329440635,
                        -0.0328967144316818,
                        -0.06675502986122815,
                        -0.044949803545630135,
                        -0.05000504392602355,
                        -0.07186314004214366,
                        -0.05593337846849641,
                        -0.037087768339792625,
                        -0.05631680690844194,
                        -0.06450704711661076,
                        -0.057614830823865155,
                        -0.06462245994598254,
                        -0.05530624103611983,
                        0.026651004153765104,
                        -0.006422755069521445,
                        -0.08403038939089519,
                        0.0511376511186166,
                        0.018279364846038353,
                        -0.05751822766731637,
                        0.060766558893904185,
                        0.06225048451668821
                    ],
                    "bias": -0.053447273401833084
                },
                {
                    "weights": [
                        -0.008593791675585301,
                        -0.0038004584636640954,
                        -0.00409609284335604,
                        -0.017404545697958136,
                        -0.02158888069485036,
                        -0.02199456581064588,
                        0.004243155576029365,
                        -0.012238309398440004,
                        -0.015045611686108396,
                        -0.0032655591507139183,
                        0.005029027207442423,
                        -0.012419046254827973,
                        0.0033838160543781946,
                        -0.002931169278334476,
                        -0.008635419771182824,
                        0.0007022053821422752,
                        -0.004638121254598572,
                        -0.0060779824818207335,
                        -0.010970843622760896,
                        0.01248264033271092,
                        0.0026576663485481217
                    ],
                    "bias": -0.00044477083303305306
                },
                {
                    "weights": [
                        -0.04126452096008067,
                        0.1451703953782802,
                        -0.22890498283769004,
                        0.05882601770954806,
                        -0.037365264820450425,
                        0.030554829281087374,
                        0.07028277174365398,
                        -0.24017005696304597,
                        -0.017515357365547893,
                        -0.2598107600571962,
                        -0.014398691547828043,
                        -0.2955756617150397,
                        -0.023720828433845438,
                        -0.18370099137768303,
                        0.008660824583537402,
                        -0.12391247319756402,
                        -2.211345899800837,
                        0.006405414821522116,
                        -2.9898227071122134,
                        0.12257467154980137,
                        -0.24690833543182253
                    ],
                    "bias": -0.21971545678815785
                },
                {
                    "weights": [
                        -0.09661571549634212,
                        -0.166635655279819,
                        0.16506278690148432,
                        0.06317877353556581,
                        0.2358948219553017,
                        0.017426164998891328,
                        0.09204471161801567,
                        -0.08016563965663653,
                        -0.02578990286548886,
                        0.13571818723679568,
                        -0.03153638959876149,
                        0.3158211597614048,
                        -0.04875147602421465,
                        0.0037188910704041263,
                        -0.0026942174530032166,
                        0.26717170887710684,
                        0.7291486024155512,
                        -0.005378118151509812,
                        -0.037708745633345774,
                        0.26049120585879637,
                        -0.10485755203090183
                    ],
                    "bias": 0.12904656634115017
                },
                {
                    "weights": [
                        -0.1939629068351998,
                        -0.09713843006005818,
                        -0.04918349521416068,
                        0.15157426637584864,
                        -0.003052574186127531,
                        -0.028048158010076072,
                        0.11095386486099608,
                        -0.07098810913604513,
                        0.0960261949128461,
                        -0.1625801366303435,
                        0.11310586515078529,
                        -0.08531399284657185,
                        0.15534256511859518,
                        0.43846932583972736,
                        -0.005774151364869413,
                        0.46027175213691596,
                        -0.790304288369865,
                        -0.0031168124130739653,
                        -0.9767193723820399,
                        0.2527259464346965,
                        -0.258832894303937
                    ],
                    "bias": -0.08660414332380288
                },
                {
                    "weights": [
                        -0.3328248988877482,
                        -0.06335746947532726,
                        -0.03226377856837168,
                        0.1713403401226719,
                        -0.02705417753531464,
                        0.05873475820392382,
                        -0.008080449061389475,
                        -0.12889839641516695,
                        0.026938058002666618,
                        0.01980682140319963,
                        0.004821512656130391,
                        0.16231864579493951,
                        -0.15506126542161472,
                        0.09044601086033681,
                        0.005793177463249446,
                        0.09902831782360674,
                        0.7032311197465951,
                        -0.008396898201923715,
                        0.6774980281162288,
                        0.6440368052106932,
                        0.04682690521294445
                    ],
                    "bias": -0.08379174803006068
                }
            ]
        },
        {
            "neurons": [
                {
                    "weights": [
                        -0.007568322738962791,
                        -0.3391533376520361,
                        -0.10288409751154942,
                        -0.09378149922734215,
                        0.21729244728318428,
                        -0.010200032418488323,
                        -0.19355281765722296,
                        -0.012388687890013217,
                        -0.0019134450281903309,
                        -0.36219226254772496,
                        0.1377898471129984,
                        0.07675274720774668,
                        -0.00698792037181884,
                        0.005247610728844578,
                        -0.17719425422444227,
                        0.014670955897667478,
                        0.4373711800872048,
                        -0.13721582332840337,
                        0.03521217336233281,
                        0.004848758723544198,
                        -0.2891966396504591,
                        -0.007057043221712299,
                        -0.34756222734604447,
                        -0.11862391225792732,
                        -0.20124496194478442,
                        0.11495725676830781,
                        -0.018822067444804857,
                        0.09577261903416788,
                        0.03456467649781284,
                        -0.2492795282108027,
                        -0.0005459901823191863,
                        0.1523123535993395,
                        -0.15685794692385616,
                        0.1816504633399505,
                        0.004560499460032769,
                        -0.0180949528362226,
                        -0.44892295088582795,
                        0.0032164688065690747,
                        0.01104196056954482,
                        0.047191150469022516,
                        -1.3651060669230677,
                        -0.05015429368892579,
                        0.007112501670031963,
                        0.02179686518023554,
                        -0.021361694600883704,
                        -0.2189192763800415,
                        -0.0441616191640513,
                        -0.17634746608912316,
                        -0.0707497691338133,
                        -0.19347861506834593,
                        -0.0320835218768219,
                        -0.0523079738456154,
                        -0.003461606940618859,
                        -0.010106970453167424,
                        -0.0072408974559178,
                        0.0075342196372658165,
                        0.005192326568134302,
                        0.011776028144110526,
                        0.0707115559784412,
                        0.007589002936069209,
                        -0.8066577093518753,
                        0.062222743360956165,
                        -0.10341651058141439,
                        0.08291334816745484
                    ],
                    "bias": -0.11774258166436839
                },
                {
                    "weights": [
                        -0.008771272070134914,
                        0.0669416227211033,
                        0.0015441973250888239,
                        0.045767998682070925,
                        0.1080240124717805,
                        -0.016380460291420644,
                        0.2624436710890566,
                        0.005442849954631782,
                        0.01663242464585871,
                        -0.017241490748971123,
                        0.14504026606785472,
                        0.3544833931384817,
                        0.006068910595788596,
                        0.02569224175197588,
                        -0.020321937904438016,
                        -0.009295839341602321,
                        0.18158157251421966,
                        -0.10696222372599189,
                        0.1655006620411276,
                        -0.014672380733937451,
                        0.501357427638844,
                        0.01950821733034007,
                        0.05127489218601877,
                        -0.06374531781894748,
                        -0.2188081054661993,
                        0.04151543310784477,
                        0.02248141291497994,
                        -0.1694881649890724,
                        0.053727740120419275,
                        0.02091187081239593,
                        0.043555880715815655,
                        0.07720375535125312,
                        0.19876210096571562,
                        0.1308169730035848,
                        0.0006175842661066951,
                        -0.24061206746130817,
                        0.058068135264798114,
                        -0.003823644296132797,
                        -0.003480422723879939,
                        -0.028228363735176933,
                        0.27969374485894055,
                        -0.03211171066430308,
                        0.004631094011804912,
                        0.18515603576059875,
                        0.009381217739096255,
                        -0.01175308349055022,
                        -0.06363178868329915,
                        -0.5746790626682599,
                        0.20776529182142547,
                        -0.4762684582841067,
                        -0.02947912768450231,
                        -0.06577699278466197,
                        0.0036694402855603284,
                        0.001964246543884399,
                        0.020560599492862625,
                        0.036532993635753935,
                        0.00032717639874092313,
                        0.02122306260444973,
                        0.07532279143114771,
                        -0.01199229062448949,
                        -0.3635543347517585,
                        0.16901820549165,
                        0.02436612379831683,
                        0.2054972508949675
                    ],
                    "bias": 0.12223809902702751
                },
                {
                    "weights": [
                        0.0052969548163904765,
                        0.06702097872391634,
                        0.0022535637526826945,
                        -0.07759177107382975,
                        -0.04264847879506478,
                        -0.0018464886907598387,
                        -0.05413688812799635,
                        0.02288866072713435,
                        0.04165611548390244,
                        0.2243350468612106,
                        -0.05522485990353254,
                        0.06194285534033427,
                        -0.004229240587557721,
                        0.03173264555964874,
                        0.10059969256852448,
                        0.006315073966937696,
                        0.06383535867542198,
                        0.15501102497122907,
                        0.04892824129718435,
                        0.015284543435916953,
                        -0.07982472066041896,
                        -0.005755827353759915,
                        0.10901413499857908,
                        0.04641261591993689,
                        -0.16989069872080487,
                        0.04099974853484291,
                        0.038662092596843514,
                        -0.010150658619508758,
                        0.054153418474922624,
                        -0.13565848852688336,
                        0.02617589549929288,
                        -0.05675812428500365,
                        -0.08218385314015977,
                        0.11505484290944605,
                        0.005340087122516564,
                        0.026856595145415146,
                        0.010219886550996612,
                        0.01872555471666073,
                        0.00040191606501161024,
                        -0.028426101054535902,
                        0.04533303679787945,
                        0.1727552473491692,
                        0.027190111952039,
                        0.06137476410481538,
                        0.001989427117783844,
                        0.13125873059685264,
                        -0.039337311507612965,
                        -0.2384703943545712,
                        0.08547963151142382,
                        0.1073133250876535,
                        -0.05635307618193303,
                        -0.07483105616803554,
                        -0.012987808403778452,
                        0.011679562878114806,
                        0.016189513146403954,
                        0.017689179467445304,
                        0.013341870900402723,
                        0.043450102542784155,
                        0.06190603405055619,
                        -0.006198471906665949,
                        -0.29279721021947375,
                        0.12805696885637297,
                        0.022105799429212432,
                        -0.10990870073706895
                    ],
                    "bias": 0.14794836312274784
                },
                {
                    "weights": [
                        -0.002255587330608246,
                        0.2711001995700727,
                        0.15263969936349592,
                        -0.24878241717289518,
                        0.07546828064387161,
                        0.014632064337540532,
                        -0.050702709845331456,
                        -0.01171403670217141,
                        0.03520980662439784,
                        0.26166423211073375,
                        -0.017717723461795138,
                        0.035000245523732376,
                        0.013491623179609414,
                        0.05092522885654387,
                        -0.044855948848971136,
                        0.006783145859677247,
                        0.17325212745307936,
                        0.07444805911627024,
                        0.029576956288061805,
                        0.0051222761517815685,
                        0.038578889993428726,
                        -0.004240960281923359,
                        0.01887388157520918,
                        0.1915586405768648,
                        -0.23342115804677466,
                        0.16223177873134245,
                        0.011967000040618033,
                        -0.09887828012133701,
                        0.05422466164093765,
                        -0.12235939398985941,
                        0.02170546816322011,
                        0.2349236943645202,
                        -0.10010423614349678,
                        0.07512786098580025,
                        -0.00760498215011315,
                        0.04572480159035163,
                        -0.31001673823803755,
                        -0.0028956468964749095,
                        -0.01921531026687556,
                        0.3550916838388825,
                        0.2561905657172444,
                        0.07455990420711106,
                        -0.003547028710875453,
                        0.027944307350033722,
                        -0.005268514901148025,
                        0.17073226567184777,
                        -0.04510430557506526,
                        -0.37254940446627577,
                        -0.369191789623312,
                        -0.14168826072521074,
                        -0.06261693060057541,
                        -0.07377240191047663,
                        -0.007975632981119796,
                        -0.006906667876593206,
                        0.0070558652629721455,
                        0.017098960029032117,
                        0.0005675581142528078,
                        -0.001118172340341008,
                        0.0863641174648843,
                        -0.007458560706722594,
                        0.038248060417374274,
                        -0.0010860050965526243,
                        -0.6988980091731068,
                        -0.03511572665439835
                    ],
                    "bias": -0.3271052237723991
                },
                {
                    "weights": [
                        -0.008622505028299894,
                        -0.007588204234195701,
                        -0.08764516548234835,
                        0.23399503564559837,
                        0.18828009180593838,
                        0.007471818615276877,
                        -0.027410128440069185,
                        0.006318902131061467,
                        0.04489396375453517,
                        0.016542208576080908,
                        0.3133703844825834,
                        0.036944857454823406,
                        -0.001888581694372868,
                        0.041753833473457354,
                        -0.16164362974994378,
                        0.008560248998541105,
                        0.10258410656031274,
                        0.129111836146019,
                        -0.04274749476118812,
                        0.01913928815291782,
                        -0.3317427584716183,
                        0.004330097621605835,
                        0.12434863878661397,
                        0.12025255515639158,
                        -0.23475855514509575,
                        -0.123035992554679,
                        0.043873626016637975,
                        -0.1223097547472713,
                        0.04352461567792443,
                        -0.45023494141986486,
                        0.03753035621227812,
                        -0.09772995624022038,
                        0.007763168726851555,
                        0.015196905846796548,
                        0.00413763272611378,
                        0.12331277634196587,
                        -0.049281170218596196,
                        0.03183527150983371,
                        -0.027698461945775972,
                        0.20412897669047445,
                        0.5048538355183327,
                        -0.02087280036274885,
                        0.04593610976721738,
                        0.0741720021676274,
                        0.0030101048302413115,
                        0.1391154048863897,
                        -0.04864547995296703,
                        0.2246010532131531,
                        -0.048017039049106695,
                        0.2626391447282804,
                        -0.03429331540043425,
                        -0.08318819258589774,
                        -0.002443034287346272,
                        0.0035543781340313064,
                        0.018373759432199585,
                        0.014671972890277253,
                        0.021127141857259637,
                        0.025056345726350425,
                        0.0847784948321852,
                        0.008036569036676868,
                        -0.30945542273311816,
                        0.21579861869684094,
                        -0.28306158257855585,
                        -0.2548957837356313
                    ],
                    "bias": -0.1365024425725938
                },
                {
                    "weights": [
                        0.003837248855622104,
                        0.23953457978669554,
                        0.1968849605280963,
                        0.02522774718939645,
                        0.015098828259240157,
                        -0.03841795959228392,
                        -0.013476662524753208,
                        0.01158603678949146,
                        0.023057957774089224,
                        0.07834890687573402,
                        -0.04664599929581881,
                        0.3129953989892245,
                        -0.014970316433242679,
                        0.04806283446293,
                        0.11419782118820848,
                        0.007480138505504902,
                        -0.09762223903324152,
                        0.22310917674067143,
                        -0.029299153188450475,
                        0.010709159801803094,
                        0.021290746764693023,
                        0.00855331595131077,
                        0.033682755692550456,
                        -0.02760075842506085,
                        -0.2012864367556921,
                        -0.07110955447853028,
                        0.03759836212533338,
                        0.1794627081047183,
                        0.0283410060009911,
                        0.07530749103944474,
                        0.03209060269988783,
                        -0.1290304582689704,
                        0.039717196988022826,
                        -0.060895652763760355,
                        0.01355551460147157,
                        0.08115543709646199,
                        0.2510328093713811,
                        0.00877216801561672,
                        0.011142860189837595,
                        -0.09474361221218403,
                        -0.18185869078895794,
                        -0.011542869630670966,
                        0.03583466818407189,
                        0.017335234831792577,
                        0.00748484199728525,
                        0.07246013909029467,
                        -0.04573609684417911,
                        0.018855481443298704,
                        -0.09977287109324615,
                        -0.5964480729077561,
                        -0.03842787572085584,
                        -0.0722577093914917,
                        -0.0037731559665490663,
                        -0.0006549391059553867,
                        -0.001836399497835463,
                        -0.012516129351568449,
                        0.00500737743833392,
                        0.01330447372725438,
                        0.07755836548772205,
                        -0.0011514573502471375,
                        0.026842790354230133,
                        -0.022336759989026917,
                        -0.005458674532308132,
                        0.221234509883899
                    ],
                    "bias": -0.00988162413607902
                },
                {
                    "weights": [
                        0.006812390579379296,
                        -0.007508144615291882,
                        -0.24779794267652586,
                        0.05364077910351088,
                        0.18138169136082127,
                        0.007117182362111091,
                        -0.023521474157563196,
                        0.02411068834767378,
                        0.024182646277912168,
                        -0.4446760705763705,
                        0.16258406748700033,
                        0.012479585985260664,
                        0.018633087632067252,
                        0.023224496377017647,
                        -0.07194233470868415,
                        -0.004226587865071671,
                        0.23437038367788413,
                        0.10663645459952249,
                        0.11808072748232,
                        0.00033411858822148395,
                        0.06959566974269407,
                        0.008764125849424141,
                        0.04280721288364668,
                        0.11262595686475677,
                        -0.07042990702286465,
                        0.06474864519268436,
                        0.0035085605900586733,
                        0.031068113389343375,
                        0.0429578256748637,
                        -0.10139441125982256,
                        0.018898046004446455,
                        -0.09052824347071411,
                        -0.13478858438841473,
                        0.2067620049419371,
                        0.00032580619927962014,
                        0.2121496061482224,
                        -0.2278754451517806,
                        0.00793430104995813,
                        0.0010900203099119847,
                        0.2690057733590755,
                        0.23197735135971667,
                        -0.04905641403872589,
                        0.02530047667065659,
                        -0.020521765531563152,
                        0.0014554275902557573,
                        0.18925596419317203,
                        -0.053157773810851926,
                        0.2085174210990289,
                        -0.22182163964347093,
                        -0.023612535993735438,
                        -0.04026759304505037,
                        -0.07363130730869627,
                        0.010258766038715924,
                        0.029823849863936932,
                        0.02184197599690271,
                        0.023350189339392827,
                        0.016630038353003692,
                        0.0064193034014642285,
                        0.06587440726502365,
                        -0.006310214512098862,
                        -0.1352634806585261,
                        -0.08731971279945774,
                        -0.3770307759987404,
                        -0.07940807798341332
                    ],
                    "bias": -0.03035248549025724
                },
                {
                    "weights": [
                        -0.018575273873553167,
                        -0.00434258126843701,
                        -0.2992191302257295,
                        -0.5611816855229027,
                        -0.16785699537380264,
                        0.004394303758539272,
                        0.11671796651735494,
                        0.0014765455544100746,
                        0.0011460845629901219,
                        0.15137370721575671,
                        0.11026840224376407,
                        0.33565811253505046,
                        -0.013870596383854173,
                        0.0381850278736469,
                        0.14314804058822847,
                        0.008122986678946292,
                        -0.1992885361267856,
                        0.16438566057539225,
                        -0.09053209388766639,
                        -0.004944809256779228,
                        -0.10462675185590006,
                        -0.004321753063936087,
                        0.14702507358329156,
                        -0.05123091956649457,
                        -0.13786485740906487,
                        0.32765495418610535,
                        0.02605865454494753,
                        -0.13420348604199972,
                        0.05774040908828672,
                        -0.15994396468382133,
                        0.016865786367847226,
                        0.014445765017667703,
                        -0.19028544542337372,
                        0.256788716860944,
                        -3.719974244933888e-07,
                        0.1100049971512439,
                        -0.7363962351463115,
                        0.003394495921726356,
                        -0.009375386005857503,
                        -0.3029281276815532,
                        0.31825348704678613,
                        0.03274432971676403,
                        0.019198212678100304,
                        -0.12920836779878647,
                        -0.014449930290073937,
                        0.07268305284087219,
                        -0.042644441485794785,
                        -0.07395372209052543,
                        0.0692888834835439,
                        -0.09843971739042093,
                        -0.06847806081671541,
                        -0.07360271305432928,
                        0.006150579541488849,
                        -0.013727616968641745,
                        0.0030256913982662143,
                        0.008632414408410413,
                        -0.0055233298982059675,
                        0.014239856771786687,
                        0.07876893804498968,
                        -6.181582489068175e-05,
                        -0.13455081487253562,
                        0.030161442932659502,
                        -0.14829335018964612,
                        0.16170881908648493
                    ],
                    "bias": -0.126411598933444
                },
                {
                    "weights": [
                        -0.007881148586819393,
                        -0.4003274254085239,
                        -0.7634665833913484,
                        0.04179485996073513,
                        -0.19358817920704807,
                        -0.007794122540429703,
                        -1.7599590861685865,
                        -0.005358682797752971,
                        -0.008914159532334496,
                        0.2659142634442232,
                        -3.533906298140069,
                        -0.6216951150251588,
                        -0.0023147586193135194,
                        -0.016215522461787285,
                        0.31954416171318506,
                        -0.007046050751578076,
                        0.4527554383652134,
                        -0.6729726608008517,
                        0.512904917665175,
                        -0.0053574234337751755,
                        0.5322350186685806,
                        -0.015394122153346464,
                        -0.14179315291086395,
                        -8.297010977204877,
                        -0.49498278611953744,
                        0.2817553351371192,
                        -0.014887803515835159,
                        -0.006296743587042544,
                        -0.015147228115385464,
                        -2.1770390670054662,
                        -0.014930077942221474,
                        0.24689387308548233,
                        -0.35209474175045613,
                        0.2458417558756216,
                        -0.005869717825275261,
                        -0.5594583174142458,
                        0.22427591146314577,
                        -0.00013735254954933793,
                        0.0017154873227854092,
                        0.17843133515630366,
                        -0.13900224953420914,
                        0.7117663029922219,
                        -0.003259109694937974,
                        -0.6761067255721736,
                        -0.01050492019256887,
                        -1.1997990489110553,
                        0.009253557676311218,
                        0.3731858955216341,
                        0.11218444174560326,
                        0.32589363081391054,
                        -0.005067719415874095,
                        -0.06077059049520097,
                        -9.769148396346728e-05,
                        0.0031480110359569063,
                        -0.019705298105006337,
                        0.009067371218875535,
                        -0.00087822224830143,
                        0.01446677007563748,
                        0.013794602469271555,
                        -0.020770133969854904,
                        -0.608233185697881,
                        -0.338651263710762,
                        -2.23790510623537,
                        -0.5032939977417218
                    ],
                    "bias": -0.38745077485702345
                },
                {
                    "weights": [
                        -0.006139569516174694,
                        0.5780994482126637,
                        0.3602370899204041,
                        -0.06918309187228984,
                        0.16316315855304553,
                        0.012233766160488047,
                        0.1345849607969352,
                        -0.01121023700720121,
                        0.02091434198663895,
                        -0.2774827333448806,
                        0.047392652800398886,
                        0.087455521963845,
                        -0.02496151803762006,
                        0.027986609563978356,
                        -0.16399179934513894,
                        -0.0018306050931034385,
                        -0.12169440245572391,
                        0.2634841045929675,
                        0.013054014476504519,
                        -0.013484290264626424,
                        -0.0932804072778892,
                        -0.007202969672167214,
                        -0.0984591278663377,
                        -0.2658159280253987,
                        -0.4400020974327657,
                        0.1300157985102602,
                        0.001578942257321819,
                        -0.22175602453398263,
                        0.022201080192706415,
                        -0.2053493242749497,
                        -0.004767978731029511,
                        0.330429208659257,
