{
    "_comment": "Optimizer_Adam(learning_rate=0.005, decay=1e-3), trained 1/3 and the on 2/3 an then on last third of the data, epochs 15000",
    "items": [
        {
            "neurons": [
                {
                    "weights": [
                        -0.005720431423791037,
                        -0.006936996054573513,
                        -0.008112803419716494,
                        -0.016553160176199996,
                        -0.0035796967560176914,
                        -0.011240869535517329,
                        -0.004422914849886688,
                        -0.0024327150058006133,
                        0.0006737982656410705,
                        0.008385267013247147,
                        -0.000935197531208761,
                        -0.009909181490487817,
                        0.0008966667868768665,
                        0.012987994805004377,
                        0.0048225234065072484,
                        -0.020547956601601552,
                        0.0008940884600491078,
                        -0.009706760778119182,
                        -0.007816632722866762,
                        -0.00022752349584636127,
                        0.003624573122915756
                    ],
                    "bias": 0.0
                },
                {
                    "weights": [
                        -0.03670769266188952,
                        -0.1156927754643433,
                        0.17227195235608997,
                        0.17421327433901998,
                        0.28436515383052946,
                        0.04417502461645522,
                        0.09517981756825646,
                        -0.13989933706463303,
                        0.14132829983642772,
                        -0.03038599905491717,
                        0.1680407612569741,
                        0.04251963277533067,
                        0.0346866361899619,
                        -0.11258185500376929,
                        -0.01883633905332337,
                        -0.19004146252008242,
                        -0.5732559454965365,
                        0.009383901612698439,
                        -0.3062260279382909,
                        0.13210272791196054,
                        -0.07494154630769755
                    ],
                    "bias": -0.025697001365140287
                },
                {
                    "weights": [
                        -0.007801874882172892,
                        -0.09212534573262933,
                        -0.18807101992025094,
                        0.08740560658777105,
                        0.1443919661548759,
                        0.004343348051777089,
                        0.11617292723841717,
                        -0.0188867461516154,
                        0.3150068821794276,
                        -0.36309684891110466,
                        0.3282211659750907,
                        -0.1895907689613225,
                        0.22510852035381188,
                        0.026819877093313065,
                        0.009933119207771235,
                        0.0025739457332655895,
                        0.6212465217354429,
                        0.0017337771654711046,
                        -1.7762229049774345,
                        0.3036916646360507,
                        -0.1899256819071503
                    ],
                    "bias": -0.1582278945998288
                },
                {
                    "weights": [
                        -0.03418088619838638,
                        -0.03314593029658687,
                        -0.011033036295791332,
                        -0.017337080456928382,
                        -0.03272323807924608,
                        -0.03721312091472825,
                        -0.023825083506649813,
                        -0.016096552805230643,
                        -0.008198924290540451,
                        -0.0035376354245246645,
                        -0.033604532128924315,
                        -0.013981753618672684,
                        -0.0011862835398055904,
                        -0.010173505589414555,
                        -6.343722021992248e-05,
                        -0.006302822263455056,
                        -0.005812193803799908,
                        -0.012738980274803328,
                        -0.0008531521510656549,
                        0.0032075078171902786,
                        0.0030341510988450096
                    ],
                    "bias": -0.004727326508849463
                },
                {
                    "weights": [
                        -0.02747048402722505,
                        -0.02708808366417746,
                        -0.03224001118287108,
                        -0.04408950086582771,
                        -0.025873306665368873,
                        -0.01796535197162271,
                        -0.017628000621595245,
                        -0.02440104299682767,
                        -0.0340370642742502,
                        -0.02968774604063652,
                        -0.01966455785025085,
                        -0.021970314825125403,
                        -5.657015094128214e-06,
                        0.01803788510659703,
                        0.002721213974442538,
                        0.012462769161804022,
                        -0.008905285502597431,
                        0.006518183629874056,
                        -0.003512483349054121,
                        -0.02500084747241994,
                        0.019029598046594678
                    ],
                    "bias": -0.013008292679628124
                },
                {
                    "weights": [
                        -0.2577711231949112,
                        -0.044446536781053446,
                        0.035917470142986116,
                        0.028400470321843944,
                        -0.013883631151120809,
                        -0.015286916719897561,
                        -0.04293459166279979,
                        -0.05119355670426386,
                        -0.02528800099236383,
                        -0.048795004644513675,
                        0.038547586301722336,
                        -0.058138914271064254,
                        0.17119523322951363,
                        -0.10962441794616483,
                        -0.019702942124913022,
                        -0.07544120364653953,
                        -1.3463866564277316,
                        -0.010198766421661704,
                        -0.11760534127503418,
                        0.22870705657369667,
                        -0.2307643388498272
                    ],
                    "bias": -0.011464034716296229
                },
                {
                    "weights": [
                        -0.16973054320093778,
                        -0.2080384240528504,
                        -0.03566585095555764,
                        -0.04472590881572375,
                        0.012744592148635006,
                        -0.032655647221381416,
                        0.07891039683717928,
                        -0.15797138754908766,
                        0.003374123176590714,
                        -0.11250238799316843,
                        0.052889350593066785,
                        0.01755694359358695,
                        0.004757866975378038,
                        0.17423981716379375,
                        0.010289805695484808,
                        0.13262773330452765,
                        -0.4794203257774748,
                        0.012158479066849259,
                        -0.3089572071164036,
                        0.17159214582054655,
                        -0.10152442616188628
                    ],
                    "bias": -0.12436763361741154
                },
                {
                    "weights": [
                        0.014575918555980016,
                        -0.08492613925115984,
                        -0.12033936408045828,
                        0.07333448573772074,
                        -0.019304019020142074,
                        0.005205833388126855,
                        0.043527681650405006,
                        -0.06789098564299602,
                        0.08251709270430616,
                        -0.03474229690361987,
                        0.08971143385564971,
                        -0.17335227768969858,
                        0.0923240830720219,
                        -0.1238373980935256,
                        0.010250850383163439,
                        0.1218018021862992,
                        -1.1414446054866074,
                        0.011058651961626548,
                        -0.18197268770451358,
                        -0.012519050656188815,
                        -0.43147348055760926
                    ],
                    "bias": -0.023819010857370353
                },
                {
                    "weights": [
                        -0.0075003178258502825,
                        -0.007959090182411931,
                        -0.004974284810582415,
                        -0.006960347930792717,
                        -0.004023936970946077,
                        -0.014319909728285753,
                        -0.0019403259046459744,
                        -0.0038760720279383395,
                        -0.00790863987678704,
                        -0.004928541946544533,
                        0.004738112151252052,
                        -0.009355596684623926,
                        0.004671779432031682,
                        -0.0007417107189109244,
                        -0.00637054432383642,
                        0.008210268182904767,
                        0.010236803393948984,
                        -0.00810277590149624,
                        0.0006063384229858136,
                        0.003139763077541459,
                        0.016043550038886762
                    ],
                    "bias": 0.0
                },
                {
                    "weights": [
                        -0.05221687317916342,
                        -0.005702260629920156,
                        0.001921733680117223,
                        0.12653649594505692,
                        0.07121192747755298,
                        0.10014216700128871,
                        0.1043985205504438,
                        0.027432592694609573,
                        0.06408464263172767,
                        0.06855652830096606,
                        0.03186200026173258,
                        0.12271728451379567,
                        -0.008079029075147542,
                        0.3303632001667739,
                        -0.0123584415460169,
                        -0.06988121893256294,
                        -0.7314672698656882,
                        0.005980421388159998,
                        -1.0217930698868285,
                        0.3086089001940992,
                        0.6419995481414412
                    ],
                    "bias": -0.02717351463608719
                },
                {
                    "weights": [
                        0.07086952881177136,
                        -0.1290923245547587,
                        0.04160176811926945,
                        0.05607187801587027,
                        0.05749402698147678,
                        0.009223135874015829,
                        0.08475155497647416,
                        0.03394041374880411,
                        0.14210116933823058,
                        -0.04342965314896924,
                        0.149665626401893,
                        -0.1495644802732931,
                        0.1283624589029565,
                        -0.03381046384276621,
                        -0.022852192314393952,
                        0.1291115254672006,
                        -0.6052371073331355,
                        -0.006490460672564343,
                        0.11678778807716443,
                        -0.16460578739244056,
                        -0.3208612293862431
                    ],
                    "bias": 0.02525805117393484
                },
                {
                    "weights": [
                        -0.04083382573983311,
                        -0.16347288852152259,
                        0.09001296496916522,
                        0.00845599478132856,
                        -0.00236704410122807,
                        0.07312508363355717,
                        -0.026748315403204676,
                        0.12535200091126375,
                        -0.07488559218524357,
                        0.12004787929897283,
                        -0.17526853811279577,
                        0.051902549619425725,
                        -0.17757949070830778,
                        0.018494153974174896,
                        -0.006642768077907445,
                        0.08809887691717129,
                        0.16462489634727145,
                        -0.00018480410984826896,
                        -1.1524145537099788,
                        0.2326399034897651,
                        0.3017872684934654
                    ],
                    "bias": -0.002261257343470379
                },
                {
                    "weights": [
                        -0.027828197384048906,
                        -0.02512185033978651,
                        -0.018252244752538522,
                        -0.026281932764908634,
                        0.003138623978868871,
                        -0.020034862077893196,
                        -0.025970344008733885,
                        -0.0222568385708424,
                        -0.020955904095060488,
                        -0.015237670092563705,
                        -0.02209340276353688,
                        -0.007248328337237303,
                        -0.008603708718419908,
                        -0.0010385541862744298,
                        -0.009912179965319179,
                        -0.01001632993007036,
                        -0.0019440777349903167,
                        0.012181434763354102,
                        -0.019672030115545323,
                        -0.004462159745832197,
                        -0.00022227393915318596
                    ],
                    "bias": -0.00297675655155646
                },
                {
                    "weights": [
                        -0.16978151577641834,
                        0.021956973314975616,
                        -0.011083724434780558,
                        0.10096262780261572,
                        0.13791118243176645,
                        0.020611129104087484,
                        0.18651604410717845,
                        -0.08267363532631239,
                        0.2090492956047603,
                        -0.09922330547056332,
                        0.25647181316513085,
                        -0.38804555599043494,
                        0.3404012754898664,
                        0.28566632936436104,
                        0.014261192446775867,
                        0.027999126506566,
                        -0.2745675164755039,
                        0.016106731120302104,
                        -0.3817982626222599,
                        0.23295191921092734,
                        0.1968299663503895
                    ],
                    "bias": -0.019811754804215927
                },
                {
                    "weights": [
                        -0.37647077859714867,
                        0.06441582563585299,
                        -0.11129879544976433,
                        0.22797653141890847,
                        -0.059911679907728145,
                        -0.10568488600249935,
                        0.04464724488386653,
                        -0.11345850035594837,
                        0.014232256133179163,
                        -0.28227094412997666,
                        -0.027326345749518713,
                        -0.3680869083531365,
                        0.03922570023340608,
                        0.08098099801495603,
                        -0.0028291727974805356,
                        -0.31914713225852565,
                        -0.04200231696509179,
                        -0.0007657727574573168,
                        -0.29943437806045775,
                        0.2123597038696652,
                        0.03776074716966138
                    ],
                    "bias": -0.1658551175588944
                },
                {
                    "weights": [
                        -0.3278754320438475,
                        0.09545431586449388,
                        0.043037254376944535,
                        0.05725798052436535,
                        0.0756300087012428,
                        0.04136739539086866,
                        0.04005211511210726,
                        0.005065483563649742,
                        -0.01361046548896116,
                        -0.06351216443716545,
                        -0.05745903986235415,
                        0.041313223141443214,
                        0.032041694626282764,
                        0.010825146321262875,
                        0.021073269250642065,
                        0.25308723199780614,
                        0.26549183988349695,
                        -0.02549915916003302,
                        0.0909823636019864,
                        0.16831285352551986,
                        0.07569986600638534
                    ],
                    "bias": -0.036618087252241374
                },
                {
                    "weights": [
                        -0.04755655168111769,
                        -0.027685881052262037,
                        -0.02294882787595457,
                        -0.024115762747137465,
                        -0.02525073466628423,
                        -0.030171848791260777,
                        -0.005421363434778857,
                        -0.022509218757052488,
                        -0.013704230033900961,
                        -0.025819492377103147,
                        -0.02891603312874508,
                        -0.007122134632673502,
                        -0.016927323613207146,
                        -0.0036575098692842945,
                        -0.0013710769620769734,
                        -0.005459759671474872,
                        0.005823818036342483,
                        0.0066394217584464675,
                        0.009043451363350979,
                        -0.02812386825632807,
                        0.01428457548194831
                    ],
                    "bias": -0.006753795183575314
                },
                {
                    "weights": [
                        -0.04038755689502754,
                        -0.039340371104340424,
                        -0.01996198000210902,
                        -0.016193050116859883,
                        -0.009037513354096364,
                        -0.016872511312230814,
                        -0.017909839084695928,
                        -0.01329658284305649,
                        -0.020669907991360106,
                        -0.0007493834632274981,
                        -0.0031997182835597554,
                        -0.02157653541656692,
                        -0.020421174820304762,
                        -0.0040715567556562455,
                        -0.007018927263123207,
                        -0.0012699369371371328,
                        -0.0006749231710120562,
                        0.019981352265975045,
                        -0.019414588819862112,
                        -0.004304250243362482,
                        0.012871794792365164
                    ],
                    "bias": -0.0022094393009982447
                },
                {
                    "weights": [
                        -0.15055260957429784,
                        -0.11045084504501465,
                        0.053316407617867455,
                        0.07975745966838442,
                        -0.03502527722322147,
                        -0.216610893533581,
                        -0.050714808482329496,
                        -0.05618452167314389,
                        -0.03851634221570032,
                        -0.10879151634845508,
                        -0.02040507878369646,
                        0.026427440142328604,
                        0.012272593632307215,
                        -0.20411968025388327,
                        -0.005063348956201122,
                        -0.23088701763394465,
                        -1.1378493467903372,
                        -0.02004162462460089,
                        -0.25067363409289717,
                        0.3083969681275862,
                        -0.11188333762139142
                    ],
                    "bias": -0.146706162138738
                },
                {
                    "weights": [
                        -0.22651559014812625,
                        -0.10733365228613366,
                        0.048207546499258826,
                        0.19123760786112434,
                        -0.008869542142106411,
                        0.08214548793743477,
                        -0.0616478715715533,
                        0.04024275582486564,
                        -0.13576628514431366,
                        0.026708024471018936,
                        -0.20257342975316833,
                        0.13557149732111226,
                        -0.16770380855234565,
                        -0.09224149694829663,
                        -0.01560864903288406,
                        0.046783670040410286,
                        0.4068804855617874,
                        -0.005978763895364159,
                        -0.6650234675967431,
                        0.278195710180495,
                        -0.010902174878575428
                    ],
                    "bias": -0.060395473717933024
                },
                {
                    "weights": [
                        -0.11839150390119187,
                        -0.2030665925509908,
                        0.13318834880525282,
                        -0.036582569698195205,
                        0.05027788660241035,
                        -0.12209864841156975,
                        0.01773300382196378,
                        -0.012085306902464437,
                        -0.01646192557566797,
                        0.10484172319885313,
                        -0.021084305866039637,
                        0.04846626570681889,
                        -0.016754917066662683,
                        0.015147056770179369,
                        0.019729444158311238,
                        -0.05787095857946259,
                        0.011564725524991718,
                        -0.010704854707177833,
                        0.06535715331441788,
                        0.21315991915720225,
                        0.09494603102447234
                    ],
                    "bias": 0.07680367752915931
                },
                {
                    "weights": [
                        -0.0864495402375668,
                        -0.06250583292974451,
                        0.10983503404913882,
                        0.1398670478316285,
                        0.04730518346085612,
                        0.08668533594470627,
                        0.023686285893355703,
                        -0.003910746735054358,
                        -0.031904960162543974,
                        0.011167537073838467,
                        -0.04566134219255285,
                        0.07372952544828751,
                        -0.007401279809842307,
                        0.1930438312041014,
                        -0.010850036715944995,
                        0.13304666258483103,
                        0.1868692842833643,
                        -0.0026939201739271806,
                        -0.633766810899521,
                        0.27245815043646127,
                        0.03735094195957462
                    ],
                    "bias": 0.01748674781943782
                },
                {
                    "weights": [
                        -0.026631255789725538,
                        -0.012454019282386148,
                        -0.008763486975485867,
                        -0.003954688139765412,
                        -0.008280103074333594,
                        -0.02389187865528611,
                        -0.005044333295754284,
                        -0.004456147127720453,
                        -0.01587353072208591,
                        -0.01595863646138566,
                        0.0012236278375406429,
                        -0.007894241208431862,
                        -0.0071377480247467135,
                        -0.009254033889499934,
                        -0.008955736545255026,
                        -0.0006505117340843386,
                        -0.008919106420930136,
                        0.01695378665374182,
                        -0.007239415014944605,
                        -0.005291879847472249,
                        0.007504955590237097
                    ],
                    "bias": -0.0007236845769383439
                },
                {
                    "weights": [
                        -0.14243671808295863,
                        -0.12690923157279177,
                        0.009852018276930113,
                        -0.08065959336087304,
                        0.12892702286383048,
                        0.13893031780056214,
                        0.019835599166632766,
                        -0.08247138173035012,
                        0.1100712551958514,
                        -0.012795190902588132,
                        0.05077635464150104,
                        -0.2541627176163872,
                        0.03598174777535937,
                        0.17247927036394184,
                        -0.026816247260858107,
                        -0.12105110339361594,
                        0.7887383424667963,
                        0.001527192689365506,
                        -0.019225086156909803,
                        0.15750169556602908,
                        -0.021244548923796073
                    ],
                    "bias": -0.08840000988302953
                },
                {
                    "weights": [
                        -0.0019084697838964687,
                        -0.010075595980947226,
                        -0.009797093276290086,
                        -0.0019210199663691771,
                        -0.015337514422562386,
                        -0.0004607061758638932,
                        -0.01200015146687459,
                        -0.008683310839179,
                        -0.00849487887921579,
                        0.00023945896976239597,
                        -0.009928583252164698,
                        0.005984647427476959,
                        -0.018921976590166003,
                        6.102410878208559e-05,
                        0.003643648651384138,
                        0.006033262929845205,
                        -0.003244973235360048,
                        -0.011753328916052607,
                        0.017749453767227794,
                        -0.011750242461794198,
                        -0.0028869273703394788
                    ],
                    "bias": -0.0006484357998498981
                },
                {
                    "weights": [
                        -0.20595740090985737,
                        0.0783287689511208,
                        -0.006720681743527582,
                        0.14034659693198998,
                        0.14126074949162037,
                        -0.03073975177583115,
                        -0.013136445684483643,
                        -0.11910474015847448,
                        -0.050082727743801105,
                        -0.21213187021551516,
                        -0.0030469946271731627,
                        -0.013317791342274558,
                        -0.03023435205798235,
                        0.06838132849655341,
                        0.010731249166518082,
                        0.18782557269480965,
                        -2.5015606054641504,
                        0.0023703379374192873,
                        0.7277524850082137,
                        0.24320339049368622,
                        -0.2276072832382715
                    ],
                    "bias": -0.1954471200628603
                },
                {
                    "weights": [
                        -0.1149858970880799,
                        0.08862947045625492,
                        -0.07412095503685537,
                        0.05427464742372311,
                        0.046605974035311803,
                        0.11944589007899581,
                        0.04615584495872985,
                        -0.02762337231042178,
                        0.011568317626279748,
                        -0.08562039532833786,
                        0.020110943323185047,
                        0.02693287356462698,
                        0.04319122721274365,
                        -0.0925073580282472,
                        0.008611350923400873,
                        0.13307895510832282,
                        0.1686668704731842,
                        -0.013358958389469109,
                        -1.184724869760852,
                        0.39578298798251416,
                        0.06529033780613067
                    ],
                    "bias": -0.06730104828192016
                },
                {
                    "weights": [
                        -0.08377320254077851,
                        -0.014837275660732605,
                        0.19240777377291213,
                        0.03275484848621577,
                        0.1502127383662964,
                        0.09087253209251805,
                        0.1305307035422382,
                        0.11208495937400115,
                        0.10554171314705506,
                        0.0814889395168728,
                        0.07240423073167161,
                        0.16122655799755176,
                        0.09327158700855105,
                        0.21837011587029206,
                        0.0017043275870857423,
                        0.3423157977602998,
                        0.5412710339141741,
                        -0.00937988932453202,
                        0.02738721444326228,
                        0.25451966113275815,
                        -0.1498825306894071
                    ],
                    "bias": 0.06933169738804092
                },
                {
                    "weights": [
                        -0.0017248252284687712,
                        0.017114603795050573,
                        -0.05150558038586736,
                        0.09387059443552931,
                        0.07437908082852167,
                        0.06852958511748446,
                        0.08942904816384144,
                        0.0006720354824164267,
                        0.10955851224985783,
                        -0.09389476925219423,
                        0.15661406825960975,
                        -0.09189729302985018,
                        0.15995724553647056,
                        1.0626625468094724,
                        -0.01405103012403102,
                        -0.09597663721391642,
                        2.0499791516687234,
                        -0.005968751970555883,
                        -0.04637511432855894,
                        0.0907595345110683,
                        0.03711344707165895
                    ],
                    "bias": -0.025449212854205493
                },
                {
                    "weights": [
                        -0.00945985643465216,
                        -0.017578584060618678,
                        -0.008855832660826228,
                        -0.03628796902325296,
                        -0.0078695367637959,
                        -0.014400555643978422,
                        -0.016153033277857547,
                        -0.009126470041307792,
                        -0.005114504639759724,
                        -0.005407004586186552,
                        0.00695587091379138,
                        -0.012497768662981624,
                        0.010793859969517016,
                        -0.006406874484583683,
                        0.005338689291390111,
                        0.0024287720875010798,
                        -0.004460363480835806,
                        0.0017041615807337088,
                        -0.004874979613707583,
                        0.007175975291998184,
                        -0.003792722301907812
                    ],
                    "bias": -0.0004807057615065867
                },
                {
                    "weights": [
                        -0.1702641146881394,
                        0.021300130209104498,
                        0.12067054864981212,
                        0.09961605942128723,
                        0.21817573101958027,
                        0.05118093361952501,
                        0.11961560303617715,
                        0.026695462320260675,
                        0.15619389703189912,
                        -0.12083363257375794,
                        0.19056136689713496,
                        -0.15954375444993174,
                        0.2727480360051442,
                        -0.3097022193410442,
                        -0.00452942597999412,
                        -0.19961893539822373,
                        -1.639960345928723,
                        0.019447915091849094,
                        -0.6756380135049999,
                        0.15610577137543977,
                        -0.0826347833607176
                    ],
                    "bias": 0.0025989771007741327
                },
                {
                    "weights": [
                        -0.3233565359474948,
                        0.10650741761780935,
                        -0.06608192189527669,
                        0.14367404103457518,
                        0.10566232199572087,
                        -0.008366780937538147,
                        0.06867565482831921,
                        -0.14887490804196707,
                        0.0871546865521295,
                        -0.25116625245710594,
                        0.09048081411770387,
                        -0.31533138494471025,
                        0.13901957287011726,
                        -0.07072022613398411,
                        -0.011781851464765944,
                        -0.11579523088199507,
                        -1.3116611760736256,
                        -0.012448095807174661,
                        0.9814600813871409,
                        0.36674519281513995,
                        0.10291069175882664
                    ],
                    "bias": -0.12588292421854733
                },
                {
                    "weights": [
                        -0.15589574423493563,
                        0.15397906448680634,
                        -0.016658652460582814,
                        0.019171566512032875,
                        0.02032867822820685,
                        -0.014377300887719649,
                        0.06264235557922264,
                        -0.021249563454720895,
                        0.06033959471989622,
                        -0.028232357129498332,
                        0.043917653572011495,
                        -0.01900314259917909,
                        0.029836201933680265,
                        -0.08521501394363794,
                        0.005530249769348857,
                        -0.12611721325621186,
                        0.3225504954359374,
                        0.0038302545062202657,
                        0.7475158180872242,
                        0.29329142089352706,
                        0.005495637974021335
                    ],
                    "bias": -0.04258614813793203
                },
                {
                    "weights": [
                        -0.21584384260758505,
                        -0.11385991462370713,
                        -0.03989855941164744,
                        0.20754314414063368,
                        0.12614896398492123,
                        0.04334792925745442,
                        0.12806465753135987,
                        -0.07830370125076222,
                        0.023874023827340378,
                        -0.07392895498658332,
                        -0.0390052345593415,
                        -0.034046730690502194,
                        -0.08263465918474296,
                        0.07069045489957865,
                        0.0017021050929992016,
                        0.37821309477422516,
                        -0.5533241074266217,
                        0.006758649758529754,
                        -0.021881337628817034,
                        0.1084928749434963,
                        0.006753222602078186
                    ],
                    "bias": -0.09471679539794606
                },
                {
                    "weights": [
                        -0.11583792623974128,
                        -0.03217894749929543,
                        0.09192090495050785,
                        0.08728959117125004,
                        0.04286634942708902,
                        0.021818514148010858,
                        -0.036198051593239515,
                        0.016004508470906363,
                        -0.09379775211343033,
                        0.039363718067297944,
                        -0.104367393448816,
                        0.15261291810978359,
                        -0.07107164154017984,
                        -0.31669914392664716,
                        -0.007375337822236878,
                        0.06355593869453051,
                        -0.18197236091300922,
                        0.0060787129661007775,
                        0.05431094889093397,
                        0.22719446324398818,
                        0.03330805907888671
                    ],
                    "bias": 0.008458570462459061
                },
                {
                    "weights": [
                        -0.25314451842060914,
                        0.018608257425245363,
                        -0.15978602529612962,
                        0.07604691979238075,
                        0.019511516965758872,
                        0.021800266969499705,
                        -0.07885487212372595,
                        -0.019725164484046927,
                        -0.22353390671924428,
                        0.0725502744858014,
                        -0.21835171999842867,
                        0.09031570671832168,
                        -0.21061227429169055,
                        -0.3182279135624466,
                        0.015149960067407094,
                        0.19799019490320346,
                        -0.014774567590178084,
                        0.003937762804336318,
                        0.21169568537163333,
                        0.16898468544357087,
                        -0.03481433376262089
                    ],
                    "bias": -0.026854857457518647
                },
                {
                    "weights": [
                        -0.011110601903699524,
                        -0.021039864335176867,
                        0.007208942501405665,
                        -0.01841668355306807,
                        -0.012833368930537534,
                        -0.0012640791282713362,
                        -0.00775332512344575,
                        -0.004329039174997622,
                        -0.023708697088141356,
                        -0.012106688823899163,
                        -0.00868921210474227,
                        0.005783805183579973,
                        -0.001165816561193913,
                        0.010774978200084134,
                        -0.004830126162372497,
                        0.0074865649857229905,
                        -0.0015041434063632344,
                        0.0050636327721486525,
                        0.023167439512705824,
                        -0.015599287994362745,
                        0.003144315642018459
                    ],
                    "bias": -0.000451199394276747
                },
                {
                    "weights": [
                        -0.00927445094734005,
                        -0.009095713566553571,
                        0.07281762830192225,
                        0.05247577854497113,
                        0.15167553936770653,
                        -0.02378614507752355,
                        0.16981368561146942,
                        -0.004326572138980433,
                        0.1677106638006029,
                        -0.006886425078466276,
                        0.17324650637608457,
                        -0.04828824439743962,
                        0.2036157917692061,
                        0.2384672753130412,
                        -0.016206505895203865,
                        -0.1312789759342907,
                        0.42858828961204404,
                        0.0026569519036462002,
                        0.21901293519717602,
                        0.17847974824679688,
                        -0.049873641694846135
                    ],
                    "bias": 0.05627474700139671
                },
                {
                    "weights": [
                        -0.17901720016908418,
                        0.05020837915287782,
                        0.07549335490258542,
                        0.013690725447663515,
                        0.11966827887044881,
                        0.005819253106857844,
                        0.06910560234502929,
                        -0.04964503150290342,
                        -0.005001941921789061,
                        -0.06095565632881619,
                        -0.04542644077425334,
                        0.07148746152715925,
                        -0.029774238211943336,
                        -0.19076535081352905,
                        -0.013001635212544839,
                        -0.10632249857913778,
                        0.30067844179125164,
                        0.0036827484491249187,
                        -0.6788038278623354,
                        0.3279772443511957,
                        0.268751912995494
                    ],
                    "bias": -0.057179953714153034
                },
                {
                    "weights": [
                        -0.07090344805542773,
                        0.03244697753129519,
                        0.10901002114964137,
                        -0.1424843300665018,
                        0.0716743615632831,
                        -0.12897636270119425,
                        0.14515010164860584,
                        -0.208088484880402,
                        0.15640851069122644,
                        -0.39582673442756167,
                        0.08163327624568745,
                        -0.3011483076719442,
                        0.03385627761604186,
                        0.30567966020507054,
                        0.014006387919752984,
                        -0.20793285774525447,
                        0.5194408357353343,
                        -0.0058437794020409425,
                        -0.030250165003978452,
                        -0.018024237372661497,
                        0.09312419618424018
                    ],
                    "bias": -0.1316393578328663
                },
                {
                    "weights": [
                        -0.21652066936017184,
                        -0.1181778884757997,
                        -0.1857883857636543,
                        -0.06054125345434588,
                        -0.08914439653857133,
                        -0.12064537354785196,
                        -0.122064193348758,
                        -0.02444162857564952,
                        -0.1090453980537943,
                        0.1345531963640876,
                        -0.1329308961074544,
                        0.1866124504113386,
                        -0.14314110560968163,
                        -0.35274243007612505,
                        0.017142656840384008,
                        -0.21869247666066927,
                        -1.7392333262131259,
                        0.009160959124907716,
                        -2.7248033582675117,
                        0.22174780007197348,
                        -0.15545260583781814
                    ],
                    "bias": 0.061352126474519125
                },
                {
                    "weights": [
                        -0.1683042431401829,
                        -0.23831394675151318,
                        0.011087197254117548,
                        -0.033696018232198664,
                        0.11331859685772376,
                        0.12434179152435282,
                        0.06513609893615023,
                        0.12861253882542067,
                        -0.019254816062002765,
                        0.1110184715800118,
                        -0.06902001511532445,
                        0.2500353987862841,
                        -0.13031164695342726,
                        0.0919834930769322,
                        0.0006668710605039524,
                        0.03177759418899059,
                        -1.8828849108924244,
                        0.007464343508470282,
                        0.41928281204136153,
                        0.3809067930392313,
                        -0.001547644675106629
                    ],
                    "bias": 0.012928405485131663
                },
                {
                    "weights": [
                        -0.1884110225149945,
                        -0.2147772448416042,
                        0.040287415567732195,
                        0.07596229577413957,
                        0.12343453409413403,
                        0.014147960297720093,
                        0.07804663447811597,
                        -0.03588344882546958,
                        0.02451551153256478,
                        -0.11187868294983579,
                        0.033095991842883754,
                        0.23289739928785164,
                        0.07343784558957699,
                        0.03461937624865991,
                        0.004492858595896345,
                        0.14315093668802278,
                        -1.1017433805669756,
                        0.001102219407514509,
                        0.4838378578755493,
                        0.5464726685285051,
                        -0.1397114691570667
                    ],
                    "bias": -0.08154047915912065
                },
                {
                    "weights": [
                        -0.031609378456698124,
                        -0.01292570717869696,
                        -0.02376557875534674,
                        -0.01034192848873598,
                        0.0010534954297783572,
                        -0.018976170478001132,
                        -0.013562218258392508,
                        -0.012610811089426266,
                        -0.022648555363950693,
                        -0.016391779434640007,
                        -0.009694981639918982,
                        -0.009941126180584592,
                        0.0018979987421688979,
                        0.006469737032159277,
                        0.004176923626587013,
                        -0.005178758282473346,
                        0.008346708951336625,
                        -0.0006145841110187455,
                        -0.007905347887435299,
                        -0.01935603045010002,
                        -0.0027641723526450014
                    ],
                    "bias": -0.0013031924290394523
                },
                {
                    "weights": [
                        -0.024548030487858318,
                        -0.030313371380636847,
                        -0.013307802570834049,
                        -0.02206552910746681,
                        -0.035179080157698696,
                        -0.02804513830491877,
                        -0.019266962613866553,
                        -0.026533490727037465,
                        -0.020098010490810406,
                        -0.022649087358589712,
                        -0.011730074371787856,
                        0.0017376587604316634,
                        -0.004464474271828082,
                        -0.0005542663648640752,
                        -0.013647331831463558,
                        0.0056688778057977845,
                        0.0033694629558571267,
                        -0.012738041777346505,
                        -0.0050889062460341234,
                        -0.004011455125496889,
                        0.004530598071313833
                    ],
                    "bias": -0.003520109482006889
                },
                {
                    "weights": [
                        -0.05097319525714177,
                        0.06527934615180998,
                        -0.07101460870881747,
                        0.1398941369397353,
                        0.03585605342431111,
                        0.053105129453962424,
                        0.04011468684485554,
                        0.047273789068307155,
                        0.07628905171428486,
                        0.006597937785459263,
                        0.04659715978045564,
                        -0.027816254596553836,
                        0.06596752792723301,
                        -0.4124025330295233,
                        0.010148541653181421,
                        0.23530570006879148,
                        -0.8722395584370994,
                        0.004857190137547537,
                        0.32945318361176146,
                        0.15343790410966168,
                        0.02979292907304162
                    ],
                    "bias": 0.04285185698147008
                },
                {
                    "weights": [
                        -0.004085577536757489,
                        -0.004603227236647722,
                        0.0026433515265416093,
                        -0.004858131039876885,
                        -0.014296325789059984,
                        -0.002840956442373227,
                        -0.007586200908390885,
                        -0.0035619622104342613,
                        0.014622837592148462,
                        -0.0031132414032634167,
                        -0.014189566765745815,
                        0.004336807086856281,
                        0.005070317931258172,
                        -0.010192396926547827,
                        0.003650432822987895,
                        0.0013833220352680745,
                        -0.00319238219550998,
                        0.012287957559542872,
                        -0.009310028774014876,
                        -0.009198411311914035,
                        -0.0012797600600140536
                    ],
                    "bias": 0.0
                },
                {
                    "weights": [
                        -0.19615208647198148,
                        -0.18096210065393273,
                        0.05255628979980353,
                        0.017958669504016266,
                        0.13916436322217238,
                        -0.01546403724590422,
                        0.07019708421376683,
                        -0.06311168232900367,
                        0.0062538185863643065,
                        -0.12106251918617691,
                        -0.01954965407235697,
                        -0.024490995073464368,
                        0.026195635772744228,
                        -0.15845108083637152,
                        9.695437334787037e-08,
                        -0.04881948031897908,
                        0.22845409101270403,
                        0.0088115790901809,
                        -0.03377611892063075,
                        0.19851176509265236,
                        -0.0037813234202282043
                    ],
                    "bias": -0.08628474291886266
                },
                {
                    "weights": [
                        -0.18589327736711522,
                        -0.07948523453481834,
                        0.09193155558897395,
                        0.05772438192524336,
                        0.14818586157355018,
                        -0.06202056992038837,
                        0.13304067140710138,
                        0.056825340929777174,
                        0.10186785712751227,
                        -0.04587578155294839,
                        0.045424799600836015,
                        0.10117624312000932,
                        0.07115695086175419,
                        -0.07336768833743612,
                        -0.012606415542311128,
                        -0.10318137510168782,
                        -0.5947111838911557,
                        -0.00540753723796928,
                        -0.2808912613673731,
                        0.35065946996819886,
                        -0.26135865144749887
                    ],
                    "bias": -0.04568145391355078
                },
                {
                    "weights": [
                        -0.04758973413935086,
                        -0.038876279529023935,
                        0.06167951141967722,
                        0.03549742109745447,
                        0.028433755155677882,
                        -0.0413116899818806,
                        0.0678932258357592,
                        -0.16501609460053585,
                        0.08832311833372071,
                        -0.11031626283672039,
                        0.04958917903425062,
                        0.041213836970617174,
                        0.017429156642435696,
                        0.23055352289799053,
                        0.020134914410974612,
                        0.4582025868923815,
                        -0.8572653710726263,
                        0.0021732020185359696,
                        -1.439120984199125,
                        -0.009850768911286424,
                        -0.2753482137053562
                    ],
                    "bias": -0.07504176388394629
                },
                {
                    "weights": [
                        -0.10889163221376318,
                        -0.020563244282638046,
                        0.12734719812963757,
                        0.13412744574689447,
                        0.15166303983670962,
                        0.1589715276470269,
                        0.14271183930297848,
                        -0.10334041605702889,
                        0.14170182053248523,
                        -0.09755751077848983,
                        0.19557244973319124,
                        0.04530755096195406,
                        0.22952548608131002,
                        -0.1584775024857004,
                        0.012783063169547236,
                        0.22534928261125567,
                        -0.3255526632327922,
                        0.0003770712528056851,
                        -0.18838426469384478,
                        0.06138776143060459,
                        0.038367827229527286
                    ],
                    "bias": 0.000750424379044604
                },
                {
                    "weights": [
                        -0.000764565647754738,
                        -0.0029608085031233473,
                        -0.004581527614755095,
                        -0.004906845980059033,
                        -0.004498203236604209,
                        -0.030322784493322704,
                        -0.0018116066764840484,
                        -0.0052950455139252625,
                        0.004746607229119195,
                        -0.008243518904832884,
                        -0.014321817960259687,
                        -0.0005314671458715478,
                        -0.005289291423567154,
                        -0.007321968381363614,
                        -0.00634691749039857,
                        0.002562542713273507,
                        -0.002761869235192132,
                        0.015190350336419887,
                        0.0038979274968935817,
                        0.009446833437954157,
                        -0.006208944792339151
                    ],
                    "bias": 0.0
                },
                {
                    "weights": [
                        -0.1199911594009907,
                        -0.08320210336119553,
                        -0.04111492068355362,
                        -0.014785189120263479,
                        0.011262734485808492,
                        -0.008339547022549269,
                        0.0436041751237055,
                        -0.145573915847926,
                        0.0991173899650426,
                        -0.1319011141964894,
                        0.12939653643638055,
                        -0.18940170470235135,
                        0.14900825314770536,
                        0.061535286330139397,
                        -0.01902841270048737,
                        0.01577649318179508,
                        -0.045125275084278084,
                        0.011110860762622863,
                        0.18229825485312742,
                        -0.0076465421046514265,
                        -0.05300049386517363
                    ],
                    "bias": -0.04457716095509892
                },
                {
                    "weights": [
                        -0.033619496929102,
                        -0.16337537069496189,
                        0.07590088684028566,
                        0.06244555578408272,
                        0.12397875850271657,
                        -0.009972716103168525,
                        0.14194874075532174,
                        0.013592349221675078,
                        0.0053178153206661785,
                        0.04659385391071059,
                        0.006271737412793023,
                        0.07608644383750063,
                        -0.09140593616641556,
                        -0.17981634288983858,
                        0.010213509792098136,
                        0.05954539679431644,
                        0.17809966512430803,
                        -0.000984689895964812,
                        -0.8570126239919229,
                        0.435698885001867,
                        -0.21148711227439493
                    ],
                    "bias": -0.025165408950340022
                },
                {
                    "weights": [
                        0.006660573728549169,
                        -0.006354172966489321,
                        -0.007647142925771184,
                        -0.029385935298175594,
                        -0.01818381212832566,
                        -0.012412216584444318,
                        -0.004213472147292922,
                        0.0033019672395242046,
                        -0.004063293353467858,
                        -0.0038112691523551345,
                        -0.02292923253651169,
                        0.0054651665174069546,
                        -0.0017490636822868567,
                        -0.0014759300860044445,
                        0.003598578013947775,
                        -0.011049558848352294,
                        0.0015560263280838906,
                        -0.002294562776711276,
                        0.0018951906217692092,
                        -0.0011120194714103048,
                        0.0006244418008820239
                    ],
                    "bias": 0.0
                },
                {
                    "weights": [
                        -0.02545662842318737,
                        -0.025540579116617803,
                        -0.01898442838471507,
                        -0.014043287645194967,
                        -0.022781618304636975,
                        -0.01972369494844498,
                        -0.029141107212319415,
                        -0.014385504259739442,
                        -0.010931160690546053,
                        -0.024364279928450094,
                        -0.012236531079847651,
                        -0.017415952993931148,
                        -0.014527996742576479,
                        0.0057362050887774085,
                        -0.0007418127885925192,
                        -0.002560730658531243,
                        0.0008442520081290265,
                        -0.007514579427207777,
                        0.0091219165485245,
                        -0.0160631998134231,
                        -0.0010152236388662106
                    ],
                    "bias": -0.003819348195739783
                },
                {
                    "weights": [
                        -0.10561229065967644,
                        -0.0020917109514394412,
                        -0.021347822736620392,
                        -0.05875038430548387,
                        -0.016992412659764866,
                        0.24179140557609274,
                        -0.057972319344544616,
                        -0.0015863678965070734,
                        -0.08764522488932021,
                        0.09836928886658232,
                        -0.024558335524240728,
                        0.18642515870107093,
                        -0.1406609316272408,
                        0.09491688732586069,
                        -0.0027706748707726275,
                        -0.13637031874295932,
                        -0.7205770153204165,
                        0.011083522111636546,
                        1.0620045999979502,
                        0.3201359147410326,
                        0.17359636549990853
                    ],
                    "bias": -0.029118011022962208
                },
                {
                    "weights": [
                        -0.31152611919054446,
                        -0.17735136268312973,
                        0.10536766487390256,
                        0.16801063782446046,
                        0.3764111192653654,
                        0.04512295320165643,
                        0.16345606575370614,
                        -0.021848484145276598,
                        0.00455331523717216,
                        0.026259821910379056,
                        -0.06229281247755558,
                        0.27052104367779106,
                        -0.09836423764018269,
                        -0.07793956175218048,
                        0.00222474390660431,
                        -0.13679293047720895,
                        -0.4866676738381837,
                        -0.0022262114876420128,
                        -1.0895747454177815,
                        0.40600094228786776,
                        0.04714848137519448
                    ],
                    "bias": -0.0025505288256947906
                },
                {
                    "weights": [
                        -0.0494594312068887,
                        -0.007517192525593639,
                        0.001382683380456261,
                        0.12106377110108119,
                        0.0739798453532627,
                        0.10629377481521501,
                        0.13910687471154382,
                        0.0570600390802159,
                        0.1945429542732996,
                        -0.019792304152582534,
                        0.16685361921565997,
                        -0.0130050659009667,
                        0.1400483932287525,
                        -0.0445434885121776,
                        -0.0022665984414513597,
                        -0.17627438995371228,
                        -1.0875263291604373,
                        0.005939192971030488,
                        0.3779787352445228,
                        0.25003052883449817,
                        0.07245886649037339
                    ],
                    "bias": 0.010882659546229743
                },
                {
                    "weights": [
                        -0.015828749345584002,
                        -0.009020330012046388,
                        -0.017525022914709684,
                        -0.02454786562901057,
                        -0.009542284612421067,
                        -0.008918787401739623,
                        -0.008400902716962866,
                        -0.017383025978818644,
                        0.010771853470909134,
                        -0.00443493266188392,
                        -0.0069564666072052484,
                        -0.00907417255786993,
                        -0.006794646866331376,
                        -0.0038487089746405407,
                        -0.007589226887140116,
                        -0.0012860139878395314,
                        0.0022947336365282908,
                        0.0038323042237213847,
                        -0.020554222677375434,
                        0.010935041437574018,
                        -0.012481624269999924
                    ],
                    "bias": -0.0007788521085874739
                },
                {
                    "weights": [
                        -0.0703358837379455,
                        0.0034777410308894424,
                        -0.14552269104347076,
                        0.1930616859045679,
                        -0.052851436844067144,
                        0.09420179636757256,
                        -0.008906595853910014,
                        0.08493656680723989,
                        -0.06943393461108037,
                        0.06968075734286669,
                        -0.05697093286338091,
                        0.1681942018560275,
                        -0.12471701870143934,
                        -0.19642696112491095,
                        -0.014199150243575901,
                        -0.1296957893628962,
                        0.2761368785795508,
                        0.002317107059206325,
                        -0.1781389575205952,
                        0.196610079345403,
                        -0.0778596600940819
                    ],
                    "bias": -0.015656529239755378
                },
                {
                    "weights": [
                        0.012660363616575611,
                        -0.06753015456584766,
                        -0.015713228301066317,
                        0.13401126023007034,
                        0.09556068700829795,
                        -0.020852614853094503,
                        0.14860644508534476,
                        -0.05254836020881739,
                        0.22320882158086913,
                        -0.08860477912350792,
                        0.20123642728649319,
                        -0.22061388191632642,
                        0.22569535936023377,
                        0.06048614267051396,
                        -0.0058302670640450445,
                        -0.028909411547939724,
                        -0.19436781061563463,
                        -0.005292103822108049,
                        0.07722440247615449,
                        0.14068548588309993,
                        -0.12658246372813914
                    ],
                    "bias": 0.002278939915341806
                },
                {
                    "weights": [
                        -0.018658469057338586,
                        -0.029384794296816483,
                        -0.013615686872973104,
                        -0.026474901983754406,
                        -0.025864670550308496,
                        -0.014050070441163723,
                        -0.0201235012392339,
                        -0.027934094008724323,
                        -0.026164187629215765,
                        -0.011072808682164465,
                        -0.007200504791641875,
                        -0.017263121817025252,
                        -0.03055333141373814,
                        0.0007745060472112502,
                        0.0014135578943074985,
                        -0.0028599566685783033,
                        -0.02002753644065877,
                        -0.002463201069337933,
                        -0.005853747333450973,
                        -0.0006000621496591963,
                        0.007582074735200119
                    ],
                    "bias": -0.00441455092465012
                },
                {
                    "weights": [
                        0.0035451204508592953,
                        0.03925387623996223,
                        -0.026712133914373135,
                        0.09112777446839831,
                        -0.12925468412192254,
                        0.08632074960860478,
                        -0.24236189749126355,
                        -0.10964992051092254,
                        -0.29080090053050817,
                        0.05291429007415328,
                        -0.28047919351487843,
                        0.07972015359781952,
                        -0.29220777530805814,
                        -0.08568079767052329,
                        -0.0018295961603193868,
                        -0.20097898129547287,
                        -0.14044982691831923,
                        0.006480090172698368,
                        -0.586065761264407,
                        0.24228079384138604,
                        -0.035151317680706215
                    ],
                    "bias": -0.09047540113457168
                }
            ]
        },
        {
            "neurons": [
                {
                    "weights": [
                        0.009211481168703113,
                        -0.379254872623551,
                        -0.12735381711511284,
                        0.001798170309784159,
                        -0.003123078265134176,
                        -1.5133336046459893,
                        0.04661756204973511,
                        -0.09386419911867215,
                        0.03228615496703961,
                        -0.11914297147109158,
                        -0.09639119871876554,
                        0.09698160284002848,
                        0.0043687167238110145,
                        -0.030230778675554588,
                        0.058205133080032855,
                        -0.12830836632201872,
                        -0.011199727187280913,
                        -0.0047155730092771474,
                        -0.006438764737783532,
                        -0.055051921298115786,
                        0.028470067513578178,
                        -0.06181859201918171,
                        -0.01956898156791592,
                        -0.15701474374751392,
                        -0.01683735001355482,
                        -0.044001912284930424,
                        0.03694286453256367,
                        -0.09430812646278543,
                        -0.025791795899587362,
                        0.0008078095020881758,
                        0.05828674631012967,
                        -0.07453797587496484,
                        -0.012805146482322703,
                        -0.4869773844013406,
                        0.16521932129996578,
                        0.026390778130281057,
                        -0.004008345042884365,
                        0.0005227082204102022,
                        0.06630018695388375,
                        0.0157117130981853,
                        -0.17104809059921086,
                        0.17157621827710876,
                        0.1041295018038615,
                        -0.0072962879264325264,
                        -0.0007026698660350536,
                        -0.01585189088155211,
                        -0.014947705630772723,
                        0.015211240008279933,
                        0.1771718666340347,
                        0.419850101404157,
                        -0.18901221756044237,
                        0.000790880433929391,
                        -0.09768641764861122,
                        0.1584729393966543,
                        0.0006341913572634817,
                        -0.0013663858653165729,
                        -0.0708353099083717,
                        0.23873778668302592,
                        -0.08360803114985832,
                        -0.014598915618270649,
                        0.0023459180979065347,
                        0.002249681373127799,
                        -0.0017729398804864555,
                        -0.01095242271687944
                    ],
                    "bias": -0.0019207336204548802
                },
                {
                    "weights": [
                        0.004754526138976676,
                        0.06137105807781477,
                        -0.0019310224210686566,
                        0.0009356023134516179,
                        0.008058813375761475,
                        -0.08766601279471282,
                        -0.04810142394024319,
                        -0.33945574587136434,
                        -0.01998633587151041,
                        0.09743784366459456,
                        -0.3212709144000215,
                        -0.26811793665177713,
                        0.011254164765746194,
                        -0.305535645930538,
                        0.7032280678553454,
                        0.3539096405412841,
                        -0.006791069209499601,
                        -0.0038372614050438563,
                        -0.36443819317614184,
                        0.05161173365266013,
                        0.07354295116838443,
                        0.03771281455690878,
                        0.01011856011972148,
                        0.11616489983640807,
                        0.009940408273202028,
                        0.4287493051075152,
                        0.05956618486075236,
                        -0.29703734016925226,
                        -0.29857975568014306,
                        -0.01069982915312419,
                        0.1226283658576874,
                        0.04927606008680951,
                        -0.020364782700685875,
                        -0.22895565411001415,
                        0.005995820154690324,
                        -0.07662433795316889,
                        0.005989755634450093,
                        -0.04524186819923236,
                        0.0330056089391825,
                        0.6397098071947016,
                        0.11805313333532896,
                        -0.14729533564846523,
                        0.17327039755090445,
                        0.007848309419712709,
                        -0.0027058878537681635,
                        0.1626478159275903,
                        0.006218484234570415,
                        0.11372956781043701,
                        0.05022851562151064,
                        -0.24107412970820943,
                        -0.023468023282460965,
                        0.027712679017573374,
                        -0.0940886983059065,
                        -0.27311605546380274,
                        0.006513510685515548,
                        -0.006438182375368812,
                        0.02404294120633916,
                        0.1187756237676834,
                        0.0927472110508636,
                        0.004442766274066628,
                        -0.15404193364582539,
                        -0.12307871054960198,
                        0.006908464428013784,
                        0.02373086213705011
                    ],
                    "bias": 0.017276108783452163
                },
                {
                    "weights": [
                        -0.0033870581878448483,
                        -0.07738517233995512,
                        0.3683418966963855,
                        0.00031675088754918115,
                        0.0008677378990590905,
                        -0.2597714569005106,
                        -0.41004168399379404,
                        0.03962805451036624,
                        -0.004450354617814734,
                        -0.28074900607278924,
                        -0.07957006438913088,
                        -0.08124715735444218,
                        0.0074964928250394365,
                        -0.07719094887333008,
                        0.04726605481001499,
                        -0.09071932348544912,
                        0.011670017596245428,
                        0.0019155281953093693,
                        0.4432291069585939,
                        0.013511572922186637,
                        -0.08063246605045277,
                        -0.0702309620708363,
                        -0.002412423872109596,
                        0.048417691516116176,
                        0.006510474183655221,
                        0.03136872277152403,
                        0.0989560598693776,
                        0.08162357478995005,
                        -0.18069399644814513,
                        0.009672297863059901,
                        -0.1727619872478956,
                        -0.24220061897052889,
                        0.05678956123077601,
                        -0.17008449673244863,
                        0.15777989331642778,
                        -0.3931322253398481,
                        0.009794800956395386,
                        -0.042160685664989754,
                        0.09198301412374804,
                        0.10034495031789835,
                        0.841760934438843,
                        0.19330558036437395,
                        0.05949591334468235,
                        -0.008948240672188636,
                        0.009087333739457297,
                        0.09372102719147449,
                        -0.009383562580303298,
                        -0.21037279762671243,
                        -0.05953439713140155,
                        0.09945523380615665,
                        0.31559657957548076,
                        0.01825647103157209,
                        0.2327124260384761,
                        0.22290344524748196,
                        -0.005513022356186511,
                        -0.02331154070529904,
                        0.000881775038523233,
                        -0.06330764435824444,
                        -0.20273796006255843,
                        -0.0009502509020482495,
                        0.0234413242087707,
                        -0.03639611516477036,
                        0.004765687542836047,
                        -0.27138420423472154
                    ],
                    "bias": -0.027704567888990846
                },
                {
                    "weights": [
                        0.01078378859000997,
                        0.1355599233294811,
                        0.053162513519884186,
                        0.0003562094409640444,
                        -0.006168451617779283,
                        0.14291316805026066,
                        -0.011010042143225566,
                        0.11374137423238351,
                        -0.004047747621243102,
                        -0.3858527166903906,
                        0.08205457397611658,
                        -0.07276933798361863,
                        0.013033462058066473,
                        -0.7837366030971367,
                        -0.4411206999368509,
                        0.22458225711194732,
                        0.012729964087125586,
                        -0.013065419962862033,
                        -0.15828683069716742,
                        -0.11772498291813695,
                        0.014672951489601911,
                        -0.10784307644324152,
                        0.0041366454080692585,
                        -0.45351305688017285,
                        0.0025090048422005224,
                        0.10504377382913357,
                        -0.11480940024794303,
                        -1.0087405592926771e-05,
                        -0.0893458179429083,
                        -0.0007073076961487591,
                        0.09358935641321385,
                        0.10820516988199216,
                        -0.12120345170008824,
                        -0.1349542490617064,
                        0.003949276716009916,
                        -0.41236933079763805,
                        0.0018585967596023384,
                        0.03782859682529852,
                        -0.17645368602593647,
                        0.19867153615838296,
                        0.035785345358464116,
                        -0.15897132640822148,
                        -0.08839408828726854,
                        0.012928469965998566,
                        -0.008313813751288281,
                        0.0522638195791261,
                        0.008565763800832236,
                        -0.08466902488279295,
                        -0.02147894000985208,
                        0.12279614693598752,
                        0.14957060054011415,
                        -0.00969106529571274,
                        0.0005283754737279202,
                        -0.08126616556032788,
                        -0.005381350403025616,
                        0.013246388392894588,
                        -0.2373185004800354,
                        -0.6975588551392918,
                        0.048566804833433765,
                        -0.01262116298285265,
                        -0.05123701877851761,
                        0.015950441107367548,
                        -0.0017150932577807997,
                        0.004330521600910393
                    ],
                    "bias": 0.1698723141409978
                },
                {
                    "weights": [
                        -0.010401516179230106,
                        -0.04603163293651752,
                        0.2419590858371268,
                        0.0015269253664032649,
                        0.012265433075900185,
                        -0.10763944890138749,
                        -0.11203142644546638,
                        0.022141140323472235,
                        -0.013361225396692804,
                        -0.09171154199621648,
                        -0.06641976906705165,
                        -0.14330970046832955,
                        -0.01050372713563827,
                        0.05890387677020973,
                        -0.021215248187182033,
                        -0.02225860318199932,
                        0.006465158613403689,
                        0.0069926607713669915,
                        0.16499792586554854,
                        -0.012814652986129606,
                        -0.06049449052891102,
                        0.058586761413109784,
                        0.008036597508085629,
                        0.14192576388339392,
                        0.009888756404336688,
                        -0.12463048598809429,
                        0.03541257524765355,
                        -0.17275630706078862,
                        -0.014518346883470484,
                        -0.01797572799114286,
                        -0.15752022435810895,
                        -0.14706790592593677,
                        0.010763647019817035,
                        0.13368749388969142,
                        0.06868642730868844,
                        0.03249462171025951,
                        0.0034728231723030697,
                        0.0037574273028201117,
                        0.0877993943086337,
                        0.16252327736384628,
                        -0.17246408305979233,
                        0.12477528022474096,
                        0.09052076330129259,
                        0.0101220443369551,
                        0.017089673925059674,
                        -0.0022574174649141556,
                        0.00709968401965692,
                        0.10687655538585904,
                        0.08569004650861191,
                        -0.14420676075894523,
                        -0.00916537003229767,
                        -0.011717260604488133,
                        0.024494467096132753,
                        0.1080665738551955,
                        0.010789313889846068,
                        0.005201460380589514,
                        -0.05413384681178922,
                        0.14694885075359498,
                        -0.07346162922364062,
                        0.004652302039045928,
                        -0.004311758511250953,
                        -0.06120943187156552,
                        -0.003647374097743085,
                        -0.18843347787529646
                    ],
                    "bias": -0.06398957055300268
                },
                {
                    "weights": [
                        -0.008144003735061401,
                        0.07377048976385257,
                        -0.1626855815276324,
                        -0.011184890281753608,
                        0.019635817015857565,
                        -0.4125824222584031,
                        0.0794534284188822,
                        -0.012994867245772264,
                        0.005105756525076443,
                        -0.18286996058351515,
                        0.004367986541081137,
                        -0.00977140352566915,
                        0.0006620578214842239,
                        0.3044383912121416,
                        0.11488155546701,
                        0.21910387376380014,
                        0.008369895089444895,
                        0.000587449581523551,
                        -0.09333881222978047,
                        -0.21751175777578757,
                        0.13226188220293209,
                        0.017939847160049108,
                        0.007133751771557055,
                        0.35608957334799257,
                        0.002056083674392555,
                        0.019085728515363495,
                        -0.0835216322809946,
                        0.11929982045497989,
                        -0.16867082084592588,
                        -0.011207175786145676,
                        0.050654020624140615,
                        0.08614590831430775,
                        -0.05417952445375529,
                        -0.13812730154924469,
                        0.18250591540271482,
                        0.09977809644810973,
                        0.0132809109337897,
                        -0.10842307863734384,
                        -0.06810701528734675,
                        -0.2855960485446228,
                        0.1004678600360757,
                        -0.3683282478434144,
                        -0.10658941615704755,
                        0.012649376790541941,
                        0.002125481184761966,
                        0.04991323406471269,
                        0.01725889705996633,
                        -0.09586505072619052,
                        -0.3508859767803331,
                        -0.037736149804200037,
                        0.05314887001872651,
                        0.008841843238056833,
                        -0.1170263902953946,
                        0.11792286701888711,
                        0.0045386202568667815,
                        0.0008961012492036782,
                        -0.08377164647153883,
                        -0.16192249200458067,
                        -0.061170996684802095,
                        -0.0008390877689838035,
                        -0.05594784176656072,
                        -0.000513021707677099,
                        -0.00914330694437176,
                        -0.5705100300360366
                    ],
                    "bias": 0.05028368894437772
                },
                {
                    "weights": [
                        -0.008481905331174195,
                        -0.16209177717932619,
                        -0.07226668545344937,
                        0.014835859699664706,
                        -0.0022058364346494506,
                        -0.04658394980398895,
                        -0.08129910895128026,
                        -0.0673791956349139,
                        -0.007834261053590428,
                        0.017382588906807443,
                        -0.05531807318466333,
                        -0.02074799296353277,
                        -0.00014053716055942544,
                        -0.09791964347105733,
                        0.0480734630709596,
                        -0.04574740269023233,
                        0.010675578856417102,
                        -0.003688038787617556,
                        -0.050194377842176376,
                        0.1008200610598904,
                        -0.04168007199618011,
                        0.051319341839264045,
                        -0.0004778492994938767,
                        -0.19537422360584572,
                        0.017379741315241358,
                        -0.06498710114963625,
                        -0.004384301334626851,
                        -0.029828229264219353,
                        -0.03778343934028887,
                        0.016466471385284495,
                        0.006082546297128416,
                        -0.07345192184189363,
                        -0.04495003217825904,
                        -0.030656392733759714,
                        0.0744949435454181,
                        0.057288640366138746,
                        -0.005488257804110337,
                        -0.03355660151516388,
                        0.061088274143850534,
                        0.02078907908042748,
                        -0.1757946046437613,
                        -0.0032795385933058014,
                        0.00955973449112696,
                        0.0010372975914115991,
                        -0.005589308334415496,
                        0.03541709885572987,
                        0.004272757034275767,
                        0.06947718132677438,
                        0.07339868756529233,
                        -0.08866872836727606,
                        -0.1676155347256686,
                        -0.008864577370969145,
                        -0.063482159637731,
                        0.016316497453500098,
                        0.00595278502012035,
                        -0.008673979175101201,
                        -0.06351806375274033,
                        0.06643084075681384,
                        -0.01445116343896792,
                        -0.009105482353473889,
                        -0.15831757017868803,
                        -0.04564494844100482,
                        0.012920313286096007,
                        -0.023293916303814728
                    ],
                    "bias": -0.040668830796258576
                },
                {
                    "weights": [
                        0.009719042437278455,
                        -0.01625722521606507,
                        -0.02635483709995312,
                        -0.026899159237348005,
                        -0.0058765727216489325,
                        -0.02154905911170802,
                        0.00531782757032019,
                        -0.036521871084554215,
                        -0.004109369060266655,
                        -0.005573349410992655,
                        -0.006592116965640278,
                        0.00432388057467892,
                        0.007307282955779763,
                        -0.016028202540516782,
                        -0.006180932259016971,
                        -0.020783600883744462,
                        -0.0013525084052721274,
                        0.0020757066893494418,
                        -0.02401048678907763,
                        -0.018443927246786573,
                        0.003710973685540196,
                        -0.011188615370087456,
                        0.00591092037814338,
                        -0.0226504232443269,
                        0.00439329523604182,
                        -0.018593403970908584,
                        -0.0043817952181286705,
                        0.007348378800582181,
                        -0.03586492485455784,
                        0.0062615423346311025,
                        -0.006299577061142166,
                        -0.0037492183291880296,
                        -0.022198556955368792,
                        -0.013174178068271354,
                        -0.01847276531010879,
                        -0.018281511845215384,
                        0.004208742191362736,
                        -0.036900653366680594,
                        -0.011665543963957137,
                        -0.02515986392863079,
                        -0.015413815702350517,
                        -0.014787350802008353,
                        0.005523858437064906,
                        -0.003977993645751791,
                        -0.009376512621842375,
                        -0.003575046139386567,
                        0.0010497604019629654,
                        -0.028520680649230946,
                        -0.0033504750655649292,
                        -0.015086145514523492,
                        0.0038954867333230573,
                        -0.007855824633492025,
                        -0.04462048779100075,
                        -0.003023969479965108,
                        -0.004553283170390529,
                        -0.007381705812947479,
                        -0.011552678028972953,
                        -0.026251869215238737,
                        -0.008166845016138922,
                        -0.0075500544483745186,
                        0.011124048607711153,
                        -0.008746912202022488,
                        -0.01887312828509451,
                        -0.0034213672339328035
                    ],
                    "bias": -0.022328298937486404
                },
                {
                    "weights": [
                        0.011941206514800603,
                        -0.009079904626899738,
                        -0.006418901114717577,
                        -0.008127938403950317,
                        -0.008916984319652935,
                        -0.01785884603584984,
                        -0.004385135052221696,
                        -0.01688950576235621,
                        -0.008189738196990884,
                        -0.0016212883766842357,
                        -0.006732466082814782,
                        0.0022279643792361106,
                        0.0034705981622588948,
                        -0.015127133940256455,
                        -0.005310268539461815,
                        -0.0040018567869181156,
                        0.005689931507121067,
                        -0.005253330793525872,
                        -0.00692860304390584,
                        -0.01186456247312703,
                        -0.012220085453574666,
                        -0.029101565085506022,
                        -0.015511552604214567,
                        -0.012735951346078099,
                        -0.010721905221190771,
                        -0.02332062471709815,
                        -0.01301263680756794,
                        -0.006082321563663889,
                        -0.0014974478876571692,
                        -0.008239419056791727,
                        -0.02231908046450043,
                        -0.017048752087634934,
                        -0.02924594058967556,
                        -0.011738878126995794,
                        0.000840707512593368,
                        0.00251852797560973,
                        0.008670286960936616,
                        0.0014305756596398947,
                        -0.021488404152093944,
                        -0.013792353216643337,
                        -0.005661890329523099,
                        -0.011878306513232519,
                        0.0096317184048021,
                        -0.010459303311904334,
                        -0.010522151777691604,
                        -0.011543907848878692,
                        -0.014403063216560177,
                        -0.01772648524448249,
                        -0.00439353903988372,
                        -0.019006082122964195,
                        -0.018732625833709105,
                        0.005949616997320705,
                        -0.011716552241733912,
                        -0.011482033287348564,
                        -0.0031532635857875703,
                        -0.0013492309568193701,
                        -0.004948089920107519,
                        -0.01536536224641699,
                        -0.011888002564327607,
                        0.008514336218249718,
                        -0.008496953603906638,
                        -0.02873175927407243,
                        -0.012337627540987887,
                        -0.014496865622025248
                    ],
                    "bias": -0.016511931174844428
                },
                {
                    "weights": [
                        -0.0019261679971995732,
                        -0.024939648161439825,
                        -0.033271524382125266,
                        0.0015671750138284554,
                        0.0034290351142831814,
                        -0.028117686463332202,
                        -0.01582455446101752,
                        -0.005256172518796989,
                        -0.002828607725258447,
                        -0.037235151578835834,
                        -0.032524460335500015,
                        -0.01870881509751814,
                        0.032062684879069644,
                        -0.024026378600483456,
                        -0.010637173611730074,
                        -0.0377404440318873,
                        -0.002521378541252037,
                        -0.006991789294403867,
                        -0.036931678611083624,
                        -0.01448978267491249,
                        -0.023420426809708628,
                        -0.024202019505201074,
                        -0.013011468646701725,
                        -0.027784903462680213,
                        0.0024345968979569365,
                        -0.0055507453801175695,
